{"learner":{"attributes":{"scikit_learn":"{\"_estimator_type\": \"regressor\"}"},"feature_names":[],"feature_types":[],"gradient_booster":{"model":{"gbtree_model_param":{"num_parallel_tree":"1","num_trees":"100"},"iteration_indptr":[0,1,2,3,4,5,6,7,8,9,10,11,12,13,14,15,16,17,18,19,20,21,22,23,24,25,26,27,28,29,30,31,32,33,34,35,36,37,38,39,40,41,42,43,44,45,46,47,48,49,50,51,52,53,54,55,56,57,58,59,60,61,62,63,64,65,66,67,68,69,70,71,72,73,74,75,76,77,78,79,80,81,82,83,84,85,86,87,88,89,90,91,92,93,94,95,96,97,98,99,100],"tree_info":[0,0,0,0,0,0,0,0,0,0,0,0,0,0,0,0,0,0,0,0,0,0,0,0,0,0,0,0,0,0,0,0,0,0,0,0,0,0,0,0,0,0,0,0,0,0,0,0,0,0,0,0,0,0,0,0,0,0,0,0,0,0,0,0,0,0,0,0,0,0,0,0,0,0,0,0,0,0,0,0,0,0,0,0,0,0,0,0,0,0,0,0,0,0,0,0,0,0,0,0],"trees":[{"base_weights":[6.334056E1,-5.747634E0,-1.5898485E1,-3.770029E1,-3.9941497E0,6.3648415E1,-3.8203568E0,-1.5666674E1,-3.772572E1,-1.4260149E1,5.582909E1,-5.277189E1,-2.1554523E1,-3.7079815E1,2.4648927E2,1.7316525E1,-4.6548496E1,-1.7375912E1,-3.6583965E1,2.4851217E1,8.009393E1,1.1346008E1,-1.5059979E1,-3.8130985E1,-2.8142738E1,6.4266725E0,-9.94609E1,-1.9450863E1,-3.5972893E1,5.7417505E2,8.35986E1,-2.652755E1,-2.2737E1,-3.7702007E1,6.2294056E1,4.475597E1,-1.5089153E1,-1.5151063E1,-3.7172752E1,-2.950303E1,-3.5288303E1,-1.0685996E2,-2.164122E1,-3.5455185E1,1.2905507E2,9.953284E1,2.7345827E1,-1.4499662E1,-3.843196E1,-3.1651024E1,2.2515568E1,-3.604571E1,-1.6719645E1,-3.723949E1,-1.7751139E1,1.5599033E1,-8.954741E1,-2.3245857E1,-3.517515E1,3.5964557E2,-9.670275E0,-1.1685822E2,-1.2790834E1,-3.7372787E1,9.506598E2,1.0952477E2,-4.2964163E0,-2.385622E1,-3.8128826E1,1.476898E1,-2.2269247E1,-1.1730671E2,-1.8166683E1,-3.595903E1,2.563591E2,6.8250374E1,1.46535015E1,-1.2689011E1,-3.844925E1,-3.820319E1,1.7120792E1,-5.007379E1,-1.8047035E1,-3.5671272E1,-1.926951E1,-3.70588E1,-1.0677935E2,-2.1954523E1,-3.5474552E1,9.774042E1,-1.321532E1,-1.0786473E2,-1.7735209E1,-3.521367E1,5.194568E2,7.341972E0,-2.059923E1,-1.9680552E1,-3.8537148E1,-3.7719105E1,1.1475065E2,3.5260044E1,-1.3644461E1,-3.8414597E1,-3.0649374E1,5.9570724E1,1.6150612E0,-1.5528271E1,-3.8304146E1,-3.770416E1,-1.4700191E1,-7.38697E1,-1.791618E1,-3.617021E1,2.288359E0,2.4147476E1,-7.706375E1,-2.0276208E0,-3.8534557E1,1.1110804E3,1.5061776E1,-9.0331825E1,-2.45793E1,-3.4963978E1,3.124205E2,-3.7967756E0,-1.0824686E2,-1.5806973E1,-3.7015327E1,7.406867E2,-1.3249588E1,-1.221056E2,-1.0952728E1,-3.7590485E1,1.0786151E3,8.581458E1,-2.5854282E1,-2.0871796E1,-3.7617172E1,2.1791434E2,1.1281262E2,-1.3069553E0,-2.4270058E1,-3.8199753E1,-1.3401468E1,-8.767678E0,-1.0610482E2,-2.1800518E1,-3.5208656E1,1.522587E2,-4.581097E1,-1.3683798E2,-1.1830459E1,-3.726717E1,4.3787097E2,9.199675E1,2.3521925E1,-1.6265295E1,-3.8402355E1,-3.8025043E1,2.3733952E1,-1.9717895E0,-5.984686E0,-3.853714E1,-3.853714E1,1.7282461E1,-4.8624687E1,-1.764905E1,-3.5752094E1,-2.505377E1,1.326963E1,-8.459254E1,-2.7527325E1,-3.3745888E1,1.1851654E2,-2.8907145E1,-9.740724E1,-2.0694988E1,-3.5043304E1,8.152339E1,-9.494962E1,-1.7333742E2,-3.0899368E1,-3.8537106E1,2.1290923E2,-7.0747604E0,-1.0538311E2,-2.2372831E1,-3.5006805E1,3.5227274E2,-3.541582E1,-1.1683584E2,-9.681642E-1,-3.5961258E1,1.1238906E3,7.62283E1,6.5983453E0,-2.3039833E1,-3.8537064E1,-2.7173681E1,2.3288991E0,-2.2578478E1,-1.9436083E1,-3.8537148E1,-3.8486523E1,1.3835023E2,6.624073E1,-8.866003E0,-3.8528313E1,-3.849861E1,1.01399734E2,1.773345E1,-1.634776E1,-3.8350266E1,-2.6208853E1,9.326221E1,3.710984E1,-1.0729554E1,-3.852186E1,-3.7928276E1,4.768102E1,-1.0911018E1,-1.7221731E1,-3.8227306E1,-3.762506E1,4.5315795E0,-5.8405647E1,-1.7985369E1,-3.5561306E1,-1.729248E1,-4.159113E1,-9.5492386E1,-1.7819431E1,-3.7021614E1,2.966739E1,4.1761417E1,-4.434212E1,-3.115982E1,-3.851793E1,-3.83616E1,2.1395226E1,-8.217338E1,2.523392E0,-3.8536125E1,1.2906136E3,2.405489E1,-7.578051E1,-2.8506931E1,-3.379597E1,1.0848796E2,4.9616513E0,-1.06674E2,-2.016814E1,-3.6275642E1,5.4145416E2,-2.1908271E0,-1.1049719E2,-1.2908795E1,-3.8222008E1,8.915331E2,-8.2858515E0,-1.0195381E2,-2.390798E1,-3.364137E1,3.1900247E2,-4.934171E1,-1.4662143E2,-1.3291308E1,-3.7537754E1,8.7438275E2,-6.46469E-2,-1.1314904E2,-1.0098361E1,-3.7609547E1,1.1532179E3,8.8794914E1,-2.204035E1,-2.6190638E1,-3.7337585E1,7.6880165E1,8.064858E1,-3.246337E1,-1.16540985E1,-3.8101173E1,4.6231973E2,1.3756163E2,1.9037098E1,-2.4576487E1,-3.8493473E1,-2.3278442E1,4.2305378E1,-5.9264706E1,-2.3397015E1,-3.7362873E1,1.4736874E1,-6.1108154E-1,-9.217584E1,-2.4385082E1,-3.41397E1,7.724224E1,-1.8366062E1,-1.22495155E2,-1.875889E1,-3.646627E1,2.405347E2,-3.3929024E1,-1.26442154E2,-1.4009763E1,-3.7446842E1,3.3113898E2,-6.2513103E1,-1.5144952E2,-8.766738E0,-3.7013992E1,5.879009E2,4.060014E1,2.2357819E1,-5.238563E0,-1.1561141E1,-1.14663925E1,1.9084805E1,-2.9639509E0,-4.6445007E0,-1.1494224E1,-1.1368952E1,5.8810635E0,-1.6222439E0,-2.215482E0,-1.1561142E1,-1.1561142E1,4.4938686E1,3.0866123E1,1.1025534E1,-1.1561003E1,-1.1561003E1,1.4098077E0,-1.7619434E1,-5.6733155E0,-1.0514011E1,-6.263147E0,1.3377959E1,-8.006593E0,-4.472987E0,-1.1184923E1,-1.0235642E1,7.7477074E0,-2.2953377E1,-1.1611918E-1,-1.1087013E1,2.235009E2,3.755436E0,-2.5522749E1,-8.745449E0,-1.0066075E1,2.4306635E1,-5.562094E0,-2.679074E1,-5.851159E0,-1.0324766E1,1.976928E1,-2.323977E1,-4.0611107E1,-7.8822803E0,-1.1394638E1,4.6414608E1,-1.7408978E1,-4.235899E1,-9.185016E0,-1.156111E1,1.7857653E1,-3.5490246E1,-5.809975E1,-9.323423E0,-1.1561124E1,9.297679E1,1.775955E0,-2.7278025E1,-3.7508316E0,-1.1226495E1,1.7677177E2,-4.4079933E0,-3.4157486E1,-8.447831E0,-1.0077263E1,6.400226E1,-8.664313E0,-2.9118984E1,5.282107E0,-1.0402562E1,4.9968304E2,-1.329233E1,-4.3122116E1,-7.873716E0,-1.131318E1,1.1600455E2,-1.6739098E1,-3.3116745E1,-8.863363E0,-1.1560997E1,6.498947E0,3.1924606E1,1.0004173E1,-6.465744E0,-1.1561112E1,-1.1502009E1,6.6823835E0,-3.318722E0,-5.355067E0,-1.1561138E1,-1.1501505E1,-1.1976738E0,-7.8684354E0,-5.9816E0,-1.1561144E1,-1.1560042E1,3.8367275E1,1.6204845E1,-2.9845579E0,-1.1557469E1,-1.1545643E1,4.9626465E1,2.936431E1,-1.8192475E0,-1.1561142E1,-1.1559779E1,1.7162437E1,-7.4825034E0,-5.1398683E0,-1.1334309E1,3.7422535E0,3.351768E1,8.311492E0,-4.8492913E0,-1.1544982E1,-1.0574273E1,1.1287745E1,9.373409E-1,-5.750178E0,-1.1561121E1,-1.0848567E1,3.315226E1,1.4293238E1,-2.4342437E0,-1.1555135E1,-1.1542731E1,1.7975388E1,-2.9117265E0,-5.2937913E0,-1.143771E1,-1.1198907E1,3.1097915E0,-4.3758936E0,-4.778416E0,-1.1561138E1,-1.155772E1,7.655871E0,-1.286016E1,-5.490352E0,-1.108112E1,-9.562206E0,-4.6154933E0,-2.1945251E1,-5.305703E0,-1.0276729E1,-1.0365963E0,-1.2535398E1,-2.8481628E1,-5.550101E0,-1.1108994E1,5.6654367E0,-1.1213656E1,-3.226227E1,-9.0001327E-1,-1.1051783E1,7.9302185E1,4.1989784E0,-1.9953514E1,-1.014424E1,-1.1557147E1,-1.1557147E1,2.064569E1,-6.813319E0,-8.56838E0,-1.1549757E1,-1.1457146E1,2.1464097E0,-2.8583063E1,2.9697053E0,-1.1559141E1,5.613998E2,7.195232E0,-2.39364E1,3.5462978E-1,-1.1560782E1,3.5549185E2,1.1436833E1,-2.386368E1,-7.8919363E0,-1.1173759E1,8.444667E1,5.775869E0,-2.2348518E1,-8.77738E0,-9.7854805E0,1.4830728E1,6.189518E-1,-3.2630146E1,-5.551961E0,-1.0734858E1,2.0241809E2,4.81386E0,-2.960029E1,-7.9566913E0,-1.1447899E1,9.531801E0,2.4424796E-1,-3.303434E1,-4.064246E0,-1.1452269E1,2.4795233E2,-6.6030335E0,-3.3904285E1,-2.6086376E0,-1.1560392E1,3.9610516E2,-1.9692467E0,-3.375536E1,-7.418532E0,-1.07764E1,1.440128E2,-3.1446624E0,-2.6540697E1,-6.857941E0,-9.219122E0,3.4051437E1,-1.46160555E1,-4.3824635E1,-3.9951878E0,-1.1259396E1,2.6401843E2,-4.3663483E1,-6.895989E1,-2.7704475E0,-1.1535167E1,-2.2695487E0,1.5444154E0,-3.325781E1,-3.0798852E0,-1.120384E1,3.260164E2,-5.526166E0,-3.6362755E1,-2.8520398E0,-1.1560872E1,4.1620526E2,2.3867485E1,-7.634234E0,-7.200084E0,-1.1559491E1,1.4676942E2,2.6799614E1,-6.552529E0,-7.8953915E0,-1.1180323E1,1.5860184E1,1.7393229E1,-1.446411E1,-2.3284951E-1,-1.1313286E1,2.7305716E2,2.5433228E1,-8.878055E0,-4.0906835E0,-1.1451495E1,1.1421627E2,-7.434115E1,-1.2796542E2,-1.1200952E1,-1.1553107E1,2.2172778E2,4.1424274E1,5.8912964E0,-7.3677797E0,-1.1548024E1,-7.291788E0,1.8885454E1,-1.2334923E1,-6.9904184E0,-1.1353234E1,-4.722351E0,6.7774453E0,-2.2977915E1,-7.0464582E0,-1.1070953E1,1.3151502E1,1.6134378E0,-2.6700165E1,4.8357716E0,-1.1560127E1,1.4573268E2,-3.437879E-1,-2.7737608E1,-8.400673E0,-1.0124104E1,1.2226927E1,-6.8860765E0,-3.6651558E1,-4.951308E0,-1.0799409E1,8.996268E1,-8.025357E-2,-3.712963E1,-8.295669E0,-1.1493586E1,1.927473E0,-9.127838E0,-3.591454E1,-4.6435494E0,-1.1200745E1,7.691976E1,-1.1262003E1,-4.0012596E1,-3.7485113E0,-1.126813E1,1.22458305E2,-1.72504E1,-4.279994E1,-3.3085392E0,-1.1038017E1,1.3859282E2,-1.96722E1,-4.704378E1,-2.2153301E0,-1.1144345E1,1.9945029E2],"categories":[],"categories_nodes":[],"categories_segments":[],"categories_sizes":[],"default_left":[0,0,0,0,0,0,0,0,0,0,0,0,0,0,0,0,0,0,0,0,0,0,0,0,0,0,0,0,0,0,0,0,0,0,0,0,0,0,0,0,0,0,0,0,0,0,0,0,0,0,0,0,0,0,0,0,0,0,0,0,0,0,0,0,0,0,0,0,0,0,0,0,0,0,0,0,0,0,0,0,0,0,0,0,0,0,0,0,0,0,0,0,0,0,0,0,0,0,0,0,0,0,0,0,0,0,0,0,0,0,0,0,0,0,0,0,0,0,0,0,0,0,0,0,0,0,0],"id":0,"left_children":[1,3,5,7,9,11,13,15,17,19,21,23,25,27,29,31,33,35,37,39,41,43,45,47,49,51,53,55,57,59,61,63,65,67,69,71,73,75,77,79,81,83,85,87,89,91,93,95,97,99,101,103,105,107,109,111,113,115,117,119,121,123,125,-1,-1,-1,-1,-1,-1,-1,-1,-1,-1,-1,-1,-1,-1,-1,-1,-1,-1,-1,-1,-1,-1,-1,-1,-1,-1,-1,-1,-1,-1,-1,-1,-1,-1,-1,-1,-1,-1,-1,-1,-1,-1,-1,-1,-1,-1,-1,-1,-1,-1,-1,-1,-1,-1,-1,-1,-1,-1,-1,-1,-1,-1,-1,-1],"parents":[-1,0,0,1,1,2,2,3,3,4,4,5,5,6,6,7,7,8,8,9,9,10,10,11,11,12,12,13,13,14,14,15,15,16,16,17,17,18,18,19,19,20,20,21,21,22,22,23,23,24,24,25,25,26,26,27,27,28,28,29,29,30,30,31,31,32,32,33,33,34,34,35,35,36,36,37,37,38,38,39,39,40,40,41,41,42,42,43,43,44,44,45,45,46,46,47,47,48,48,49,49,50,50,51,51,52,52,53,53,54,54,55,55,56,56,57,57,58,58,59,59,60,60,61,61,62,62],"right_children":[2,4,6,8,10,12,14,16,18,20,22,24,26,28,30,32,34,36,38,40,42,44,46,48,50,52,54,56,58,60,62,64,66,68,70,72,74,76,78,80,82,84,86,88,90,92,94,96,98,100,102,104,106,108,110,112,114,116,118,120,122,124,126,-1,-1,-1,-1,-1,-1,-1,-1,-1,-1,-1,-1,-1,-1,-1,-1,-1,-1,-1,-1,-1,-1,-1,-1,-1,-1,-1,-1,-1,-1,-1,-1,-1,-1,-1,-1,-1,-1,-1,-1,-1,-1,-1,-1,-1,-1,-1,-1,-1,-1,-1,-1,-1,-1,-1,-1,-1,-1,-1,-1,-1,-1,-1,-1],"split_conditions":[2.2555E3,9.7E1,1.32E2,4.225504E1,2.98E2,4.033729E1,3.2E2,3.47803E1,1.4813E3,-2.38553E1,3.88923E1,-1.190394E2,2.4777E3,1.55E2,4.033729E1,1.37717E2,1.9678E3,3.2573E1,4.64394E1,3.59E1,3.767802E1,5.79E1,4.61047E1,3.79376E1,2.7432E3,-1.1013E2,3.6E1,4.033729E1,2.77E2,2.7432E3,3.47E2,2.6826E1,-1.645E1,6.7E1,-1.1984E2,6.043E1,5.2E1,-1.144681E2,-1.137128E2,-4.29742E1,6E1,-7.77044E1,1.35E2,-2.76956E1,1.37717E2,3.31E2,1.3417E3,3.2309E3,2E0,-1.1076738E2,-1.0512287E2,4.567E1,-1.069772E2,2.64275E1,4.43525E1,-1.1951551E2,2E0,-4.29742E1,2.98E2,-1.1951551E2,-1.0512287E2,2.5481E3,2.4777E3,0E0,0E0,0E0,0E0,0E0,0E0,0E0,0E0,0E0,0E0,0E0,0E0,0E0,0E0,0E0,0E0,0E0,0E0,0E0,0E0,0E0,0E0,0E0,0E0,0E0,0E0,0E0,0E0,0E0,0E0,0E0,0E0,0E0,0E0,0E0,0E0,0E0,0E0,0E0,0E0,0E0,0E0,0E0,0E0,0E0,0E0,0E0,0E0,0E0,0E0,0E0,0E0,0E0,0E0,0E0,0E0,0E0,0E0,0E0,0E0,0E0,0E0,0E0,0E0],"split_indices":[5,1,1,3,1,3,1,3,5,3,3,4,5,1,3,4,5,4,3,4,3,5,3,3,5,4,1,3,1,5,1,3,3,1,4,3,3,4,4,3,5,4,1,3,4,1,5,5,0,4,4,3,4,4,3,4,0,3,1,4,4,5,5,0,0,0,0,0,0,0,0,0,0,0,0,0,0,0,0,0,0,0,0,0,0,0,0,0,0,0,0,0,0,0,0,0,0,0,0,0,0,0,0,0,0,0,0,0,0,0,0,0,0,0,0,0,0,0,0,0,0,0,0,0,0,0,0],"split_type":[0,0,0,0,0,0,0,0,0,0,0,0,0,0,0,0,0,0,0,0,0,0,0,0,0,0,0,0,0,0,0,0,0,0,0,0,0,0,0,0,0,0,0,0,0,0,0,0,0,0,0,0,0,0,0,0,0,0,0,0,0,0,0,0,0,0,0,0,0,0,0,0,0,0,0,0,0,0,0,0,0,0,0,0,0,0,0,0,0,0,0,0,0,0,0,0,0,0,0,0,0,0,0,0,0,0,0,0,0,0,0,0,0,0,0,0,0,0,0,0,0,0,0,0,0,0,0],"tree_param":{"num_deleted":"0","num_feature":"6","num_nodes":"127","size_leaf_vector":"5"}},{"base_weights":[4.4338394E1,-4.0233607E0,-1.11289425E1,-2.6390211E1,-2.7958338E0,4.4042686E1,-1.5715195E0,-1.0557716E1,-2.6448162E1,-1.3338675E1,4.782112E1,-3.2900093E1,-1.78566E1,-2.5707695E1,1.213732E2,8.750687E0,-3.4052917E1,-1.1912392E1,-2.5542105E1,1.1687179E1,5.4849552E1,8.374706E0,-1.0142897E1,-2.6725609E1,-2.1001915E1,8.065893E0,-6.651308E1,-1.6296799E1,-2.4687765E1,3.0084366E2,6.813095E1,-1.5728146E1,-1.8653454E1,-2.6228743E1,2.9686703E1,2.7679358E1,-1.283833E1,-1.0392563E1,-2.5744064E1,-2.1845396E1,-3.4829887E1,-8.289648E1,-1.5411578E1,-2.5077112E1,8.889116E1,6.949132E1,2.0583092E1,-9.57931E0,-2.6917183E1,-2.2677874E1,1.9606304E1,-2.1011318E1,-1.1499471E1,-2.626448E1,-1.696782E1,1.8585808E1,-5.654095E1,-1.9581652E1,-2.4396538E1,1.4464502E2,-5.794328E0,-7.96515E1,-1.196892E1,-2.5071438E1,5.0663834E2,8.9479904E1,1.4747226E0,-1.9352152E1,-2.6696823E1,4.906301E0,-1.0050134E1,-7.8725945E1,-1.6094763E1,-2.451458E1,1.2043382E2,4.3816013E1,3.6069694E0,-8.211361E0,-2.6889032E1,-2.7255842E1,-3.5870395E0,-4.4702747E1,-1.4618857E1,-2.352557E1,-1.1362106E1,-3.6983494E1,-8.352076E1,-1.556844E1,-2.5048363E1,7.371176E1,-1.0243959E1,-7.576945E1,-1.3620783E1,-2.5405264E1,2.6218097E2,6.7275724E0,-1.3819999E1,-1.4760021E1,-2.6976017E1,-2.6505545E1,8.177185E1,2.7314499E1,-8.565638E0,-2.690567E1,-2.192894E1,4.788024E1,8.479396E0,-1.0528191E1,-2.6952848E1,-2.6830153E1,-3.4796498E0,-4.509078E1,-1.2292529E1,-2.5702417E1,-8.915125E0,2.692153E1,-4.7948578E1,-2.1921219E1,-2.396402E1,4.130838E1,2.2549239E-1,-7.546637E1,-1.4428465E1,-2.5349138E1,3.72254E2,-4.897685E0,-7.990741E1,-1.2963489E1,-2.507591E1,4.6027643E2,-2.4268866E1,-7.43768E1,8.523728E0,-2.497871E1,1.46188E3,6.348959E1,-1.9131283E1,-1.6232016E1,-2.633613E1,1.2253351E2,9.3936295E1,5.007927E0,-1.9887138E1,-2.675866E1,-1.5262628E1,3.9823353E0,-6.662373E1,-1.9431372E1,-2.4352407E1,4.897241E1,-2.850092E1,-9.4638535E1,-1.170753E1,-2.4727749E1,2.1439566E2,8.311595E1,4.1405293E1,-3.1213129E0,-2.7034842E1,-2.704792E1,3.5975746E1,-3.9337213E0,-9.226814E0,-2.685994E1,-2.7297318E1,4.2826706E1,-1.5125323E1,-7.9778953E0,-2.6893892E1,-1.9944754E1,-9.471173E0,-4.8452435E1,-1.5460767E1,-2.3098541E1,-1.0274033E1,-2.9590137E1,-7.484829E1,-1.4690926E1,-2.4808462E1,6.099611E1,-9.6391235E1,-1.5320647E2,-2.26195E1,-2.6975986E1,1.7588571E2,-3.5434756E0,-5.214045E1,3.1401443E1,-2.5131977E1,1.0910037E3,-1.1481508E1,-8.013351E1,-2.1936338E1,-2.545567E1,1.090969E2,3.8512062E1,2.643759E-1,-1.6898293E1,-2.6976032E1,-2.5008713E1,-3.5476198E0,-1.8373148E1,-1.4068765E1,-2.6976007E1,-2.6989431E1,5.511414E1,-4.0797412E-2,-9.594616E0,-2.6739264E1,-1.0514393E1,9.291676E1,3.875106E1,-8.135447E0,-2.697524E1,-2.6701075E1,6.263407E1,1.442979E1,-1.1288718E1,-2.694305E1,-2.6723238E1,1.22572E1,-5.887793E0,-8.691897E0,-2.697649E1,-2.708829E1,1.7780766E1,-2.7638803E1,-1.1989472E1,-2.6490995E1,-2.4959631E1,-2.284264E1,-6.0985207E1,-1.2568536E1,-2.4984215E1,5.6974626E0,2.9137854E1,-5.1375565E1,-4.8851075E0,-2.5697044E1,5.166896E2,2.6776728E1,-4.772467E1,-2.3033974E1,-2.385079E1,1.0256866E1,1.8474987E1,-5.0893513E1,-1.7690865E1,-2.6754492E1,3.8844185E1,-6.0456944E0,-8.3910225E1,-1.3307336E1,-2.486612E1,4.8682437E2,-2.4355158E-1,-7.493046E1,-1.5865569E1,-2.4390385E1,2.9853305E2,-1.1889898E1,-8.73844E1,-8.603456E0,-2.6105751E1,7.032734E2,-1.9916185E1,-7.093964E1,1.1032256E1,-2.4807632E1,1.5917212E3,-7.927149E1,-1.1779292E2,-2.3182428E1,-2.7132881E1,-1.7955385E2,6.424411E1,-1.8704508E1,-1.677089E1,-2.6309244E1,8.633653E1,4.5021976E1,-2.957413E1,-3.0440762E0,-2.6992666E1,1.00832513E3,1.14046684E2,2.091362E1,-2.0359518E1,-2.696485E1,-1.5918338E1,4.9948536E1,-2.978277E1,-1.8853872E1,-2.630763E1,-1.3828367E1,1.0796847E1,-5.945627E1,-2.19564E1,-2.384146E1,6.3366776E0,-1.0950357E1,-8.2329414E1,-1.3898148E1,-2.5471899E1,1.4239996E2,-1.9435251E1,-8.74407E1,-1.3590846E1,-2.5198137E1,1.3899994E2,-4.0742573E1,-1.0435756E2,-9.164323E0,-2.4092413E1,3.1620496E2,3.0139841E1,1.9056364E1,3.381742E-1,-8.092796E0,-7.9681377E0,1.7829418E1,3.3645532E0,-2.6762822E0,-8.134541E0,-8.313991E0,3.1611276E0,-2.278563E0,-4.3114E0,-8.0928E0,-8.077784E0,1.4226172E1,-6.859259E-1,-2.0736895E0,-8.0423155E0,-8.239318E0,1.387457E1,-2.0028076E-1,-2.6449007E-1,-8.247664E0,-1.0032634E1,1.0763719E1,-1.334358E1,-6.7155957E0,-7.7036853E0,2.237681E0,-5.738526E0,-1.6830488E1,-4.92129E0,-6.669002E0,-1.4846652E0,3.0912395E0,-9.836707E0,-4.0586004E0,-7.463111E0,-6.353525E0,-5.904036E0,-1.5131761E1,-2.5933924E0,-7.876505E0,4.1339946E0,-1.0995901E1,-2.7673391E1,-5.7000337E0,-7.1332483E0,2.8394115E1,-2.2202839E1,-4.0339405E1,-6.8947415E0,-8.092784E0,2.7739744E1,-3.6479088E1,-5.229379E1,-6.663191E0,-8.092778E0,8.0949455E1,6.4477615E0,-1.3617793E1,2.2466087E0,-7.844249E0,1.6220877E2,-5.0342126E0,-1.6712109E1,1.3213241E1,-7.37834E0,4.14583E2,-7.419658E-1,-1.9889181E1,-4.5775914E0,-8.052167E0,8.909538E1,-4.86662E0,-2.6224346E1,-7.635115E0,-7.41803E0,3.0661998E0,6.0194335E0,-3.401325E0,-4.420996E0,-8.092802E0,-7.30773E0,2.8489819E1,1.0731083E1,-7.054049E0,-8.092814E0,-8.098996E0,-1.40547E0,-5.682043E0,-4.280235E0,-8.092802E0,-8.096712E0,2.2801598E1,6.3865485E0,-5.1185325E-2,-8.09269E0,-8.104933E0,1.8799278E1,3.128225E0,-1.9070278E0,-8.01481E0,-8.735024E0,1.0038361E1,-9.018745E0,-5.6641293E0,-8.041765E0,1.2850536E1,2.9735445E1,1.2933836E1,-2.246551E0,-8.092723E0,-8.041057E0,1.2949509E1,1.1275076E0,-3.9976976E0,-8.091359E0,-7.7637506E0,3.1596321E1,1.992499E1,-3.7596395E0,-8.110363E0,-7.878296E0,1.3034473E1,-2.6807613E0,-3.2189577E0,-8.070577E0,-8.079298E0,2.3773165E0,-2.6593442E0,-3.0033364E0,-8.092906E0,-8.128472E0,3.2876575E1,1.8294008E1,6.282898E0,-8.093786E0,-8.081812E0,7.5691752E0,-6.849034E0,-3.4155338E0,-7.933952E0,-8.203007E0,-1.3127048E1,-2.020796E1,-5.0944886E0,-8.05753E0,-1.5808142E0,-5.2535324E0,-1.6495398E1,-3.6122427E0,-7.4524946E0,3.5069132E-1,-3.600564E1,-5.1110672E1,-6.6565237E0,-8.27489E0,2.647417E1,1.1554409E1,-1.4135452E1,-3.504366E0,-7.4492936E0,7.085556E1,4.5849576E0,-1.7298878E1,1.5466923E0,-8.092598E0,2.7932382E2,9.1082E0,-1.3873188E1,-7.173309E0,-7.258078E0,-3.0635967E0,3.9672213E0,-1.599709E1,-5.9151893E0,-6.7663054E0,2.6297634E1,-7.3087555E1,-1.0868019E2,-8.746035E0,-8.12123E0,1.9671872E2,6.7415915E0,-1.38433075E1,-5.254761E0,-8.024817E0,8.830781E0,3.6631143E-1,-2.4737507E1,-3.0517302E0,-7.9531107E0,1.9990678E2,-3.76551E0,-2.5562866E1,-4.834196E0,-7.0181484E0,9.782492E1,1.0167958E0,-2.2728106E1,-4.179623E0,-7.527284E0,1.2162824E2,-2.5993052E0,-2.1901905E1,-6.104161E0,-6.8299108E0,1.52267065E1,-2.7774222E0,-2.4407915E1,-3.148874E0,-7.9281716E0,1.7997496E2,-4.561357E0,-2.8491524E1,-1.8658471E0,-7.710205E0,2.500331E2,-7.4346614E0,-2.0530891E1,5.049134E0,-4.9174676E0,6.551625E2,-5.4953537E0,-2.152776E1,2.7384448E0,-8.271025E0,4.191733E2,-2.6216034E1,-2.7226753E1,-4.849494E0,-8.113331E0,-8.982663E1,-2.138851E1,-4.3238293E1,-9.006667E0,-8.160669E0,-1.870761E1,2.048937E1,-4.9083543E0,-5.522432E0,-7.8848743E0,8.393854E0,1.5841558E1,-7.594923E0,-3.6453297E0,-7.9149976E0,7.529969E1,1.232051E1,-8.0816E0,-7.103584E-1,-8.065556E0,4.9461743E2,1.4394966E1,-9.4644375E0,-1.0652965E0,-8.121239E0,1.5837088E2,4.3969116E1,9.962008E0,-7.1339073E0,-8.093871E0,-3.2378838E0,2.2470802E1,1.8345718E0,-4.872692E0,-8.084129E0,-6.626475E0,-7.583342E1,-1.1766901E2,-8.69741E0,-8.152137E0,1.9528491E2,1.5048961E1,-8.8576975E0,-5.6539984E0,-7.892096E0,-4.2899613E0,6.676782E0,-1.5732466E1,6.5932906E-1,-7.698503E0,5.8184353E1,3.0129442E0,-1.7975235E1,-7.063488E0,-7.116502E0,-1.8007752E0,-2.4947448E-1,-2.2025522E1,-5.1269E0,-7.7713356E0,2.3283344E1,-8.4949665E0,-2.928647E1,-2.5261369E0,-7.4187303E0,7.607747E1,-5.12186E0,-2.5644287E1,-4.5435266E0,-7.424438E0,2.990188E1,-7.7381363E0,-2.7814295E1,-2.8221147E0,-7.922706E0,7.345639E1,-1.1938201E1,-3.1467556E1,-3.168924E0,-7.2318554E0,8.671503E1,-1.8026165E1,-2.803355E1,5.8110275E0,-7.142521E0,2.61029E2],"categories":[],"categories_nodes":[],"categories_segments":[],"categories_sizes":[],"default_left":[0,0,0,0,0,0,0,0,0,0,0,0,0,0,0,0,0,0,0,0,0,0,0,0,0,0,0,0,0,0,0,0,0,0,0,0,0,0,0,0,0,0,0,0,0,0,0,0,0,0,0,0,0,0,0,0,0,0,0,0,0,0,0,0,0,0,0,0,0,0,0,0,0,0,0,0,0,0,0,0,0,0,0,0,0,0,0,0,0,0,0,0,0,0,0,0,0,0,0,0,0,0,0,0,0,0,0,0,0,0,0,0,0,0,0,0,0,0,0,0,0,0,0,0,0,0,0],"id":1,"left_children":[1,3,5,7,9,11,13,15,17,19,21,23,25,27,29,31,33,35,37,39,41,43,45,47,49,51,53,55,57,59,61,63,65,67,69,71,73,75,77,79,81,83,85,87,89,91,93,95,97,99,101,103,105,107,109,111,113,115,117,119,121,123,125,-1,-1,-1,-1,-1,-1,-1,-1,-1,-1,-1,-1,-1,-1,-1,-1,-1,-1,-1,-1,-1,-1,-1,-1,-1,-1,-1,-1,-1,-1,-1,-1,-1,-1,-1,-1,-1,-1,-1,-1,-1,-1,-1,-1,-1,-1,-1,-1,-1,-1,-1,-1,-1,-1,-1,-1,-1,-1,-1,-1,-1,-1,-1,-1],"parents":[-1,0,0,1,1,2,2,3,3,4,4,5,5,6,6,7,7,8,8,9,9,10,10,11,11,12,12,13,13,14,14,15,15,16,16,17,17,18,18,19,19,20,20,21,21,22,22,23,23,24,24,25,25,26,26,27,27,28,28,29,29,30,30,31,31,32,32,33,33,34,34,35,35,36,36,37,37,38,38,39,39,40,40,41,41,42,42,43,43,44,44,45,45,46,46,47,47,48,48,49,49,50,50,51,51,52,52,53,53,54,54,55,55,56,56,57,57,58,58,59,59,60,60,61,61,62,62],"right_children":[2,4,6,8,10,12,14,16,18,20,22,24,26,28,30,32,34,36,38,40,42,44,46,48,50,52,54,56,58,60,62,64,66,68,70,72,74,76,78,80,82,84,86,88,90,92,94,96,98,100,102,104,106,108,110,112,114,116,118,120,122,124,126,-1,-1,-1,-1,-1,-1,-1,-1,-1,-1,-1,-1,-1,-1,-1,-1,-1,-1,-1,-1,-1,-1,-1,-1,-1,-1,-1,-1,-1,-1,-1,-1,-1,-1,-1,-1,-1,-1,-1,-1,-1,-1,-1,-1,-1,-1,-1,-1,-1,-1,-1,-1,-1,-1,-1,-1,-1,-1,-1,-1,-1,-1,-1,-1],"split_conditions":[1.7492E3,8.7E1,1.24E2,4.33772E1,2.84E2,4.026231E1,3.14E2,3.757686E1,1.1753E3,-1.645E1,3.72817E1,2.6527E3,4.697371E1,1.52E2,4.026231E1,2E1,-1.1695933E2,4.5069E1,-1.2057E2,1.37717E2,1.45E2,1.37717E2,3.23E2,-1.1984E2,3.656269E1,2.3399E3,1.0246E1,4.62667E1,2.63E2,2.6527E3,3.44E2,2.60281E1,-2.71822E1,1.1753E3,5.9E1,1.64E2,5.48831E1,4.49628E1,-1.144681E2,-2.81461E1,1.534319E2,4.59336E1,5.6383E1,2.76553E1,-1.645E1,6.043E1,7.4797E1,2.2555E3,2.414E3,-4.29742E1,-1.067088E2,-1.1013E2,2.6527E3,-1.164663E2,4.71944E1,2.6527E3,-1.137128E2,-1.0831636E2,-4.29742E1,-1.1984E2,3.47E2,2.4777E3,4.697371E1,0E0,0E0,0E0,0E0,0E0,0E0,0E0,0E0,0E0,0E0,0E0,0E0,0E0,0E0,0E0,0E0,0E0,0E0,0E0,0E0,0E0,0E0,0E0,0E0,0E0,0E0,0E0,0E0,0E0,0E0,0E0,0E0,0E0,0E0,0E0,0E0,0E0,0E0,0E0,0E0,0E0,0E0,0E0,0E0,0E0,0E0,0E0,0E0,0E0,0E0,0E0,0E0,0E0,0E0,0E0,0E0,0E0,0E0,0E0,0E0,0E0,0E0,0E0,0E0],"split_indices":[5,1,1,3,1,3,1,3,5,3,3,5,3,1,3,5,4,4,4,4,1,4,1,4,3,5,4,3,1,5,1,3,3,5,1,5,3,3,4,3,4,3,3,3,3,3,4,5,5,3,4,4,5,4,3,5,4,4,3,4,1,5,3,0,0,0,0,0,0,0,0,0,0,0,0,0,0,0,0,0,0,0,0,0,0,0,0,0,0,0,0,0,0,0,0,0,0,0,0,0,0,0,0,0,0,0,0,0,0,0,0,0,0,0,0,0,0,0,0,0,0,0,0,0,0,0,0],"split_type":[0,0,0,0,0,0,0,0,0,0,0,0,0,0,0,0,0,0,0,0,0,0,0,0,0,0,0,0,0,0,0,0,0,0,0,0,0,0,0,0,0,0,0,0,0,0,0,0,0,0,0,0,0,0,0,0,0,0,0,0,0,0,0,0,0,0,0,0,0,0,0,0,0,0,0,0,0,0,0,0,0,0,0,0,0,0,0,0,0,0,0,0,0,0,0,0,0,0,0,0,0,0,0,0,0,0,0,0,0,0,0,0,0,0,0,0,0,0,0,0,0,0,0,0,0,0,0],"tree_param":{"num_deleted":"0","num_feature":"6","num_nodes":"127","size_leaf_vector":"5"}},{"base_weights":[3.1036879E1,-2.8163657E0,-7.790262E0,-1.8473154E1,-1.9570265E0,3.1071106E1,-1.6285388E0,-7.6095934E0,-1.8491558E1,-7.9499826E0,3.0398136E1,-2.4983078E1,-1.1161827E1,-1.812971E1,1.0988093E2,3.5483364E1,5.8414483E0,-6.5171423E0,-1.8535072E1,-1.8140398E1,1.8884703E1,-2.226021E1,-1.0626879E1,-1.837137E1,2.0195354E1,1.2255605E0,-5.1362473E1,-1.0134308E1,-1.7495419E1,2.6983487E2,4.4591137E1,-1.2148995E1,-1.1661731E1,-1.8438297E1,3.2060272E1,5.551705E1,2.9597647E1,-1.0652118E0,-1.8870502E1,-1.9025059E1,2.96413E1,-1.086143E0,-8.10699E0,-1.8437258E1,-1.788242E1,-1.956365E1,-5.5093544E1,-1.1095771E1,-1.7923784E1,7.6001236E1,3.555133E1,-8.027582E0,-1.0423622E1,-1.8565388E1,-3.9954343E0,8.217394E0,-4.4965893E1,-1.2312354E1,-1.7043507E1,1.499101E2,-9.32709E0,-6.101662E1,-6.8470025E0,-1.817745E1,4.5083466E2,5.4160408E1,-4.1075487E0,-1.2095581E1,-1.8616028E1,1.3290816E1,-1.7019424E1,-6.3922703E1,-8.868413E0,-1.7293951E1,1.5290472E2,1.5113218E1,1.4701247E-1,-6.972961E0,-1.8884249E1,-1.7556782E1,7.0888885E1,4.0802288E1,1.1824217E0,-1.8865269E1,-1.9583672E1,7.205477E1,4.0543876E0,-2.0690245E1,-1.867267E1,-1.3382212E1,2.2284952E1,-1.9777353E0,-5.9245048E0,-1.8396427E1,-1.8662952E1,-2.0398954E1,-5.5189774E1,-1.1396063E1,-1.7933704E1,5.551129E1,-7.6642947E0,-5.372257E1,-6.81793E0,-1.7782413E1,3.6789014E2,6.4406715E1,1.2668948E1,-1.16362505E1,-1.8888622E1,-1.0964653E1,-1.2853327E1,-4.274583E1,-8.389447E0,-1.8023163E1,7.695371E0,1.3310496E1,-3.88249E1,-1.3676164E1,-1.6565964E1,7.2960526E1,-3.8831465E0,-5.9555855E1,-9.07208E0,-1.8178007E1,3.32731E2,-6.1949544E0,-5.5470745E1,-4.005166E0,-1.8502308E1,5.643133E2,-1.2654248E1,-6.690764E1,-9.865792E0,-1.7832293E1,3.302872E2,4.8093807E1,-1.099447E1,-1.1611633E1,-1.8475431E1,1.0148602E2,5.5599186E1,-2.4741874E0,-1.2210352E1,-1.8649364E1,-7.626294E0,1.4426602E1,-3.9351833E1,-1.2696638E1,-1.7725037E1,-2.5198464E0,-2.5913258E1,-7.087187E1,-7.7856436E0,-1.7171967E1,1.9686299E2,-5.7604984E1,-4.326699E1,-3.221671E0,-1.888296E1,-1.9244825E1,2.0429512E1,3.3209329E0,-7.247209E0,-1.8884336E1,-1.7433367E1,1.1341593E2,8.476712E1,3.9877439E0,-1.8896536E1,-1.8880407E1,5.3137417E1,2.2450665E1,1.1435787E-2,-1.8852215E1,-1.9877222E1,3.795292E1,-1.8526531E1,-1.6405487E1,-1.8444565E1,-4.1402326E0,8.66047E1,1.3688789E1,-2.251838E1,-1.876999E1,-1.7325403E1,1.8305022E0,-2.3404955E1,-8.929244E0,-1.721442E1,-1.1398356E1,2.687437E1,2.8299475E0,-5.250323E0,-1.8661636E1,-2.0292929E1,-9.415375E0,-4.750426E1,-1.0172471E1,-1.7471704E1,3.478324E1,-4.84569E1,-7.482268E1,-1.4521769E1,-1.911389E1,1.0846182E2,-1.749244E1,-4.6314266E1,2.5569206E1,-1.6211542E1,1.3236478E3,-6.4330163E0,-5.465052E1,-1.0875331E1,-1.797916E1,2.48153E2,8.367564E1,1.970688E1,-1.2034731E1,-1.8869633E1,-9.355916E0,2.9493437E1,-8.3044E-2,-1.0914244E1,-1.8923023E1,-1.3879512E1,1.0831802E0,-3.0495438E1,-8.479316E0,-1.8467487E1,-1.2874902E1,-4.0051144E1,-6.66531E1,-8.214059E0,-1.7156029E1,4.783933E1,1.109544E1,-3.9398495E1,2.556982E0,-1.877451E1,5.414146E2,1.3490528E1,-3.8778202E1,-1.4995695E1,-1.6386406E1,3.4880764E1,-5.301114E0,-6.0812134E1,-8.063935E0,-1.7911322E1,4.2322482E2,1.7653234E0,-5.4550304E1,-1.3087772E1,-1.9239958E1,-2.7752861E1,-3.1259304E1,-6.9370514E1,-4.9629273E0,-1.8391708E1,4.0034787E2,3.4376771E0,-5.0128582E1,-3.637064E0,-1.854472E1,6.273248E2,-1.1034272E1,-6.270859E1,-1.2786087E1,-1.7023651E1,1.7905243E2,-1.5523743E1,-7.434512E1,-4.692674E0,-1.9264534E1,5.981813E2,5.0488148E1,-8.788188E0,-1.349851E1,-1.8381702E1,4.329102E1,3.547641E1,-2.2620111E1,-1.6687576E0,-1.896907E1,4.0813773E2,7.336452E1,1.226484E1,-1.224634E1,-1.887984E1,-1.7318712E1,1.657315E1,-3.4852108E1,-1.2131274E1,-1.8143038E1,1.3665516E1,4.658061E1,6.6162944E0,-1.4570342E1,-1.9124416E1,-5.972744E1,5.1376474E-1,-5.924091E1,-1.1885693E1,-1.7119238E1,2.223312E1,-2.4347248E1,-7.577495E1,-4.6615443E0,-1.8015825E1,2.5037755E2,-2.9823341E1,-5.8627804E1,-1.5586566E1,-1.5064607E1,6.323239E1,-1.1075512E2,-1.1580668E2,-8.398343E0,-5.6623983E0,-8.877814E0,-1.5672783E1,-1.1210442E1,-8.3859855E-1,-5.664907E0,-5.7199984E0,1.8308887E1,8.438592E0,-1.8254387E0,-5.664705E0,-4.9755597E0,3.1260803E0,-8.384906E-1,-2.2601337E0,-5.6654463E0,-5.292739E0,3.646968E1,2.7290857E1,6.7033954E-2,-5.6689496E0,-5.6658354E0,2.3537771E1,1.7448874E1,6.040199E0,-5.6689982E0,-5.656764E0,7.9550867E0,-1.4912486E0,-7.1234435E-1,-5.5425396E0,-5.322484E0,1.7771967E1,8.621031E0,1.6751516E-1,-5.6815968E0,-6.1100354E0,1.3297243E1,-9.597504E-1,-4.642987E0,-5.690125E0,-7.654421E0,7.916499E0,-1.3904248E1,-5.427439E0,-5.248832E0,1.0397111E1,3.2453472E1,8.440409E0,-7.717592E0,-5.6717887E0,-5.597653E0,1.373928E1,-4.090834E0,-4.935708E0,-5.553836E0,-4.4409447E0,8.266282E0,2.8077145E0,-2.2163088E0,-5.672653E0,-5.6782174E0,-2.5747263E0,-1.1000323E1,-2.8659773E0,-4.958555E0,-2.5051856E0,-3.3451477E-1,-3.80443E0,-3.030005E0,-5.6669044E0,-5.7212424E0,1.0095625E1,1.9758211E0,-1.222787E0,-5.5819244E0,-6.1766605E0,-3.098114E0,-1.4341786E1,-3.102429E0,-5.2426963E0,7.4801087E0,8.0589753E-1,-1.3049808E1,-2.378897E0,-5.225767E0,4.9658283E1,-1.4135008E1,-2.1573462E1,-4.4617763E0,-5.679191E0,1.587008E1,-1.5167529E1,-2.3816269E1,-4.191487E0,-5.8203664E0,5.8676537E1,-1.8618324E0,-1.0162837E1,9.605537E0,-4.7510004E0,4.3657196E2,-3.877087E1,-5.0836624E1,-1.1487648E1,-5.975801E0,6.123627E0,-1.1789591E0,-1.4683039E1,-1.2100439E0,-5.6694555E0,1.4122351E2,-2.5956693E0,-1.7913004E1,-5.08234E0,-5.149284E0,1.524172E1,2.5016367E1,6.6351967E0,-3.3942933E0,-5.6648355E0,-6.60696E0,2.5666637E1,1.1877584E0,-5.022388E0,-5.6351056E0,2.2020227E1,4.490861E0,-1.6414001E0,-2.8077106E0,-5.6738305E0,-4.0423083E0,1.7560923E1,3.207526E0,-4.207241E0,-5.6830535E0,-4.4069E0,1.6943529E0,-7.3851805E0,-2.1954463E0,-5.515989E0,-4.8389325E0,-1.2626325E1,-2.5826683E1,-5.8383417E0,-5.7696524E0,5.3725657E0,-1.216538E1,-1.9862112E1,-2.540911E0,-5.144312E0,1.0794502E1,-9.848003E0,-2.1928724E1,-1.3563838E0,-5.1828322E0,6.573593E1,4.6722193E0,-1.0837397E1,-1.417581E0,-5.676098E0,1.0193115E2,2.1800213E0,-1.2658561E1,2.6344717E0,-5.594718E0,2.1412561E2,6.3632574E0,-1.39846525E1,-4.5053663E0,-5.381747E0,2.395698E1,7.406824E-1,-8.276852E0,-4.489184E0,-4.250889E0,-8.7980385E0,-8.46516E-1,-1.6957388E1,-2.797106E0,-5.150441E0,9.971359E1,-3.1179817E0,-2.0885088E1,-1.64295E0,-5.831222E0,1.8294011E2,1.494506E0,-1.6671278E1,-3.8836794E0,-5.761006E0,-1.4879936E1,-2.136875E1,-9.408319E0,-4.8923826E0,-6.0183797E0,1.4041946E2,-9.328626E0,-2.0789042E1,-1.4476612E0,-5.5167284E0,1.2153544E2,-2.0878712E1,-2.593324E1,-1.1149922E1,-5.684583E0,-2.1585654E2,1.1166505E0,-1.4999264E1,-1.04733E0,-5.563204E0,1.9008382E2,-1.9268341E1,-2.4369986E1,-1.1504337E1,-5.607261E0,-2.6066507E2,-3.1875448E0,-1.8830168E1,-3.9790916E0,-5.1021266E0,4.6634125E1,-1.6418953E1,-1.692155E1,1.1470326E1,-5.6345367E0,8.101412E2,-4.141469E0,-2.216346E1,-1.4182369E0,-5.7796054E0,1.8885081E2,-2.0244152E1,-2.653083E1,-1.0918907E0,-5.770042E0,-1.0466573E2,1.6023458E1,-1.7660582E0,-4.2944217E0,-5.4816303E0,1.0064296E0,1.1286094E1,-6.467444E0,-2.9717183E0,-5.659157E0,6.572049E1,1.2169743E1,-6.544699E0,-1.0528852E0,-5.6630177E0,8.117004E1,7.903679E0,-7.218687E0,4.9004316E-1,-5.7402005E0,1.9646992E2,2.7035307E1,5.6557474E0,-4.119597E0,-5.6701565E0,-5.0631075E0,1.2018602E1,-2.4908164E-1,-2.7879305E0,-5.651607E0,-5.459002E0,7.835747E0,-8.240136E0,-4.5333304E0,-5.3872805E0,-3.102368E0,4.1521382E-1,-1.3980756E1,-2.21697E0,-5.531404E0,1.5559068E1,-5.0138424E1,-7.4007645E1,-7.7155952E0,-5.8298883E0,1.9845706E2,1.5051201E1,3.2620711E0,-4.3147106E0,-5.7355347E0,-2.1554283E1,1.228244E0,-1.5806731E1,-3.5858946E0,-5.06483E0,9.822311E0,-1.1240846E1,-3.8620514E1,-3.3508313E0,-5.887332E0,-2.6773977E1,-5.9363685E0,-2.1453037E1,-1.8884637E0,-5.4711695E0,6.0135803E1,-9.985388E0,-2.5240273E1,-4.3789354E-1,-5.274465E0,1.0447259E2,-7.7860723E0,-1.5507019E1,-5.2621913E0,-4.2417207E0,2.1591532E0,-1.2633852E1,-2.4198069E1,-2.8138049E0,-5.4010525E0,7.236177E1],"categories":[],"categories_nodes":[],"categories_segments":[],"categories_sizes":[],"default_left":[0,0,0,0,0,0,0,0,0,0,0,0,0,0,0,0,0,0,0,0,0,0,0,0,0,0,0,0,0,0,0,0,0,0,0,0,0,0,0,0,0,0,0,0,0,0,0,0,0,0,0,0,0,0,0,0,0,0,0,0,0,0,0,0,0,0,0,0,0,0,0,0,0,0,0,0,0,0,0,0,0,0,0,0,0,0,0,0,0,0,0,0,0,0,0,0,0,0,0,0,0,0,0,0,0,0,0,0,0,0,0,0,0,0,0,0,0,0,0,0,0,0,0,0,0,0,0],"id":2,"left_children":[1,3,5,7,9,11,13,15,17,19,21,23,25,27,29,31,33,35,37,39,41,43,45,47,49,51,53,55,57,59,61,63,65,67,69,71,73,75,77,79,81,83,85,87,89,91,93,95,97,99,101,103,105,107,109,111,113,115,117,119,121,123,125,-1,-1,-1,-1,-1,-1,-1,-1,-1,-1,-1,-1,-1,-1,-1,-1,-1,-1,-1,-1,-1,-1,-1,-1,-1,-1,-1,-1,-1,-1,-1,-1,-1,-1,-1,-1,-1,-1,-1,-1,-1,-1,-1,-1,-1,-1,-1,-1,-1,-1,-1,-1,-1,-1,-1,-1,-1,-1,-1,-1,-1,-1,-1,-1],"parents":[-1,0,0,1,1,2,2,3,3,4,4,5,5,6,6,7,7,8,8,9,9,10,10,11,11,12,12,13,13,14,14,15,15,16,16,17,17,18,18,19,19,20,20,21,21,22,22,23,23,24,24,25,25,26,26,27,27,28,28,29,29,30,30,31,31,32,32,33,33,34,34,35,35,36,36,37,37,38,38,39,39,40,40,41,41,42,42,43,43,44,44,45,45,46,46,47,47,48,48,49,49,50,50,51,51,52,52,53,53,54,54,55,55,56,56,57,57,58,58,59,59,60,60,61,61,62,62],"right_children":[2,4,6,8,10,12,14,16,18,20,22,24,26,28,30,32,34,36,38,40,42,44,46,48,50,52,54,56,58,60,62,64,66,68,70,72,74,76,78,80,82,84,86,88,90,92,94,96,98,100,102,104,106,108,110,112,114,116,118,120,122,124,126,-1,-1,-1,-1,-1,-1,-1,-1,-1,-1,-1,-1,-1,-1,-1,-1,-1,-1,-1,-1,-1,-1,-1,-1,-1,-1,-1,-1,-1,-1,-1,-1,-1,-1,-1,-1,-1,-1,-1,-1,-1,-1,-1,-1,-1,-1,-1,-1,-1,-1,-1,-1,-1,-1,-1,-1,-1,-1,-1,-1,-1,-1,-1,-1],"split_conditions":[2.0659E3,4.43525E1,1.2E2,6.95E1,1.11E2,4.018904E1,3.33E2,-1.79364E1,-1.0831636E2,1.3161E3,2.71E2,2.859E3,-1.1048762E2,1.61E2,3.737538E1,1E0,2.6826E1,1.08E2,6.9E1,5.93E1,-1.2057E2,5.57E1,3.34E2,-1.1951551E2,-1.0500861E2,3.4E1,2.7432E3,4.36E1,2.79E2,3.33677E1,-1.06485275E2,-4.29742E1,9E0,1.304935E2,6.9E1,1.4454E3,2.77E2,2.92694E1,-2.71822E1,1.0214E3,1.661E2,5.03539E1,-1.137128E2,1.1753E3,2.18842E1,5.69194E1,1.3161E3,6E0,-1.06485275E2,3.2309E3,3.825495E1,4.8183E1,4.8183E1,4.697371E1,-1.0554E2,2.9956E3,2.4777E3,-1.06485275E2,4.033729E1,-4.29742E1,-1.038E2,3.55E2,2.9956E3,0E0,0E0,0E0,0E0,0E0,0E0,0E0,0E0,0E0,0E0,0E0,0E0,0E0,0E0,0E0,0E0,0E0,0E0,0E0,0E0,0E0,0E0,0E0,0E0,0E0,0E0,0E0,0E0,0E0,0E0,0E0,0E0,0E0,0E0,0E0,0E0,0E0,0E0,0E0,0E0,0E0,0E0,0E0,0E0,0E0,0E0,0E0,0E0,0E0,0E0,0E0,0E0,0E0,0E0,0E0,0E0,0E0,0E0,0E0,0E0,0E0,0E0,0E0,0E0],"split_indices":[5,3,1,5,1,3,1,3,4,5,1,5,4,1,3,5,3,1,1,3,4,3,1,4,4,1,5,3,1,3,4,3,5,4,1,5,1,3,3,5,5,3,4,5,4,4,5,0,4,5,3,3,3,3,4,5,5,4,3,3,4,1,5,0,0,0,0,0,0,0,0,0,0,0,0,0,0,0,0,0,0,0,0,0,0,0,0,0,0,0,0,0,0,0,0,0,0,0,0,0,0,0,0,0,0,0,0,0,0,0,0,0,0,0,0,0,0,0,0,0,0,0,0,0,0,0,0],"split_type":[0,0,0,0,0,0,0,0,0,0,0,0,0,0,0,0,0,0,0,0,0,0,0,0,0,0,0,0,0,0,0,0,0,0,0,0,0,0,0,0,0,0,0,0,0,0,0,0,0,0,0,0,0,0,0,0,0,0,0,0,0,0,0,0,0,0,0,0,0,0,0,0,0,0,0,0,0,0,0,0,0,0,0,0,0,0,0,0,0,0,0,0,0,0,0,0,0,0,0,0,0,0,0,0,0,0,0,0,0,0,0,0,0,0,0,0,0,0,0,0,0,0,0,0,0,0,0],"tree_param":{"num_deleted":"0","num_feature":"6","num_nodes":"127","size_leaf_vector":"5"}},{"base_weights":[2.1725813E1,-1.9714665E0,-5.4531856E0,-1.2931211E1,-1.3698816E0,2.192668E1,-1.349461E0,-5.4150734E0,-1.2938718E1,-4.959209E0,1.6229319E1,-1.8991905E1,-6.4960833E0,-1.2725827E1,9.684776E1,3.1264324E1,1.0638429E1,-4.3273096E0,-1.3263453E1,-1.3584457E1,1.3124495E1,-1.2649917E1,-6.44046E0,-1.2632604E1,3.1714332E0,-6.2738857E0,-4.1324913E1,-6.3666735E0,-1.2224149E1,2.3516415E2,2.599927E1,-9.295829E0,-6.5522647E0,-1.2943628E1,3.679647E1,2.3533955E0,-6.551714E0,-6.908634E0,-1.3223984E1,-1.2948509E1,4.2714447E1,1.7446554E1,-3.3049803E0,-1.3279083E1,-1.3836324E1,-1.0737E1,-3.3512756E1,-7.5780334E0,-1.183773E1,3.0204195E1,2.2935133E1,-4.072171E0,-5.9727473E0,-1.29594145E1,-7.943071E0,-2.9091566E0,-3.8049305E1,-7.3226123E0,-1.1778101E1,1.7169034E2,-1.6295214E1,-5.1080647E1,-3.5195198E0,-1.355258E1,4.2421063E2,2.7719091E1,-7.087683E0,-7.4106107E0,-1.2767628E1,1.0326234E1,2.0686882E1,-1.611652E1,-3.9009185E0,-1.3487248E1,1.1855994E2,5.2035866E1,2.2674778E1,-7.1845303E0,-1.3239784E1,-7.072741E0,-1.1315002E0,-8.601758E0,-6.8892813E0,-1.3222875E1,-1.3360654E1,3.297822E1,7.869472E0,-3.790795E0,-1.3254898E1,-1.4030516E1,7.1679474E1,4.593814E1,-1.8596923E0,-1.3351032E1,-1.3258605E1,-1.0944078E1,-3.3179245E1,-7.491898E0,-1.1892612E1,2.1046648E1,-8.149582E0,-3.7679905E1,-8.654271E0,-1.1151985E1,1.4462617E2,4.0270027E1,9.699505E0,-5.4823737E0,-1.3226224E1,-1.0415051E1,-3.7720203E0,-2.5289618E1,-6.7282443E0,-1.2548351E1,-4.1345925E0,-3.431264E0,-4.289413E1,-6.7397456E0,-1.2100432E1,2.2672098E2,-1.1102089E0,-2.1356125E1,-9.330835E0,-1.0667424E1,-1.7919645E1,-3.4789444E1,-6.0299225E1,-3.6548307E0,-1.3585861E1,2.910945E2,-3.494604E0,-4.469976E1,-3.4258394E0,-1.3529439E1,5.163415E2,3.3929367E1,-1.2084761E0,-7.6995597E0,-1.2929376E1,-3.1741233E0,-7.648659E0,-4.0569843E1,-5.765007E0,-1.1846416E1,8.721097E1,2.7517221E1,-1.1523529E1,6.583462E-1,-1.3470931E1,3.99172E2,1.9531113E1,-1.6893635E1,-4.672355E0,-1.3489977E1,7.107896E1,6.7469077E0,1.1769226E1,-4.672802E0,-1.3233769E1,-4.353145E0,1.637011E2,4.956364E1,-1.337747E1,-1.3254548E1,-1.3778204E1,-8.549873E1,-1.08558655E2,-1.6613035E1,-1.3217884E1,-6.949213E-1,-8.199405E-1,-8.232626E0,-6.8533716E0,-1.3222892E1,-1.3407426E1,7.509412E1,2.9113045E1,-1.69639E1,-1.3309645E1,-1.4112638E1,2.6240704E1,4.471017E0,-1.6834185E0,-1.324614E1,-1.4017377E1,9.415757E1,6.59418E1,-6.459719E0,-1.3378935E1,-1.3320829E1,3.342471E1,1.1894549E1,5.9689417E0,-1.3303539E1,-1.3152703E1,-5.4237413E0,-2.6610538E1,-6.7899733E0,-1.0928306E1,-3.6670291E0,-1.8089182E1,-4.168127E1,-8.400414E0,-1.3140734E1,5.303415E1,-6.668706E0,-3.6802773E1,-1.0329402E1,-1.0882398E1,8.090542E1,-1.7428083E1,-4.3175335E1,1.8414938E0,-1.2841022E1,5.438735E2,2.2146929E1,-6.2546744E0,-4.2861466E0,-1.3176755E1,-3.3446877E0,5.161899E1,1.9690258E1,-6.2314696E0,-1.32572E1,-1.4842622E1,-3.3371955E-1,-2.238887E1,-6.265643E0,-1.2487378E1,-6.0533257E0,-6.2278286E1,-7.464883E1,-1.4599878E1,-1.35858555E1,2.8514656E1,-2.3193267E-1,-3.8833992E1,-7.4316673E0,-1.17346525E1,1.694418E2,-1.2960513E1,-5.4987007E1,-4.6787896E0,-1.3189822E1,3.9732645E2,-7.5014883E-1,-6.2605424E0,-9.952803E0,-8.521807E0,-6.5651276E1,-1.6554266E0,-4.421491E1,-8.388834E0,-1.3916335E1,5.4360394E1,-2.3486969E1,-4.3877403E1,4.5344763E0,-1.3897418E1,4.4380466E2,-3.8025448E1,-6.500081E1,-5.999817E0,-1.3496449E1,2.4736116E2,3.470752E0,-2.8495825E1,2.0130277E0,-1.3917604E1,6.6689435E2,-5.489266E0,-4.93397E1,-4.983355E0,-1.3418143E1,4.732219E2,-2.120733E2,-3.0828125E2,-1.8694975E1,-1.3445195E1,5.286238E2,3.442546E1,-5.891901E-1,-7.6773787E0,-1.2928325E1,-4.2466173E0,-8.896148E0,-4.555096E1,-4.13049E0,-1.1916994E1,1.1974341E2,-3.290822E0,-2.316917E1,-1.1474531E1,-1.1599637E1,-2.6431969E1,2.9531025E1,-8.899382E0,3.0324525E-1,-1.3411502E1,3.116665E2,2.1519289E1,-1.9336653E1,1.7156727E0,-1.3647132E1,6.597096E2,2.9977264E1,-8.828572E0,-5.008063E0,-1.3355266E1,3.263012E1,-2.8429272E1,-5.3921524E1,-3.1309998E0,-1.4108278E1,2.4760338E2,-1.6193298E1,-2.1500603E1,-4.802088E0,-3.9665277E0,5.9383645E0,9.008487E0,1.3127621E1,-9.8204486E-2,-3.9715018E0,-4.0833597E0,5.8496315E1,2.5225899E1,-2.8431E0,-3.972667E0,-4.0569067E0,4.5351643E1,1.0721901E1,-4.4817634E0,-3.977818E0,-4.1640873E0,-1.6802717E1,-2.6006897E1,-3.0344138E0,-3.963915E0,-4.27007E0,-3.4521435E1,-3.9146034E1,-6.9389324E0,-3.9666057E0,3.8651996E0,3.640027E0,-2.6397124E-1,-1.7872254E0,-3.9653158E0,-4.156979E0,-1.4506067E0,-3.1535692E0,-2.1393325E0,-3.967348E0,-3.9804559E0,1.0210066E1,6.8311653E0,-1.8155394E0,-4.02917E0,-4.650307E0,2.7168825E1,9.450728E0,-6.322437E0,-3.979225E0,-4.076876E0,9.256924E0,2.7459786E0,-3.6721382E-1,-3.9858527E0,-4.2289405E0,-8.970541E-1,-7.554371E0,-1.3777754E0,-3.8977783E0,-4.0549483E0,3.561611E1,1.8757406E1,-2.3089056E0,-4.013529E0,-4.0039425E0,2.2110966E1,2.0636202E1,-1.6289786E0,-4.0138054E0,-3.9898405E0,2.6628942E0,8.7129846E-2,1.5963376E-2,-3.9813957E0,-3.926511E0,1.9768948E1,8.173224E0,4.138221E0,-4.0038443E0,-3.9713368E0,-2.8811047E0,-8.624565E0,-1.9457096E0,-3.1674147E0,-3.6353934E-1,1.2036582E1,-9.942631E-1,-3.031624E0,-4.488811E0,-9.125951E0,-5.614794E0,-1.2516116E1,-2.6328127E0,-3.9413803E0,1.2235411E1,-2.6307786E0,-1.2329856E1,-8.4455186E-1,-3.9546995E0,7.0551384E1,-1.2853167E0,-4.822807E0,5.520169E0,-3.1158834E0,2.3797867E2,-2.0177822E0,-1.1190103E1,-3.3057456E0,-3.2682884E0,1.9140804E1,-3.800539E0,-1.0084169E1,4.5117555E0,-2.966878E0,2.8089807E2,-6.0278087E0,-1.4558421E1,-1.6643133E0,-4.3479943E0,9.724138E1,8.312674E0,-3.5739863E0,-2.9787986E0,-3.9866498E0,1.809539E1,6.226858E0,-1.451934E0,-8.625334E-1,-3.944619E0,-5.778915E0,2.2735107E1,5.226611E0,-4.990683E0,-3.9690092E0,-4.891584E0,1.2549326E1,6.1826997E0,-6.0518324E-1,-3.9804614E0,-4.2750516E0,3.8448176E0,-3.9013164E0,-1.852394E0,-3.932873E0,-4.46801E0,-4.2234883E0,-9.659349E0,-1.9082265E0,-3.5511103E0,9.5597136E-1,-3.3202618E1,-4.2110626E1,-6.4547806E0,-3.7912798E0,1.525868E1,-1.2457579E1,-1.3940303E1,-3.4902632E0,-4.1977324E0,5.6795526E0,3.781123E-1,-9.600443E0,-8.281792E-1,-3.8130848E0,1.02412605E2,-3.3264565E-1,-1.2854595E1,-3.0529141E0,-3.3483953E0,2.0523624E1,-1.0260579E1,-2.163594E1,-1.8346834E0,-3.9930155E0,6.973065E1,-7.904809E-1,-1.3997441E1,-1.1940893E0,-3.939367E0,1.4324251E2,-1.1940545E0,-8.3902097E-1,-2.851093E0,-2.2102134E0,-1.0522807E1,1.6028285E0,-3.8382587E0,-3.2399206E0,-3.2097461E0,-3.6997185E1,-2.049652E-1,-1.2298148E1,-1.9086537E0,-4.4839225E0,6.708683E1,-6.190798E-1,-1.3669891E1,-2.7718754E0,-4.045046E0,-5.01335E0,-6.6292458E0,-1.2674907E1,1.5936412E0,-4.1685886E0,1.4460945E2,-1.3780252E1,-2.1047724E1,-2.413196E0,-4.1759152E0,-5.2408855E1,-1.1150682E1,-1.9548937E1,-2.017408E0,-4.0462637E0,6.845986E1,-1.884886E1,-1.8080702E1,4.502641E0,-4.1245985E0,2.4076047E2,1.3050258E0,-8.271664E0,6.5103036E-1,-4.172256E0,2.1783751E2,-3.2028508E0,-1.30007925E1,-1.5444982E-1,-4.221458E0,-8.5883835E1,-1.2285285E0,-1.4918799E1,-1.5459933E0,-4.0244226E0,1.3445613E2,-1.3663961E1,-1.1438927E1,-2.9551921E-2,-4.0535665E0,3.577229E2,-1.648306E2,-1.17337524E2,-5.7722807E0,-4.0304084E0,-7.204264E1,-3.6951813E1,-8.589755E1,-5.5626383E0,-4.0324144E0,2.1921349E2,1.3575006E1,2.4378567E0,-2.177988E0,-4.0466223E0,-9.721063E0,8.076968E0,-1.9888709E0,-2.390001E0,-3.7619703E0,4.5804443E0,-1.3817058E0,-1.2155302E1,-1.350135E0,-3.4029207E0,2.2117634E1,-4.7472787E0,-1.6103413E1,-1.059905E0,-3.853078E0,5.8215458E1,-3.8506912E1,-5.6317635E1,-5.492606E0,-4.0957036E0,1.4736072E2,-6.297383E-1,-6.4802423E0,-3.4227555E0,-3.4739537E0,-9.409041E0,9.396845E0,-2.6542819E0,-1.0003325E-1,-4.023866E0,8.206508E1,-1.0292296E1,-3.2211945E0,6.8940077E0,-4.0058727E0,5.0071143E2,7.3059397E0,-5.6594515E0,9.161372E-1,-4.0994244E0,2.1660368E2,-9.022134E0,-8.370531E0,-6.7911105E0,-3.9935465E0,-1.4243321E2,6.661256E0,-4.978442E0,-9.449024E-3,-3.9857306E0,5.0171944E1,9.354377E0,-2.2876534E0,-1.733683E0,-4.009796E0,3.5334713E0,-9.364238E0,-1.636233E1,-1.720349E-1,-4.213523E0,8.7533936E1,-7.0810757E0,-1.5853851E1,-2.2685215E0,-4.2651777E0,5.131815E1],"categories":[],"categories_nodes":[],"categories_segments":[],"categories_sizes":[],"default_left":[0,0,0,0,0,0,0,0,0,0,0,0,0,0,0,0,0,0,0,0,0,0,0,0,0,0,0,0,0,0,0,0,0,0,0,0,0,0,0,0,0,0,0,0,0,0,0,0,0,0,0,0,0,0,0,0,0,0,0,0,0,0,0,0,0,0,0,0,0,0,0,0,0,0,0,0,0,0,0,0,0,0,0,0,0,0,0,0,0,0,0,0,0,0,0,0,0,0,0,0,0,0,0,0,0,0,0,0,0,0,0,0,0,0,0,0,0,0,0,0,0,0,0,0,0,0,0],"id":3,"left_children":[1,3,5,7,9,11,13,15,17,19,21,23,25,27,29,31,33,35,37,39,41,43,45,47,49,51,53,55,57,59,61,63,65,67,69,71,73,75,77,79,81,83,85,87,89,91,93,95,97,99,101,103,105,107,109,111,113,115,117,119,121,123,125,-1,-1,-1,-1,-1,-1,-1,-1,-1,-1,-1,-1,-1,-1,-1,-1,-1,-1,-1,-1,-1,-1,-1,-1,-1,-1,-1,-1,-1,-1,-1,-1,-1,-1,-1,-1,-1,-1,-1,-1,-1,-1,-1,-1,-1,-1,-1,-1,-1,-1,-1,-1,-1,-1,-1,-1,-1,-1,-1,-1,-1,-1,-1,-1],"parents":[-1,0,0,1,1,2,2,3,3,4,4,5,5,6,6,7,7,8,8,9,9,10,10,11,11,12,12,13,13,14,14,15,15,16,16,17,17,18,18,19,19,20,20,21,21,22,22,23,23,24,24,25,25,26,26,27,27,28,28,29,29,30,30,31,31,32,32,33,33,34,34,35,35,36,36,37,37,38,38,39,39,40,40,41,41,42,42,43,43,44,44,45,45,46,46,47,47,48,48,49,49,50,50,51,51,52,52,53,53,54,54,55,55,56,56,57,57,58,58,59,59,60,60,61,61,62,62],"right_children":[2,4,6,8,10,12,14,16,18,20,22,24,26,28,30,32,34,36,38,40,42,44,46,48,50,52,54,56,58,60,62,64,66,68,70,72,74,76,78,80,82,84,86,88,90,92,94,96,98,100,102,104,106,108,110,112,114,116,118,120,122,124,126,-1,-1,-1,-1,-1,-1,-1,-1,-1,-1,-1,-1,-1,-1,-1,-1,-1,-1,-1,-1,-1,-1,-1,-1,-1,-1,-1,-1,-1,-1,-1,-1,-1,-1,-1,-1,-1,-1,-1,-1,-1,-1,-1,-1,-1,-1,-1,-1,-1,-1,-1,-1,-1,-1,-1,-1,-1,-1,-1,-1,-1,-1,-1,-1],"split_conditions":[2.3399E3,3.8532425E1,1.11E2,-2.53706E1,1.08E2,4.09362E1,4.10194E1,3.59E1,-7.506919E1,1.6423E3,2.64E2,-1.0554E2,4.6E1,3.28E2,1.48E2,1.282E1,1.11617E2,-1.128E2,1.23067E2,4.59336E1,4.567E1,1.68E2,6.393E1,2.9956E3,2.9956E3,4.2060863E1,4.2060863E1,-4.29742E1,-1.0554E2,2.7432E3,3.27E2,-4.29742E1,1.06E2,7.4797E1,6E1,-1.215833E2,3.16E2,6E0,-1.3762E1,-5.6517E1,1.0214E3,-1.21795654E2,-1.144681E2,-1.137128E2,-1.052811E2,3.16E2,-6.17667E1,-1.110231E2,3.7E1,2.6527E3,-1.0500861E2,-1.061614E2,8.4667E0,-1.061614E2,8.4667E0,3E0,3.825495E1,2.859E3,-4.29742E1,8.4667E0,4.50716E1,1.72E2,-1.0968956E2,0E0,0E0,0E0,0E0,0E0,0E0,0E0,0E0,0E0,0E0,0E0,0E0,0E0,0E0,0E0,0E0,0E0,0E0,0E0,0E0,0E0,0E0,0E0,0E0,0E0,0E0,0E0,0E0,0E0,0E0,0E0,0E0,0E0,0E0,0E0,0E0,0E0,0E0,0E0,0E0,0E0,0E0,0E0,0E0,0E0,0E0,0E0,0E0,0E0,0E0,0E0,0E0,0E0,0E0,0E0,0E0,0E0,0E0,0E0,0E0,0E0,0E0,0E0,0E0],"split_indices":[5,3,1,3,1,3,3,4,4,5,1,4,1,1,1,4,4,4,4,3,3,1,3,5,5,3,3,3,4,5,1,3,1,4,5,4,1,0,3,4,5,4,4,4,4,1,4,4,1,5,4,4,4,4,4,0,3,5,3,4,3,1,4,0,0,0,0,0,0,0,0,0,0,0,0,0,0,0,0,0,0,0,0,0,0,0,0,0,0,0,0,0,0,0,0,0,0,0,0,0,0,0,0,0,0,0,0,0,0,0,0,0,0,0,0,0,0,0,0,0,0,0,0,0,0,0,0],"split_type":[0,0,0,0,0,0,0,0,0,0,0,0,0,0,0,0,0,0,0,0,0,0,0,0,0,0,0,0,0,0,0,0,0,0,0,0,0,0,0,0,0,0,0,0,0,0,0,0,0,0,0,0,0,0,0,0,0,0,0,0,0,0,0,0,0,0,0,0,0,0,0,0,0,0,0,0,0,0,0,0,0,0,0,0,0,0,0,0,0,0,0,0,0,0,0,0,0,0,0,0,0,0,0,0,0,0,0,0,0,0,0,0,0,0,0,0,0,0,0,0,0,0,0,0,0,0,0],"tree_param":{"num_deleted":"0","num_feature":"6","num_nodes":"127","size_leaf_vector":"5"}},{"base_weights":[1.5208067E1,-1.3800353E0,-3.8172314E0,-9.051851E0,-9.5887697E-1,-4.5532985E0,-1.8941961E1,-4.0734525E0,-8.589204E0,1.2751915E1,2.0033987E1,2.9087605E0,-3.7546594E0,-9.164834E0,-4.307188E0,-3.655388E0,-1.7439192E1,-3.99091E0,-8.616676E0,5.2320685E0,-1.7834925E1,-4.1170486E1,-5.294394E0,-8.182825E0,1.2398334E2,2.6983076E1,8.903625E0,-3.3322182E0,-9.252814E0,-4.5279703E0,4.8263607E0,-1.0210608E1,-4.679145E0,-8.972295E0,-3.82402E0,7.5909724E0,-5.8731394E0,-3.3294563E0,-9.188943E0,-1.0252732E1,-2.1377138E1,-3.56647E1,-5.0332127E0,-7.714911E0,2.9632652E1,-1.1405484E1,-3.685074E1,-6.5362535E0,-8.017086E0,5.8593353E1,-2.494464E1,-4.594723E1,-3.9211204E0,-8.366085E0,1.9629211E2,4.679017E-1,-6.6509924E0,-5.425192E0,-9.257539E0,-8.980602E0,3.17144E1,1.1679164E1,-2.9587514E0,-9.251971E0,-3.73345E0,1.981121E1,7.266652E0,-4.930076E0,-9.310914E0,-9.358826E0,-3.080845E0,-1.9433006E1,-4.5467324E0,-8.793612E0,-9.034134E-1,2.008175E1,1.0680012E1,-2.0263503E0,-9.259759E0,-9.258986E0,-2.6492667E-1,-1.6284008E1,-4.149026E0,-9.1444025E0,-1.0877733E1,-1.6759785E1,-3.0341633E1,-4.7455754E0,-7.586281E0,2.6927837E1,-9.3341125E1,-1.1862763E2,-9.516187E0,-9.719663E0,7.178864E1,-7.7134123E0,-3.2973167E1,-8.028139E0,-7.465391E0,7.437315E0,-1.5439722E1,-4.108757E1,-4.906061E0,-8.6198845E0,1.1449072E2,-2.184505E1,-4.19619E1,-1.6195585E0,-8.814119E0,2.649115E2,-2.8188854E1,-5.0118458E1,-6.3301334E0,-7.8970942E0,1.2446781E2,1.6775213E1,-7.994959E-1,-7.422335E0,-9.257316E0,-8.150364E0,-4.8469267E0,-8.558093E0,-4.7742877E0,-9.257609E0,-9.251189E0,1.9791895E1,-1.1426976E0,-3.6189258E0,-9.203092E0,5.3828177E0,3.927806E1,1.9813383E1,-2.539935E0,-9.28298E0,-9.516831E0,3.5779316E0,-3.2406454E0,-5.680537E0,-9.2632475E0,-8.738957E0,2.9185839E1,1.33345585E1,-4.496688E0,-9.338438E0,-9.716794E0,2.85361E0,-1.4809411E1,-4.827679E0,-9.083428E0,-7.828669E0,-1.8976784E1,-3.1817692E1,-3.7941928E0,-8.017311E0,1.764647E1,2.393883E0,-2.7962654E0,-5.015936E0,-9.250077E0,-9.272253E0,4.66945E1,3.0956104E1,2.4717135E0,-9.274318E0,-9.23902E0,2.9924551E1,-4.3911904E-1,-6.1807127E0,-9.65392E0,-1.3330382E1,-4.5563226E0,-1.8536335E1,-3.8602235E0,-9.071973E0,-1.052909E1,-2.410923E1,-4.46601E1,-4.575721E0,-6.4302197E0,3.4784626E1,1.9634895E0,6.1357617E0,-5.17829E0,-1.0531429E1,6.9120626E0,-6.2872036E1,-8.624683E1,-6.2297525E0,-1.0017846E1,-2.4914007E1,-1.0877915E2,-1.350342E2,-1.11813545E1,-9.568534E0,1.20786736E2,8.190639E0,-1.8127846E1,5.175731E0,-9.216248E0,1.8341852E2,-8.894557E0,-3.4075584E1,-9.008743E0,-7.335328E0,-5.632628E0,-1.521498E1,-4.5505936E1,-3.5439968E0,-8.859768E0,1.8808675E2,-1.5806766E1,-3.3868004E1,-7.131479E0,-8.227851E0,-5.7585316E0,-2.398085E1,-4.0437714E1,-4.2204654E-1,-8.791933E0,1.4065488E2,-2.102244E1,-4.254862E1,-2.0807052E0,-8.822614E0,3.127606E2,-2.8798944E1,-4.8880234E1,-9.145676E0,-7.3848515E0,1.6309872E1,-2.753984E1,-5.143473E1,-3.3360565E0,-8.441739E0,2.3948087E2,-4.3033474E1,-6.2882404E1,-8.115277E0,-9.251067E0,1.709298E1,2.1000029E1,3.585981E0,-7.3733816E0,-9.257751E0,-9.933523E0,-3.5103998E0,-7.7399244E0,-5.0347548E0,-9.257042E0,-9.251327E0,-3.4581154E1,-2.6760174E1,1.0204511E0,-9.27019E0,-9.248089E0,1.9630129E1,8.0207306E-1,-2.7979908E0,-9.308689E0,-7.20524E0,2.071074E1,-1.2189274E1,-8.281954E0,-8.603279E0,7.688479E1,5.0809776E1,3.72354E1,1.3709588E0,-9.2711525E0,-8.988609E0,3.369201E1,1.1374024E1,-4.4344015E0,-9.288709E0,-9.772705E0,4.2890102E1,2.6577002E1,-6.228441E0,-9.293911E0,-9.263011E-1,1.0654342E0,-5.146332E0,-5.645518E0,-9.261284E0,-9.238272E0,5.0330097E1,3.8594025E1,-6.890488E-1,-9.312879E0,-9.857512E0,1.6348629E1,-2.0010917E0,-6.8083982E0,-9.353953E0,-9.631357E0,6.0983415E0,-1.3231153E1,-4.671795E0,-9.039561E0,-9.009764E0,-3.0050453E1,-3.0814146E1,-6.408459E0,-9.528265E0,4.148543E0,-1.8992678E1,-3.0283985E1,-3.526655E0,-8.097478E0,7.410707E0,-1.8862234E1,-4.28661E1,-5.7214675E0,-7.439789E0,9.138256E1,1.7336313E1,1.3656783E1,-6.710011E-1,-2.7763135E0,-2.611711E0,-4.50072E-1,-1.8579074E0,-1.5633937E0,-2.7749314E0,-2.7936227E0,1.7914013E1,1.3929546E1,3.8848836E0,-2.7754123E0,-2.7920322E0,7.8640013E0,1.9829713E0,-4.2035847E0,-2.7931187E0,-2.7397244E0,1.029562E1,2.369649E0,-1.38742E0,-2.9788918E0,-3.1982672E0,5.1637115E0,-7.3680406E0,-3.2046006E0,-2.65687E0,-6.3158803E0,-3.1643946E0,-6.8390436E0,-1.5341641E0,-2.695374E0,-3.1286833E0,1.8099176E0,-3.3019676E0,-4.9337003E-1,-2.7679272E0,-3.211823E0,-5.5198145E0,-1.1332003E1,-1.2763146E0,-1.898422E0,8.765086E0,-2.810825E1,-3.8576336E1,-2.5475442E0,-2.3025134E0,3.0791052E1,2.0423837E0,3.9335492E0,-1.2458228E0,-3.209319E0,-3.636378E0,-5.6109853E0,-7.0873876E0,-2.8659976E0,-2.9465828E0,2.6432833E1,-2.1297882E1,-3.0751125E1,-2.6910794E0,-3.0356023E0,-1.8853655E1,-1.3692352E1,-1.5526231E1,-1.2460704E-1,-2.9410992E0,1.6668478E1,-3.1656736E1,-3.827247E1,-3.098713E0,-2.8514013E0,4.6477432E1,-3.590517E1,-4.800392E1,-4.2106676E0,-2.9346707E0,1.9365894E0,1.1644888E1,4.604678E0,-4.7725782E0,-3.135377E0,-5.886297E1,8.070511E-1,-7.241615E0,2.6885636E0,-2.6981664E0,7.5475044E1,-6.4235673E0,-1.2426864E1,-1.0933596E0,-1.373451E0,2.7875837E1,-2.36685E0,-1.0045658E1,-2.83182E0,-2.2670012E0,-4.063614E0,-5.688986E0,-1.4160756E1,-2.0392234E0,-2.7683794E0,1.7040112E1,-4.1318955E0,-1.3455873E1,-6.877422E-1,-2.6154208E0,7.157612E1,-4.554969E1,-5.3748714E1,-4.0757046E0,-2.7453775E0,1.4861867E2,-4.375756E0,-9.769115E0,-2.1220446E0,-2.4658432E0,-3.0768085E0,-1.11533785E1,-1.5672572E1,-4.6632156E-1,-2.3724258E0,1.9613007E1,-5.7600656E0,-1.0848383E1,-3.5649042E-3,-2.7335699E0,5.0375645E1,-6.245948E0,-1.2741066E1,-7.192613E-1,-2.6306303E0,8.883735E1,-7.8834634E0,-1.3373099E1,1.8429329E0,-3.0656629E0,2.2335272E2,-8.628266E0,-1.4688907E1,-2.8672507E0,-2.2113872E0,1.7246134E0,-1.008921E1,-1.1475323E1,1.3043688E1,-2.732874E0,4.096755E2,-7.7814627E0,-1.4330667E1,-1.6096435E0,-2.6480181E0,4.1062553E1,-8.585887E0,-1.6171898E1,-5.9019166E-1,-2.4545903E0,9.26033E1,-7.0979995E-1,-5.7503786E0,-1.7185794E0,-2.7749722E0,6.7433095E0,-3.1307497E1,-3.8640488E1,-3.514249E0,-2.7757816E0,2.6917598E0,-9.194261E-1,-1.6740501E0,-4.824837E-1,-2.7746997E0,-3.008769E0,9.482037E0,2.2878127E0,-2.9743192E0,-2.7784803E0,-2.9673994E0,9.870832E-1,-3.6578402E-1,-1.0041525E0,-2.7777915E0,-2.7753785E0,-1.7644945E0,-3.0040593E0,-1.686953E0,-2.776875E0,-2.7754042E0,3.8607857E1,1.8948988E1,-8.652953E0,-2.7867243E0,-2.69061E0,-1.5570395E1,-1.0889774E1,1.2565265E0,-2.780442E0,-2.7833042E0,2.2447012E1,1.7967333E1,-1.4414312E0,-2.7901478E0,-2.539817E0,4.5245767E0,-1.2201496E0,-7.897865E-1,-2.7928092E0,-2.1304026E0,6.3753495E0,-3.5789177E0,-2.6478426E0,-2.567318E0,1.2557656E1,4.197516E0,-4.62482E0,-4.548659E-1,-2.7508724E0,1.537046E2,2.1520061E1,1.1546466E1,-4.0175934E0,-2.7784615E0,-2.906595E0,1.3234425E1,1.1050359E1,1.8284067E0,-2.7822685E0,-2.6293845E0,8.873768E0,3.079881E0,-1.2134771E0,-2.7870622E0,-2.9129546E0,2.4176228E1,7.201508E0,-2.6626081E0,-2.7814848E0,-3.1468246E0,-8.850584E0,-1.3121019E1,-4.0763674E0,-2.7826023E0,7.3947964E0,2.0388666E1,1.5278834E1,-1.1038479E0,-2.7900789E0,-2.9352698E0,-5.918641E0,-6.074167E0,-4.871081E0,-2.7927494E0,-2.4451973E0,1.2572348E0,-8.630051E-1,-1.2160914E0,-2.776225E0,-2.8205204E0,1.9730822E1,1.4785657E1,-5.871043E-1,-2.7963681E0,-3.0272446E0,1.9885689E-2,1.1361196E0,1.0316695E0,-2.7857032E0,-2.729387E0,7.676704E0,1.5555758E0,-2.693087E0,-2.8121507E0,-2.8654149E0,5.9801364E-1,-3.9495924E0,-1.03184E0,-2.7969174E0,-2.9266775E0,4.755308E0,2.066367E0,9.45906E-1,-2.8975234E0,-4.6060133E0,9.037752E-1,-5.8790493E0,-2.1442714E0,-2.6531267E0,-2.1007917E0,-7.2019587E0,-7.125323E0,-1.8400424E0,-2.8605247E0,-8.851414E-1,-3.1885855E1,-3.5971516E1,-2.96308E0,-2.8326392E0,2.8107967E1,-4.5095057E0,-7.640199E0,-8.262517E-1,-2.3745365E0,9.8619187E-1,-2.155568E1,-2.8368708E1,-4.150638E0,-3.1592987E0,1.87313E1,-4.3752017E0,-1.2980322E1,9.158612E-2,-2.523558E0,4.877006E1,-6.742614E0,-1.2758016E1,-3.2434206E0,-1.9856359E0,9.378824E0],"categories":[],"categories_nodes":[],"categories_segments":[],"categories_sizes":[],"default_left":[0,0,0,0,0,0,0,0,0,0,0,0,0,0,0,0,0,0,0,0,0,0,0,0,0,0,0,0,0,0,0,0,0,0,0,0,0,0,0,0,0,0,0,0,0,0,0,0,0,0,0,0,0,0,0,0,0,0,0,0,0,0,0,0,0,0,0,0,0,0,0,0,0,0,0,0,0,0,0,0,0,0,0,0,0,0,0,0,0,0,0,0,0,0,0,0,0,0,0,0,0,0,0,0,0,0,0,0,0,0,0,0,0,0,0,0,0,0,0,0,0,0,0,0,0,0,0],"id":4,"left_children":[1,3,5,7,9,11,13,15,17,19,21,23,25,27,29,31,33,35,37,39,41,43,45,47,49,51,53,55,57,59,61,63,65,67,69,71,73,75,77,79,81,83,85,87,89,91,93,95,97,99,101,103,105,107,109,111,113,115,117,119,121,123,125,-1,-1,-1,-1,-1,-1,-1,-1,-1,-1,-1,-1,-1,-1,-1,-1,-1,-1,-1,-1,-1,-1,-1,-1,-1,-1,-1,-1,-1,-1,-1,-1,-1,-1,-1,-1,-1,-1,-1,-1,-1,-1,-1,-1,-1,-1,-1,-1,-1,-1,-1,-1,-1,-1,-1,-1,-1,-1,-1,-1,-1,-1,-1,-1],"parents":[-1,0,0,1,1,2,2,3,3,4,4,5,5,6,6,7,7,8,8,9,9,10,10,11,11,12,12,13,13,14,14,15,15,16,16,17,17,18,18,19,19,20,20,21,21,22,22,23,23,24,24,25,25,26,26,27,27,28,28,29,29,30,30,31,31,32,32,33,33,34,34,35,35,36,36,37,37,38,38,39,39,40,40,41,41,42,42,43,43,44,44,45,45,46,46,47,47,48,48,49,49,50,50,51,51,52,52,53,53,54,54,55,55,56,56,57,57,58,58,59,59,60,60,61,61,62,62],"right_children":[2,4,6,8,10,12,14,16,18,20,22,24,26,28,30,32,34,36,38,40,42,44,46,48,50,52,54,56,58,60,62,64,66,68,70,72,74,76,78,80,82,84,86,88,90,92,94,96,98,100,102,104,106,108,110,112,114,116,118,120,122,124,126,-1,-1,-1,-1,-1,-1,-1,-1,-1,-1,-1,-1,-1,-1,-1,-1,-1,-1,-1,-1,-1,-1,-1,-1,-1,-1,-1,-1,-1,-1,-1,-1,-1,-1,-1,-1,-1,-1,-1,-1,-1,-1,-1,-1,-1,-1,-1,-1,-1,-1,-1,-1,-1,-1,-1,-1,-1,-1,-1,-1,-1,-1,-1,-1],"split_conditions":[7.3E1,1.9172E3,2.74E2,4.121863E1,3.96615E1,-1.645E1,3.47803E1,2.92694E1,7.93E1,2.4777E3,-1.1048762E2,1.37717E2,1.51E2,-2.71822E1,3.41E2,-2.53706E1,-1.128E2,-1.68997E1,4.89797E1,-1.1984E2,-1.061614E2,2.1E1,2.5481E3,-4.11208E1,-1.9983E1,1.3417E3,3.72817E1,3.2573E1,2.6826E1,6.006E1,1.6423E3,3.59E1,1.850834E1,1.138E3,4.7E1,5.776E1,3.2573E1,1.31983E2,5.215E2,-1.2057E2,1E0,2.1E1,-4.29742E1,2.0659E3,4.697371E1,4.697371E1,3E1,-5.6517E1,-3.3359E1,1.25E2,1.435532E2,2.76553E1,4.61047E1,-9.9183E1,3.2573E1,-4.11208E1,1.20367E2,1.435532E2,3.3E2,1.64E2,7.93E1,5.04E1,-1.1048762E2,0E0,0E0,0E0,0E0,0E0,0E0,0E0,0E0,0E0,0E0,0E0,0E0,0E0,0E0,0E0,0E0,0E0,0E0,0E0,0E0,0E0,0E0,0E0,0E0,0E0,0E0,0E0,0E0,0E0,0E0,0E0,0E0,0E0,0E0,0E0,0E0,0E0,0E0,0E0,0E0,0E0,0E0,0E0,0E0,0E0,0E0,0E0,0E0,0E0,0E0,0E0,0E0,0E0,0E0,0E0,0E0,0E0,0E0,0E0,0E0,0E0,0E0,0E0,0E0],"split_indices":[1,5,1,3,3,3,3,3,4,5,4,4,1,3,1,3,4,4,3,4,4,1,5,3,3,5,3,4,3,3,5,4,3,5,1,3,4,4,5,4,0,1,3,5,3,3,1,4,3,1,4,3,3,4,4,3,4,4,1,5,4,4,4,0,0,0,0,0,0,0,0,0,0,0,0,0,0,0,0,0,0,0,0,0,0,0,0,0,0,0,0,0,0,0,0,0,0,0,0,0,0,0,0,0,0,0,0,0,0,0,0,0,0,0,0,0,0,0,0,0,0,0,0,0,0,0,0],"split_type":[0,0,0,0,0,0,0,0,0,0,0,0,0,0,0,0,0,0,0,0,0,0,0,0,0,0,0,0,0,0,0,0,0,0,0,0,0,0,0,0,0,0,0,0,0,0,0,0,0,0,0,0,0,0,0,0,0,0,0,0,0,0,0,0,0,0,0,0,0,0,0,0,0,0,0,0,0,0,0,0,0,0,0,0,0,0,0,0,0,0,0,0,0,0,0,0,0,0,0,0,0,0,0,0,0,0,0,0,0,0,0,0,0,0,0,0,0,0,0,0,0,0,0,0,0,0,0],"tree_param":{"num_deleted":"0","num_feature":"6","num_nodes":"127","size_leaf_vector":"5"}},{"base_weights":[1.0645646E1,-9.660305E-1,-2.672063E0,-6.336298E0,-6.711952E-1,1.0776995E1,-6.6694355E-1,-2.6793115E0,-6.3382244E0,-2.5395918E0,5.9908385E0,-1.1565182E1,-2.4151921E0,-6.26801E0,6.554172E1,1.2563799E1,7.863622E-1,-2.4681773E0,-6.323215E0,-4.0144587E0,-1.9096111E1,-2.4964378E1,-6.2092047E0,-6.5891666E0,2.2118319E1,7.2639704E-2,-1.6227291E1,-1.9902518E0,-6.0000887E0,1.3736588E2,9.729028E0,-8.620379E0,-2.6836014E0,-6.4372363E0,2.0174387E1,1.732347E1,1.0978545E1,6.5858704E-1,-6.5075035E0,-7.8551793E0,9.274641E0,-6.2569184E0,-4.628919E0,-6.195863E0,-1.3603389E0,-3.132641E1,-4.0341354E1,-7.4532623E0,-6.463177E0,5.6076378E1,-1.2631126E1,-1.683605E1,-5.5515895E0,-6.6557627E0,4.1679664E0,6.2601933E0,-1.2701861E1,-4.0397305E0,-6.7430024E0,4.6131668E1,-5.493012E0,-1.9398348E1,-1.4675863E-1,-5.3318305E0,2.1942995E2,1.697876E1,-2.5092707E0,-3.1088922E0,-6.5223837E0,1.3071952E0,-1.0543354E1,-2.5708792E1,-1.4943571E0,-6.1991215E0,7.293247E1,3.2470043E1,2.5347229E1,9.500655E-1,-6.5646334E0,-9.301492E0,1.4177882E1,7.9945083E0,5.980538E-1,-6.495639E0,-7.554814E0,2.3779142E1,7.6324897E0,1.7986515E0,-6.6520576E0,7.182502E1,8.407766E0,-7.0870314E0,-5.0130687E0,-6.1685977E0,-5.7343273E0,-6.404478E1,-1.00768005E2,-1.1231879E1,-5.7809234E0,8.746033E1,-1.966895E1,-1.881153E1,-6.1069484E0,-6.7062564E0,4.4894344E1,-5.3904567E0,-9.644955E0,-5.2991004E0,-6.448279E0,-5.8827205E0,-4.550395E1,-4.9483795E1,-6.6978865E0,-7.59773E0,4.9798363E1,1.1006351E1,-1.2093632E1,-2.9925802E0,-6.8334117E0,1.3331836E2,1.581255E0,-1.3301413E1,-5.0720243E0,-6.6538415E0,-3.9819874E1,-4.3053126E0,-1.7234133E1,-9.006082E-1,-5.0700083E0,1.8490846E2,-1.0361625E1,-2.8269789E1,2.9434597E0,-6.405045E0,3.6093967E2,1.8287209E1,-2.0376465E0,-3.5262113E0,-6.5175395E0,-3.745114E0,-6.608998E0,-1.1011209E1,4.4141917E0,-6.6095843E0,9.238532E1,-7.9052444E0,-2.3161236E1,-2.8223014E0,-5.8494244E0,3.5576576E1,-1.5590233E1,-3.0582308E1,1.0461447E0,-6.868077E0,1.4439743E2,1.6435142E0,-5.0184774E0,-3.437077E0,-6.4752192E0,-5.1986327E0,3.678514E1,2.9597824E1,1.5641788E0,-6.5771484E0,-9.87581E0,-5.9164777E0,1.0592647E1,1.1240073E1,-6.918581E0,-2.808648E1,1.5687106E1,7.7993703E0,-2.0123483E-1,-6.4638724E0,-6.012745E0,2.6117579E1,8.63946E0,-2.238048E0,-6.9526215E0,1.3129175E1,1.644868E1,4.475878E0,1.44527E1,-5.709853E0,2.558218E2,-1.1181441E1,-2.3781925E1,-6.9639664E0,-5.5714235E0,2.5034997E0,1.2436143E1,-3.653849E0,-4.611881E0,-6.291402E0,-7.4283757E0,5.645427E0,-2.2716394E1,7.6934977E0,-4.0664673E0,2.688615E2,-7.7942276E1,-1.1633283E2,-1.5005963E1,-6.122805E0,5.1284866E1,-9.215494E0,-3.4735334E0,-5.611605E0,-6.7584424E0,1.9219246E1,-6.1690083E1,-8.046773E1,-8.098122E0,-6.496447E0,1.4810394E2,-1.9948636E0,-7.3905373E0,-4.5880713E0,-6.4543924E0,-7.006673E0,-4.7968494E1,-3.7913517E1,-1.4214812E1,-6.371587E0,8.210788E0,-1.0693611E2,-1.3209029E2,-1.1238845E1,-6.0053544E0,9.4378716E1,-2.4202652E1,-2.0840437E1,-5.1233234E0,-8.149857E0,3.4340305E1,2.6873835E1,5.585464E0,-7.4092712E0,-7.3524413E0,-7.628065E1,4.555961E0,-1.9280302E1,-1.1971236E0,-6.622373E0,2.1852184E2,2.8409116E0,-1.4373433E1,-4.809609E0,-6.950094E0,-2.258942E1,-2.8021467E1,1.1893164E1,-1.1238313E1,3.0902952E-1,-4.4473904E2,-1.9395292E0,-1.7050114E1,-2.0178948E-2,-6.183895E0,2.9388205E2,-6.3532777E0,-1.7393345E1,-1.6627643E0,-4.1057243E0,9.057239E1,-9.074601E0,-2.8575703E1,3.3046634E0,-6.3748116E0,4.013574E2,-3.3061665E1,-2.2867758E1,-3.4285421E0,-6.9370017E0,-3.5207703E2,-1.1805327E2,-1.7227867E2,-8.867483E0,-6.551796E0,3.5518945E2,1.8567066E1,-1.6881763E0,-3.515243E0,-6.5174623E0,-4.481925E0,-1.6442778E1,-2.0983564E1,1.0887193E1,-6.545076E0,3.943543E2,-4.1549296E0,-8.522456E0,2.7988212E0,-6.6255255E0,1.7030094E1,7.0488E0,-1.2423562E1,-4.563003E0,-7.139791E0,-3.274343E1,-1.3303889E1,-2.7037605E1,-2.1938593E0,-5.3835444E0,6.0241177E1,-1.5660084E1,-3.0553299E1,3.391624E-1,-6.7405634E0,1.1581777E2,-1.5346622E1,-3.0682135E1,3.5060523E0,-7.311511E0,2.4383513E2,-1.3588547E1,-8.663368E0,2.8983852E-1,-1.9428113E0,-2.0796206E0,6.1567307E0,1.3733665E0,-1.562417E0,-1.9424629E0,-1.350428E0,1.5281937E1,1.2382623E1,9.558091E-1,-1.9349067E0,-1.9241048E0,7.629442E0,6.0693145E0,7.898011E-2,-2.003815E0,-3.795849E0,5.377533E0,9.919516E0,7.342256E0,-2.2662485E0,-1.5722585E1,-4.410884E0,6.932276E-1,1.908847E0,-2.0053024E0,-5.7368665E0,8.488312E-1,-1.1342412E0,2.0678417E-1,-1.8396064E0,4.2605765E-2,5.5563197E0,3.1055274E0,-1.1925404E-1,-1.9611048E0,-2.2107952E0,6.9894495E0,3.4388814E0,-4.548474E-1,-2.133095E0,-4.5883636E0,9.473944E0,9.5079017E-1,-1.0909858E0,-1.9941286E0,2.0458994E1,6.7556424E0,1.4887414E0,1.106991E0,-1.7099451E0,2.2691122E1,2.4171748E0,1.1409576E0,8.799326E0,-1.7171116E0,1.5147269E2,-1.3255464E0,-4.5218363E0,-1.8683733E0,-1.7135031E0,-1.0357503E0,-9.550298E0,-1.5113434E1,-2.763525E0,-1.5429336E0,6.2076283E0,1.1233715E1,-7.393976E-1,-3.1988826E0,-1.9291492E0,-1.0763103E0,1.782133E0,-1.1888146E0,-9.120743E-1,-1.8765825E0,-2.5277727E0,1.6978881E0,-7.4811845E0,2.9539735E0,-8.20901E-1,5.039549E1,1.683343E0,-5.219293E0,7.6135755E-1,-2.1753228E0,1.5311487E2,-2.3428595E1,-3.500795E1,-4.4721584E0,-1.8342069E0,1.671005E1,-1.38740015E1,-1.2523273E1,-1.062678E1,-2.3805585E0,-2.5855402E2,-1.4871162E0,1.9679292E0,-1.0661509E0,-2.0375917E0,1.7594635E1,-5.7260804E0,-8.019501E0,-3.1145077E0,-2.0042078E0,-2.1654684E1,-8.050344E0,-1.1810396E1,-1.9335419E0,-1.9571618E0,5.3063015E1,-3.389442E1,-4.2284233E1,-3.1591475E0,-1.9368055E0,3.1728468E1,3.0548882E0,-1.0833548E-1,-1.7159808E0,-1.9449993E0,-2.0121865E0,-5.2629657E0,-4.9096575E0,-9.428789E-1,-1.9252315E0,-2.2166739E0,-2.5966984E1,-2.105864E1,-5.3692408E0,-1.9290603E0,1.9622349E1,-1.2123686E1,-9.477653E0,-4.048086E0,-1.90802E0,-8.966829E-1,-1.5072087E1,-2.1809921E1,3.321121E0,-1.226334E0,4.657664E1,-3.549261E1,-4.320097E1,-4.714236E0,-1.9169937E0,2.4649687E1,-2.3981662E0,-4.5289603E-1,-1.2805771E0,-2.495859E0,3.9852214E0,-3.4290276E1,-3.848788E1,-2.9623172E0,-2.161971E0,4.541512E1,4.6646667E0,5.987317E0,-3.5820765E0,-1.9015601E0,-8.8690094E1,8.645823E0,9.346748E-1,-1.989152E0,-2.2579582E0,-1.1575465E1,1.7920572E0,-5.6577497E0,-6.178302E-1,-1.9426343E0,4.947499E1,-9.948041E-1,-6.485403E0,1.0774097E0,-2.2313857E0,1.5485498E2,-8.345484E-1,-6.9767394E0,-1.5396335E0,-2.1002944E0,2.4769068E0,4.6059837E0,1.6178803E0,-1.2275573E0,-2.0510223E0,-2.7369265E1,-7.6659E0,4.340801E0,-3.6045034E0,-3.8374055E-3,-1.3939758E2,-1.7978899E1,-6.442679E0,-3.4954354E-1,1.3423638E0,-5.584141E1,-3.799386E-1,-5.02858E0,1.5615095E-1,-1.8529828E0,9.5189545E1,-1.1242778E1,-9.678064E0,-8.57023E0,-1.969986E0,-2.8276974E2,-1.78137E0,-5.2282367E0,-6.012133E-1,-1.2159532E0,1.9088806E1,-8.429092E0,-4.680883E0,4.861204E0,-2.0566537E0,4.503125E2,-7.558874E-1,-1.043252E1,-1.8410594E0,-2.2534704E0,2.8251263E1,-3.268044E0,-8.056481E0,1.7773956E0,-1.8177792E0,1.4597882E2,-6.9054317E0,3.781772E0,-3.9528782E0,-2.2519796E0,-1.58824625E1,-1.0918408E1,-1.0399843E1,-5.5135388E-2,-2.0236557E0,-1.3545714E2,-1.1198421E2,-7.133392E1,-2.787664E0,-1.9629858E0,-5.7093315E1,-1.5298259E1,-4.64931E1,-2.6250854E0,-1.9649383E0,1.4943687E2,7.5788693E0,-3.9334178E-2,-1.1564164E0,-1.9692454E0,-1.3517079E-1,-3.1407852E0,-2.532095E0,-6.1292654E-1,-1.8944885E0,-6.5891223E0,-4.4424777E0,-6.637541E0,1.369914E0,-1.9652816E0,5.4659306E1,-5.370813E0,-5.98743E0,4.9626946E0,-1.9615964E0,1.7524861E2,7.961454E-2,-1.8163313E0,6.571912E-1,-1.9616349E0,1.6895498E0,-1.0889585E1,-7.9404664E0,2.166296E0,-2.1765075E0,2.9974474E1,-2.9861946E1,-4.7198906E1,-2.4579585E0,-2.0783918E0,1.1744077E2,2.4952242E0,-3.209562E0,-1.3559158E0,-2.1426592E0,-1.1337696E1,-3.4000566E0,-7.1977034E0,-8.7093616E-1,-1.4722042E0,1.0982424E1,-6.735477E0,-1.2352631E1,3.297626E-1,-2.278285E0,5.098928E1,-3.4748662E0,-7.2258725E0,-1.4066534E-1,-1.8320466E0,2.1764898E1,-6.1050863E0,-1.1397766E1,3.8062835E-1,-2.2408473E0,4.9677715E1,-2.7874594E0,-6.456131E0,7.8308187E0,-1.7889936E0,1.6629935E2,-4.754083E0,-9.431657E0,4.909629E-1,-2.2268274E0,6.544168E1],"categories":[],"categories_nodes":[],"categories_segments":[],"categories_sizes":[],"default_left":[0,0,0,0,0,0,0,0,0,0,0,0,0,0,0,0,0,0,0,0,0,0,0,0,0,0,0,0,0,0,0,0,0,0,0,0,0,0,0,0,0,0,0,0,0,0,0,0,0,0,0,0,0,0,0,0,0,0,0,0,0,0,0,0,0,0,0,0,0,0,0,0,0,0,0,0,0,0,0,0,0,0,0,0,0,0,0,0,0,0,0,0,0,0,0,0,0,0,0,0,0,0,0,0,0,0,0,0,0,0,0,0,0,0,0,0,0,0,0,0,0,0,0,0,0,0,0],"id":5,"left_children":[1,3,5,7,9,11,13,15,17,19,21,23,25,27,29,31,33,35,37,39,41,43,45,47,49,51,53,55,57,59,61,63,65,67,69,71,73,75,77,79,81,83,85,87,89,91,93,95,97,99,101,103,105,107,109,111,113,115,117,119,121,123,125,-1,-1,-1,-1,-1,-1,-1,-1,-1,-1,-1,-1,-1,-1,-1,-1,-1,-1,-1,-1,-1,-1,-1,-1,-1,-1,-1,-1,-1,-1,-1,-1,-1,-1,-1,-1,-1,-1,-1,-1,-1,-1,-1,-1,-1,-1,-1,-1,-1,-1,-1,-1,-1,-1,-1,-1,-1,-1,-1,-1,-1,-1,-1,-1],"parents":[-1,0,0,1,1,2,2,3,3,4,4,5,5,6,6,7,7,8,8,9,9,10,10,11,11,12,12,13,13,14,14,15,15,16,16,17,17,18,18,19,19,20,20,21,21,22,22,23,23,24,24,25,25,26,26,27,27,28,28,29,29,30,30,31,31,32,32,33,33,34,34,35,35,36,36,37,37,38,38,39,39,40,40,41,41,42,42,43,43,44,44,45,45,46,46,47,47,48,48,49,49,50,50,51,51,52,52,53,53,54,54,55,55,56,56,57,57,58,58,59,59,60,60,61,61,62,62],"right_children":[2,4,6,8,10,12,14,16,18,20,22,24,26,28,30,32,34,36,38,40,42,44,46,48,50,52,54,56,58,60,62,64,66,68,70,72,74,76,78,80,82,84,86,88,90,92,94,96,98,100,102,104,106,108,110,112,114,116,118,120,122,124,126,-1,-1,-1,-1,-1,-1,-1,-1,-1,-1,-1,-1,-1,-1,-1,-1,-1,-1,-1,-1,-1,-1,-1,-1,-1,-1,-1,-1,-1,-1,-1,-1,-1,-1,-1,-1,-1,-1,-1,-1,-1,-1,-1,-1,-1,-1,-1,-1,-1,-1,-1,-1,-1,-1,-1,-1,-1,-1,-1,-1,-1,-1,-1,-1],"split_conditions":[2.4777E3,6.043E1,1.42E2,2E2,1.27E2,3.9237797E1,3.07E2,1E1,-1.2057E2,-6.17667E1,3.23E2,-1.067088E2,2.9956E3,4.463E1,4.018904E1,-2.89786E1,-1.2205268E2,4.61047E1,6.4E1,6.119E1,3.2573E1,6.97889E1,-6.17667E1,3.737538E1,3.912791E1,-1.0968956E2,-1.052811E2,-4.29742E1,1.75E2,3.656269E1,3.53E2,1E0,2.9902746E1,9.8E1,6.7E1,1.1061E3,9.754E2,4.36841E1,-1.0831636E2,4.13E2,1.4813E3,2.35581E1,9.28E1,2.37E2,1.59E2,6.119E1,4.5069E1,-1.1769091E2,3.2309E3,9.8E1,1.32E2,4.61047E1,4.55533E1,-1.0879319E2,3.95879E1,3E0,-1.0554E2,-1.1013E2,2.91E2,-4.29742E1,3.2309E3,2.7432E3,1E0,0E0,0E0,0E0,0E0,0E0,0E0,0E0,0E0,0E0,0E0,0E0,0E0,0E0,0E0,0E0,0E0,0E0,0E0,0E0,0E0,0E0,0E0,0E0,0E0,0E0,0E0,0E0,0E0,0E0,0E0,0E0,0E0,0E0,0E0,0E0,0E0,0E0,0E0,0E0,0E0,0E0,0E0,0E0,0E0,0E0,0E0,0E0,0E0,0E0,0E0,0E0,0E0,0E0,0E0,0E0,0E0,0E0,0E0,0E0,0E0,0E0,0E0,0E0,0E0],"split_indices":[5,3,1,5,1,3,1,5,4,4,1,4,5,3,3,3,4,3,1,3,4,3,4,3,3,4,4,3,1,3,1,5,3,1,1,5,5,3,4,5,5,4,4,1,1,3,4,4,5,1,1,3,3,4,3,0,4,4,1,3,5,5,0,0,0,0,0,0,0,0,0,0,0,0,0,0,0,0,0,0,0,0,0,0,0,0,0,0,0,0,0,0,0,0,0,0,0,0,0,0,0,0,0,0,0,0,0,0,0,0,0,0,0,0,0,0,0,0,0,0,0,0,0,0,0,0,0],"split_type":[0,0,0,0,0,0,0,0,0,0,0,0,0,0,0,0,0,0,0,0,0,0,0,0,0,0,0,0,0,0,0,0,0,0,0,0,0,0,0,0,0,0,0,0,0,0,0,0,0,0,0,0,0,0,0,0,0,0,0,0,0,0,0,0,0,0,0,0,0,0,0,0,0,0,0,0,0,0,0,0,0,0,0,0,0,0,0,0,0,0,0,0,0,0,0,0,0,0,0,0,0,0,0,0,0,0,0,0,0,0,0,0,0,0,0,0,0,0,0,0,0,0,0,0,0,0,0],"tree_param":{"num_deleted":"0","num_feature":"6","num_nodes":"127","size_leaf_vector":"5"}},{"base_weights":[7.4519463E0,-6.762288E-1,-1.8704444E0,-4.4354095E0,-4.6982002E-1,7.48789E0,-5.1154155E-2,-1.7908283E0,-4.452026E0,-2.833114E0,6.978498E0,-8.909692E0,-2.9191444E0,-4.2165437E0,3.065941E1,9.456388E0,1.1439795E0,-1.6076969E0,-4.417974E0,-4.509672E0,-1.0873144E1,-1.1198683E1,-3.4989746E0,-4.769639E0,1.2804871E1,7.4062767E0,-8.932591E0,-3.1689768E0,-4.2249618E0,2.4813437E1,-1.8678526E1,-7.5361767E0,1.2065132E1,-3.711589E0,3.8128403E2,5.492627E0,-1.727796E0,-7.787489E-1,-4.2747254E0,-3.677252E0,1.836048E1,7.5950623E0,-3.469824E0,-4.739764E0,-6.379599E0,-9.41301E0,-7.0941973E0,-3.168883E0,-4.776608E0,5.762235E0,-2.1663359E1,-4.1530334E1,-5.9383082E0,-4.718134E0,6.4849106E1,8.493272E0,-6.997728E0,-3.728265E0,-4.1456456E0,1.1466225E1,1.6613497E0,-1.9158594E1,-2.1306026E-1,-4.644153E0,9.535523E1,-1.595534E1,-1.19914875E1,1.1135675E1,-3.2007358E0,6.679439E2,-2.1087912E1,-3.5935001E0,1.288737E1,-4.1635714E0,1.2760968E2,2.2284262E1,8.203077E0,-2.7644308E0,-4.758642E0,7.243423E-1,1.5365885E0,-4.0674677E0,-3.1093067E-1,-4.1607165E0,-4.714249E0,5.5773003E1,3.1214828E1,-8.065592E0,-5.0219283E0,-1.0983953E1,1.6322087E0,-2.9660487E0,-1.4149173E0,-4.6136E0,-4.3208528E0,-7.204431E0,-2.489491E0,-3.133191E0,-4.7426124E0,-7.6782303E0,-1.6243803E1,-2.1335855E1,-3.2792706E0,-4.8817496E0,4.7331566E1,-4.2781593E1,-6.0343925E1,-6.4601483E0,-4.7059374E0,1.3017607E2,-1.103771E1,-3.2064228E1,-5.675735E0,-4.724262E0,3.1979815E1,-3.4382696E0,-1.5371598E1,-2.954731E0,-3.8675716E0,4.944774E1,1.2963744E1,-3.860229E0,-4.0180893E0,-4.2498326E0,-2.764581E0,-4.704838E0,-2.2064825E1,4.5801392E-1,-4.8535433E0,2.0129765E2,5.606817E0,-1.7357412E1,-6.289608E-1,-4.5143747E0,2.9696823E1,-1.4584503E1,-9.194097E0,1.1561643E1,-2.533452E0,2.4495465E2,-1.650863E1,-1.3121211E1,1.0963236E1,-3.4702072E0,8.3880426E2,-1.6637306E1,5.7511675E-1,8.832907E0,-4.681854E0,2.889585E1,-3.566838E1,-1.7251547E1,2.6170599E1,-2.4650764E0,4.510318E2,1.8530298E1,1.3099364E1,-1.6538349E0,-4.7500615E0,-1.7421633E1,2.8632265E1,-7.662167E-2,-4.642464E0,-4.7731504E0,3.1409462E1,9.009542E0,-1.2529126E1,-1.1837057E1,-4.136485E0,-1.669926E1,-2.701667E-1,-2.0216708E0,2.4757702E0,-4.166575E0,-1.816602E0,6.5897766E1,3.6977062E1,-8.1296E0,-4.9414372E0,-9.616796E0,2.8018347E1,1.5419019E1,-7.890124E0,-5.242573E0,-1.4731687E1,1.9996065E1,1.0035907E1,1.315665E0,-4.5408006E0,-3.5638142E0,-2.2799258E0,-5.735913E0,-1.9966254E0,-4.6291084E0,-4.4821277E0,-1.8849722E1,-3.758387E1,-1.6442424E0,-3.6322982E0,1.718555E1,-4.400897E0,5.959265E0,-3.4916456E0,-5.009912E0,-1.3664031E1,-1.843749E1,-2.373734E1,-4.799315E0,-5.174702E0,1.1245605E2,-1.5137987E1,-2.0125286E1,-2.513039E0,-4.7340727E0,1.4503374E1,-3.4733837E1,-5.52792E1,-6.3166046E0,-4.733766E0,1.5476413E2,-9.355831E1,-9.2298584E1,-7.365683E0,-4.5302324E0,-2.4966953E1,1.2125621E1,-1.3910531E1,-5.074858E0,-4.5624595E0,3.7621865E0,-8.103306E1,-8.692122E1,-7.4914365E0,-5.213168E0,1.172482E2,1.1593064E0,-1.1474073E1,1.4572674E0,-4.765115E0,1.27918175E2,-5.2584696E0,-1.691463E1,-4.7014604E0,-3.5122256E0,1.8380842E1,1.4126619E1,-2.4862518E0,-4.615524E0,-4.158138E0,-1.0648994E1,5.5090914E0,-1.266812E1,-1.882201E-1,-4.837634E0,4.7778557E1,-6.633215E0,-1.1188631E1,1.1434035E1,-6.465435E0,6.0742505E2,-4.469643E0,-2.3391182E1,-8.805906E-1,-4.656946E0,1.5176689E2,1.8294565E1,-9.028035E0,-6.526227E-1,-4.539849E0,2.1508865E0,-3.0369232E1,-4.0975174E1,-5.6186324E-1,-4.442112E0,1.078029E2,-1.9035166E1,-1.1070902E1,4.3280196E0,-3.9767884E-2,-1.0832987E1,-1.0061541E1,-7.2863193E0,1.8907173E1,-5.065945E0,5.0472543E2,-1.5482443E1,-1.3219644E1,1.197851E1,-3.4208727E0,9.027983E2,-3.604347E1,-1.1238032E1,-8.38127E0,-4.4076476E0,-3.8059824E2,-1.973567E1,-2.8503675E0,7.044961E0,-4.57741E0,2.6717072E2,-1.6334766E1,9.090537E-1,9.006962E0,-4.691901E0,5.6653914E0,-3.559455E1,-1.8222197E1,2.8236187E1,-2.300306E0,4.988823E2,-3.7014206E1,1.2789841E0,-1.3245041E1,-5.601398E0,-4.617866E2,7.505212E-1,3.1929715E0,1.689589E0,-1.5042565E0,-6.2296267E0,1.0370813E1,4.66713E0,-2.6833248E0,-1.345728E0,-4.2226925E0,6.9449687E0,1.6555196E0,1.616837E0,-1.4601787E0,4.0443733E1,9.129748E0,-5.7415503E-1,-2.3809888E0,-1.4226736E0,-7.634485E-1,1.7786156E1,6.3502855E0,-4.3502774E0,-1.4157526E0,-1.6559227E0,1.5101929E0,-4.5580807E0,-3.4879253E0,-1.2271229E0,-5.274975E0,-2.6302752E0,-4.0640025E0,9.84811E-3,-1.081622E0,1.3109546E0,1.0612339E0,9.4277257E-1,1.0711291E0,-1.3254088E0,-1.3766078E0,-2.4227398E1,-2.8507551E1,-2.894852E0,-1.3656068E0,-2.8968105E0,2.026173E1,1.1536321E1,-2.4337764E0,-1.4837383E0,-2.8849063E0,1.2723128E1,1.2243194E1,-1.0425526E0,-1.5991136E0,-1.0398126E1,5.7233915E0,-1.06276736E-1,-3.189804E0,-1.5564071E0,-7.055875E-1,-9.613623E0,-6.041501E0,2.8867813E-2,-1.359527E0,-1.3146349E0,7.614684E0,3.947669E0,4.325624E-1,-1.3625205E0,-1.0437359E0,-1.788771E0,-1.7803319E0,-8.664581E-1,-1.3779384E0,-1.3354629E0,5.374864E0,-1.394149E0,8.678581E-1,-1.4479282E0,-1.394957E0,2.3595232E-1,-6.428653E0,5.6824255E-1,-9.742815E-1,6.5360165E0,-2.4003757E1,-2.6371004E1,-3.799676E0,-1.4491575E0,8.561287E-1,-1.5944444E0,1.9158094E0,-1.0254394E0,-1.506198E0,-5.623663E0,1.770148E0,3.4466568E-1,-1.2960794E0,-1.4666259E0,1.3083942E1,-2.8211405E0,-6.876621E0,-1.0890056E0,-1.4150597E0,1.0558521E2,-5.8615127E0,-7.1509943E0,-1.4825418E0,-1.5691463E0,2.4980677E1,-2.7396712E0,-4.287133E0,-6.380753E-1,-1.3585677E0,9.336127E-3,-1.2286432E1,-1.3562212E1,-1.251853E0,-1.6852468E0,2.3014511E1,-2.356517E1,-2.4434595E1,-1.3108057E0,-1.4100438E0,2.9978304E1,-1.4320344E0,-1.1215557E1,-2.2944052E0,-1.427017E0,5.7677433E1,-2.6553522E1,-2.6011896E1,-1.584019E0,-1.3352784E0,-2.6115149E1,-3.1888565E1,-3.1924118E1,-3.789684E0,-1.4190347E0,3.9548283E1,9.834358E0,-1.0200549E0,-1.4905112E0,-1.3703824E0,1.4118161E0,-8.566584E0,-1.038312E1,-1.585365E0,-1.3654896E0,5.7096905E-1,-1.3869402E1,-1.5126493E1,-2.1238263E0,-1.6226462E0,3.3681164E1,-3.7200275E1,-3.9595592E1,-2.400009E0,-1.4914557E0,3.7017666E1,1.6657442E0,-5.2155414E0,-6.491784E-1,-1.2863226E0,9.837316E-1,-3.3339414E-1,-2.5256665E0,9.986637E-1,-1.5035477E0,5.7701237E1,-1.3735384E0,-4.5821037E0,-1.6254954E0,-9.6520907E-1,-2.6024032E0,-2.5086432E0,-7.3212585E0,-4.2886183E-1,-1.4574059E0,4.2560394E1,8.069697E0,1.6288334E0,-7.93519E-1,-1.4212939E0,4.8184004E0,2.4568474E0,-1.8497372E0,-1.6594417E0,-1.166627E0,-6.919513E0,1.6973683E0,-3.5231721E0,-3.7110323E-1,-1.4162648E0,3.5564196E0,1.4963943E0,-4.771288E0,1.0452917E0,-1.573924E0,5.2071495E1,-4.899031E0,-7.20075E-2,2.74595E-1,-1.9065311E0,1.1996275E1,-5.916712E-1,-4.9351583E0,4.94679E0,-1.9554625E0,2.6404028E2,-2.5913802E-1,-6.219385E0,-1.5247171E0,-1.7454631E0,5.501544E0,-1.9991904E0,-7.502924E0,5.029288E-1,-1.1850694E0,6.988929E1,6.1133413E0,-2.690395E0,-2.267574E-1,-1.358779E0,-2.149671E0,-4.5919254E-1,-2.8797834E0,9.894385E-2,-1.3921405E0,2.7242733E1,-9.070212E0,-1.2603547E1,-2.4224196E-1,-1.3018515E0,2.7012535E1,-9.49356E0,-9.351389E0,5.280835E-1,-1.623564E0,8.271491E1,-1.8950528E0,2.1377964E0,5.834771E0,-2.196503E0,1.0632207E2,-7.3362236E0,-5.6483035E0,-6.362124E-1,9.19585E-1,-4.9971203E1,-2.8514342E0,-2.1547406E0,6.5617743E0,-1.5347013E0,1.746868E2,-4.5849175E0,-2.4753997E0,-2.7070222E0,-1.3769218E0,-6.7755066E1,-6.79684E0,-4.161558E0,1.7319862E0,-6.902235E-1,1.8887317E2,-2.2967641E0,-3.7521732E0,5.6240067E0,-1.39276E0,3.6023416E2,-1.1003305E1,-3.5355084E0,-2.3968651E0,-1.322297E0,-1.3775233E2,-8.448363E0,-1.3811439E0,-3.8989396E0,-1.3113343E0,1.6866447E2,-1.0346505E1,-5.311246E0,2.470695E0,-1.3716308E0,2.0570044E2,-4.5305266E0,5.426151E-1,2.0006542E0,-1.3731908E0,4.0749355E1,-3.2895415E0,1.432752E0,1.2166343E0,-1.3977637E0,-5.0717554E0,-1.1678158E1,-4.608643E0,8.952332E0,-1.4486253E0,3.0192642E1,-1.0168928E1,-5.02075E0,9.232614E0,-8.7157667E-1,1.6128717E2,-1.9979626E1,-1.3614793E1,-5.479807E0,2.6312706E0,-6.3222633E1,-1.5185427E1,5.34168E-1,-3.3844836E0,-1.4571558E0,-9.580355E1,-6.870647E0,2.2769119E-1,-4.5651155E0,-1.9040514E0,-1.8197687E2],"categories":[],"categories_nodes":[],"categories_segments":[],"categories_sizes":[],"default_left":[0,0,0,0,0,0,0,0,0,0,0,0,0,0,0,0,0,0,0,0,0,0,0,0,0,0,0,0,0,0,0,0,0,0,0,0,0,0,0,0,0,0,0,0,0,0,0,0,0,0,0,0,0,0,0,0,0,0,0,0,0,0,0,0,0,0,0,0,0,0,0,0,0,0,0,0,0,0,0,0,0,0,0,0,0,0,0,0,0,0,0,0,0,0,0,0,0,0,0,0,0,0,0,0,0,0,0,0,0,0,0,0,0,0,0,0,0,0,0,0,0,0,0,0,0,0,0],"id":6,"left_children":[1,3,5,7,9,11,13,15,17,19,21,23,25,27,29,31,33,35,37,39,41,43,45,47,49,51,53,55,57,59,61,63,65,67,69,71,73,75,77,79,81,83,85,87,89,91,93,95,97,99,101,103,105,107,109,111,113,115,117,119,121,123,125,-1,-1,-1,-1,-1,-1,-1,-1,-1,-1,-1,-1,-1,-1,-1,-1,-1,-1,-1,-1,-1,-1,-1,-1,-1,-1,-1,-1,-1,-1,-1,-1,-1,-1,-1,-1,-1,-1,-1,-1,-1,-1,-1,-1,-1,-1,-1,-1,-1,-1,-1,-1,-1,-1,-1,-1,-1,-1,-1,-1,-1,-1,-1,-1],"parents":[-1,0,0,1,1,2,2,3,3,4,4,5,5,6,6,7,7,8,8,9,9,10,10,11,11,12,12,13,13,14,14,15,15,16,16,17,17,18,18,19,19,20,20,21,21,22,22,23,23,24,24,25,25,26,26,27,27,28,28,29,29,30,30,31,31,32,32,33,33,34,34,35,35,36,36,37,37,38,38,39,39,40,40,41,41,42,42,43,43,44,44,45,45,46,46,47,47,48,48,49,49,50,50,51,51,52,52,53,53,54,54,55,55,56,56,57,57,58,58,59,59,60,60,61,61,62,62],"right_children":[2,4,6,8,10,12,14,16,18,20,22,24,26,28,30,32,34,36,38,40,42,44,46,48,50,52,54,56,58,60,62,64,66,68,70,72,74,76,78,80,82,84,86,88,90,92,94,96,98,100,102,104,106,108,110,112,114,116,118,120,122,124,126,-1,-1,-1,-1,-1,-1,-1,-1,-1,-1,-1,-1,-1,-1,-1,-1,-1,-1,-1,-1,-1,-1,-1,-1,-1,-1,-1,-1,-1,-1,-1,-1,-1,-1,-1,-1,-1,-1,-1,-1,-1,-1,-1,-1,-1,-1,-1,-1,-1,-1,-1,-1,-1,-1,-1,-1,-1,-1,-1,-1,-1,-1,-1,-1],"split_conditions":[1.8288E3,5.57E1,4.697371E1,-1.68997E1,5.04E1,4.36841E1,1.72E2,-1.132833E2,1.027E2,2.56E2,1.21E2,1E2,1.4E2,5E1,3.21E2,8.7E2,-1.001712E2,4.85808E1,2E1,-5.6517E1,1.23E2,6.8155E1,3.07E2,-1.1129E2,2.9956E3,-1.15E2,3.07E2,-1.140575E2,1.0246E1,1.85E2,1.0246E1,-1.2205268E2,-1.21254654E2,3.2138866E1,1.15E2,-4.29742E1,1.282E1,1E0,-9.517E0,6.69767E1,3.2573E1,-1.480672E2,3.2E2,5E1,8.7E1,2.45E2,9.9617E1,3.825495E1,2.9956E3,-1.1129E2,3.96615E1,-1.164663E2,-1.1154E2,2.7432E3,2.7432E3,4.71944E1,1.0246E1,-1.140575E2,1.2E1,3E0,2.94E2,5.03539E1,3.44E2,0E0,0E0,0E0,0E0,0E0,0E0,0E0,0E0,0E0,0E0,0E0,0E0,0E0,0E0,0E0,0E0,0E0,0E0,0E0,0E0,0E0,0E0,0E0,0E0,0E0,0E0,0E0,0E0,0E0,0E0,0E0,0E0,0E0,0E0,0E0,0E0,0E0,0E0,0E0,0E0,0E0,0E0,0E0,0E0,0E0,0E0,0E0,0E0,0E0,0E0,0E0,0E0,0E0,0E0,0E0,0E0,0E0,0E0,0E0,0E0,0E0,0E0,0E0,0E0],"split_indices":[5,3,3,4,4,3,1,4,4,5,1,1,1,1,1,5,4,3,5,4,1,3,1,4,5,4,1,4,4,1,4,4,4,3,1,3,4,5,3,3,4,4,1,1,1,1,4,3,5,4,3,4,4,5,5,3,4,4,0,0,1,3,1,0,0,0,0,0,0,0,0,0,0,0,0,0,0,0,0,0,0,0,0,0,0,0,0,0,0,0,0,0,0,0,0,0,0,0,0,0,0,0,0,0,0,0,0,0,0,0,0,0,0,0,0,0,0,0,0,0,0,0,0,0,0,0,0],"split_type":[0,0,0,0,0,0,0,0,0,0,0,0,0,0,0,0,0,0,0,0,0,0,0,0,0,0,0,0,0,0,0,0,0,0,0,0,0,0,0,0,0,0,0,0,0,0,0,0,0,0,0,0,0,0,0,0,0,0,0,0,0,0,0,0,0,0,0,0,0,0,0,0,0,0,0,0,0,0,0,0,0,0,0,0,0,0,0,0,0,0,0,0,0,0,0,0,0,0,0,0,0,0,0,0,0,0,0,0,0,0,0,0,0,0,0,0,0,0,0,0,0,0,0,0,0,0,0],"tree_param":{"num_deleted":"0","num_feature":"6","num_nodes":"127","size_leaf_vector":"5"}},{"base_weights":[5.216359E0,-4.7336408E-1,-1.3093112E0,-3.1047878E0,-3.2885155E-1,7.4683075E0,1.4331359E0,-1.1574364E0,-3.15265E0,-5.262055E-1,-7.4811177E0,-1.1223051E1,-2.1656475E0,-2.834919E0,7.839169E-1,1.3875479E-1,-5.5265436E0,-1.4381202E0,-3.0496466E0,4.2028685E0,1.2206572E1,5.9322925E0,-9.7598547E-1,-3.2192378E0,-3.5833638E0,9.344004E0,7.747542E0,-2.2827551E0,-3.205483E0,-2.86065E0,-1.2380563E1,-1.6747253E1,-2.1315458E0,-2.7270112E0,1.8452084E0,9.946366E-2,-5.3796053E0,-1.4586198E0,-3.0514395E0,9.601505E-1,8.675249E-1,-8.251949E0,-1.0578938E0,-3.0163853E0,6.434866E1,-4.029972E0,-6.275159E0,-4.3062677E0,-3.1824584E0,-2.4765384E0,1.5288115E1,8.249151E0,-3.4392923E-1,-3.226218E0,-3.7934287E0,8.8423383E-1,-1.6298714E-1,-3.141301E0,-3.1940737E0,-2.7920616E0,2.0253126E1,1.7948402E1,-1.1756325E0,-3.2201927E0,-2.9490948E0,-2.196159E0,-5.66166E0,2.684782E0,-3.4943967E0,-6.427407E0,-1.6823793E1,-2.1583652E1,-4.2328033E0,-2.3922172E0,5.4543686E0,2.1486623E0,-2.6143234E0,-1.1390475E0,-3.0255458E0,-6.3321166E0,-6.205869E0,-1.3888307E1,-2.4419355E0,-3.1311135E0,2.3398273E1,2.6919236E0,-6.738358E0,-1.746039E0,-2.6611333E0,2.6367044E1,-3.6685264E0,-1.2015208E1,6.530621E-1,-3.8996499E0,1.5878316E2,-3.597488E0,-5.2574835E0,-1.7857438E0,-3.182401E0,-2.4087622E0,-6.5731435E0,-1.225948E1,-1.9127926E1,-3.1827936E0,-2.8750863E0,2.0714E1,1.3552742E1,2.561284E-1,-3.2312558E0,-3.5049243E0,3.952021E0,-2.8314316E0,-1.5976061E0,-3.2156925E0,-4.396189E0,3.020511E1,2.628291E1,-3.9593759E0,-3.2270484E0,-7.042284E-1,-9.7990626E-1,-1.8443433E0,-3.0892878E0,-3.191975E0,-2.9247985E0,2.776699E1,2.7102163E1,4.4196696E0,-3.2123823E0,-3.2718744E0,4.0539994E0,-1.7861551E0,-1.3238491E1,-3.2370224E0,-2.253209E0,9.9595433E-1,-2.0370448E0,3.728467E0,-3.4615726E0,-9.906906E0,-2.7102709E1,-3.394281E1,-5.4586086E0,-3.7504969E0,2.072151E1,-1.1929285E1,-1.4866155E1,-4.5122404E0,-2.79693E0,-5.629471E0,-2.6279709E1,-3.4561485E1,-3.6929448E0,-1.6103328E0,2.6867743E1,1.0088734E1,7.7331557E0,-1.4613723E0,-3.349616E0,-4.259127E0,-2.4691563E0,-8.632252E0,-9.5158845E-1,-2.8370717E0,-7.537734E0,-6.2282104E0,-1.4420233E1,-2.825708E0,-3.1075766E0,1.2413112E1,-5.92495E0,-7.2000284E0,2.3834846E0,-3.4270523E0,1.6152171E2,-4.004674E0,-1.5162301E1,3.1782684E-1,-2.288907E0,1.4263855E2,3.8767161E0,-5.247944E0,-2.1111865E0,-2.7269862E0,5.7956743E0,-4.0754743E0,-1.0449534E1,2.1835918E0,-3.6289642E0,2.217515E2,-3.1604753E0,-1.3969715E1,-1.2576433E0,-4.23755E0,8.0173065E1,-3.5619247E0,-5.207685E0,-1.7839226E0,-3.1823926E0,-2.5127702E0,-9.460808E1,-1.3269841E2,-6.445913E0,-3.202644E0,2.637661E2,1.162576E1,-4.228621E0,-2.2352165E1,-3.1850863E0,-2.767558E0,-3.8949917E1,-2.654676E1,-1.3391784E1,-3.1787057E0,-3.0663762E0,1.6901167E1,1.1764958E1,-3.5361025E-2,-3.2471156E0,-3.2461343E0,4.785311E1,2.6277876E1,2.330901E0,-3.1183672E0,-5.3469467E0,2.7266695E1,3.107195E1,9.404062E0,-3.1140618E0,-2.115164E0,2.4512424E0,-5.01381E0,-2.3057892E0,-3.2222342E0,-4.54302E0,2.3042486E0,1.9907074E1,-4.612019E0,-3.2476993E0,-3.636977E-1,1.0325872E2,4.2976185E1,-2.250359E0,-3.172851E0,-1.5958363E0,-1.0226708E1,-7.906109E0,-1.3134963E1,-3.2224283E0,-2.8736389E0,2.7902577E0,6.271988E-1,1.0065994E0,-3.1795554E0,-2.9456546E0,3.9679325E1,3.610204E1,2.8325155E0,-3.2179315E0,-3.4254384E0,-4.9741445E0,2.3659127E0,8.781939E0,-3.197116E0,-2.8497896E0,2.9576876E1,1.7457148E1,-1.3461913E1,-3.2002559E0,-2.3972337E0,-9.384342E-1,-5.55025E0,-1.3194747E1,-3.244204E0,-2.2250302E0,-4.158081E0,-1.1543239E1,5.830441E0,-3.024293E0,-6.3858724E0,1.3701803E1,2.1397854E1,-1.4533745E0,-4.5395603E0,-1.858703E1,-1.6166811E1,-2.8007635E1,-5.059571E0,-3.6406178E0,-1.3083952E1,-4.1486668E1,-4.174919E1,-5.98343E0,-3.8949957E0,6.518619E1,-1.2065593E1,-1.4604527E1,-4.797323E0,-2.796961E0,-8.797725E0,-9.659527E0,-1.9222551E1,2.348069E-1,-2.796405E0,4.712646E1,-2.1943634E1,-2.9906813E1,-3.9125292E0,-1.9487002E0,1.0992014E1,-3.675307E1,-4.5804375E1,-3.1625524E0,-7.9303396E-1,6.521411E1,5.0195704E0,3.535049E0,-1.9954536E0,-1.0200256E0,-1.3555006E0,-7.05874E-1,4.424378E-2,2.4776917E0,-9.765281E-1,-1.1321006E0,-2.1005737E-2,-2.3270526E0,-2.0421977E0,-9.6344614E-1,-3.9774854E0,-1.2961118E0,-2.79232E0,1.0700405E0,-7.644497E-1,-9.370967E-1,-1.5461032E0,-3.900618E0,-8.239609E-1,-9.303801E-1,2.8857784E0,-1.5276002E1,-2.2021385E1,-1.835576E0,-1.0109977E0,3.8584347E1,-2.976916E0,-1.4505392E0,3.0092027E0,-1.0655037E0,1.2723979E2,-7.9704267E-1,-2.7399328E0,-1.160241E0,-9.9755013E-1,-1.5942485E1,-1.8158245E0,-5.884065E0,5.609318E-1,-8.499699E-1,7.070083E1,-3.093358E-1,-2.609857E0,-5.806095E-1,-4.4957763E-1,2.2708993E0,1.5093391E0,-1.3013533E0,-7.518466E-1,-7.5503117E-1,-5.901595E0,3.1981388E-1,-2.239123E0,-3.4486395E-1,-9.716363E-1,2.0340544E1,-3.6154943E0,-4.020321E0,6.36361E-1,-1.0724742E0,3.701814E1,4.419294E-1,-2.518875E0,6.680925E-1,-1.0999607E0,8.705139E1,-5.7934684E-1,-4.157407E0,-6.4377993E-1,-1.2617593E0,3.9730966E0,-1.9509819E0,-4.2819443E0,3.4736758E-1,-1.2970868E0,7.8651375E1,-2.5548427E0,-2.3836231E0,4.0317217E-1,-9.52316E-1,-6.2896645E-1,1.7980152E-1,-8.724448E-1,-1.3233366E0,-9.5673484E-1,-8.5871005E-1,-2.976763E1,-4.1593365E1,-1.9152659E0,-9.608666E-1,1.1830808E2,-2.0111977E1,-2.9148907E1,-2.037116E0,-9.573856E-1,-1.5254579E2,-7.245931E-2,-3.0232158E0,-6.1368604E0,-9.5365405E-1,-8.4273463E-1,1.658705E1,5.1874027E0,-8.798403E0,-9.6240604E-1,-7.8438956E-1,-1.3642655E1,-9.419638E0,-4.320589E0,-9.543528E-1,-9.103663E-1,1.5034265E1,1.1902717E1,1.18766285E-1,-9.434582E-1,-1.0501683E0,2.3683503E0,1.0209268E0,3.3010638E-1,-9.787401E-1,-4.43904E-1,6.8838625E0,5.213169E0,-2.3928727E-1,-9.7104365E-1,-1.32952E0,1.6426046E1,9.208054E0,9.970992E-1,-9.3604565E-1,-1.8602338E0,5.655247E-1,-9.4127864E-1,-1.2847638E0,-9.319406E-1,1.0229949E-1,1.5769928E1,8.731414E0,2.132296E0,-9.354586E-1,-6.212322E-1,5.8900757E0,9.499626E0,3.029065E0,-9.338427E-1,-6.3856584E-1,3.3682613E0,3.7518087E-1,-1.1632432E0,-9.8273426E-1,-5.890344E-1,-5.078702E-1,-2.3915546E0,-4.6909267E-1,-9.5908487E-1,-1.728326E0,-8.182757E0,-7.9493546E0,-3.1261537E0,-9.6726716E-1,2.2006397E0,4.68197E0,1.22325735E1,-5.999407E-1,-9.7745585E-1,-1.1478163E0,2.2195955E1,1.0830658E1,-1.813016E0,-9.3806016E-1,-4.7397557E-1,3.64651E1,1.4181126E1,3.6244743E-2,-9.6041846E-1,-4.8170567E-1,-6.805859E0,-4.470532E0,-3.721955E0,-9.5974463E-1,-7.141234E-1,1.5252726E0,2.0717536E-1,-4.209015E0,-9.7530556E-1,-1.0439187E0,2.4222016E0,7.3568064E-1,-8.0904853E-1,-9.5435953E-1,-8.6327034E-1,-3.400072E0,-1.2754024E0,3.2718344E0,-9.525458E-1,-9.382935E-1,2.1500402E1,1.6351023E1,-1.1422821E0,-9.8104334E-1,-8.68155E-1,9.643926E0,9.530622E0,1.3188459E0,-9.6168894E-1,-1.0651836E0,-3.6675327E0,-1.4623969E0,2.0534258E0,-9.612321E-1,-8.416509E-1,2.4332613E1,2.6497478E1,9.533837E0,-9.3417907E-1,-1.0126169E0,-1.031606E1,-4.3356404E0,-4.207988E0,-9.633587E-1,-6.573234E-1,1.2153907E1,6.873828E0,-4.0095315E0,-9.594977E-1,-7.297314E-1,-6.386352E0,-5.1646132E0,-4.0352936E0,-9.4832206E-1,-6.117027E-1,4.399077E0,1.0180523E0,-3.8994663E0,-9.9237686E-1,-7.102925E-1,-4.558152E-1,-2.590753E0,1.9532052E0,-9.108527E-1,-2.2442389E0,-1.7300167E1,-2.1150341E1,-2.38921E0,-8.349888E-1,4.7453294E0,1.0252716E1,1.2090845E1,2.6370335E0,-1.3634149E0,-7.693754E0,1.5770082E0,4.079968E0,-1.7035818E0,-1.3612275E0,-4.702612E0,-6.0182195E0,-1.0658731E1,-2.3699763E0,-1.0785155E0,-3.7273238E0,1.4685309E-1,1.2496499E0,2.1269674E0,-1.1506257E0,-4.7714095E0,-1.1251323E1,-1.079532E1,-1.7410986E0,-1.1315057E0,1.0972607E1,-1.4350705E1,-1.5282145E1,-1.8809887E0,-1.2274634E0,3.324162E1,2.8534393E0,3.2292717E0,1.518617E0,-1.1683224E0,-5.628922E0,-3.9190784E0,-4.733372E0,-1.5760045E0,-8.2386005E-1,-2.5010388E0,-2.5547318E0,-5.3631077E0,-1.0269426E-1,-8.4908533E-1,8.400389E0,-4.6108556E0,-7.781897E0,9.34828E-1,-7.881584E-1,4.2782467E1,-5.566165E0,-7.9408393E0,-1.0567365E0,-5.476828E-1,3.132655E0,-2.3835026E1,-2.64662E1,-3.1590142E0,-1.2110697E0,6.0959163E0,-8.929577E0,-8.658085E0,3.834836E0,-3.6945686E-1,4.503115E1,-1.1694236E1,-1.5361871E1,-2.4738247E0,-1.959713E-1,1.1445084E1],"categories":[],"categories_nodes":[],"categories_segments":[],"categories_sizes":[],"default_left":[0,0,0,0,0,0,0,0,0,0,0,0,0,0,0,0,0,0,0,0,0,0,0,0,0,0,0,0,0,0,0,0,0,0,0,0,0,0,0,0,0,0,0,0,0,0,0,0,0,0,0,0,0,0,0,0,0,0,0,0,0,0,0,0,0,0,0,0,0,0,0,0,0,0,0,0,0,0,0,0,0,0,0,0,0,0,0,0,0,0,0,0,0,0,0,0,0,0,0,0,0,0,0,0,0,0,0,0,0,0,0,0,0,0,0,0,0,0,0,0,0,0,0,0,0,0,0],"id":7,"left_children":[1,3,5,7,9,11,13,15,17,19,21,23,25,27,29,31,33,35,37,39,41,43,45,47,49,51,53,55,57,59,61,63,65,67,69,71,73,75,77,79,81,83,85,87,89,91,93,95,97,99,101,103,105,107,109,111,113,115,117,119,121,123,125,-1,-1,-1,-1,-1,-1,-1,-1,-1,-1,-1,-1,-1,-1,-1,-1,-1,-1,-1,-1,-1,-1,-1,-1,-1,-1,-1,-1,-1,-1,-1,-1,-1,-1,-1,-1,-1,-1,-1,-1,-1,-1,-1,-1,-1,-1,-1,-1,-1,-1,-1,-1,-1,-1,-1,-1,-1,-1,-1,-1,-1,-1,-1,-1],"parents":[-1,0,0,1,1,2,2,3,3,4,4,5,5,6,6,7,7,8,8,9,9,10,10,11,11,12,12,13,13,14,14,15,15,16,16,17,17,18,18,19,19,20,20,21,21,22,22,23,23,24,24,25,25,26,26,27,27,28,28,29,29,30,30,31,31,32,32,33,33,34,34,35,35,36,36,37,37,38,38,39,39,40,40,41,41,42,42,43,43,44,44,45,45,46,46,47,47,48,48,49,49,50,50,51,51,52,52,53,53,54,54,55,55,56,56,57,57,58,58,59,59,60,60,61,61,62,62],"right_children":[2,4,6,8,10,12,14,16,18,20,22,24,26,28,30,32,34,36,38,40,42,44,46,48,50,52,54,56,58,60,62,64,66,68,70,72,74,76,78,80,82,84,86,88,90,92,94,96,98,100,102,104,106,108,110,112,114,116,118,120,122,124,126,-1,-1,-1,-1,-1,-1,-1,-1,-1,-1,-1,-1,-1,-1,-1,-1,-1,-1,-1,-1,-1,-1,-1,-1,-1,-1,-1,-1,-1,-1,-1,-1,-1,-1,-1,-1,-1,-1,-1,-1,-1,-1,-1,-1,-1,-1,-1,-1,-1,-1,-1,-1,-1,-1,-1,-1,-1,-1,-1,-1,-1,-1,-1,-1],"split_conditions":[3.11E2,1.23E2,2.92694E1,2.0659E3,-9.517E0,-2.71822E1,1.661E2,4.49628E1,4.10194E1,-2.38553E1,2.5E2,3.2573E1,2.0683E1,4.0417E1,4.33772E1,3.2138866E1,1.1753E3,2E0,-1.1048762E2,1.9678E3,1.449767E2,2.35581E1,2.76553E1,1.282E1,1.399267E2,1.454281E2,4.9E0,-1.68997E1,5.2E1,2.5481E3,3.5E2,1.435532E2,-9.4374E1,1.304935E2,-1.144681E2,-1.06485275E2,2.859E3,5.1E1,2.7432E3,-3.4017E1,1.1E1,1.342116E2,1.512173E2,1.74E2,6.215914E1,3E0,3.8120792E1,-4.29742E1,-3.23342E1,-3.3359E1,1.509225E2,-1.79364E1,-1.645E1,1E0,2.99E1,6.08E1,8.4667E0,1.399267E2,3.45E2,-1.2057E2,3.57E2,9.28E1,-1.144681E2,0E0,0E0,0E0,0E0,0E0,0E0,0E0,0E0,0E0,0E0,0E0,0E0,0E0,0E0,0E0,0E0,0E0,0E0,0E0,0E0,0E0,0E0,0E0,0E0,0E0,0E0,0E0,0E0,0E0,0E0,0E0,0E0,0E0,0E0,0E0,0E0,0E0,0E0,0E0,0E0,0E0,0E0,0E0,0E0,0E0,0E0,0E0,0E0,0E0,0E0,0E0,0E0,0E0,0E0,0E0,0E0,0E0,0E0,0E0,0E0,0E0,0E0,0E0,0E0],"split_indices":[1,1,3,5,3,3,5,3,3,3,1,4,3,4,3,3,5,0,4,5,4,4,3,4,4,4,5,4,3,5,1,4,4,4,4,4,5,1,5,3,0,4,4,1,3,0,3,3,3,3,4,3,3,5,5,3,4,4,1,4,1,4,4,0,0,0,0,0,0,0,0,0,0,0,0,0,0,0,0,0,0,0,0,0,0,0,0,0,0,0,0,0,0,0,0,0,0,0,0,0,0,0,0,0,0,0,0,0,0,0,0,0,0,0,0,0,0,0,0,0,0,0,0,0,0,0,0],"split_type":[0,0,0,0,0,0,0,0,0,0,0,0,0,0,0,0,0,0,0,0,0,0,0,0,0,0,0,0,0,0,0,0,0,0,0,0,0,0,0,0,0,0,0,0,0,0,0,0,0,0,0,0,0,0,0,0,0,0,0,0,0,0,0,0,0,0,0,0,0,0,0,0,0,0,0,0,0,0,0,0,0,0,0,0,0,0,0,0,0,0,0,0,0,0,0,0,0,0,0,0,0,0,0,0,0,0,0,0,0,0,0,0,0,0,0,0,0,0,0,0,0,0,0,0,0,0,0],"tree_param":{"num_deleted":"0","num_feature":"6","num_nodes":"127","size_leaf_vector":"5"}},{"base_weights":[3.6514516E0,-3.313567E-1,-9.1651833E-1,-2.1733522E0,-2.3018958E-1,-8.247993E0,-8.986867E0,-7.834626E-1,-1.9746574E0,-2.6692297E0,5.31575E0,8.792337E-1,-9.351279E-1,-2.2011423E0,1.1094325E-1,9.633904E0,8.123313E0,8.48735E-1,-2.324142E0,-3.5548174E0,-1.2604878E1,-1.31557255E1,-1.1811439E0,-1.8895061E0,-2.4534578E0,8.946365E0,4.0244727E0,-5.947746E-1,-2.2454655E0,8.09861E-1,-1.3410183E0,-4.887593E0,-1.559169E0,-2.1198752E0,-1.1705292E0,3.479316E1,2.9974247E1,-3.1487777E0,-2.3778086E0,-4.477887E0,2.806493E0,2.193674E0,1.9335295E0,-2.309577E0,-3.304324E0,-1.0461482E1,-1.0897211E1,-9.179069E-1,-1.8289189E0,-2.6575625E0,-5.1722397E1,-5.437416E1,-5.985286E0,-2.995233E0,1.2715079E0,8.962818E0,4.10598E0,-5.9626955E-1,-2.2470474E0,-3.0699554E-1,8.265191E0,6.50002E-1,-5.328832E-1,-2.1799664E0,4.704858E1,5.0025353E0,2.780239E0,-1.7999266E0,-2.271692E0,-1.3641791E0,-4.6831226E0,-8.927393E0,-1.4323257E0,-2.0398903E0,-1.0685047E0,-4.7115925E1,-4.101137E1,-1.0872967E1,-2.4483583E0,1.6403519E0,3.912126E1,3.372515E1,-2.740613E0,-2.3740747E0,-4.801172E0,-3.710575E-1,-1.1003194E0,-3.7572072E0,-2.3206475E0,-3.294926E0,1.7829641E1,1.7767353E1,2.8838785E1,-2.2572286E0,-3.3487449E0,-9.627943E0,-9.878353E0,-8.522668E-1,-1.8171866E0,-2.2253177E0,-5.501223E1,-6.5352905E1,-4.42622E0,-2.4559734E0,-2.576009E1,-4.7307446E1,-4.579605E1,-5.5786176E0,-2.8303163E0,1.7234018E1,-6.522711E1,-8.061385E1,-7.229217E0,-3.4996798E0,-4.7557407E1,1.8383915E1,4.9769754E0,-5.2685976E0,-2.2974472E0,1.2789772E1,7.451175E0,3.966226E0,1.5341945E-1,-2.2389607E0,-2.408411E0,5.40301E0,-6.92271E-2,6.6655535E-1,-2.0029163E0,9.997668E1,1.088775E1,1.3090196E0,-1.6319096E0,-2.342191E0,-1.4487123E0,-2.2352028E0,-3.515398E0,-3.0583942E0,-2.2273514E0,-1.4647717E0,7.434071E0,4.895274E0,-1.3771409E0,-2.286588E0,-1.3303846E0,-2.9847736E0,-7.60663E0,-1.6605175E0,-2.1395466E0,-3.349322E0,-1.575299E1,-1.753615E1,5.503305E-2,-1.3903266E0,1.3797907E1,1.12062365E-1,1.1303158E1,-1.2014462E1,-2.5561318E0,-1.6000229E1,-6.860322E1,-6.481367E1,-1.0352785E1,-2.3991468E0,9.66739E0,4.7383354E1,4.4891983E1,1.3986798E-1,-2.3806431E0,-4.3067956E0,1.7587084E1,4.6202855E0,-1.0248097E1,-2.3569334E0,-6.08964E0,3.5940137E0,1.8281369E-1,-8.961585E0,-2.3204198E0,-3.2221208E0,-1.4238397E1,-5.5879126E0,1.4444467E1,-2.321436E0,-3.5495417E0,4.0082924E1,3.0373081E1,1.774819E1,-2.2296922E0,-3.224133E0,-1.724921E1,-2.1036963E0,4.6321026E1,-2.3006132E0,-3.545143E0,3.8295534E0,9.633279E0,8.457759E0,-2.5871146E0,-6.933049E0,-1.1903044E1,-1.3176954E1,-2.4262037E0,-1.6870236E0,-1.4294363E0,-1.1033839E2,-1.1339933E2,-7.549344E0,-2.9151E0,-5.0297035E1,-2.7709396E1,-4.164234E1,-2.884979E0,-2.2293782E0,-1.365137E1,-2.862355E1,-3.0624788E1,-7.1491017E0,-3.1112726E0,-4.4197288E0,-6.942065E1,-6.3751842E1,-3.719815E0,-2.497768E0,4.286243E1,-7.045234E1,-8.3512665E1,-7.7080007E0,-3.3888755E0,-2.3369484E1,-5.199488E1,-7.3271454E1,-6.016716E0,-3.7801096E0,-1.0879817E2,1.7348095E1,5.557093E0,-5.6215644E0,-2.2890112E0,1.0621319E0,2.2975683E1,2.4053085E0,-3.7038915E0,-2.3348422E0,6.477837E1,8.068638E0,4.472604E0,2.8370857E-1,-2.239753E0,-2.9969015E0,-1.6938187E1,-1.603537E1,-4.9929166E0,-2.2076628E0,2.0836578E1,7.0523686E0,2.7632363E0,-9.36879E-1,-1.8835986E0,3.0994589E1,2.8535273E0,-4.4474397E0,3.1450226E0,-2.1873395E0,2.066036E2,9.503462E0,-3.8975117E0,-1.0078254E0,-2.3519557E0,5.409346E1,1.1138657E1,2.252805E0,-1.745034E0,-2.340416E0,-1.1516841E1,-7.99173E0,-7.110928E0,-7.4838758E0,-2.2258635E0,-7.4782103E-1,3.3554754E0,-2.345581E-2,1.2395879E0,-2.2287943E0,-2.161065E0,1.2874019E1,1.11362E1,-4.1670337E-2,-2.2276742E0,-1.8779582E0,2.5667448E0,-6.8871605E-1,-2.5720358E0,-2.3392997E0,-8.404497E-1,3.6534107E0,3.183144E0,2.2127254E0,-2.3588958E0,-4.1536784E0,-4.584649E0,-1.0207084E1,-2.5940115E0,-2.086681E0,-3.1554632E0,-1.5040779E1,-1.6599796E1,1.0366188E-1,-1.5012358E0,5.63807E0,-1.9543924E1,-2.2520151E1,-2.0381035E-1,-7.999712E-1,5.7231335E1,-1.172244E1,-8.141535E0,-3.4649143E0,-7.542262E-1,-4.689041E0,9.5425205E0,1.2718081E1,-3.7161157E0,-7.7682984E-1,-4.888546E0,-2.7686853E1,-2.490572E1,-3.4070344E0,-7.3561895E-1,3.305286E0,-9.0346044E-1,-4.3189282E0,-2.271175E0,-6.7560685E-1,1.7780536E0,6.5678596E0,8.577311E0,-3.99405E-1,-6.557247E-1,-7.40896E-1,1.9522148E1,1.686144E1,3.4827372E-1,-7.5476646E-1,-1.6745317E0,5.28176E0,1.2175525E0,-3.0872288E0,-7.066086E-1,-7.1798205E-1,4.856798E0,1.3819489E1,-2.128008E0,-7.4138135E-1,-8.364084E1,-6.765877E-1,-1.2446548E0,-2.715623E0,-6.940273E-1,-9.708826E-1,6.8641095E0,4.3395596E0,-2.5989537E0,-7.030426E-1,-9.5263094E-1,-5.5434422E0,-2.2624712E0,4.4025717E0,-6.9755554E-1,-1.0618286E0,2.1120687E1,1.0024239E1,2.9509256E0,-6.739249E-1,-1.1253511E0,3.1995033E1,2.1552794E1,1.1246473E0,-6.9279826E-1,-9.3252885E-1,6.8663015E0,5.8982587E0,6.409268E0,-6.627314E-1,-9.761988E-1,-1.1289085E1,-5.4906926E0,1.7431906E1,-6.974416E-1,-1.0573949E0,1.0308163E1,1.1674401E1,4.94296E0,-6.7178285E-1,-1.079075E0,2.2804987E0,4.2516847E0,2.8073645E0,-7.89721E-1,-1.6353917E0,-1.858664E1,-2.0857903E1,-2.1721091E0,-5.391729E-1,-9.832288E0,-4.263848E0,-5.2524166E0,-8.6027896E-1,-4.045552E-1,2.255404E-2,-1.9986883E-1,2.3679981E0,-8.366394E-2,-1.0001441E0,-2.6247628E0,-3.3907616E1,-3.465257E1,-2.3766828E0,-8.7519854E-1,-1.3465716E1,-1.6328897E1,-2.0849884E1,6.198243E-2,-8.602202E-1,-4.882862E1,-7.3804684E0,-1.1404207E1,-7.543749E-1,-6.559015E-1,2.3181055E0,-1.435257E1,-1.9543736E1,-1.5853295E0,-7.52413E-1,-4.564631E1,-8.156652E0,-9.030819E0,-2.4117274E0,-9.517967E-1,-2.67122E-1,-1.5242841E1,-1.160874E1,1.9847437E0,-6.484929E-1,-1.7700726E1,-1.98365E1,-1.8107672E1,-1.1918557E0,-7.654733E-1,1.7741009E1,-2.7794508E1,-2.6292475E1,-5.813113E-1,-6.3560915E-1,-2.1523285E1,-1.2336196E1,-2.216727E1,-3.4098089E0,-1.1742771E0,-3.679338E0,-2.9737375E1,-2.7874945E1,-1.2395308E0,-8.625544E-1,-1.0267479E1,-7.7379475E0,-2.0416462E1,-1.5528203E0,-1.1127908E0,-2.0828941E1,-3.823122E1,-2.648494E1,-2.5309837E0,-1.1950493E0,-6.664419E1,2.2815647E0,2.06216E-1,-1.3172965E0,-6.742781E-1,3.411884E0,1.0157586E1,4.1428266E0,-2.3120782E0,-7.0775926E-1,-4.923252E0,8.066907E0,8.5530555E-1,-1.2785267E0,-7.226654E-1,6.7751365E0,-2.012342E0,-2.9247552E-1,1.5807243E-1,-5.3198874E-1,1.1543292E2,-8.5569733E-1,-1.073443E0,-4.1118526E-1,-6.6971415E-1,-6.1458147E-1,3.1804008E0,1.9018998E0,2.0020983E-1,-6.7243886E-1,-9.6504676E-1,-8.0826025E0,-8.17315E0,-1.8129102E0,-6.864517E-1,1.2848731E1,-1.9163152E0,-1.2643324E0,-1.165623E0,-6.36825E-1,-7.072994E-1,-4.2056364E-1,9.41761E-1,4.9153697E-1,-9.461541E-1,8.713713E1,2.4009252E0,8.1628394E-1,-3.6794713E-1,-5.2222306E-1,5.448256E-1,1.476482E0,-1.6176723E0,9.145655E-1,-7.9043263E-1,6.76758E1,-1.0039629E1,3.6435452E0,1.451675E0,1.7011595E0,-3.8032543E1,-1.3698595E0,-5.638151E0,-1.0481926E0,-7.378232E-1,6.2068985E1,4.3903723E0,4.6058968E-1,-3.033023E-2,-6.9381887E-1,-4.9059418E-1,-1.3639113E1,-3.91277E0,2.0521681E0,-6.922071E-1,-2.186401E0,4.931162E0,1.1053822E0,-7.646195E-1,-7.030516E-1,-3.5738034E0,-7.588729E0,-1.0196604E1,-2.1463075E0,-6.722324E-1,8.863644E0,-2.1032703E0,-1.6762336E0,-2.250764E0,-6.6750485E-1,-7.394685E-1,-1.0193846E0,-1.1442345E0,6.081557E-1,-6.6833544E-1,-6.70278E-1,3.5103884E0,1.3983029E0,7.988353E-2,-6.6901135E-1,-6.2118226E-1,6.8760257E0,5.438347E0,-4.4390377E-1,-6.669467E-1,-5.509059E-1,-1.3244914E0,-2.688551E-1,7.2993004E-1,-6.706347E-1,-5.848674E-1,9.029984E0,6.513444E0,-2.0576248E0,-6.93901E-1,-1.9052906E-1,-6.437296E-2,-8.854547E-1,-6.417013E-1,-7.025866E-1,-2.5835806E-1,3.9399242E0,3.8186839E0,7.810787E0,-5.503987E-1,-2.1668448E0,7.9263204E-1,6.494356E-1,-9.862997E-2,-7.2444624E-1,-1.1478772E0,-6.5476996E-1,-2.4985383E0,-7.248216E-1,-6.05861E-1,-1.2328293E0,-6.0196424E0,-6.694302E0,-1.1222357E0,-7.5582254E-1,8.9778733E-1,-3.8039744E0,-4.141542E0,2.5288709E-2,-3.467607E-1,-1.9860352E0,-5.7767396E0,-6.4767895E0,4.147132E-2,-6.3535345E-1,8.257075E0,-5.4947214E0,-6.7205133E0,3.0501466E0,-6.923165E-1,5.322087E1,-5.968044E0,-6.766135E0,-9.468262E-1,-1.1122817E-1,6.9066515E0],"categories":[],"categories_nodes":[],"categories_segments":[],"categories_sizes":[],"default_left":[0,0,0,0,0,0,0,0,0,0,0,0,0,0,0,0,0,0,0,0,0,0,0,0,0,0,0,0,0,0,0,0,0,0,0,0,0,0,0,0,0,0,0,0,0,0,0,0,0,0,0,0,0,0,0,0,0,0,0,0,0,0,0,0,0,0,0,0,0,0,0,0,0,0,0,0,0,0,0,0,0,0,0,0,0,0,0,0,0,0,0,0,0,0,0,0,0,0,0,0,0,0,0,0,0,0,0,0,0,0,0,0,0,0,0,0,0,0,0,0,0,0,0,0,0,0,0],"id":8,"left_children":[1,3,5,7,9,11,13,15,17,19,21,23,25,27,29,31,33,35,37,39,41,43,45,47,49,51,53,55,57,59,61,63,65,67,69,71,73,75,77,79,81,83,85,87,89,91,93,95,97,99,101,103,105,107,109,111,113,115,117,119,121,123,125,-1,-1,-1,-1,-1,-1,-1,-1,-1,-1,-1,-1,-1,-1,-1,-1,-1,-1,-1,-1,-1,-1,-1,-1,-1,-1,-1,-1,-1,-1,-1,-1,-1,-1,-1,-1,-1,-1,-1,-1,-1,-1,-1,-1,-1,-1,-1,-1,-1,-1,-1,-1,-1,-1,-1,-1,-1,-1,-1,-1,-1,-1,-1,-1],"parents":[-1,0,0,1,1,2,2,3,3,4,4,5,5,6,6,7,7,8,8,9,9,10,10,11,11,12,12,13,13,14,14,15,15,16,16,17,17,18,18,19,19,20,20,21,21,22,22,23,23,24,24,25,25,26,26,27,27,28,28,29,29,30,30,31,31,32,32,33,33,34,34,35,35,36,36,37,37,38,38,39,39,40,40,41,41,42,42,43,43,44,44,45,45,46,46,47,47,48,48,49,49,50,50,51,51,52,52,53,53,54,54,55,55,56,56,57,57,58,58,59,59,60,60,61,61,62,62],"right_children":[2,4,6,8,10,12,14,16,18,20,22,24,26,28,30,32,34,36,38,40,42,44,46,48,50,52,54,56,58,60,62,64,66,68,70,72,74,76,78,80,82,84,86,88,90,92,94,96,98,100,102,104,106,108,110,112,114,116,118,120,122,124,126,-1,-1,-1,-1,-1,-1,-1,-1,-1,-1,-1,-1,-1,-1,-1,-1,-1,-1,-1,-1,-1,-1,-1,-1,-1,-1,-1,-1,-1,-1,-1,-1,-1,-1,-1,-1,-1,-1,-1,-1,-1,-1,-1,-1,-1,-1,-1,-1,-1,-1,-1,-1,-1,-1,-1,-1,-1,-1,-1,-1,-1,-1,-1,-1],"split_conditions":[4.6E1,2.22181E1,2.53E2,1.06633E2,7.4797E1,2.5481E3,3.47803E1,-4.29742E1,-2.38553E1,6.58467E1,6.274E2,-1.137128E2,1.45E2,-3.23342E1,3.51E2,-6.4918E1,1.6967E1,1.509225E2,1.435532E2,-1.164663E2,-1.68997E1,4.58E1,1.528E3,1.4813E3,6.393E1,3.974062E1,2E0,1.442079E2,2.6826E1,1.05E2,1.4454E3,3.75E1,1.282E1,6.95E1,2.7432E3,-3.23342E1,1.534319E2,-1.79364E1,1.491794E2,6.16942E1,-5.6517E1,-6.17667E1,3.895E2,4.410219E1,6.58467E1,4.544719E1,4.276997E1,-1.2057E2,4.66118E1,-1.3762E1,1.52E2,-1.12339874E2,-1.0554E2,1.74E2,3.302667E1,-4.29742E1,-3.63098E1,1.442079E2,-1.128E2,-1.2328E2,5.03539E1,4.59336E1,-1.144681E2,0E0,0E0,0E0,0E0,0E0,0E0,0E0,0E0,0E0,0E0,0E0,0E0,0E0,0E0,0E0,0E0,0E0,0E0,0E0,0E0,0E0,0E0,0E0,0E0,0E0,0E0,0E0,0E0,0E0,0E0,0E0,0E0,0E0,0E0,0E0,0E0,0E0,0E0,0E0,0E0,0E0,0E0,0E0,0E0,0E0,0E0,0E0,0E0,0E0,0E0,0E0,0E0,0E0,0E0,0E0,0E0,0E0,0E0,0E0,0E0,0E0,0E0,0E0,0E0],"split_indices":[1,3,1,4,4,5,3,3,3,3,5,4,1,3,1,4,3,4,4,4,4,3,5,5,3,3,0,4,3,5,5,5,4,5,5,3,4,3,4,3,4,4,5,3,3,3,3,4,3,3,1,4,4,1,3,3,3,4,4,4,3,3,4,0,0,0,0,0,0,0,0,0,0,0,0,0,0,0,0,0,0,0,0,0,0,0,0,0,0,0,0,0,0,0,0,0,0,0,0,0,0,0,0,0,0,0,0,0,0,0,0,0,0,0,0,0,0,0,0,0,0,0,0,0,0,0,0],"split_type":[0,0,0,0,0,0,0,0,0,0,0,0,0,0,0,0,0,0,0,0,0,0,0,0,0,0,0,0,0,0,0,0,0,0,0,0,0,0,0,0,0,0,0,0,0,0,0,0,0,0,0,0,0,0,0,0,0,0,0,0,0,0,0,0,0,0,0,0,0,0,0,0,0,0,0,0,0,0,0,0,0,0,0,0,0,0,0,0,0,0,0,0,0,0,0,0,0,0,0,0,0,0,0,0,0,0,0,0,0,0,0,0,0,0,0,0,0,0,0,0,0,0,0,0,0,0,0],"tree_param":{"num_deleted":"0","num_feature":"6","num_nodes":"127","size_leaf_vector":"5"}},{"base_weights":[2.5560126E0,-2.3195319E-1,-6.4156306E-1,-1.521347E0,-1.6113232E-1,5.0675454E0,4.565141E0,6.154799E-1,-1.5787158E0,-2.2196171E0,8.116116E-1,-3.563805E0,-1.5146501E0,-1.4815011E0,1.2686012E0,5.853331E0,5.395257E0,7.6742625E-1,-1.5785134E0,-2.5222898E0,-2.3105732E1,-2.5197544E1,-4.832353E0,-1.5859734E0,8.632303E0,8.078282E0,-1.0615271E0,9.9134195E-1,-1.6212662E0,3.267642E1,3.7558758E-1,-3.71395E0,-1.6650178E0,-1.4731147E0,-6.1597043E-1,1.3835111E1,1.3785866E1,4.78897E-1,-1.6090168E0,-4.665841E0,4.385281E0,3.852013E0,8.20494E-1,-1.572903E0,-2.1280367E0,-4.2533382E1,-4.6499573E1,-4.21784E0,-1.5989918E0,2.1696648E1,-1.0877084E1,-1.1789079E1,-5.219146E0,-1.5777762E0,4.0902138E-1,1.675763E0,-3.095373E0,4.1437488E0,-1.7860659E0,