{"learner":{"attributes":{"scikit_learn":"{\"_estimator_type\": \"regressor\"}"},"feature_names":[],"feature_types":[],"gradient_booster":{"model":{"gbtree_model_param":{"num_parallel_tree":"1","num_trees":"100"},"iteration_indptr":[0,1,2,3,4,5,6,7,8,9,10,11,12,13,14,15,16,17,18,19,20,21,22,23,24,25,26,27,28,29,30,31,32,33,34,35,36,37,38,39,40,41,42,43,44,45,46,47,48,49,50,51,52,53,54,55,56,57,58,59,60,61,62,63,64,65,66,67,68,69,70,71,72,73,74,75,76,77,78,79,80,81,82,83,84,85,86,87,88,89,90,91,92,93,94,95,96,97,98,99,100],"tree_info":[0,0,0,0,0,0,0,0,0,0,0,0,0,0,0,0,0,0,0,0,0,0,0,0,0,0,0,0,0,0,0,0,0,0,0,0,0,0,0,0,0,0,0,0,0,0,0,0,0,0,0,0,0,0,0,0,0,0,0,0,0,0,0,0,0,0,0,0,0,0,0,0,0,0,0,0,0,0,0,0,0,0,0,0,0,0,0,0,0,0,0,0,0,0,0,0,0,0,0,0],"trees":[{"base_weights":[7.979851E-8,4.2103586E0,-1.1063449E0,-5.2248016E-2,7.130478E0,-1.8483673E0,2.1521978E0,-5.484929E-1,7.239417E0,5.8426285E0,1.192194E1,2.3809798E-1,-2.2158425E0,-9.494114E-4,6.6768203E0,-1.8292295E0,1.0259801E0,5.8637033E0,1.0856591E1,5.3673105E0,1.37867E1,7.450888E0,1.5694814E1,-4.145882E-1,5.854606E0,-2.2687712E0,1.1898626E0,-9.46758E-1,5.1881547E0,4.2538176E0,9.685384E0,-2.1591198E0,-9.609702E-1,2.1698213E0,1.5366225E-1,1.9598654E1,5.5091467E0,1.6527819E1,7.6494455E0,6.060713E0,3.0191135E0,1.16012535E1,1.92605E1,7.1217384E0,2.6776768E1,1.7232088E1,1.0363429E1,-1.4849956E0,2.2752144E0,9.4730633E-1,8.650573E0,-2.3722003E0,-1.2603886E0,9.68294E0,-4.7021657E-1,-1.6942538E0,1.2753046E0,4.0297694E0,1.3816299E1,3.9528022E0,1.3412074E1,8.571889E0,1.3957634E1,-6.585121E-1,2.1909799E-1,-7.053587E-2,-4.3626788E-1,-5.444506E-1,7.896475E-1,2.1972185E-1,-2.9664436E-1,2.5395584E0,8.039208E0,3.5160418E0,1.4905962E0,1.2293222E0,5.3194556E0,1.80633E0,3.8953624E0,1.5652673E0,2.4831052E0,5.1211864E-1,1.2523469E0,2.7161703E0,5.823314E0,1.0996775E1,4.754446E0,2.484516E0,9.225387E-1,1.7964134E1,7.1693163E0,5.043006E0,9.839415E0,3.608586E0,3.4630635E-1,-6.669956E-1,-1.2695657E-1,-6.7562714E-2,9.578439E-1,-2.1439974E-1,7.699808E-1,1.5762643E1,2.4580755E0,-4.6486637E-1,-7.303581E-1,-5.215547E-1,2.1691068E-1,5.7629156E-1,4.077679E0,-4.4146404E-1,2.2254744E0,-6.922502E-1,-3.3964345E-1,1.9849155E-2,9.512434E-1,7.1970946E-1,2.0599408E0,7.7329707E0,3.1571326E0,8.717531E-1,1.8147023E0,3.490656E0,2.2768398E1,2.418798E0,6.200241E0,5.131646E0,2.8133874E0],"categories":[],"categories_nodes":[],"categories_segments":[],"categories_sizes":[],"default_left":[0,0,0,0,0,0,0,0,0,0,0,0,0,0,0,0,0,0,0,0,0,0,0,0,0,0,0,0,0,0,0,0,0,0,0,0,0,0,0,0,0,0,0,0,0,0,0,0,0,0,0,0,0,0,0,0,0,0,0,0,0,0,0,0,0,0,0,0,0,0,0,0,0,0,0,0,0,0,0,0,0,0,0,0,0,0,0,0,0,0,0,0,0,0,0,0,0,0,0,0,0,0,0,0,0,0,0,0,0,0,0,0,0,0,0,0,0,0,0,0,0,0,0,0,0,0,0],"id":0,"left_children":[1,3,5,7,9,11,13,15,17,19,21,23,25,27,29,31,33,35,37,39,41,43,45,47,49,51,53,55,57,59,61,63,65,67,69,71,73,75,77,79,81,83,85,87,89,91,93,95,97,99,101,103,105,107,109,111,113,115,117,119,121,123,125,-1,-1,-1,-1,-1,-1,-1,-1,-1,-1,-1,-1,-1,-1,-1,-1,-1,-1,-1,-1,-1,-1,-1,-1,-1,-1,-1,-1,-1,-1,-1,-1,-1,-1,-1,-1,-1,-1,-1,-1,-1,-1,-1,-1,-1,-1,-1,-1,-1,-1,-1,-1,-1,-1,-1,-1,-1,-1,-1,-1,-1,-1,-1,-1],"loss_changes":[1.2476959E8,6.9378216E7,5.1288056E7,8.1993935E6,2.041104E7,1.3246984E7,3.8329004E7,4.2781895E6,7.18444E5,9.843992E6,1.182008E7,9.484466E6,2.648024E6,1.3083331E7,9.247512E6,3.3510325E5,9.495704E5,5.09309E5,7.23465E5,4.005224E6,1.760444E6,2.039746E6,3.11448E6,6.673697E6,3.695798E6,1.50868E6,3.169613E6,3.745174E6,4.107542E6,1.93704E6,2.691956E6,8.7996E4,1.1532981E5,7.585585E5,3.569959E5,2.1071862E5,3.42275E5,2.149325E5,2.20703E5,3.548736E6,8.500905E5,2.092446E6,2.49215E6,1.480082E6,5.1036775E5,1.937392E6,1.304324E6,1.2998612E6,1.5139118E6,2.6311753E5,3.44139E6,6.72672E5,1.276143E6,1.1153295E6,1.4854255E6,5.81601E5,1.3008466E6,1.676105E6,1.915344E6,1.493012E6,2.4811618E6,2.764838E6,1.686498E6,0E0,0E0,0E0,0E0,0E0,0E0,0E0,0E0,0E0,0E0,0E0,0E0,0E0,0E0,0E0,0E0,0E0,0E0,0E0,0E0,0E0,0E0,0E0,0E0,0E0,0E0,0E0,0E0,0E0,0E0,0E0,0E0,0E0,0E0,0E0,0E0,0E0,0E0,0E0,0E0,0E0,0E0,0E0,0E0,0E0,0E0,0E0,0E0,0E0,0E0,0E0,0E0,0E0,0E0,0E0,0E0,0E0,0E0,0E0,0E0,0E0,0E0,0E0,0E0],"parents":[2147483647,0,0,1,1,2,2,3,3,4,4,5,5,6,6,7,7,8,8,9,9,10,10,11,11,12,12,13,13,14,14,15,15,16,16,17,17,18,18,19,19,20,20,21,21,22,22,23,23,24,24,25,25,26,26,27,27,28,28,29,29,30,30,31,31,32,32,33,33,34,34,35,35,36,36,37,37,38,38,39,39,40,40,41,41,42,42,43,43,44,44,45,45,46,46,47,47,48,48,49,49,50,50,51,51,52,52,53,53,54,54,55,55,56,56,57,57,58,58,59,59,60,60,61,61,62,62],"right_children":[2,4,6,8,10,12,14,16,18,20,22,24,26,28,30,32,34,36,38,40,42,44,46,48,50,52,54,56,58,60,62,64,66,68,70,72,74,76,78,80,82,84,86,88,90,92,94,96,98,100,102,104,106,108,110,112,114,116,118,120,122,124,126,-1,-1,-1,-1,-1,-1,-1,-1,-1,-1,-1,-1,-1,-1,-1,-1,-1,-1,-1,-1,-1,-1,-1,-1,-1,-1,-1,-1,-1,-1,-1,-1,-1,-1,-1,-1,-1,-1,-1,-1,-1,-1,-1,-1,-1,-1,-1,-1,-1,-1,-1,-1,-1,-1,-1,-1,-1,-1,-1,-1,-1,-1,-1,-1],"split_conditions":[7.5E1,3.8950275E1,3.14E2,1.8757E3,-8.136062E1,1.1E2,4.20793E1,3.54703E1,2.346E3,1.8757E3,4.20793E1,1.527E3,2.346E3,1.4245E3,3.43E2,3.41701E1,6E0,-1.1844712E2,-1.064956E2,5.8E1,2.4631E3,7.068E2,1E0,4.2998016E1,3.8748E1,4.3E1,1.42E2,3.99476E1,2.4631E3,1.6423E3,-8.086396E1,1.6184E3,6E0,-1.1329748E2,5E1,-1.191011E2,1E0,3.391245E1,-1.053114E2,-9.055178E1,4.254669E1,4.278273E1,-1.064956E2,1E0,1E0,7.3E1,6.4E1,3.90372E1,-1.1401084E2,3.63773E1,-1.2051788E2,1.23E2,9.176E2,3.8748E1,2.97E2,3.54703E1,3.46E2,3.47E2,-1.064956E2,4.58326E1,4.628973E1,1.6423E3,8E0,-6.585121E-1,2.1909799E-1,-7.053587E-2,-4.3626788E-1,-5.444506E-1,7.896475E-1,2.1972185E-1,-2.9664436E-1,2.5395584E0,8.039208E0,3.5160418E0,1.4905962E0,1.2293222E0,5.3194556E0,1.80633E0,3.8953624E0,1.5652673E0,2.4831052E0,5.1211864E-1,1.2523469E0,2.7161703E0,5.823314E0,1.0996775E1,4.754446E0,2.484516E0,9.225387E-1,1.7964134E1,7.1693163E0,5.043006E0,9.839415E0,3.608586E0,3.4630635E-1,-6.669956E-1,-1.2695657E-1,-6.7562714E-2,9.578439E-1,-2.1439974E-1,7.699808E-1,1.5762643E1,2.4580755E0,-4.6486637E-1,-7.303581E-1,-5.215547E-1,2.1691068E-1,5.7629156E-1,4.077679E0,-4.4146404E-1,2.2254744E0,-6.922502E-1,-3.3964345E-1,1.9849155E-2,9.512434E-1,7.1970946E-1,2.0599408E0,7.7329707E0,3.1571326E0,8.717531E-1,1.8147023E0,3.490656E0,2.2768398E1,2.418798E0,6.200241E0,5.131646E0,2.8133874E0],"split_indices":[4,6,4,8,7,4,6,6,8,8,6,8,8,8,4,6,0,7,7,4,8,8,5,6,6,3,4,6,8,8,7,8,0,7,4,7,0,6,7,7,6,6,7,5,0,4,4,6,7,6,7,4,8,6,4,6,4,4,7,6,6,8,0,0,0,0,0,0,0,0,0,0,0,0,0,0,0,0,0,0,0,0,0,0,0,0,0,0,0,0,0,0,0,0,0,0,0,0,0,0,0,0,0,0,0,0,0,0,0,0,0,0,0,0,0,0,0,0,0,0,0,0,0,0,0,0,0],"split_type":[0,0,0,0,0,0,0,0,0,0,0,0,0,0,0,0,0,0,0,0,0,0,0,0,0,0,0,0,0,0,0,0,0,0,0,0,0,0,0,0,0,0,0,0,0,0,0,0,0,0,0,0,0,0,0,0,0,0,0,0,0,0,0,0,0,0,0,0,0,0,0,0,0,0,0,0,0,0,0,0,0,0,0,0,0,0,0,0,0,0,0,0,0,0,0,0,0,0,0,0,0,0,0,0,0,0,0,0,0,0,0,0,0,0,0,0,0,0,0,0,0,0,0,0,0,0,0],"sum_hessian":[2.6785456E7,5.573746E6,2.1211712E7,2.265993E6,3.307753E6,1.7277376E7,3.934335E6,2.121605E6,1.44388E5,2.607036E6,7.00717E5,2.58727E6,1.4690106E7,2.665768E6,1.268567E6,1.169935E6,9.5167E5,1.04606E5,3.9782E4,2.459857E6,1.47179E5,3.20688E5,3.80029E5,2.31791E6,2.6936E5,1.4465299E7,2.24807E5,2.254792E6,4.10976E5,7.02665E5,5.65902E5,8.47812E5,3.22123E5,4.11752E5,5.39918E5,2.631E3,1.01975E5,1.4369E4,2.5413E4,1.899075E6,5.60782E5,1.05186E5,4.1993E4,3.15319E5,5.369E3,2.94973E5,8.5056E4,1.658078E6,6.59832E5,9.7767E4,1.71593E5,1.3119625E7,1.345674E6,3.6756E4,1.88051E5,1.687217E6,5.67575E5,3.62332E5,4.8644E4,6.80306E5,2.2359E4,4.48905E5,1.16997E5,8.37402E5,1.041E4,1.30333E5,1.9179E5,4.2808E4,3.68944E5,3.58376E5,1.81542E5,1.034E3,1.597E3,8.162E3,9.3813E4,1.269E3,1.31E4,1.9472E4,5.941E3,1.375712E6,5.23363E5,2.62588E5,2.98194E5,7.9317E4,2.5869E4,6.885E3,3.5108E4,2.45068E5,7.0251E4,4.28E2,4.941E3,2.87188E5,7.785E3,7.2031E4,1.3025E4,9.78017E5,6.80061E5,1.77138E5,4.82694E5,4.8248E4,4.9519E4,1.767E3,1.69826E5,9.23987E5,1.2195638E7,1.084293E6,2.61381E5,1.2312E4,2.4444E4,1.6687E5,2.1181E4,8.06903E5,8.80314E5,3.46527E5,2.21048E5,2.30072E5,1.3226E5,1.0499E4,3.8145E4,4.53704E5,2.26602E5,2.1742E4,6.17E2,4.30771E5,1.8134E4,6.9336E4,4.7661E4],"tree_param":{"num_deleted":"0","num_feature":"9","num_nodes":"127","size_leaf_vector":"1"}},{"base_weights":[6.9878324E-6,3.218371E0,-7.210588E-1,3.2863373E-1,5.5792313E0,-1.1304276E0,2.0743277E0,-1.2205548E-1,5.2751126E0,4.3273044E0,8.446057E0,3.3136392E-1,-1.4313205E0,1.9484769E-1,5.3564906E0,-1.1165528E0,1.1610942E0,2.4431288E0,6.3558087E0,3.7997348E0,9.161232E0,4.5660825E0,1.0692654E1,-9.693686E-2,5.006071E0,-1.6221342E0,-2.8044114E-1,-3.917891E-1,6.0529547E0,3.580612E0,6.6975513E0,-1.4680237E0,-3.7551194E-1,4.304667E-1,3.0624971E0,-1.0465143E0,4.3603005E0,1.3022418E1,5.8326597E0,3.0946462E0,5.664536E0,8.528635E0,7.693109E1,6.984534E0,1.9474972E0,9.939365E0,1.5069347E1,-1.3891349E0,1.2716062E0,4.7763686E0,5.9158817E1,-1.7128137E0,-8.3197165E-1,-1.5902871E0,8.0307317E-1,-1.1717365E0,1.1687088E0,3.6947155E0,9.110249E0,2.2589064E0,4.7295656E0,2.3095367E0,7.2561965E0,-5.0559765E-1,-3.5211125E-1,2.8484994E-1,-1.946519E-1,4.2376658E-1,-9.609579E-2,1.580927E0,2.0687218E-1,-3.749984E-1,7.433514E0,2.1589735E0,1.4315216E-2,1.3756533E1,2.3224108E0,8.0593574E-1,2.093803E0,-6.3132274E-1,1.0552268E0,1.5103892E0,4.2629423E0,2.3076422E0,5.080155E0,1.807962E1,2.7857628E1,9.1647476E-1,2.6176143E0,8.679008E-1,-2.6297057E-1,3.5471172E0,2.503756E0,3.03847E0,5.4429855E0,-5.188922E-1,-2.4462564E-1,1.5640938E-1,6.790586E-1,9.617027E-1,3.3456514E0,2.401708E1,1.3623355E1,-5.3412306E-1,-4.4216195E-1,5.762548E-1,-4.20147E-1,-5.347243E-1,2.6789623E-1,1.5973946E-1,2.3648758E0,-4.2839763E-1,-1.1415966E-1,8.222073E-2,9.9256593E-1,8.234504E-1,2.5680592E0,2.1662652E0,4.998069E0,3.6219215E-1,1.217695E0,1.0188729E0,2.4230576E0,-5.96807E-1,2.7716289E0,1.4843637E0,2.6052718E0],"categories":[],"categories_nodes":[],"categories_segments":[],"categories_sizes":[],"default_left":[0,0,0,0,0,0,0,0,0,0,0,0,0,0,0,0,0,0,0,0,0,0,0,0,0,0,0,0,0,0,0,0,0,0,0,0,0,0,0,0,0,0,0,0,0,0,0,0,0,0,0,0,0,0,0,0,0,0,0,0,0,0,0,0,0,0,0,0,0,0,0,0,0,0,0,0,0,0,0,0,0,0,0,0,0,0,0,0,0,0,0,0,0,0,0,0,0,0,0,0,0,0,0,0,0,0,0,0,0,0,0,0,0,0,0,0,0,0,0,0,0,0,0,0,0,0,0],"id":1,"left_children":[1,3,5,7,9,11,13,15,17,19,21,23,25,27,29,31,33,35,37,39,41,43,45,47,49,51,53,55,57,59,61,63,65,67,69,71,73,75,77,79,81,83,85,87,89,91,93,95,97,99,101,103,105,107,109,111,113,115,117,119,121,123,125,-1,-1,-1,-1,-1,-1,-1,-1,-1,-1,-1,-1,-1,-1,-1,-1,-1,-1,-1,-1,-1,-1,-1,-1,-1,-1,-1,-1,-1,-1,-1,-1,-1,-1,-1,-1,-1,-1,-1,-1,-1,-1,-1,-1,-1,-1,-1,-1,-1,-1,-1,-1,-1,-1,-1,-1,-1,-1,-1,-1,-1,-1,-1,-1],"loss_changes":[6.2159732E7,3.3447928E7,2.504134E7,4.91446E6,9.684312E6,8.395478E6,1.7243232E7,2.5781848E6,5.63373E5,4.78964E6,7.14914E6,6.523622E6,3.476144E6,6.108295E6,2.423976E6,2.9645212E5,1.2255185E6,3.4017672E5,4.64609E5,2.226452E6,7.922207E6,1.904643E6,1.712316E6,5.2783895E6,3.401404E6,9.72884E5,3.194996E6,1.9664092E6,1.1664595E6,6.650025E5,1.42152E6,4.937475E4,1.3261545E5,4.698958E5,1.282599E6,9.477607E4,4.014068E5,1.680498E6,4.45695E5,2.700822E6,2.500679E6,1.287223E6,4.4805E5,1.069557E6,3.8558562E5,1.330552E6,1.158242E6,2.99909E5,1.0787448E6,2.7270425E6,3.2819575E5,1.96724E5,2.1876108E6,4.86247E5,2.3604335E6,2.1840925E5,1.03072356E6,4.22116E5,1.0048685E6,3.854982E5,1.0455155E6,1.9508942E6,1.69565E6,0E0,0E0,0E0,0E0,0E0,0E0,0E0,0E0,0E0,0E0,0E0,0E0,0E0,0E0,0E0,0E0,0E0,0E0,0E0,0E0,0E0,0E0,0E0,0E0,0E0,0E0,0E0,0E0,0E0,0E0,0E0,0E0,0E0,0E0,0E0,0E0,0E0,0E0,0E0,0E0,0E0,0E0,0E0,0E0,0E0,0E0,0E0,0E0,0E0,0E0,0E0,0E0,0E0,0E0,0E0,0E0,0E0,0E0,0E0,0E0,0E0,0E0,0E0,0E0],"parents":[2147483647,0,0,1,1,2,2,3,3,4,4,5,5,6,6,7,7,8,8,9,9,10,10,11,11,12,12,13,13,14,14,15,15,16,16,17,17,18,18,19,19,20,20,21,21,22,22,23,23,24,24,25,25,26,26,27,27,28,28,29,29,30,30,31,31,32,32,33,33,34,34,35,35,36,36,37,37,38,38,39,39,40,40,41,41,42,42,43,43,44,44,45,45,46,46,47,47,48,48,49,49,50,50,51,51,52,52,53,53,54,54,55,55,56,56,57,57,58,58,59,59,60,60,61,61,62,62],"right_children":[2,4,6,8,10,12,14,16,18,20,22,24,26,28,30,32,34,36,38,40,42,44,46,48,50,52,54,56,58,60,62,64,66,68,70,72,74,76,78,80,82,84,86,88,90,92,94,96,98,100,102,104,106,108,110,112,114,116,118,120,122,124,126,-1,-1,-1,-1,-1,-1,-1,-1,-1,-1,-1,-1,-1,-1,-1,-1,-1,-1,-1,-1,-1,-1,-1,-1,-1,-1,-1,-1,-1,-1,-1,-1,-1,-1,-1,-1,-1,-1,-1,-1,-1,-1,-1,-1,-1,-1,-1,-1,-1,-1,-1,-1,-1,-1,-1,-1,-1,-1,-1,-1,-1,-1,-1,-1],"split_conditions":[6.6E1,3.9458153E1,3.29E2,1.7602E3,-8.678178E1,1.1E2,4.15697E1,3.608049E1,1.9E1,1.6423E3,4.15697E1,1.6184E3,2.99E2,1.7209E3,3.45E2,3.431187E1,-8.551738E1,5E0,4E0,4.58326E1,4.628973E1,7E0,3.661E2,4.03302E1,4.628973E1,1.5103E3,3.934698E1,3.90372E1,3.8950275E1,4.415E1,-1.2213841E2,3.2404156E1,2E0,6E0,7E0,-1.038092E2,1E1,1E0,3.56878E1,-1.2213841E2,-9.11171E1,2.5951E3,-1.228918E2,2.1E1,8E0,6E0,4.24077E1,3.74332E1,4.415E1,2.346E3,4.68736E1,4.4039E1,1.42E2,1.8379E3,1.9111E3,5.24E2,5.877E2,3.6E2,2.5951E3,3.661E2,-9.17762E1,4.96E1,4.3435562E1,-5.0559765E-1,-3.5211125E-1,2.8484994E-1,-1.946519E-1,4.2376658E-1,-9.609579E-2,1.580927E0,2.0687218E-1,-3.749984E-1,7.433514E0,2.1589735E0,1.4315216E-2,1.3756533E1,2.3224108E0,8.0593574E-1,2.093803E0,-6.3132274E-1,1.0552268E0,1.5103892E0,4.2629423E0,2.3076422E0,5.080155E0,1.807962E1,2.7857628E1,9.1647476E-1,2.6176143E0,8.679008E-1,-2.6297057E-1,3.5471172E0,2.503756E0,3.03847E0,5.4429855E0,-5.188922E-1,-2.4462564E-1,1.5640938E-1,6.790586E-1,9.617027E-1,3.3456514E0,2.401708E1,1.3623355E1,-5.3412306E-1,-4.4216195E-1,5.762548E-1,-4.20147E-1,-5.347243E-1,2.6789623E-1,1.5973946E-1,2.3648758E0,-4.2839763E-1,-1.1415966E-1,8.222073E-2,9.9256593E-1,8.234504E-1,2.5680592E0,2.1662652E0,4.998069E0,3.6219215E-1,1.217695E0,1.0188729E0,2.4230576E0,-5.96807E-1,2.7716289E0,1.4843637E0,2.6052718E0],"split_indices":[4,6,4,8,7,4,6,6,4,8,6,8,4,8,4,6,7,0,3,6,6,0,8,6,6,8,6,6,6,6,7,6,0,0,0,7,0,0,6,7,7,8,7,4,3,0,6,6,6,8,6,6,4,8,8,8,8,4,8,8,7,6,6,0,0,0,0,0,0,0,0,0,0,0,0,0,0,0,0,0,0,0,0,0,0,0,0,0,0,0,0,0,0,0,0,0,0,0,0,0,0,0,0,0,0,0,0,0,0,0,0,0,0,0,0,0,0,0,0,0,0,0,0,0,0,0,0],"split_type":[0,0,0,0,0,0,0,0,0,0,0,0,0,0,0,0,0,0,0,0,0,0,0,0,0,0,0,0,0,0,0,0,0,0,0,0,0,0,0,0,0,0,0,0,0,0,0,0,0,0,0,0,0,0,0,0,0,0,0,0,0,0,0,0,0,0,0,0,0,0,0,0,0,0,0,0,0,0,0,0,0,0,0,0,0,0,0,0,0,0,0,0,0,0,0,0,0,0,0,0,0,0,0,0,0,0,0,0,0,0,0,0,0,0,0,0,0,0,0,0,0,0,0,0,0,0,0],"sum_hessian":[2.6785456E7,4.902759E6,2.1882698E7,2.20446E6,2.698299E6,1.9087448E7,2.79525E6,2.020378E6,1.84082E5,1.878132E6,8.20167E5,3.258257E6,1.5829191E7,1.777432E6,1.017818E6,1.138213E6,8.82165E5,5.0845E4,1.33237E5,1.693326E6,1.84806E5,3.00754E5,5.19413E5,2.984789E6,2.73468E5,1.3577986E7,2.251205E6,1.615641E6,1.61791E5,4.37917E5,5.79901E5,7.72039E5,3.66174E5,6.37285E5,2.4488E5,1.8029E4,3.2816E4,9.693E3,1.23544E5,1.228738E6,4.64588E5,1.83098E5,1.708E3,1.56351E5,1.44403E5,4.43145E5,7.6268E4,1.535216E6,1.449573E6,2.72314E5,1.154E3,1.218018E7,1.397806E6,1.019158E6,1.232047E6,1.077233E6,5.38408E5,9.1339E4,7.0452E4,2.0365E5,2.34267E5,6.5491E4,5.1441E5,4.44127E5,3.27912E5,6.2618E4,3.03556E5,2.7611E5,3.61175E5,1.26868E5,1.18012E5,1.7889E4,1.4E2,1.9796E4,1.302E4,1.342E3,8.351E3,3.3001E4,9.0543E4,9.2404E4,1.136334E6,4.32694E5,3.1894E4,1.66527E5,1.6571E4,8.37E2,8.71E2,4.8001E4,1.0835E5,1.08183E5,3.622E4,2.0304E5,2.40105E5,2.9252E4,4.7016E4,9.63417E5,5.71799E5,8.25333E5,6.2424E5,2.1849E5,5.3824E4,4.56E2,6.98E2,9.494247E6,2.685933E6,2.39264E5,1.158542E6,9.4597E5,7.3188E4,1.18669E6,4.5357E4,8.13693E5,2.6354E5,3.79673E5,1.58735E5,7.6421E4,1.4918E4,5.6352E4,1.41E4,1.28552E5,7.5098E4,1.67535E5,6.6732E4,4.0417E4,2.5074E4,1.9661E5,3.178E5],"tree_param":{"num_deleted":"0","num_feature":"9","num_nodes":"127","size_leaf_vector":"1"}},{"base_weights":[1.1368059E-5,1.9401332E0,-5.9859914E-1,1.0795018E-2,3.447263E0,-9.1535324E-1,1.5454298E0,-2.7562213E-1,3.667013E0,2.779969E0,5.9154706E0,-9.600918E-1,1.9244001E0,-8.480948E-2,3.5014863E0,-8.176948E-1,7.608181E-1,1.1532628E1,3.3629417E0,2.3873518E0,6.4304695E0,3.9145758E0,8.087E0,-1.0481645E0,9.463275E-2,6.6309786E0,3.1951183E-1,-4.6795422E-1,4.676716E0,3.218544E0,9.540652E0,-1.0166507E0,-1.8194047E-1,2.7077237E-1,2.442304E0,8.454217E0,1.9355715E1,2.4725952E0,5.610981E0,2.9647515E0,8.329185E-1,4.283512E1,5.8326473E0,4.884826E0,5.270372E-1,7.301328E0,1.4862041E1,-4.7313762E-1,-1.1651235E0,-8.047899E-1,2.241573E0,1.3381553E0,1.0642163E1,-1.3198112E0,3.6146348E0,-1.0724477E0,2.4740505E-1,2.1261601E0,6.7273045E0,2.5952423E0,5.307945E0,6.744159E1,8.117266E0,-2.6926628E-1,-4.3536234E-1,-1.6365129E-1,5.947645E-1,-6.440069E-1,1.5644199E-1,5.932625E-1,4.802315E0,5.9975863E0,1.6464735E0,1.049883E1,4.698812E0,6.9344175E-1,4.3746986E0,3.3693047E0,9.086518E-1,5.740449E-1,1.2143108E0,1.7589779E-1,1.4641291E0,8.375299E0,1.4731135E1,1.4578685E0,3.5706348E0,1.2159023E0,2.5838823E0,2.05726E0,-4.5488873E-1,2.1402168E0,8.0697775E0,5.563956E0,3.7859786E0,-2.923126E-1,2.0423755E-1,-3.7469208E-1,-2.4883635E-1,-3.1912097E-1,9.364645E-2,5.614908E-1,1.9679809E0,-1.2360436E-1,1.2134364E0,5.146156E0,2.8025663E0,8.116041E-2,-4.2820278E-1,3.3826336E-1,1.8693599E0,-3.745541E-1,-1.8369305E-1,-9.263263E-2,5.456165E-1,3.5918849E0,4.0673757E-1,1.4857554E0,3.321379E0,4.095418E-1,1.3192326E0,1.2497883E0,2.8970783E0,1.1706558E1,2.4902494E1,5.6923413E0,2.0202706E0],"categories":[],"categories_nodes":[],"categories_segments":[],"categories_sizes":[],"default_left":[0,0,0,0,0,0,0,0,0,0,0,0,0,0,0,0,0,0,0,0,0,0,0,0,0,0,0,0,0,0,0,0,0,0,0,0,0,0,0,0,0,0,0,0,0,0,0,0,0,0,0,0,0,0,0,0,0,0,0,0,0,0,0,0,0,0,0,0,0,0,0,0,0,0,0,0,0,0,0,0,0,0,0,0,0,0,0,0,0,0,0,0,0,0,0,0,0,0,0,0,0,0,0,0,0,0,0,0,0,0,0,0,0,0,0,0,0,0,0,0,0,0,0,0,0,0,0],"id":2,"left_children":[1,3,5,7,9,11,13,15,17,19,21,23,25,27,29,31,33,35,37,39,41,43,45,47,49,51,53,55,57,59,61,63,65,67,69,71,73,75,77,79,81,83,85,87,89,91,93,95,97,99,101,103,105,107,109,111,113,115,117,119,121,123,125,-1,-1,-1,-1,-1,-1,-1,-1,-1,-1,-1,-1,-1,-1,-1,-1,-1,-1,-1,-1,-1,-1,-1,-1,-1,-1,-1,-1,-1,-1,-1,-1,-1,-1,-1,-1,-1,-1,-1,-1,-1,-1,-1,-1,-1,-1,-1,-1,-1,-1,-1,-1,-1,-1,-1,-1,-1,-1,-1,-1,-1,-1,-1,-1],"loss_changes":[3.1108024E7,1.8364774E7,1.3901579E7,2.9006565E6,5.8401E6,2.265855E6,8.402199E6,1.4431539E6,4.8122775E5,4.00053E6,3.278824E6,1.63102E6,2.0894485E6,2.6218332E6,2.046603E6,2.1333038E5,7.2685825E5,1.801915E5,3.877535E5,2.261944E6,5.898748E6,1.29086E6,1.926174E6,1.089862E6,2.6129785E6,1.4933172E6,1.1142875E6,5.751759E5,5.597625E5,1.490038E6,4.4172475E6,6.6481E4,3.163492E5,4.1396612E5,1.254999E6,1.8386022E5,1.21556625E5,2.7073756E5,7.9754475E5,2.092057E6,6.812779E5,4.081195E5,1.574937E6,9.467415E5,1.1311386E6,1.062854E6,3.10414E5,1.5841985E6,3.79014E5,2.7582456E5,6.38224E5,1.4365795E5,3.386375E5,2.3557453E4,4.4596744E5,5.8403812E4,5.3239156E5,3.6182703E5,4.57348E5,1.9536405E6,1.305599E6,5.656895E5,7.85486E5,0E0,0E0,0E0,0E0,0E0,0E0,0E0,0E0,0E0,0E0,0E0,0E0,0E0,0E0,0E0,0E0,0E0,0E0,0E0,0E0,0E0,0E0,0E0,0E0,0E0,0E0,0E0,0E0,0E0,0E0,0E0,0E0,0E0,0E0,0E0,0E0,0E0,0E0,0E0,0E0,0E0,0E0,0E0,0E0,0E0,0E0,0E0,0E0,0E0,0E0,0E0,0E0,0E0,0E0,0E0,0E0,0E0,0E0,0E0,0E0,0E0,0E0,0E0,0E0],"parents":[2147483647,0,0,1,1,2,2,3,3,4,4,5,5,6,6,7,7,8,8,9,9,10,10,11,11,12,12,13,13,14,14,15,15,16,16,17,17,18,18,19,19,20,20,21,21,22,22,23,23,24,24,25,25,26,26,27,27,28,28,29,29,30,30,31,31,32,32,33,33,34,34,35,35,36,36,37,37,38,38,39,39,40,40,41,41,42,42,43,43,44,44,45,45,46,46,47,47,48,48,49,49,50,50,51,51,52,52,53,53,54,54,55,55,56,56,57,57,58,58,59,59,60,60,61,61,62,62],"right_children":[2,4,6,8,10,12,14,16,18,20,22,24,26,28,30,32,34,36,38,40,42,44,46,48,50,52,54,56,58,60,62,64,66,68,70,72,74,76,78,80,82,84,86,88,90,92,94,96,98,100,102,104,106,108,110,112,114,116,118,120,122,124,126,-1,-1,-1,-1,-1,-1,-1,-1,-1,-1,-1,-1,-1,-1,-1,-1,-1,-1,-1,-1,-1,-1,-1,-1,-1,-1,-1,-1,-1,-1,-1,-1,-1,-1,-1,-1,-1,-1,-1,-1,-1,-1,-1,-1,-1,-1,-1,-1,-1,-1,-1,-1,-1,-1,-1,-1,-1,-1,-1,-1,-1,-1,-1,-1],"split_conditions":[8.5E1,3.934698E1,4.8E1,1.8379E3,-8.136062E1,2.346E3,4.045201E1,3.68626E1,-1.1844712E2,1.6184E3,4.26083E1,3.13E2,1.45E2,1.8757E3,1.6423E3,5.24E2,-8.35603E1,-1.191011E2,2.346E3,6.2E1,-1.2051788E2,1E0,4.081E2,1.23E2,4.254669E1,3.8950275E1,2.75E2,3.697877E1,3.46E2,-8.223782E1,-1.216874E2,1E0,-8.35603E1,-1.2051788E2,8.94E2,1.9111E3,2E0,-1.038092E2,-1.064956E2,2E0,5.01333E1,4.0566196E1,2.4631E3,3.661E2,4E0,5.3E1,-7.4843254E1,4.254669E1,2.76E2,1.0129E3,5.01333E1,3.7995907E1,-1.064956E2,1.53E2,3.923842E1,3.51691E1,7.324E2,3.31E2,2.4631E3,4.48405E1,3.423E2,3.43E2,4.066569E1,-2.6926628E-1,-4.3536234E-1,-1.6365129E-1,5.947645E-1,-6.440069E-1,1.5644199E-1,5.932625E-1,4.802315E0,5.9975863E0,1.6464735E0,1.049883E1,4.698812E0,6.9344175E-1,4.3746986E0,3.3693047E0,9.086518E-1,5.740449E-1,1.2143108E0,1.7589779E-1,1.4641291E0,8.375299E0,1.4731135E1,1.4578685E0,3.5706348E0,1.2159023E0,2.5838823E0,2.05726E0,-4.5488873E-1,2.1402168E0,8.0697775E0,5.563956E0,3.7859786E0,-2.923126E-1,2.0423755E-1,-3.7469208E-1,-2.4883635E-1,-3.1912097E-1,9.364645E-2,5.614908E-1,1.9679809E0,-1.2360436E-1,1.2134364E0,5.146156E0,2.8025663E0,8.116041E-2,-4.2820278E-1,3.3826336E-1,1.8693599E0,-3.745541E-1,-1.8369305E-1,-9.263263E-2,5.456165E-1,3.5918849E0,4.0673757E-1,1.4857554E0,3.321379E0,4.095418E-1,1.3192326E0,1.2497883E0,2.8970783E0,1.1706558E1,2.4902494E1,5.6923413E0,2.0202706E0],"split_indices":[4,6,3,8,7,8,6,6,7,8,6,4,4,8,8,8,7,7,8,4,7,5,8,4,6,6,4,6,4,7,7,5,7,7,8,8,0,7,7,2,6,6,8,8,3,3,7,6,4,8,6,6,7,4,6,6,8,4,8,6,8,4,6,0,0,0,0,0,0,0,0,0,0,0,0,0,0,0,0,0,0,0,0,0,0,0,0,0,0,0,0,0,0,0,0,0,0,0,0,0,0,0,0,0,0,0,0,0,0,0,0,0,0,0,0,0,0,0,0,0,0,0,0,0,0,0,0],"split_type":[0,0,0,0,0,0,0,0,0,0,0,0,0,0,0,0,0,0,0,0,0,0,0,0,0,0,0,0,0,0,0,0,0,0,0,0,0,0,0,0,0,0,0,0,0,0,0,0,0,0,0,0,0,0,0,0,0,0,0,0,0,0,0,0,0,0,0,0,0,0,0,0,0,0,0,0,0,0,0,0,0,0,0,0,0,0,0,0,0,0,0,0,0,0,0,0,0,0,0,0,0,0,0,0,0,0,0,0,0,0,0,0,0,0,0,0,0,0,0,0,0,0,0,0,0,0,0],"sum_hessian":[2.6785456E7,6.315772E6,2.0469684E7,2.769905E6,3.545867E6,1.783481E7,2.634875E6,2.568683E6,2.01222E5,2.791241E6,7.54626E5,1.7558192E7,2.76618E5,1.437128E6,1.197747E6,1.686579E6,8.82104E5,7.488E3,1.93734E5,2.520192E6,2.71049E5,3.92745E5,3.61881E5,1.6205025E7,1.353167E6,7.0338E4,2.0628E5,1.3301E6,1.07028E5,1.144144E6,5.3603E4,1.284577E6,4.02002E5,6.83042E5,1.99062E5,5.375E3,2.113E3,1.38774E5,5.496E4,1.837606E6,6.82586E5,4.378E3,2.66671E5,3.05301E5,8.7444E4,3.24278E5,3.7603E4,2.738964E6,1.3466061E7,9.53652E5,3.99515E5,3.0325E4,4.0013E4,1.3775E5,6.853E4,7.20913E5,6.09187E5,4.77E4,5.9328E4,8.81254E5,2.6289E5,1.285E3,5.2318E4,1.008254E6,2.76323E5,3.4419E5,5.7812E4,6.4178E4,6.18864E5,1.92469E5,6.593E3,1.098E3,4.277E3,4.02E2,1.711E3,1.36953E5,1.821E3,1.7301E4,3.7659E4,9.32444E5,9.05162E5,6.43389E5,3.9197E4,1.297E3,3.081E3,2.29826E5,3.6845E4,2.4961E5,5.5691E4,2.1337E4,6.6107E4,3.21535E5,2.743E3,1.4223E4,2.338E4,1.909518E6,8.29446E5,1.077457E7,2.691491E6,7.74172E5,1.7948E5,3.67992E5,3.1523E4,1.8417E4,1.1908E4,6.658E3,3.3355E4,8.724E3,1.29026E5,3.5135E4,3.3395E4,5.21403E5,1.9951E5,4.49931E5,1.59256E5,3.46E3,4.424E4,4.2121E4,1.7207E4,5.2376E5,3.57494E5,2.08217E5,5.4673E4,4.56E2,8.29E2,5.91E3,4.6408E4],"tree_param":{"num_deleted":"0","num_feature":"9","num_nodes":"127","size_leaf_vector":"1"}},{"base_weights":[1.4114295E-5,1.7710801E0,-3.3862364E-1,4.3671155E-1,3.35041E0,-4.9502853E-1,1.5247445E0,2.608679E-2,2.6487281E0,2.3303668E0,5.390162E0,-6.2329465E-1,5.531773E-1,5.192928E-1,3.903585E0,1.6154904E0,-2.956382E-1,1.947684E0,7.6875997E0,-2.3645076E-1,2.7020237E0,3.5723405E0,7.079608E0,-8.834188E-1,-2.0783049E-1,2.366553E0,-1.017036E-2,2.69416E-1,5.413173E0,2.9573567E0,6.5040746E0,3.7977356E-1,3.767416E0,-5.802089E-1,5.977329E-1,3.7244883E-1,2.9972925E0,9.794326E0,4.590761E-1,-2.0877025E0,7.8563666E0,2.334556E0,5.304244E0,-1.1870035E0,3.9901836E0,8.711984E0,1.3276075E0,-9.3507284E-1,-5.753572E-1,9.110155E-1,-4.664325E-1,-7.561415E-2,3.9125514E0,-6.743602E-1,1.5505922E0,-4.0205565E-1,1.2073548E0,9.684951E0,2.200369E0,2.027655E0,7.809786E0,8.661088E0,3.338663E0,3.023922E-1,-4.1210777E-1,7.357949E-1,2.4881768E0,-5.495731E-1,-1.0620808E-1,8.2675534E-1,-1.4237642E-1,-4.0978205E-1,5.127414E-1,7.352644E-1,1.9098307E0,3.6968527E0,1.9422182E0,1.0141644E0,-1.0318471E0,-8.357276E-1,1.6499227E-1,3.1522963E0,3.935265E-1,5.2859896E-1,1.3277822E0,2.1215189E0,-2.2257191E-1,3.424453E0,-1.404051E0,4.025289E0,9.383474E-1,3.8260942E0,1.6975895E0,-1.0898864E0,1.0188895E0,-4.6972772E-1,-2.759159E-1,2.3862703E-2,-2.3157011E-1,-8.050733E-1,3.7326673E-1,-2.2396334E-1,3.4008873E-1,2.148379E0,-7.144627E-2,8.332623E0,1.1033359E0,1.4514504E-1,-2.5823644E-1,4.284952E-1,6.784348E0,1.589168E-1,-2.0420004E-1,1.8050434E-1,9.3956983E-1,1.8308628E0,5.3604236E0,1.2837832E-2,1.4364178E0,-4.9154893E-1,8.018139E-1,1.7290381E0,3.395025E0,1.8086218E0,5.1510906E0,8.159802E0,8.184913E-1],"categories":[],"categories_nodes":[],"categories_segments":[],"categories_sizes":[],"default_left":[0,0,0,0,0,0,0,0,0,0,0,0,0,0,0,0,0,0,0,0,0,0,0,0,0,0,0,0,0,0,0,0,0,0,0,0,0,0,0,0,0,0,0,0,0,0,0,0,0,0,0,0,0,0,0,0,0,0,0,0,0,0,0,0,0,0,0,0,0,0,0,0,0,0,0,0,0,0,0,0,0,0,0,0,0,0,0,0,0,0,0,0,0,0,0,0,0,0,0,0,0,0,0,0,0,0,0,0,0,0,0,0,0,0,0,0,0,0,0,0,0,0,0,0,0,0,0],"id":3,"left_children":[1,3,5,7,9,11,13,15,17,19,21,23,25,27,29,31,33,35,37,39,41,43,45,47,49,51,53,55,57,59,61,63,65,67,69,71,73,75,77,79,81,83,85,87,89,91,93,95,97,99,101,103,105,107,109,111,113,115,117,119,121,123,125,-1,-1,-1,-1,-1,-1,-1,-1,-1,-1,-1,-1,-1,-1,-1,-1,-1,-1,-1,-1,-1,-1,-1,-1,-1,-1,-1,-1,-1,-1,-1,-1,-1,-1,-1,-1,-1,-1,-1,-1,-1,-1,-1,-1,-1,-1,-1,-1,-1,-1,-1,-1,-1,-1,-1,-1,-1,-1,-1,-1,-1,-1,-1,-1],"loss_changes":[1.6064575E7,9.060697E6,6.55332E6,2.116776E6,4.096742E6,2.7891195E6,4.1647265E6,1.00510256E6,1.2889062E6,1.252182E6,2.015858E6,1.9975045E6,2.310486E6,1.496707E6,1.272911E6,8.79897E5,4.155833E5,5.296015E5,6.78639E5,2.487257E6,1.0963805E6,6.287985E5,3.194394E6,1.80869E5,2.0590856E6,2.0240508E6,1.7888658E6,7.3338794E5,8.1598925E5,1.71113E6,9.42301E5,2.3153492E5,7.1830125E5,3.5099572E5,9.1390944E5,2.976362E5,3.5383088E5,2.896185E5,1.14567734E5,2.4877412E5,5.3627375E5,1.2030635E6,1.5161608E6,1.1234524E6,2.363069E6,3.270268E6,7.717869E5,9.4257E4,2.10089E5,1.6002708E6,2.59081E6,2.4444966E5,1.838957E6,2.6136731E5,1.3267392E6,1.761779E5,5.663144E5,7.480065E5,1.8946916E5,7.527811E5,4.37601E5,1.8384245E6,8.1452494E5,0E0,0E0,0E0,0E0,0E0,0E0,0E0,0E0,0E0,0E0,0E0,0E0,0E0,0E0,0E0,0E0,0E0,0E0,0E0,0E0,0E0,0E0,0E0,0E0,0E0,0E0,0E0,0E0,0E0,0E0,0E0,0E0,0E0,0E0,0E0,0E0,0E0,0E0,0E0,0E0,0E0,0E0,0E0,0E0,0E0,0E0,0E0,0E0,0E0,0E0,0E0,0E0,0E0,0E0,0E0,0E0,0E0,0E0,0E0,0E0,0E0,0E0,0E0,0E0],"parents":[2147483647,0,0,1,1,2,2,3,3,4,4,5,5,6,6,7,7,8,8,9,9,10,10,11,11,12,12,13,13,14,14,15,15,16,16,17,17,18,18,19,19,20,20,21,21,22,22,23,23,24,24,25,25,26,26,27,27,28,28,29,29,30,30,31,31,32,32,33,33,34,34,35,35,36,36,37,37,38,38,39,39,40,40,41,41,42,42,43,43,44,44,45,45,46,46,47,47,48,48,49,49,50,50,51,51,52,52,53,53,54,54,55,55,56,56,57,57,58,58,59,59,60,60,61,61,62,62],"right_children":[2,4,6,8,10,12,14,16,18,20,22,24,26,28,30,32,34,36,38,40,42,44,46,48,50,52,54,56,58,60,62,64,66,68,70,72,74,76,78,80,82,84,86,88,90,92,94,96,98,100,102,104,106,108,110,112,114,116,118,120,122,124,126,-1,-1,-1,-1,-1,-1,-1,-1,-1,-1,-1,-1,-1,-1,-1,-1,-1,-1,-1,-1,-1,-1,-1,-1,-1,-1,-1,-1,-1,-1,-1,-1,-1,-1,-1,-1,-1,-1,-1,-1,-1,-1,-1,-1,-1,-1,-1,-1,-1,-1,-1,-1,-1,-1,-1,-1,-1,-1,-1,-1,-1,-1,-1,-1],"split_conditions":[5.8E1,4.045201E1,3.43E2,1.4245E3,-8.790981E1,1.4941E3,4.254669E1,2E0,5.1E1,1.89E2,5E0,4.15697E1,1.23E2,2.0269E3,-8.7799446E1,3.74332E1,4.4E1,2.1E1,1E0,5.68055E1,5.1E1,1E0,1E0,7.324E2,1.1E2,3.8950275E1,2.82E2,3.8950275E1,-1.063258E2,1.1E1,8E0,7E0,-8.1952E1,4E0,6E0,6E0,2.4631E3,5.5E1,5.5E1,-1.2213841E2,6.405E1,4.64444E1,1E0,1E1,2E0,4.1E1,3.7E1,1E1,1.23E2,1E0,4.5E1,-1.1844712E2,-1.2051788E2,1.45E2,4.64444E1,3E0,1E0,3.864294E1,3.923842E1,1.908E2,4.64444E1,6E0,2E0,3.023922E-1,-4.1210777E-1,7.357949E-1,2.4881768E0,-5.495731E-1,-1.0620808E-1,8.2675534E-1,-1.4237642E-1,-4.0978205E-1,5.127414E-1,7.352644E-1,1.9098307E0,3.6968527E0,1.9422182E0,1.0141644E0,-1.0318471E0,-8.357276E-1,1.6499227E-1,3.1522963E0,3.935265E-1,5.2859896E-1,1.3277822E0,2.1215189E0,-2.2257191E-1,3.424453E0,-1.404051E0,4.025289E0,9.383474E-1,3.8260942E0,1.6975895E0,-1.0898864E0,1.0188895E0,-4.6972772E-1,-2.759159E-1,2.3862703E-2,-2.3157011E-1,-8.050733E-1,3.7326673E-1,-2.2396334E-1,3.4008873E-1,2.148379E0,-7.144627E-2,8.332623E0,1.1033359E0,1.4514504E-1,-2.5823644E-1,4.284952E-1,6.784348E0,1.589168E-1,-2.0420004E-1,1.8050434E-1,9.3956983E-1,1.8308628E0,5.3604236E0,1.2837832E-2,1.4364178E0,-4.9154893E-1,8.018139E-1,1.7290381E0,3.395025E0,1.8086218E0,5.1510906E0,8.159802E0,8.184913E-1],"split_indices":[4,6,4,8,7,8,6,0,4,8,3,6,4,8,7,6,4,4,5,6,4,0,5,8,4,6,4,6,7,0,0,3,7,0,0,0,8,4,4,7,6,6,5,4,0,4,4,3,4,0,3,7,7,4,6,0,5,6,6,8,6,0,3,0,0,0,0,0,0,0,0,0,0,0,0,0,0,0,0,0,0,0,0,0,0,0,0,0,0,0,0,0,0,0,0,0,0,0,0,0,0,0,0,0,0,0,0,0,0,0,0,0,0,0,0,0,0,0,0,0,0,0,0,0,0,0,0],"split_type":[0,0,0,0,0,0,0,0,0,0,0,0,0,0,0,0,0,0,0,0,0,0,0,0,0,0,0,0,0,0,0,0,0,0,0,0,0,0,0,0,0,0,0,0,0,0,0,0,0,0,0,0,0,0,0,0,0,0,0,0,0,0,0,0,0,0,0,0,0,0,0,0,0,0,0,0,0,0,0,0,0,0,0,0,0,0,0,0,0,0,0,0,0,0,0,0,0,0,0,0,0,0,0,0,0,0,0,0,0,0,0,0,0,0,0,0,0,0,0,0,0,0,0,0,0,0,0],"sum_hessian":[2.6785456E7,4.29945E6,2.2486008E7,2.330458E6,1.968992E6,2.0744762E7,1.741245E6,1.965581E6,3.64877E5,1.312591E6,6.56401E5,1.8483042E7,2.26172E6,1.223933E6,5.17312E5,3.30891E5,1.63469E6,3.20314E5,4.4563E4,1.66016E5,1.146575E6,3.16189E5,3.40212E5,1.1366451E7,7.116591E6,5.36088E5,1.725632E6,1.164477E6,5.9456E4,3.793E5,1.38012E5,2.10192E5,1.20699E5,1.239777E6,3.94913E5,1.28086E5,1.92228E5,3.4506E4,1.0057E4,1.3511E5,3.0906E4,1.0047E6,1.41875E5,2.5519E4,2.9067E5,2.65005E5,7.5207E4,9.734263E6,1.632188E6,1.336068E6,5.780523E6,2.07813E5,3.28275E5,1.210499E6,5.15133E5,6.78639E5,4.85838E5,2.5521E4,3.3935E4,3.18314E5,6.0986E4,8.2079E4,5.5933E4,1.54751E5,5.5441E4,9.3533E4,2.7166E4,1.8974E5,1.050037E6,1.31088E5,2.63825E5,5.5677E4,7.2409E4,1.65402E5,2.6826E4,1.9587E4,1.4919E4,5.749E3,4.308E3,1.06836E5,2.8274E4,2.1995E4,8.911E3,7.88762E5,2.15938E5,1.09782E5,3.2093E4,5.538E3,1.9981E4,2.4359E4,2.66311E5,1.14044E5,1.50961E5,2.2133E4,5.3074E4,2.31334E5,9.502929E6,3.76767E5,1.255421E6,1.13342E5,1.222726E6,4.91933E6,8.61193E5,4.564E3,2.03249E5,3.197E3,3.25078E5,1.67834E5,1.042665E6,5.12161E5,2.972E3,1.56211E5,5.22428E5,3.69541E5,1.16297E5,1.7752E4,7.769E3,1.8506E4,1.5429E4,4.7627E4,2.70687E5,3.8515E4,2.2471E4,6.2688E4,1.9391E4,1.394E3,5.4539E4],"tree_param":{"num_deleted":"0","num_feature":"9","num_nodes":"127","size_leaf_vector":"1"}},{"base_weights":[1.2820003E-5,9.8782176E-1,-3.0476844E-1,-2.826917E-1,1.6335864E0,-5.0199497E-1,5.9133023E-1,-3.748567E-1,1.9179589E0,1.2556589E0,3.1252604E0,-6.8103683E-1,-2.2637746E-1,4.1686907E-2,2.0077107E0,-6.506922E-1,6.1184175E-2,4.3514E0,-3.7565608E-2,1.0728076E0,4.6023426E0,2.6792955E0,8.074072E0,-6.99222E-1,9.916403E-1,6.921325E-1,-4.0084976E-1,-8.0482475E-2,3.629035E0,1.8266472E0,1.1505893E1,-8.1265146E-1,-4.618355E-1,-3.2618695E-1,6.518189E-1,1.4464219E0,5.6691813E0,-1.151565E0,4.425725E0,3.2372177E-1,1.5575556E0,4.040965E0,1.1571609E1,1.6119872E0,4.412662E0,7.048091E0,1.4911377E1,-9.7356004E-1,-6.6857845E-1,2.3000568E-1,6.413458E0,-6.243558E-1,1.4528762E0,-5.691591E-1,2.1848072E-1,-5.345263E-1,4.3758443E-1,7.9346795E0,1.9659749E0,1.0680614E0,4.159945E0,3.8141376E1,9.571758E0,-2.6256126E-1,-1.5371609E-1,-2.821161E-1,-9.209573E-2,-3.217088E-2,-3.3577764E-1,4.1301433E-2,4.8274276E-1,1.1497942E0,-8.801931E-1,4.263928E0,1.4898632E0,1.3962303E0,-5.0666213E-1,-8.04252E-1,1.8430047E0,6.0195133E-2,1.7187632E0,2.6501733E-1,7.7679425E-1,1.4596094E0,1.2958613E-1,4.639376E0,2.375173E0,7.7214295E-1,-1.0723501E-1,-9.099097E-2,1.4456677E0,1.6674196E0,2.796468E0,5.430742E0,2.3008623E0,-6.949911E-1,-2.4073985E-1,-2.096898E-1,8.817744E-2,9.913159E-1,-7.341443E-3,1.5384964E0,3.1792095E0,-3.071655E-1,8.035455E-3,2.9512623E-1,1.8506486E0,-2.5560973E-2,-1.9658937E-1,-7.411079E-2,5.571875E-1,1.5220234E-1,-1.9430138E-1,5.146234E-2,9.0751386E-1,1.0656906E0,5.6437793E0,-5.142929E-2,1.238609E0,8.247899E-3,8.260355E-1,9.537521E-1,2.5256522E0,1.9559753E1,1.0536899E1,6.843018E0,2.548943E0],"categories":[],"categories_nodes":[],"categories_segments":[],"categories_sizes":[],"default_left":[0,0,0,0,0,0,0,0,0,0,0,0,0,0,0,0,0,0,0,0,0,0,0,0,0,0,0,0,0,0,0,0,0,0,0,0,0,0,0,0,0,0,0,0,0,0,0,0,0,0,0,0,0,0,0,0,0,0,0,0,0,0,0,0,0,0,0,0,0,0,0,0,0,0,0,0,0,0,0,0,0,0,0,0,0,0,0,0,0,0,0,0,0,0,0,0,0,0,0,0,0,0,0,0,0,0,0,0,0,0,0,0,0,0,0,0,0,0,0,0,0,0,0,0,0,0,0],"id":4,"left_children":[1,3,5,7,9,11,13,15,17,19,21,23,25,27,29,31,33,35,37,39,41,43,45,47,49,51,53,55,57,59,61,63,65,67,69,71,73,75,77,79,81,83,85,87,89,91,93,95,97,99,101,103,105,107,109,111,113,115,117,119,121,123,125,-1,-1,-1,-1,-1,-1,-1,-1,-1,-1,-1,-1,-1,-1,-1,-1,-1,-1,-1,-1,-1,-1,-1,-1,-1,-1,-1,-1,-1,-1,-1,-1,-1,-1,-1,-1,-1,-1,-1,-1,-1,-1,-1,-1,-1,-1,-1,-1,-1,-1,-1,-1,-1,-1,-1,-1,-1,-1,-1,-1,-1,-1,-1,-1],"loss_changes":[8.064182E6,5.1817935E6,3.6176985E6,4.316785E5,2.360636E6,8.27902E5,2.8746705E6,2.4569825E5,4.07122E5,2.0444845E6,1.8681125E6,3.093645E5,1.0587579E6,1.1658819E6,1.7753578E6,3.8272E4,1.8109955E5,1.4591612E5,2.3586175E5,1.1503158E6,6.7711725E5,1.4365245E6,4.907515E5,8.45795E4,4.5168953E5,1.0562226E6,5.787455E5,6.051438E5,6.27334E5,1.7930515E6,9.9447175E5,1.2651281E4,4.280668E4,8.3005516E4,1.5431308E5,1.2436603E5,1.5742788E5,1.18427875E5,1.1567216E5,8.279817E5,1.337789E6,4.7657925E5,1.8342612E5,9.103351E5,5.66898E5,2.060625E5,2.1082675E5,2.3229475E5,2.64699E5,7.503697E4,7.238856E4,1.0047947E5,1.4787186E6,1.8199375E5,9.0511144E5,1.616194E5,8.271476E5,1.1636335E6,2.9215906E5,1.3407189E6,1.038134E6,1.0445375E5,2.5610588E5,0E0,0E0,0E0,0E0,0E0,0E0,0E0,0E0,0E0,0E0,0E0,0E0,0E0,0E0,0E0,0E0,0E0,0E0,0E0,0E0,0E0,0E0,0E0,0E0,0E0,0E0,0E0,0E0,0E0,0E0,0E0,0E0,0E0,0E0,0E0,0E0,0E0,0E0,0E0,0E0,0E0,0E0,0E0,0E0,0E0,0E0,0E0,0E0,0E0,0E0,0E0,0E0,0E0,0E0,0E0,0E0,0E0,0E0,0E0,0E0,0E0,0E0,0E0,0E0],"parents":[2147483647,0,0,1,1,2,2,3,3,4,4,5,5,6,6,7,7,8,8,9,9,10,10,11,11,12,12,13,13,14,14,15,15,16,16,17,17,18,18,19,19,20,20,21,21,22,22,23,23,24,24,25,25,26,26,27,27,28,28,29,29,30,30,31,31,32,32,33,33,34,34,35,35,36,36,37,37,38,38,39,39,40,40,41,41,42,42,43,43,44,44,45,45,46,46,47,47,48,48,49,49,50,50,51,51,52,52,53,53,54,54,55,55,56,56,57,57,58,58,59,59,60,60,61,61,62,62],"right_children":[2,4,6,8,10,12,14,16,18,20,22,24,26,28,30,32,34,36,38,40,42,44,46,48,50,52,54,56,58,60,62,64,66,68,70,72,74,76,78,80,82,84,86,88,90,92,94,96,98,100,102,104,106,108,110,112,114,116,118,120,122,124,126,-1,-1,-1,-1,-1,-1,-1,-1,-1,-1,-1,-1,-1,-1,-1,-1,-1,-1,-1,-1,-1,-1,-1,-1,-1,-1,-1,-1,-1,-1,-1,-1,-1,-1,-1,-1,-1,-1,-1,-1,-1,-1,-1,-1,-1,-1,-1,-1,-1,-1,-1,-1,-1,-1,-1,-1,-1,-1,-1,-1,-1,-1,-1,-1],"split_conditions":[8.5E1,3.78663E1,4.6E1,2.0269E3,-8.136062E1,3.953E2,4.278273E1,3.51691E1,-1.0736167E2,1.951E3,4.648E2,6.05029E1,1.8E1,2.1769E3,1.8059E3,3.2856716E1,3.953E2,3.504189E1,-1.053114E2,4.11758E1,4.363096E1,4.289778E1,7.507E2,-1.1844712E2,4.2E1,3.8748E1,2.76E2,3.002E2,-1.064956E2,-8.69294E1,-1.174E2,1.1E1,-1.05690346E2,1E0,-8.53497E1,-1.0934574E2,1E0,1E0,3.62022E1,8.3E1,-9.459615E1,4.071507E1,4.450802E1,9E0,1E0,4.254669E1,9E0,1.7E1,4.628973E1,1E2,3.1E2,3.65516E1,1.951E3,1.44E2,4.407994E1,1E0,-8.136062E1,3.864294E1,3.923842E1,4.64444E1,2.829E2,1E0,1E0,-2.6256126E-1,-1.5371609E-1,-2.821161E-1,-9.209573E-2,-3.217088E-2,-3.3577764E-1,4.1301433E-2,4.8274276E-1,1.1497942E0,-8.801931E-1,4.263928E0,1.4898632E0,1.3962303E0,-5.0666213E-1,-8.04252E-1,1.8430047E0,6.0195133E-2,1.7187632E0,2.6501733E-1,7.7679425E-1,1.4596094E0,1.2958613E-1,4.639376E0,2.375173E0,7.7214295E-1,-1.0723501E-1,-9.099097E-2,1.4456677E0,1.6674196E0,2.796468E0,5.430742E0,2.3008623E0,-6.949911E-1,-2.4073985E-1,-2.096898E-1,8.817744E-2,9.913159E-1,-7.341443E-3,1.5384964E0,3.1792095E0,-3.071655E-1,8.035455E-3,2.9512623E-1,1.8506486E0,-2.5560973E-2,-1.9658937E-1,-7.411079E-2,5.571875E-1,1.5220234E-1,-1.9430138E-1,5.146234E-2,9.0751386E-1,1.0656906E0,5.6437793E0,-5.142929E-2,1.238609E0,8.247899E-3,8.260355E-1,9.537521E-1,2.5256522E0,1.9559753E1,1.0536899E1,6.843018E0,2.548943E0],"split_indices":[4,6,3,8,7,8,6,6,7,8,8,6,3,8,8,6,8,6,7,6,6,6,8,7,3,6,4,8,7,7,7,0,7,5,7,7,0,0,6,4,7,6,6,0,0,6,0,3,6,4,4,6,8,4,6,0,7,6,6,6,8,0,0,0,0,0,0,0,0,0,0,0,0,0,0,0,0,0,0,0,0,0,0,0,0,0,0,0,0,0,0,0,0,0,0,0,0,0,0,0,0,0,0,0,0,0,0,0,0,0,0,0,0,0,0,0,0,0,0,0,0,0,0,0,0,0,0],"split_type":[0,0,0,0,0,0,0,0,0,0,0,0,0,0,0,0,0,0,0,0,0,0,0,0,0,0,0,0,0,0,0,0,0,0,0,0,0,0,0,0,0,0,0,0,0,0,0,0,0,0,0,0,0,0,0,0,0,0,0,0,0,0,0,0,0,0,0,0,0,0,0,0,0,0,0,0,0,0,0,0,0,0,0,0,0,0,0,0,0,0,0,0,0,0,0,0,0,0,0,0,0,0,0,0,0,0,0,0,0,0,0,0,0,0,0,0,0,0,0,0,0,0,0,0,0,0,0],"sum_hessian":[2.6785456E7,6.315772E6,2.0469684E7,2.128346E6,4.187426E6,1.6777129E7,3.692556E6,2.042793E6,8.5553E4,3.340967E6,8.46459E5,1.0170406E7,6.606723E6,2.660225E6,1.032331E6,1.251258E6,7.91535E5,3.8118E4,4.7435E4,3.167886E6,1.73081E5,7.76487E5,6.9972E4,1.0061024E7,1.09382E5,1.054628E6,5.552095E6,2.572614E6,8.7611E4,1.013021E6,1.931E4,6.73595E5,5.77663E5,4.78022E5,3.13513E5,1.1896E4,2.6222E4,3.7961E4,9.474E3,1.244598E6,1.923288E6,1.6018E5,1.2901E4,4.80577E5,2.9591E5,6.0844E4,9.128E3,1.010897E6,9.050127E6,9.591E4,1.3472E4,3.86236E5,6.68392E5,4.365678E6,1.186417E6,1.371023E6,1.201591E6,2.441E4,6.3201E4,7.6448E5,2.48541E5,1.306E3,1.8004E4,5.5746E5,1.16135E5,1.41222E5,4.36441E5,3.74603E5,1.03419E5,2.03969E5,1.09544E5,7.701E3,4.195E3,1.992E3,2.423E4,3.215E3,3.4746E4,1.844E3,7.63E3,1.216893E6,2.7705E4,1.163224E6,7.60064E5,1.30394E5,2.9786E4,6.245E3,6.656E3,3.22887E5,1.5769E5,2.3468E4,2.72442E5,3.6757E4,2.4087E4,6.335E3,2.793E3,1.14225E5,8.96672E5,8.773147E6,2.7698E5,7.331E3,8.8579E4,1.0308E4,3.164E3,2.39365E5,1.46871E5,6.0792E5,6.0472E4,6.59635E5,3.706043E6,9.2396E5,2.62457E5,1.34305E5,1.236718E6,1.089563E6,1.12028E5,1.7401E4,7.009E3,3.1787E4,3.1414E4,4.72659E5,2.91821E5,2.0202E5,4.6521E4,1.29E2,1.177E3,1.351E3,1.6653E4],"tree_param":{"num_deleted":"0","num_feature":"9","num_nodes":"127","size_leaf_vector":"1"}},{"base_weights":[1.2401511E-5,9.611075E-1,-1.8001688E-1,2.927286E-1,2.0236442E0,-2.6495492E-1,8.67619E-1,-4.908174E-1,6.916137E-1,1.0008826E0,3.1477418E0,-3.799945E-1,2.2233945E-1,-1.0048033E-1,1.6084957E0,-5.6399804E-2,-1.2281998E0,-1.6203463E-1,1.3962145E0,6.5320134E-1,4.3194666E0,6.5534335E-1,4.050511E0,-4.0718517E-1,1.4165943E0,-4.9549538E-1,6.6042984E-1,-2.607974E-1,1.9576173E0,1.0233034E0,3.441686E0,3.3796227E-1,-1.4722114E0,-2.4470181E0,-2.589629E-1,-2.2355714E-1,4.2426753E0,2.3109198E0,3.9577666E-1,3.5504928E-1,3.28247E0,2.7395508E1,3.3260367E0,2.2569447E0,-2.794499E0,4.8633285E0,1.2357353E0,-1.1639099E0,-3.5834488E-1,6.812918E-1,5.7574797E0,2.8578732E0,-5.409682E-1,1.701303E0,2.7101704E-1,-6.469874E-1,1.0694449E-1,7.0877056E0,5.5271685E-1,3.660147E0,6.906768E-1,4.8785143E0,8.1173116E-1,2.7849448E-1,-1.4966194E-1,-2.246589E-1,-8.5165185E-1,-3.974725E-1,-1.0727535E0,-8.040201E-1,4.699212E-2,2.1117526E-1,-1.2755723E-1,6.1761727E0,9.3233377E-1,3.9090326E-1,1.8701303E0,-5.740788E-1,4.515477E-1,-7.0956606E-1,2.757062E-1,1.3121974E0,-3.9103466E-1,-1.0416387E0,9.670038E0,1.6898186E0,2.6822597E-1,1.0683099E0,-3.3233792E-1,-1.4922051E0,1.8018092E-1,8.455756E-1,1.7476505E0,4.143797E0,-5.0849725E-2,-2.691143E-1,-1.1185144E0,-1.3824876E-1,3.663345E-2,9.9960893E-1,3.192659E-2,1.372527E0,3.108499E0,1.3543882E0,-1.0738834E0,-2.5879464E-1,-6.695415E-2,3.8041565E-1,1.6114167E0,-1.04955E-1,4.407653E-1,-2.4008824E-1,-5.0021403E-2,6.20399E-1,-3.582952E-2,3.3922725E0,8.946069E-1,-3.059677E-1,1.1699859E0,-4.5300743E-1,1.2353073E0,-1.0775939E0,3.5461682E-1,7.832732E-1,2.0107458E0,-9.660543E-2,2.598679E0],"categories":[],"categories_nodes":[],"categories_segments":[],"categories_sizes":[],"default_left":[0,0,0,0,0,0,0,0,0,0,0,0,0,0,0,0,0,0,0,0,0,0,0,0,0,0,0,0,0,0,0,0,0,0,0,0,0,0,0,0,0,0,0,0,0,0,0,0,0,0,0,0,0,0,0,0,0,0,0,0,0,0,0,0,0,0,0,0,0,0,0,0,0,0,0,0,0,0,0,0,0,0,0,0,0,0,0,0,0,0,0,0,0,0,0,0,0,0,0,0,0,0,0,0,0,0,0,0,0,0,0,0,0,0,0,0,0,0,0,0,0,0,0,0,0,0,0],"id":5,"left_children":[1,3,5,7,9,11,13,15,17,19,21,23,25,27,29,31,33,35,37,39,41,43,45,47,49,51,53,55,57,59,61,63,65,67,69,71,73,75,77,79,81,83,85,87,89,91,93,95,97,99,101,103,105,107,109,111,113,115,117,119,121,123,125,-1,-1,-1,-1,-1,-1,-1,-1,-1,-1,-1,-1,-1,-1,-1,-1,-1,-1,-1,-1,-1,-1,-1,-1,-1,-1,-1,-1,-1,-1,-1,-1,-1,-1,-1,-1,-1,-1,-1,-1,-1,-1,-1,-1,-1,-1,-1,-1,-1,-1,-1,-1,-1,-1,-1,-1,-1,-1,-1,-1,-1,-1,-1,-1],"loss_changes":[4.634561E6,3.0010685E6,2.007452E6,8.107556E5,1.8760035E6,1.169809E6,1.2134844E6,2.8031725E5,1.0339237E6,9.8580275E5,1.749122E6,8.2470575E5,1.2533566E6,2.4200566E5,1.028151E6,3.0746178E5,3.832409E5,2.1063297E5,8.617461E5,6.062596E5,1.8573375E6,1.142091E6,1.305623E6,6.146425E5,8.033785E5,2.3033319E5,1.0032034E6,9.663781E4,3.8201706E5,6.371992E5,8.763475E5,2.1277881E5,1.1859203E5,1.82023E5,1.8183623E5,1.4335584E5,1.985443E5,1.944993E6,1.1523008E6,1.0656316E6,3.9427906E5,4.9949175E5,4.357667E5,6.194282E5,4.8495622E5,8.71147E5,2.2598802E6,6.900289E5,7.692289E5,3.2798712E5,1.9843325E5,2.1555184E5,1.5234647E5,1.0714732E6,1.3399379E6,2.4436516E4,1.5473664E5,1.9738969E5,2.1903986E5,1.9251488E5,1.3576045E6,6.2028975E5,7.2929475E5,0E0,0E0,0E0,0E0,0E0,0E0,0E0,0E0,0E0,0E0,0E0,0E0,0E0,0E0,0E0,0E0,0E0,0E0,0E0,0E0,0E0,0E0,0E0,0E0,0E0,0E0,0E0,0E0,0E0,0E0,0E0,0E0,0E0,0E0,0E0,0E0,0E0,0E0,0E0,0E0,0E0,0E0,0E0,0E0,0E0,0E0,0E0,0E0,0E0,0E0,0E0,0E0,0E0,0E0,0E0,0E0,0E0,0E0,0E0,0E0,0E0,0E0,0E0,0E0],"parents":[2147483647,0,0,1,1,2,2,3,3,4,4,5,5,6,6,7,7,8,8,9,9,10,10,11,11,12,12,13,13,14,14,15,15,16,16,17,17,18,18,19,19,20,20,21,21,22,22,23,23,24,24,25,25,26,26,27,27,28,28,29,29,30,30,31,31,32,32,33,33,34,34,35,35,36,36,37,37,38,38,39,39,40,40,41,41,42,42,43,43,44,44,45,45,46,46,47,47,48,48,49,49,50,50,51,51,52,52,53,53,54,54,55,55,56,56,57,57,58,58,59,59,60,60,61,61,62,62],"right_children":[2,4,6,8,10,12,14,16,18,20,22,24,26,28,30,32,34,36,38,40,42,44,46,48,50,52,54,56,58,60,62,64,66,68,70,72,74,76,78,80,82,84,86,88,90,92,94,96,98,100,102,104,106,108,110,112,114,116,118,120,122,124,126,-1,-1,-1,-1,-1,-1,-1,-1,-1,-1,-1,-1,-1,-1,-1,-1,-1,-1,-1,-1,-1,-1,-1,-1,-1,-1,-1,-1,-1,-1,-1,-1,-1,-1,-1,-1,-1,-1,-1,-1,-1,-1,-1,-1,-1,-1,-1,-1,-1,-1,-1,-1,-1,-1,-1,-1,-1,-1,-1,-1,-1,-1,-1,-1],"split_conditions":[9E0,4.130291E1,3.43E2,2.1E1,-9.283089E1,9.735E2,3.923842E1,1.4E1,3.68626E1,1.5103E3,1.7E1,5.68055E1,3.8950275E1,1.8379E3,1E0,1E0,6E0,2.1769E3,7E0,5.15833E1,-1.174E2,9E0,1E0,-1.219486E2,4.4E1,6E1,1.33E2,3.51691E1,3E0,1E0,7E0,8E0,3.89038E1,3.74332E1,1.5E1,2E0,4E0,-8.25883E1,9E0,-1.2213841E2,-1.1844712E2,4.26083E1,-1.1017991E2,-7.4843254E1,4.37639E1,5E0,2.1E1,3.13E2,4.407994E1,1E2,1E1,5.3E1,3.608049E1,2.1769E3,4E1,3.6E2,1E0,-1.064956E2,3.58E2,-1.2213841E2,2E0,4.2199825E1,3.64E2,2.7849448E-1,-1.4966194E-1,-2.246589E-1,-8.5165185E-1,-3.974725E-1,-1.0727535E0,-8.040201E-1,4.699212E-2,2.1117526E-1,-1.2755723E-1,6.1761727E0,9.3233377E-1,3.9090326E-1,1.8701303E0,-5.740788E-1,4.515477E-1,-7.0956606E-1,2.757062E-1,1.3121974E0,-3.9103466E-1,-1.0416387E0,9.670038E0,1.6898186E0,2.6822597E-1,1.0683099E0,-3.3233792E-1,-1.4922051E0,1.8018092E-1,8.455756E-1,1.7476505E0,4.143797E0,-5.0849725E-2,-2.691143E-1,-1.1185144E0,-1.3824876E-1,3.663345E-2,9.9960893E-1,3.192659E-2,1.372527E0,3.108499E0,1.3543882E0,-1.0738834E0,-2.5879464E-1,-6.695415E-2,3.8041565E-1,1.6114167E0,-1.04955E-1,4.407653E-1,-2.4008824E-1,-5.0021403E-2,6.20399E-1,-3.582952E-2,3.3922725E0,8.946069E-1,-3.059677E-1,1.1699859E0,-4.5300743E-1,1.2353073E0,-1.0775939E0,3.5461682E-1,7.832732E-1,2.0107458E0,-9.660543E-2,2.598679E0],"split_indices":[3,6,4,4,7,8,6,4,6,8,4,6,6,8,5,5,0,8,0,6,7,0,5,7,3,4,4,6,0,0,0,0,6,6,4,0,3,7,0,7,7,6,7,7,6,3,4,4,6,4,0,3,6,8,3,4,0,7,4,7,0,6,4,0,0,0,0,0,0,0,0,0,0,0,0,0,0,0,0,0,0,0,0,0,0,0,0,0,0,0,0,0,0,0,0,0,0,0,0,0,0,0,0,0,0,0,0,0,0,0,0,0,0,0,0,0,0,0,0,0,0,0,0,0,0,0,0],"split_type":[0,0,0,0,0,0,0,0,0,0,0,0,0,0,0,0,0,0,0,0,0,0,0,0,0,0,0,0,0,0,0,0,0,0,0,0,0,0,0,0,0,0,0,0,0,0,0,0,0,0,0,0,0,0,0,0,0,0,0,0,0,0,0,0,0,0,0,0,0,0,0,0,0,0,0,0,0,0,0,0,0,0,0,0,0,0,0,0,0,0,0,0,0,0,0,0,0,0,0,0,0,0,0,0,0,0,0,0,0,0,0,0,0,0,0,0,0,0,0,0,0,0,0,0,0,0,0],"sum_hessian":[2.6785456E7,4.225802E6,2.2559656E7,2.594044E6,1.631758E6,2.086778E7,1.691874E6,8.75083E5,1.718961E6,8.54391E5,7.77367E5,1.688225E7,3.985531E6,7.33463E5,9.58411E5,5.50667E5,3.24416E5,7.77271E5,9.4169E5,7.73368E5,8.1023E4,2.06701E5,5.70666E5,1.6630554E7,2.51696E5,1.510498E6,2.475033E6,6.80459E5,5.3004E4,7.26499E5,2.31912E5,4.307E5,1.19967E5,1.43705E5,1.80711E5,7.66565E5,1.0706E4,4.91922E5,4.49768E5,6.94603E5,7.8765E4,3.343E3,7.768E4,1.41165E5,6.5536E4,4.42799E5,1.27867E5,1.008286E6,1.5622268E7,2.15238E5,3.6458E4,2.0208E4,1.49029E6,6.73857E5,1.801176E6,3.31904E5,3.48555E5,1.1394E4,4.161E4,8.1378E4,6.45121E5,1.49975E5,8.1937E4,2.52542E5,1.78158E5,7.8447E4,4.152E4,7.2068E4,7.1637E4,2.6475E4,1.54236E5,1.36891E5,6.29674E5,6.94E2,1.0012E4,3.91368E5,1.00554E5,1.45949E5,3.03819E5,1.19277E5,5.75326E5,6.3622E4,1.5143E4,4.53E2,2.89E3,3.9866E4,3.7814E4,1.01735E5,3.943E4,3.9913E4,2.5623E4,1.41691E5,3.01108E5,1.285E4,1.15017E5,9.13253E5,9.5033E4,1.2875784E7,2.746484E6,3.8359E4,1.76879E5,2.901E4,7.448E3,1.6072E4,4.136E3,7.40608E5,7.49682E5,6.02709E5,7.1148E4,1.186416E6,6.1476E5,2.5159E5,8.0314E4,3.6071E4,3.12484E5,5.618E3,5.776E3,2.831E4,1.33E4,6.616E3,7.4762E4,6.64E4,5.78721E5,6.6858E4,8.3117E4,7.1598E4,1.0339E4],"tree_param":{"num_deleted":"0","num_feature":"9","num_nodes":"127","size_leaf_vector":"1"}},{"base_weights":[1.018643E-5,6.754472E-1,-1.2913717E-1,1.3952859E-1,1.3187541E0,-1.6441199E-1,1.5601884E0,-5.494106E-2,2.0927951E0,1.7837698E0,-3.2404175E-1,-1.8600447E-1,1.6528857E0,5.434528E-1,2.920664E0,-4.129676E-1,6.5897185E-1,1.3652904E0,7.5308666E0,2.2347826E-1,2.4524865E0,-9.0299726E-1,4.2513514E0,-2.7495638E-1,1.6484578E-1,3.1850138E-1,3.2451684E0,2.760544E0,-1.3416368E-1,1.1735069E0,4.1743526E0,-6.615268E-1,5.41703E-1,2.5286222E-1,2.5376878E0,1.2340322E0,3.1035E1,1.3992788E1,3.6004832E0,8.709857E-2,3.4072092E0,4.145097E0,1.5444947E0,-1.5546025E-1,-1.9412885E0,2.5214582E1,4.1334963E-1,-2.2947292E-1,-4.957333E-1,8.074856E-2,4.082858E0,1.765934E0,-2.726238E-1,1.1176309E1,2.7478168E0,3.352111E-1,1.2257899E1,-7.109391E-1,3.8643036E0,5.896554E0,7.1306914E-1,2.2291267E0,5.0265675E0,-2.7962807E-1,-2.2974344E-2,9.384426E-1,-1.1843127E-1,-3.1737596E-2,5.363304E-1,6.8266654E-1,3.1233017E0,6.837019E-1,-7.2579704E-2,5.123966E0,1.7710707E1,4.879577E0,-6.561536E-1,-8.527828E-1,1.5143424E0,1.13458075E-1,-2.0639548E-1,-2.4291636E-1,1.7910067E0,5.282456E-1,1.7807413E0,1.6583271E-1,8.364738E-1,-6.719649E-1,2.2277851E-1,-8.698335E-1,1.8436709E-1,2.8346858E0,1.5177676E1,-5.745949E-1,1.4153047E0,-1.15735106E-1,-3.8690187E-2,-9.496717E-1,-1.2899204E-1,-3.5462514E-2,2.932694E-1,4.5154037E0,8.67389E-1,1.3245791E-1,2.7296717E0,-2.3675562E-1,4.8019627E-1,7.4560485E0,2.2581575E0,4.5309898E-1,1.6626385E0,-4.3492442E-1,1.1924535E0,6.520592E0,1.2626684E0,-3.5036558E-1,8.8551813E-1,-2.1597357E-1,3.1493804E0,1.0713887E0,6.2454176E0,-1.1867834E0,3.1312388E-1,3.1745872E-1,5.125823E0,2.538202E0,1.3157558E0],"categories":[],"categories_nodes":[],"categories_segments":[],"categories_sizes":[],"default_left":[0,0,0,0,0,0,0,0,0,0,0,0,0,0,0,0,0,0,0,0,0,0,0,0,0,0,0,0,0,0,0,0,0,0,0,0,0,0,0,0,0,0,0,0,0,0,0,0,0,0,0,0,0,0,0,0,0,0,0,0,0,0,0,0,0,0,0,0,0,0,0,0,0,0,0,0,0,0,0,0,0,0,0,0,0,0,0,0,0,0,0,0,0,0,0,0,0,0,0,0,0,0,0,0,0,0,0,0,0,0,0,0,0,0,0,0,0,0,0,0,0,0,0,0,0,0,0],"id":6,"left_children":[1,3,5,7,9,11,13,15,17,19,21,23,25,27,29,31,33,35,37,39,41,43,45,47,49,51,53,55,57,59,61,63,65,67,69,71,73,75,77,79,81,83,85,87,89,91,93,95,97,99,101,103,105,107,109,111,113,115,117,119,121,123,125,-1,-1,-1,-1,-1,-1,-1,-1,-1,-1,-1,-1,-1,-1,-1,-1,-1,-1,-1,-1,-1,-1,-1,-1,-1,-1,-1,-1,-1,-1,-1,-1,-1,-1,-1,-1,-1,-1,-1,-1,-1,-1,-1,-1,-1,-1,-1,-1,-1,-1,-1,-1,-1,-1,-1,-1,-1,-1,-1,-1,-1,-1,-1,-1],"loss_changes":[2.3365198E6,1.482279E6,1.3399566E6,8.909389E5,1.4926798E6,8.643025E5,6.3618975E5,5.4522525E5,8.401965E5,1.5889655E6,1.1418969E6,6.793359E5,5.49521E5,3.9544112E5,4.3086925E5,3.3711206E5,5.435811E5,7.294519E5,6.363939E5,1.9837355E5,1.6383175E6,2.9700162E5,3.895714E6,1.7437275E5,1.4506175E6,1.2039648E5,4.6511625E5,1.419274E6,4.649408E5,1.787166E5,1.8984925E5,1.7839606E5,7.10839E5,3.224982E5,2.6133031E5,2.8763853E5,3.213627E5,3.4849025E5,1.4532962E5,9.8847914E4,2.0282361E5,1.5890845E6,8.557881E5,4.1646606E5,3.9225925E5,2.9974335E6,4.1024472E5,2.2620306E5,5.2079088E5,7.6903294E5,1.2090535E6,3.962683E5,9.668149E4,3.470843E5,3.836968E5,3.1887825E5,9.560481E5,2.9487888E5,7.728776E5,2.5320905E5,1.15620234E5,6.069793E5,1.7518888E5,0E0,0E0,0E0,0E0,0E0,0E0,0E0,0E0,0E0,0E0,0E0,0E0,0E0,0E0,0E0,0E0,0E0,0E0,0E0,0E0,0E0,0E0,0E0,0E0,0E0,0E0,0E0,0E0,0E0,0E0,0E0,0E0,0E0,0E0,0E0,0E0,0E0,0E0,0E0,0E0,0E0,0E0,0E0,0E0,0E0,0E0,0E0,0E0,0E0,0E0,0E0,0E0,0E0,0E0,0E0,0E0,0E0,0E0,0E0,0E0,0E0,0E0,0E0,0E0],"parents":[2147483647,0,0,1,1,2,2,3,3,4,4,5,5,6,6,7,7,8,8,9,9,10,10,11,11,12,12,13,13,14,14,15,15,16,16,17,17,18,18,19,19,20,20,21,21,22,22,23,23,24,24,25,25,26,26,27,27,28,28,29,29,30,30,31,31,32,32,33,33,34,34,35,35,36,36,37,37,38,38,39,39,40,40,41,41,42,42,43,43,44,44,45,45,46,46,47,47,48,48,49,49,50,50,51,51,52,52,53,53,54,54,55,55,56,56,57,57,58,58,59,59,60,60,61,61,62,62],"right_children":[2,4,6,8,10,12,14,16,18,20,22,24,26,28,30,32,34,36,38,40,42,44,46,48,50,52,54,56,58,60,62,64,66,68,70,72,74,76,78,80,82,84,86,88,90,92,94,96,98,100,102,104,106,108,110,112,114,116,118,120,122,124,126,-1,-1,-1,-1,-1,-1,-1,-1,-1,-1,-1,-1,-1,-1,-1,-1,-1,-1,-1,-1,-1,-1,-1,-1,-1,-1,-1,-1,-1,-1,-1,-1,-1,-1,-1,-1,-1,-1,-1,-1,-1,-1,-1,-1,-1,-1,-1,-1,-1,-1,-1,-1,-1,-1,-1,-1,-1,-1,-1,-1,-1,-1,-1,-1],"split_conditions":[5.8E1,2E0,3.6E2,4.628973E1,1E0,2.4631E3,3.661E2,-8.678178E1,-9.07445E1,3.7315E1,1.5103E3,4.407994E1,3.928754E1,3E0,3.938039E1,1.3929E3,3.423E2,1.6184E3,-8.424763E1,9E0,4.1E1,4.7E1,3.6E1,1.1E1,1.6423E3,-1.064956E2,-1.1137099E2,-7.91401E1,5.3E1,1E0,4E0,9E0,-1.106022E2,4.29453E1,1.122E3,-1.1279786E2,8E0,4.73308E1,2E0,5E1,3.3504105E1,-9.74969E1,8E0,3E0,5.5E1,-1.05690346E2,7E0,3.7315E1,6.5E1,3.06E2,-1.1516343E2,3.89038E1,-1.053114E2,1.8E1,2.7277E3,2E0,3.63E2,4.51369E1,4.130291E1,-8.424763E1,2E0,-8.01566E1,3.61E2,-2.7962807E-1,-2.2974344E-2,9.384426E-1,-1.1843127E-1,-3.1737596E-2,5.363304E-1,6.8266654E-1,3.1233017E0,6.837019E-1,-7.2579704E-2,5.123966E0,1.7710707E1,4.879577E0,-6.561536E-1,-8.527828E-1,1.5143424E0,1.13458075E-1,-2.0639548E-1,-2.4291636E-1,1.7910067E0,5.282456E-1,1.7807413E0,1.6583271E-1,8.364738E-1,-6.719649E-1,2.2277851E-1,-8.698335E-1,1.8436709E-1,2.8346858E0,1.5177676E1,-5.745949E-1,1.4153047E0,-1.15735106E-1,-3.8690187E-2,-9.496717E-1,-1.2899204E-1,-3.5462514E-2,2.932694E-1,4.5154037E0,8.67389E-1,1.3245791E-1,2.7296717E0,-2.3675562E-1,4.8019627E-1,7.4560485E0,2.2581575E0,4.5309898E-1,1.6626385E0,-4.3492442E-1,1.1924535E0,6.520592E0,1.2626684E0,-3.5036558E-1,8.8551813E-1,-2.1597357E-1,3.1493804E0,1.0713887E0,6.2454176E0,-1.1867834E0,3.1312388E-1,3.1745872E-1,5.125823E0,2.538202E0,1.3157558E0],"split_indices":[4,2,4,6,5,8,8,7,7,6,8,6,6,0,6,8,8,8,7,3,4,4,4,0,8,7,7,7,3,0,0,0,7,6,8,7,0,6,0,4,6,7,3,0,4,7,0,6,4,4,7,6,7,3,8,0,4,6,6,7,0,7,4,0,0,0,0,0,0,0,0,0,0,0,0,0,0,0,0,0,0,0,0,0,0,0,0,0,0,0,0,0,0,0,0,0,0,0,0,0,0,0,0,0,0,0,0,0,0,0,0,0,0,0,0,0,0,0,0,0,0,0,0,0,0,0,0],"split_type":[0,0,0,0,0,0,0,0,0,0,0,0,0,0,0,0,0,0,0,0,0,0,0,0,0,0,0,0,0,0,0,0,0,0,0,0,0,0,0,0,0,0,0,0,0,0,0,0,0,0,0,0,0,0,0,0,0,0,0,0,0,0,0,0,0,0,0,0,0,0,0,0,0,0,0,0,0,0,0,0,0,0,0,0,0,0,0,0,0,0,0,0,0,0,0,0,0,0,0,0,0,0,0,0,0,0,0,0,0,0,0,0,0,0,0,0,0,0,0,0,0,0,0,0,0,0,0],"sum_hessian":[2.6785456E7,4.29945E6,2.2486008E7,2.345494E6,1.953956E6,2.202608E7,4.59926E5,2.133119E6,2.12375E5,1.522883E6,4.31073E5,2.1767448E7,2.58632E5,2.63216E5,1.9671E5,1.42066E6,7.12459E5,1.87317E5,2.5058E4,4.56875E5,1.066008E6,3.82654E5,4.8419E4,1.7364888E7,4.402561E6,1.40712E5,1.1792E5,6.1615E4,2.01601E5,8.2182E4,1.14528E5,1.127185E6,2.93475E5,5.85826E5,1.26633E5,1.86493E5,8.24E2,9.476E3,1.5582E4,4.38109E5,1.8766E4,3.72192E5,6.93816E5,2.22478E5,1.60176E5,7.492E3,4.0927E4,1.4398564E7,2.966324E6,4.31005E6,9.2511E4,4.0802E4,9.991E4,6.957E3,1.10963E5,4.9082E4,1.2533E4,1.76187E5,2.5414E4,7.299E3,7.4883E4,3.4891E4,7.9637E4,7.70698E5,3.56487E5,7.8012E4,2.15463E5,4.74867E5,1.10959E5,1.22554E5,4.079E3,1.09188E5,7.7305E4,5.51E2,2.73E2,8.309E3,1.167E3,2.858E3,1.2724E4,3.18494E5,1.19615E5,7.094E3,1.1672E4,1.59639E5,2.12553E5,3.8602E5,3.07796E5,6.699E4,1.55488E5,1.16501E5,4.3675E4,4.622E3,2.87E3,2.6559E4,1.4368E4,5.634907E6,8.763657E6,7.1305E4,2.895019E6,3.527485E6,7.82565E5,9.064E3,8.3447E4,3.4561E4,6.241E3,7.8315E4,2.1595E4,1.464E3,5.493E3,7.6906E4,3.4057E4,3.2932E4,1.615E4,5.755E3,6.778E3,1.56645E5,1.9542E4,1.5029E4,1.0385E4,6.316E3,9.83E2,4.952E3,6.9931E4,3.2343E4,2.548E3,1.252E4,6.7117E4],"tree_param":{"num_deleted":"0","num_feature":"9","num_nodes":"127","size_leaf_vector":"1"}},{"base_weights":[1.0968116E-5,4.4610277E-1,-1.0947323E-1,1.3539697E-1,1.114753E0,-1.7707968E-1,3.5720444E-1,7.828941E-2,3.2041948E0,-2.3771338E0,1.4313492E0,-2.069636E-1,4.3323594E-1,-7.79994E-1,5.9109217E-1,2.8867233E-1,-6.722729E-1,8.606353E0,-9.748773E-3,4.1402073E0,-2.9837294E0,5.4493976E0,1.099526E0,-2.2577263E-1,5.258696E-1,1.502699E0,-6.86202E-3,-9.951614E-1,5.557546E0,4.1529965E-1,2.4831944E0,6.602561E-1,-5.7348706E-2,-1.0828645E-1,-1.696128E0,6.6663785E0,2.1378286E1,-2.0288046E-1,1.4983542E1,1.2044655E1,1.3713787E0,-6.4702597E0,-2.491509E0,4.3241124E0,1.0466435E1,1.5312173E0,-6.869318E-1,-4.919268E-1,-1.6480516E-1,-9.1601E-3,2.3699262E0,4.293941E-1,5.193026E0,-4.32005E-1,8.88171E-1,-3.9905686E0,-5.38832E-1,8.086877E0,-2.7521355E0,2.258081E-1,2.1814015E0,2.2989678E0,3.9043087E1,-1.102833E-1,4.0625048E-1,-2.9646212E-1,1.6186443E-1,-3.983176E-1,1.4737086E-1,-2.2875696E-1,-8.907513E-1,9.629712E-1,2.7772436E0,7.901447E0,2.5571291E0,-4.0760896E-1,6.478568E-1,-1.2791789E0,6.0613804E1,4.6353745E0,-3.0220883E0,-1.8515556E0,1.1628135E0,-2.145479E0,2.7668464E0,1.087061E0,-7.891035E-1,8.6573774E-1,2.2505202E0,2.129462E0,6.80479E0,1.7596051E-1,1.0007467E0,1.2344812E0,-2.8089654E-1,-3.0388263E-1,-1.10360645E-1,5.228692E-2,-7.0075765E-2,4.0761235E-1,-7.26341E-2,6.6659987E-1,5.668708E0,1.2521893E0,-5.4554496E-2,1.0488268E0,3.15261E0,-9.17199E-2,-2.4804178E-1,-2.9118415E-2,8.578661E-1,-2.5480655E-1,-1.3526788E0,-1.3733646E-2,-2.2559065E-1,2.1172994E-1,2.9881167E0,1.05234735E-1,-2.4723215E0,-7.2720814E-3,3.8300237E-1,1.4958367E-1,1.1839517E0,4.0019295E-1,2.6592078E0,2.0287716E1,5.8310122E0],"categories":[],"categories_nodes":[],"categories_segments":[],"categories_sizes":[],"default_left":[0,0,0,0,0,0,0,0,0,0,0,0,0,0,0,0,0,0,0,0,0,0,0,0,0,0,0,0,0,0,0,0,0,0,0,0,0,0,0,0,0,0,0,0,0,0,0,0,0,0,0,0,0,0,0,0,0,0,0,0,0,0,0,0,0,0,0,0,0,0,0,0,0,0,0,0,0,0,0,0,0,0,0,0,0,0,0,0,0,0,0,0,0,0,0,0,0,0,0,0,0,0,0,0,0,0,0,0,0,0,0,0,0,0,0,0,0,0,0,0,0,0,0,0,0,0,0],"id":7,"left_children":[1,3,5,7,9,11,13,15,17,19,21,23,25,27,29,31,33,35,37,39,41,43,45,47,49,51,53,55,57,59,61,63,65,67,69,71,73,75,77,79,81,83,85,87,89,91,93,95,97,99,101,103,105,107,109,111,113,115,117,119,121,123,125,-1,-1,-1,-1,-1,-1,-1,-1,-1,-1,-1,-1,-1,-1,-1,-1,-1,-1,-1,-1,-1,-1,-1,-1,-1,-1,-1,-1,-1,-1,-1,-1,-1,-1,-1,-1,-1,-1,-1,-1,-1,-1,-1,-1,-1,-1,-1,-1,-1,-1,-1,-1,-1,-1,-1,-1,-1,-1,-1,-1,-1,-1,-1,-1],"loss_changes":[1.3082019E6,1.0966181E6,6.785549E5,6.315785E5,1.851323E6,3.4262325E5,7.238351E5,5.586703E5,1.143112E6,5.5036375E5,2.047126E6,2.468515E5,4.1272644E5,6.330528E5,7.507782E5,3.553086E5,4.4727766E5,6.083611E5,1.195396E5,2.5942086E5,2.1854638E5,6.61201E5,1.0937794E6,2.833278E5,4.421521E5,1.0125881E6,2.3639467E5,6.1372306E5,3.2041962E5,6.9117675E5,1.2923076E6,9.503974E5,7.950624E5,3.6514794E5,3.2699025E5,1.9093156E5,2.0621975E5,1.1129005E5,1.8911131E6,2.3185066E5,1.6590688E5,1.6852281E5,9.4759125E4,4.37232E5,8.82729E5,1.9472995E6,3.305531E5,2.1033956E5,3.3133684E5,1.1068777E5,2.463325E5,4.5330556E5,5.1954512E5,2.0996688E4,3.885767E5,9.664775E4,4.094596E4,1.6160781E5,6.0601754E4,4.9010906E5,5.9442006E5,1.2095284E6,5.3779225E5,0E0,0E0,0E0,0E0,0E0,0E0,0E0,0E0,0E0,0E0,0E0,0E0,0E0,0E0,0E0,0E0,0E0,0E0,0E0,0E0,0E0,0E0,0E0,0E0,0E0,0E0,0E0,0E0,0E0,0E0,0E0,0E0,0E0,0E0,0E0,0E0,0E0,0E0,0E0,0E0,0E0,0E0,0E0,0E0,0E0,0E0,0E0,0E0,0E0,0E0,0E0,0E0,0E0,0E0,0E0,0E0,0E0,0E0,0E0,0E0,0E0,0E0,0E0,0E0],"parents":[2147483647,0,0,1,1,2,2,3,3,4,4,5,5,6,6,7,7,8,8,9,9,10,10,11,11,12,12,13,13,14,14,15,15,16,16,17,17,18,18,19,19,20,20,21,21,22,22,23,23,24,24,25,25,26,26,27,27,28,28,29,29,30,30,31,31,32,32,33,33,34,34,35,35,36,36,37,37,38,38,39,39,40,40,41,41,42,42,43,43,44,44,45,45,46,46,47,47,48,48,49,49,50,50,51,51,52,52,53,53,54,54,55,55,56,56,57,57,58,58,59,59,60,60,61,61,62,62],"right_children":[2,4,6,8,10,12,14,16,18,20,22,24,26,28,30,32,34,36,38,40,42,44,46,48,50,52,54,56,58,60,62,64,66,68,70,72,74,76,78,80,82,84,86,88,90,92,94,96,98,100,102,104,106,108,110,112,114,116,118,120,122,124,126,-1,-1,-1,-1,-1,-1,-1,-1,-1,-1,-1,-1,-1,-1,-1,-1,-1,-1,-1,-1,-1,-1,-1,-1,-1,-1,-1,-1,-1,-1,-1,-1,-1,-1,-1,-1,-1,-1,-1,-1,-1,-1,-1,-1,-1,-1,-1,-1,-1,-1,-1,-1,-1,-1,-1,-1,-1,-1,-1,-1,-1,-1,-1,-1],"split_conditions":[1.1E1,4.2199825E1,4.8E1,2.4631E3,1E0,1.9111E3,1.158E2,1E0,-1.061276E2,1E1,2E0,5.01333E1,1.45E2,5.68055E1,4.628973E1,6E0,4.7E1,3.99476E1,7.3E1,4.351345E1,3E0,-7.68617E1,1.1E1,-1.070089E2,2.72E2,-1.054739E2,2.75E2,-1.2213841E2,6.405E1,-7.96944E1,1.6184E3,3E1,9E0,1.7E1,3.88088E1,3.8748E1,4.0631683E1,2.7277E3,1E1,-7.4843254E1,1.908E2,5.68055E1,-1.458894E2,5.1E1,5.7E1,8E0,7E0,1.23E2,1.14E2,1E2,1.1814E3,2E0,3.96667E1,2.4631E3,3.9625E1,4.019404E1,4E0,-1.5002771E2,-1.144069E2,1.3655E3,4.24077E1,-9.17762E1,4.68736E1,-1.102833E-1,4.0625048E-1,-2.9646212E-1,1.6186443E-1,-3.983176E-1,1.4737086E-1,-2.2875696E-1,-8.907513E-1,9.629712E-1,2.7772436E0,7.901447E0,2.5571291E0,-4.0760896E-1,6.478568E-1,-1.2791789E0,6.0613804E1,4.6353745E0,-3.0220883E0,-1.8515556E0,1.1628135E0,-2.145479E0,2.7668464E0,1.087061E0,-7.891035E-1,8.6573774E-1,2.2505202E0,2.129462E0,6.80479E0,1.7596051E-1,1.0007467E0,1.2344812E0,-2.8089654E-1,-3.0388263E-1,-1.10360645E-1,5.228692E-2,-7.0075765E-2,4.0761235E-1,-7.26341E-2,6.6659987E-1,5.668708E0,1.2521893E0,-5.4554496E-2,1.0488268E0,3.15261E0,-9.17199E-2,-2.4804178E-1,-2.9118415E-2,8.578661E-1,-2.5480655E-1,-1.3526788E0,-1.3733646E-2,-2.2559065E-1,2.1172994E-1,2.9881167E0,1.05234735E-1,-2.4723215E0,-7.2720814E-3,3.8300237E-1,1.4958367E-1,1.1839517E0,4.0019295E-1,2.6592078E0,2.0287716E1,5.8310122E0],"split_indices":[3,6,3,8,0,8,8,5,7,4,0,6,4,6,6,0,4,6,4,6,3,7,0,7,4,7,4,7,6,7,8,4,0,4,6,6,6,8,0,7,8,6,7,4,4,0,4,4,4,4,8,0,6,8,6,6,0,7,7,8,6,7,6,0,0,0,0,0,0,0,0,0,0,0,0,0,0,0,0,0,0,0,0,0,0,0,0,0,0,0,0,0,0,0,0,0,0,0,0,0,0,0,0,0,0,0,0,0,0,0,0,0,0,0,0,0,0,0,0,0,0,0,0,0,0,0,0],"split_type":[0,0,0,0,0,0,0,0,0,0,0,0,0,0,0,0,0,0,0,0,0,0,0,0,0,0,0,0,0,0,0,0,0,0,0,0,0,0,0,0,0,0,0,0,0,0,0,0,0,0,0,0,0,0,0,0,0,0,0,0,0,0,0,0,0,0,0,0,0,0,0,0,0,0,0,0,0,0,0,0,0,0,0,0,0,0,0,0,0,0,0,0,0,0,0,0,0,0,0,0,0,0,0,0,0,0,0,0,0,0,0,0,0,0,0,0,0,0,0,0,0,0,0,0,0,0,0],"sum_hessian":[2.6785456E7,5.278457E6,2.1507E7,3.60384E6,1.674617E6,1.878558E7,2.72142E6,3.538002E6,6.5838E4,1.39209E5,1.535408E6,1.7908688E7,8.76893E5,4.64235E5,2.257185E6,2.763416E6,7.74586E5,2.4558E4,4.128E4,1.1853E4,1.27356E5,1.17125E5,1.418283E6,1.7460542E7,4.48145E5,2.55649E5,6.21244E5,4.48992E5,1.5243E4,2.065302E6,1.91883E5,1.332488E6,1.430928E6,4.99461E5,2.75125E5,2.1321E4,3.237E3,4.0756E4,5.24E2,3.074E3,8.779E3,1.5754E4,1.11602E5,9.5669E4,2.1456E4,1.14226E6,2.76023E5,3.254217E6,1.4206325E7,3.47363E5,1.00782E5,1.98049E5,5.76E4,4.21182E5,2.00062E5,5.9357E4,3.89635E5,1.1686E4,3.557E3,1.865181E6,2.00121E5,1.90922E5,9.61E2,5.3702E5,7.95468E5,5.59066E5,8.71862E5,1.6462E5,3.34841E5,1.58724E5,1.16401E5,9.136E3,1.2185E4,2.335E3,9.02E2,2.7367E4,1.3389E4,4.76E2,4.8E1,2.664E3,4.1E2,2.188E3,6.591E3,1.5099E4,6.55E2,2.477E3,1.09125E5,6.586E4,2.9809E4,1.682E4,4.636E3,7.49769E5,3.92491E5,1.3627E4,2.62396E5,6.25837E5,2.62838E6,2.395635E6,1.181069E7,5.0548E4,2.96815E5,9.9889E4,8.93E2,2.7791E4,1.70258E5,4.3663E4,1.3937E4,3.19118E5,1.02064E5,1.33396E5,6.6666E4,8.408E3,5.0949E4,1.17597E5,2.72038E5,2.366E3,9.32E3,2.273E3,1.284E3,1.506676E6,3.58505E5,1.0245E5,9.7671E4,1.66456E5,2.4466E4,3.9E2,5.71E2],"tree_param":{"num_deleted":"0","num_feature":"9","num_nodes":"127","size_leaf_vector":"1"}},{"base_weights":[1.254592E-5,-1.7904222E-1,2.0588195E-1,-2.0359251E-1,1.1591585E0,8.782195E-2,8.969562E-1,-1.0493703E0,-1.1525123E-1,2.059722E0,-3.5317987E-1,1.2048862E0,2.2485994E-2,3.6639303E-1,1.9554894E0,-2.2973719E0,-6.815172E-1,-1.5559334E-1,1.4423764E0,5.775599E0,1.0190259E0,-2.6892679E0,3.767052E-1,7.542775E-1,6.6552644E0,-6.2031653E-2,8.346563E-1,1.7796422E0,1.3313395E-1,1.3788773E0,5.1662416E0,8.942126E-1,-2.4032667E0,-2.735819E-1,-2.7397447E0,3.5059184E-1,-2.3786306E-1,3.5355966E0,4.745041E-1,5.1591883E0,2.654177E1,5.8850847E-2,6.8892574E0,-1.8994292E0,-1.0187707E1,-1.5825234E-1,1.2096E0,-1.4567834E-1,2.3097713E0,1.4053877E1,3.917685E0,-8.618606E-2,1.3091894E0,7.0930165E-1,4.2438087E0,1.137227E0,4.7865396E0,-1.706942E-2,1.6046722E0,3.6699378E0,-1.7380068E-1,2.3310244E0,6.826922E0,-1.3435557E-1,1.113307E0,-4.401131E-1,-8.0040616E-1,-4.231559E-1,-5.4631785E-2,-2.3321487E-1,-1.0828077E0,-3.4705725E-2,3.481999E-1,-6.8519247E-1,-6.129571E-2,2.0128648E-1,1.6095225E0,-1.3162227E-1,1.0026631E0,2.418202E0,6.091714E-1,6.05504E0,1.4204563E1,-5.496047E-2,7.270411E-1,1.8499855E0,9.195866E0,-9.2555493E-1,-6.1956543E-2,-3.5473926E0,-1.4770892E0,-9.7358115E-2,9.068725E-1,9.0656215E-1,-2.4949403E-1,-2.1311541E-1,4.7118345E-1,2.885278E-1,1.5606883E0,7.6792455E0,3.1790874E0,2.2931398E-1,4.644942E0,-1.5007835E-2,-1.9402954E-1,2.8562037E-2,6.4543444E-1,4.513398E-1,8.5107714E-2,8.330518E-1,3.58412E0,1.8026238E-2,7.512285E-1,1.0495479E0,4.0741825E0,1.7008224E-1,-4.4009462E-2,2.4796453E0,2.9973155E-1,9.615588E-1,2.072834E0,-1.04119174E-1,3.269299E-1,2.9740102E0,5.8962625E-1,1.778774E0,3.4628372E0],"categories":[],"categories_nodes":[],"categories_segments":[],"categories_sizes":[],"default_left":[0,0,0,0,0,0,0,0,0,0,0,0,0,0,0,0,0,0,0,0,0,0,0,0,0,0,0,0,0,0,0,0,0,0,0,0,0,0,0,0,0,0,0,0,0,0,0,0,0,0,0,0,0,0,0,0,0,0,0,0,0,0,0,0,0,0,0,0,0,0,0,0,0,0,0,0,0,0,0,0,0,0,0,0,0,0,0,0,0,0,0,0,0,0,0,0,0,0,0,0,0,0,0,0,0,0,0,0,0,0,0,0,0,0,0,0,0,0,0,0,0,0,0,0,0,0,0],"id":8,"left_children":[1,3,5,7,9,11,13,15,17,19,21,23,25,27,29,31,33,35,37,39,41,43,45,47,49,51,53,55,57,59,61,63,65,67,69,71,73,75,77,79,81,83,85,87,89,91,93,95,97,99,101,103,105,107,109,111,113,115,117,119,121,123,125,-1,-1,-1,-1,-1,-1,-1,-1,-1,-1,-1,-1,-1,-1,-1,-1,-1,-1,-1,-1,-1,-1,-1,-1,-1,-1,-1,-1,-1,-1,-1,-1,-1,-1,-1,-1,-1,-1,-1,-1,-1,-1,-1,-1,-1,-1,-1,-1,-1,-1,-1,-1,-1,-1,-1,-1,-1,-1,-1,-1,-1,-1,-1,-1],"loss_changes":[9.873629E5,4.7064534E5,1.01657006E6,1.0510912E6,3.514958E5,7.7668394E5,1.0210175E6,6.107595E5,8.0038125E5,6.2552825E5,1.6424072E5,1.4441968E6,6.901161E5,3.9921206E5,1.1237418E6,1.0236325E5,8.6273925E5,5.1703412E5,6.514732E5,4.5288525E5,7.122665E5,1.3579078E5,3.2701867E4,7.6031625E5,9.094229E5,3.016042E5,4.0496494E5,3.313968E5,2.297488E5,1.830491E6,4.3509125E5,3.6773047E4,7.265675E4,8.9188734E4,2.9004562E5,6.5564125E5,7.330107E5,5.328441E5,5.7587544E5,3.1200006E5,1.3398606E5,6.21618E4,3.0486388E5,4.164629E4,1.8769797E4,2.3640129E4,1.06187164E5,3.3347078E5,7.7618025E5,4.8366075E5,1.1953458E6,1.8139045E5,1.6117453E5,3.0932806E5,3.797522E5,2.0812814E5,3.4204444E5,7.140271E4,3.8831144E5,3.12923E5,6.714917E4,9.4610016E4,2.466325E5,0E0,0E0,0E0,0E0,0E0,0E0,0E0,0E0,0E0,0E0,0E0,0E0,0E0,0E0,0E0,0E0,0E0,0E0,0E0,0E0,0E0,0E0,0E0,0E0,0E0,0E0,0E0,0E0,0E0,0E0,0E0,0E0,0E0,0E0,0E0,0E0,0E0,0E0,0E0,0E0,0E0,0E0,0E0,0E0,0E0,0E0,0E0,0E0,0E0,0E0,0E0,0E0,0E0,0E0,0E0,0E0,0E0,0E0,0E0,0E0,0E0,0E0,0E0,0E0],"parents":[2147483647,0,0,1,1,2,2,3,3,4,4,5,5,6,6,7,7,8,8,9,9,10,10,11,11,12,12,13,13,14,14,15,15,16,16,17,17,18,18,19,19,20,20,21,21,22,22,23,23,24,24,25,25,26,26,27,27,28,28,29,29,30,30,31,31,32,32,33,33,34,34,35,35,36,36,37,37,38,38,39,39,40,40,41,41,42,42,43,43,44,44,45,45,46,46,47,47,48,48,49,49,50,50,51,51,52,52,53,53,54,54,55,55,56,56,57,57,58,58,59,59,60,60,61,61,62,62],"right_children":[2,4,6,8,10,12,14,16,18,20,22,24,26,28,30,32,34,36,38,40,42,44,46,48,50,52,54,56,58,60,62,64,66,68,70,72,74,76,78,80,82,84,86,88,90,92,94,96,98,100,102,104,106,108,110,112,114,116,118,120,122,124,126,-1,-1,-1,-1,-1,-1,-1,-1,-1,-1,-1,-1,-1,-1,-1,-1,-1,-1,-1,-1,-1,-1,-1,-1,-1,-1,-1,-1,-1,-1,-1,-1,-1,-1,-1,-1,-1,-1,-1,-1,-1,-1,-1,-1,-1,-1,-1,-1,-1,-1,-1,-1,-1,-1,-1,-1,-1,-1,-1,-1,-1,-1,-1,-1],"split_conditions":[3.292E2,5.68055E1,-9.148664E1,-1.191011E2,6.405E1,-1.2000342E2,4.24077E1,1.4E1,4.628973E1,8E1,1.3E1,1.4481E3,2.0269E3,5E1,3.13E2,-1.3455606E2,3.14E2,5E1,1.7E1,2.438E2,3.25E2,-9.47977E1,2.56E2,4.51369E1,9.9E1,3.6E2,4.363096E1,7.324E2,4.9E1,1.19E2,3.953E2,2.5665E1,3.8950275E1,1.1E2,4.20793E1,2E0,5.5E1,-8.96746E1,3.06E2,3.05E1,1E0,3.02E2,2.438E2,7E0,6.6E1,-7.644905E1,3.14E2,1.0369E3,6.45E2,3E0,3.1E2,3.39E2,3.94166E1,1.23E2,1.1E1,3.81314E1,3.85331E1,1.5E1,1E0,4.628973E1,2.9E2,4.24697E1,4.628973E1,-1.3435557E-1,1.113307E0,-4.401131E-1,-8.0040616E-1,-4.231559E-1,-5.4631785E-2,-2.3321487E-1,-1.0828077E0,-3.4705725E-2,3.481999E-1,-6.8519247E-1,-6.129571E-2,2.0128648E-1,1.6095225E0,-1.3162227E-1,1.0026631E0,2.418202E0,6.091714E-1,6.05504E0,1.4204563E1,-5.496047E-2,7.270411E-1,1.8499855E0,9.195866E0,-9.2555493E-1,-6.1956543E-2,-3.5473926E0,-1.4770892E0,-9.7358115E-2,9.068725E-1,9.0656215E-1,-2.4949403E-1,-2.1311541E-1,4.7118345E-1,2.885278E-1,1.5606883E0,7.6792455E0,3.1790874E0,2.2931398E-1,4.644942E0,-1.5007835E-2,-1.9402954E-1,2.8562037E-2,6.4543444E-1,4.513398E-1,8.5107714E-2,8.330518E-1,3.58412E0,1.8026238E-2,7.512285E-1,1.0495479E0,4.0741825E0,1.7008224E-1,-4.4009462E-2,2.4796453E0,2.9973155E-1,9.615588E-1,2.072834E0,-1.04119174E-1,3.269299E-1,2.9740102E0,5.8962625E-1,1.778774E0,3.4628372E0],"split_indices":[8,6,7,7,6,7,6,3,6,4,3,8,8,4,4,7,4,4,3,8,4,7,4,6,4,4,6,8,3,4,8,6,6,4,6,2,4,7,4,8,5,4,8,0,4,7,4,8,8,0,4,4,6,4,2,6,6,3,0,6,4,6,6,0,0,0,0,0,0,0,0,0,0,0,0,0,0,0,0,0,0,0,0,0,0,0,0,0,0,0,0,0,0,0,0,0,0,0,0,0,0,0,0,0,0,0,0,0,0,0,0,0,0,0,0,0,0,0,0,0,0,0,0,0,0,0,0],"split_type":[0,0,0,0,0,0,0,0,0,0,0,0,0,0,0,0,0,0,0,0,0,0,0,0,0,0,0,0,0,0,0,0,0,0,0,0,0,0,0,0,0,0,0,0,0,0,0,0,0,0,0,0,0,0,0,0,0,0,0,0,0,0,0,0,0,0,0,0,0,0,0,0,0,0,0,0,0,0,0,0,0,0,0,0,0,0,0,0,0,0,0,0,0,0,0,0,0,0,0,0,0,0,0,0,0,0,0,0,0,0,0,0,0,0,0,0,0,0,0,0,0,0,0,0,0,0,0],"sum_hessian":[2.6785456E7,1.4325695E7,1.2459762E7,1.4067615E7,2.5808E5,1.0641771E7,1.817991E6,1.330398E6,1.2737217E7,1.61757E5,9.6323E4,5.88032E5,1.0053739E7,1.211006E6,6.06985E5,3.02867E5,1.027531E6,1.2415656E7,3.21561E5,3.539E4,1.26367E5,2.293E4,7.3393E4,5.4313E5,4.4902E4,9.106121E6,9.47618E5,1.71561E5,1.039445E6,5.14575E5,9.241E4,9.726E3,2.93141E5,8.57565E5,1.69966E5,1.735787E6,1.0679869E7,1.01672E5,2.19889E5,3.4371E4,1.019E3,1.08604E5,1.7763E4,2.0746E4,2.184E3,4.469E4,2.8703E4,3.44066E5,1.99064E5,1.2126E4,3.2776E4,8.948492E6,1.57629E5,9.14011E5,3.3607E4,1.41361E5,3.02E4,9.43174E5,9.6271E4,2.07862E5,3.06713E5,3.4135E4,5.8275E4,6.588E3,3.138E3,6.4624E4,2.28517E5,6.3859E4,7.93706E5,5.2192E4,1.17774E5,1.101669E6,6.34118E5,1.72261E5,1.0507608E7,3.9626E4,6.2046E4,1.66778E5,5.3111E4,1.7832E4,1.6539E4,7.82E2,2.37E2,9.852E4,1.0084E4,1.724E4,5.23E2,1.22E4,8.546E3,1.665E3,5.19E2,4.2471E4,2.219E3,1.5204E4,1.3499E4,2.58886E5,8.518E4,1.35785E5,6.3279E4,2.793E3,9.333E3,2.5755E4,7.021E3,8.406251E6,5.42241E5,6.4567E4,9.3062E4,3.18659E5,5.95352E5,2.8232E4,5.375E3,7.906E4,6.2301E4,2.6343E4,3.857E3,1.71322E5,7.71852E5,8.022E3,8.8249E4,1.81785E5,2.6077E4,2.69728E5,3.6985E4,1.569E3,3.2566E4,4.8958E4,9.317E3],"tree_param":{"num_deleted":"0","num_feature":"9","num_nodes":"127","size_leaf_vector":"1"}},{"base_weights":[1.1578199E-5,-1.7589223E-1,1.14645615E-1,-1.9798683E-1,8.2717484E-1,4.7851703E-1,1.6622586E-3,-7.342785E-1,-1.2575126E-1,1.9212308E0,2.151567E-1,4.0137994E-1,2.8908749E0,-9.7331874E-2,4.0968025E-1,-1.6596515E0,-4.8718923E-1,-1.5887955E-1,1.3965061E0,3.0357366E0,-2.107856E-1,-7.085351E-1,2.4053302E0,1.7582093E0,3.1770515E-1,1.1259031E-1,4.535199E0,1.7235105E-1,-1.5359661E-1,-3.9640088E-2,9.0169865E-1,-1.76155E0,4.268488E-1,-1.8332992E-1,-1.8974175E0,1.4590299E-1,-2.0804136E-1,3.2884064E0,5.1235116E-1,2.190001E0,9.530528E0,-3.1415846E0,1.8466794E-1,-3.7353048E0,-3.348892E-1,6.387971E0,9.1649896E-1,-9.46385E-1,3.4399052E0,7.325828E-1,7.445461E-2,2.295954E0,-3.798445E0,6.099464E0,-1.0973766E0,-6.714409E-2,1.0087119E0,-2.5127396E-1,-5.112859E-2,4.3422163E-1,-3.9546913E-1,2.2231681E0,5.148423E-1,-3.308372E-1,-5.9592515E-1,-7.2585285E-2,2.956213E0,-2.6998413E-1,-3.1637527E-2,-1.4735079E-1,-7.5757736E-1,-7.293729E-2,3.539603E-1,-5.0918835E-1,-5.2186694E-2,-8.444755E-1,1.1597936E0,-1.0377255E-1,1.0061092E0,1.8058687E0,1.0957312E-1,3.3238976E0,-1.2930228E0,-6.490152E-1,-2.5190742E0,9.670485E-2,-1.630908E0,-1.7270846E0,-4.0601432E-1,1.0406773E0,-1.4904267E-1,3.4964035E0,9.836807E-1,-7.9114094E-2,1.5091736E0,-5.864169E-1,1.8010117E-1,4.540834E-1,2.267036E0,-6.778738E-2,3.096499E-1,-3.8923766E-2,2.7289096E-1,-1.4531471E-1,3.1640828E0,-2.1743915E0,-5.54217E-1,6.532417E0,1.6392158E0,3.8235566E-1,-1.3908439E0,-1.7271546E-1,1.4120106E-1,-1.8313417E-1,4.6767816E-1,7.980854E-2,-8.397545E-2,-5.366759E-2,1.7458154E-1,-1.8987328E-2,5.413201E-1,-3.4505597E-1,-2.7099656E-2,4.1947573E-1,1.5417185E0,-1.1871257E-1,4.780289E-1],"categories":[],"categories_nodes":[],"categories_segments":[],"categories_sizes":[],"default_left":[0,0,0,0,0,0,0,0,0,0,0,0,0,0,0,0,0,0,0,0,0,0,0,0,0,0,0,0,0,0,0,0,0,0,0,0,0,0,0,0,0,0,0,0,0,0,0,0,0,0,0,0,0,0,0,0,0,0,0,0,0,0,0,0,0,0,0,0,0,0,0,0,0,0,0,0,0,0,0,0,0,0,0,0,0,0,0,0,0,0,0,0,0,0,0,0,0,0,0,0,0,0,0,0,0,0,0,0,0,0,0,0,0,0,0,0,0,0,0,0,0,0,0,0,0,0,0],"id":9,"left_children":[1,3,5,7,9,11,13,15,17,19,21,23,25,27,29,31,33,35,37,39,41,43,45,47,49,51,53,55,57,59,61,63,65,67,69,71,73,75,77,79,81,83,85,87,89,91,93,95,97,99,101,103,105,107,109,111,113,115,117,119,121,123,125,-1,-1,-1,-1,-1,-1,-1,-1,-1,-1,-1,-1,-1,-1,-1,-1,-1,-1,-1,-1,-1,-1,-1,-1,-1,-1,-1,-1,-1,-1,-1,-1,-1,-1,-1,-1,-1,-1,-1,-1,-1,-1,-1,-1,-1,-1,-1,-1,-1,-1,-1,-1,-1,-1,-1,-1,-1,-1,-1,-1,-1,-1,-1,-1],"loss_changes":[5.401171E5,2.3422138E5,6.667055E5,4.005896E5,1.5251297E5,7.149969E5,4.9982994E5,2.8066494E5,4.5957475E5,1.9415303E5,2.9549984E5,4.227173E5,5.4389506E5,1.5110686E5,5.341485E5,5.5000125E4,4.1514416E5,1.3364006E5,3.246791E5,2.9472144E5,3.2511545E4,1.1618924E5,2.5691258E5,9.836971E5,3.5392825E5,3.7800547E5,6.589781E5,3.443289E5,8.246741E4,2.1293827E5,5.895775E5,3.6533625E4,7.5951266E4,4.447942E4,1.5162962E5,4.983078E5,3.8986528E5,2.1793325E5,3.2258822E5,3.3177497E5,1.3259538E5,1.712629E4,1.9130531E4,5.4353297E4,5.632689E4,1.9301566E5,1.5314344E5,1.2932633E5,1.0575525E6,3.722318E5,3.7704153E5,6.5169944E5,1.06721125E5,5.8290325E5,1.3646053E5,3.6551875E5,3.4091712E5,6.2506438E4,3.2524056E5,3.692048E5,1.6610205E5,6.28188E5,8.761563E5,0E0,0E0,0E0,0E0,0E0,0E0,0E0,0E0,0E0,0E0,0E0,0E0,0E0,0E0,0E0,0E0,0E0,0E0,0E0,0E0,0E0,0E0,0E0,0E0,0E0,0E0,0E0,0E0,0E0,0E0,0E0,0E0,0E0,0E0,0E0,0E0,0E0,0E0,0E0,0E0,0E0,0E0,0E0,0E0,0E0,0E0,0E0,0E0,0E0,0E0,0E0,0E0,0E0,0E0,0E0,0E0,0E0,0E0,0E0,0E0,0E0,0E0,0E0,0E0],"parents":[2147483647,0,0,1,1,2,2,3,3,4,4,5,5,6,6,7,7,8,8,9,9,10,10,11,11,12,12,13,13,14,14,15,15,16,16,17,17,18,18,19,19,20,20,21,21,22,22,23,23,24,24,25,25,26,26,27,27,28,28,29,29,30,30,31,31,32,32,33,33,34,34,35,35,36,36,37,37,38,38,39,39,40,40,41,41,42,42,43,43,44,44,45,45,46,46,47,47,48,48,49,49,50,50,51,51,52,52,53,53,54,54,55,55,56,56,57,57,58,58,59,59,60,60,61,61,62,62],"right_children":[2,4,6,8,10,12,14,16,18,20,22,24,26,28,30,32,34,36,38,40,42,44,46,48,50,52,54,56,58,60,62,64,66,68,70,72,74,76,78,80,82,84,86,88,90,92,94,96,98,100,102,104,106,108,110,112,114,116,118,120,122,124,126,-1,-1,-1,-1,-1,-1,-1,-1,-1,-1,-1,-1,-1,-1,-1,-1,-1,-1,-1,-1,-1,-1,-1,-1,-1,-1,-1,-1,-1,-1,-1,-1,-1,-1,-1,-1,-1,-1,-1,-1,-1,-1,-1,-1,-1,-1,-1,-1,-1,-1,-1,-1,-1,-1,-1,-1,-1,-1,-1,-1,-1,-1,-1,-1],"split_conditions":[2.408E2,5.68055E1,1.3E1,-1.191011E2,4E0,-7.59526E1,3.13E2,8.5E1,4.628973E1,6.405E1,1E1,-1.1844712E2,3.3E1,1.23E2,4.045201E1,5.35E1,3.1E2,5E1,1.7E1,3.25E2,7E0,4.1E1,1E2,5.56E2,5E0,2.2E1,1E0,4.4039E1,7E0,6E0,-1.1017991E2,3.8950275E1,6.21E1,1.1E2,4.20793E1,4.13415E1,5.7E1,1E0,4.5E1,1.02E2,-1.266167E2,-9.47977E1,3.58E2,7E0,5.4E1,3.05E1,3.06E2,4.73308E1,4.43826E1,1E0,1.4941E3,1.7E1,2.6E1,3.5E1,1E1,1.04E2,-1.119608E2,1.33E2,2.82E2,5.1E1,8E0,1.4941E3,-9.37158E1,-3.308372E-1,-5.9592515E-1,-7.2585285E-2,2.956213E0,-2.6998413E-1,-3.1637527E-2,-1.4735079E-1,-7.5757736E-1,-7.293729E-2,3.539603E-1,-5.0918835E-1,-5.2186694E-2,-8.444755E-1,1.1597936E0,-1.0377255E-1,1.0061092E0,1.8058687E0,1.0957312E-1,3.3238976E0,-1.2930228E0,-6.490152E-1,-2.5190742E0,9.670485E-2,-1.630908E0,-1.7270846E0,-4.0601432E-1,1.0406773E0,-1.4904267E-1,3.4964035E0,9.836807E-1,-7.9114094E-2,1.5091736E0,-5.864169E-1,1.8010117E-1,4.540834E-1,2.267036E0,-6.778738E-2,3.096499E-1,-3.8923766E-2,2.7289096E-1,-1.4531471E-1,3.1640828E0,-2.1743915E0,-5.54217E-1,6.532417E0,1.6392158E0,3.8235566E-1,-1.3908439E0,-1.7271546E-1,1.4120106E-1,-1.8313417E-1,4.6767816E-1,7.980854E-2,-8.397545E-2,-5.366759E-2,1.7458154E-1,-1.8987328E-2,5.413201E-1,-3.4505597E-1,-2.7099656E-2,4.1947573E-1,1.5417185E0,-1.1871257E-1,4.780289E-1],"split_indices":[8,6,3,7,0,7,4,4,6,6,0,7,4,4,6,6,4,4,3,4,3,4,4,8,0,4,5,6,0,0,7,6,8,4,6,6,4,0,3,4,7,7,4,0,4,8,4,6,6,0,8,4,4,4,3,4,7,4,4,3,0,8,7,0,0,0,0,0,0,0,0,0,0,0,0,0,0,0,0,0,0,0,0,0,0,0,0,0,0,0,0,0,0,0,0,0,0,0,0,0,0,0,0,0,0,0,0,0,0,0,0,0,0,0,0,0,0,0,0,0,0,0,0,0,0,0,0],"split_type":[0,0,0,0,0,0,0,0,0,0,0,0,0,0,0,0,0,0,0,0,0,0,0,0,0,0,0,0,0,0,0,0,0,0,0,0,0,0,0,0,0,0,0,0,0,0,0,0,0,0,0,0,0,0,0,0,0,0,0,0,0,0,0,0,0,0,0,0,0,0,0,0,0,0,0,0,0,0,0,0,0,0,0,0,0,0,0,0,0,0,0,0,0,0,0,0,0,0,0,0,0,0,0,0,0,0,0,0,0,0,0,0,0,0,0,0,0,0,0,0,0,0,0,0,0,0,0],"sum_hessian":[2.6785456E7,1.0568417E7,1.621704E7,1.0340644E7,2.27773E5,3.842376E6,1.2374664E7,1.227491E6,9.113153E6,8.1708E4,1.46065E5,3.723321E6,1.19055E5,9.958511E6,2.416153E6,2.58685E5,9.68806E5,8.919052E6,1.94101E5,5.3658E4,2.805E4,1.02737E5,4.3328E4,2.16276E5,3.507045E6,4.4265E4,7.479E4,1.719027E6,8.239484E6,1.262874E6,1.153279E6,2.4664E5,1.2045E4,7.97065E5,1.71741E5,1.238829E6,7.680223E6,6.1819E4,1.32282E5,4.7477E4,6.181E3,3.334E3,2.4716E4,1.1288E4,9.1449E4,1.1789E4,3.1539E4,8.292E4,1.33356E5,1.296237E6,2.210808E6,2.8407E4,1.5858E4,5.8534E4,1.6256E4,1.336357E6,3.8267E5,4.218351E6,4.021133E6,5.41608E5,7.21266E5,2.61163E5,8.92116E5,6.2767E4,1.83873E5,1.1248E4,7.97E2,7.8123E4,7.18942E5,5.301E4,1.18731E5,9.0015E5,3.38679E5,1.71849E5,7.508374E6,5.344E3,5.6475E4,1.01595E5,3.0687E4,1.5321E4,3.2156E4,5.559E3,6.22E2,2.812E3,5.22E2,2.4126E4,5.9E2,6.105E3,5.183E3,3.733E3,8.7716E4,4.375E3,7.414E3,2.4509E4,7.03E3,5.0196E4,3.2724E4,9.0849E4,4.2507E4,3.08659E5,9.87578E5,1.776466E6,4.34342E5,2.1248E4,7.159E3,5.728E3,1.013E4,2.279E3,5.6255E4,9.733E3,6.523E3,6.8685E5,6.49507E5,9.7056E4,2.85614E5,2.21324E5,3.997027E6,3.34588E6,6.75253E5,3.97336E5,1.44272E5,2.07655E5,5.13611E5,2.03573E5,5.759E4,4.8374E5,4.08376E5],"tree_param":{"num_deleted":"0","num_feature":"9","num_nodes":"127","size_leaf_vector":"1"}},{"base_weights":[8.812101E-6,-7.668234E-3,1.8344445E0,4.9903084E-2,-2.0770918E-1,5.8347255E-1,3.9256015E0,3.5591793E-1,-3.0786362E-2,-2.857014E-1,1.43653E0,2.8639557E0,-6.207148E-1,1.27425585E1,2.4301257E0,-1.3026285E-1,6.4293647E-1,1.691424E-1,-1.13132894E-1,-2.5230267E0,-2.3774035E-1,7.3853736E0,6.1520773E-1,-7.837551E-1,7.732115E0,-2.8286657E0,3.331184E-1,2.003414E1,7.621974E0,1.4446361E0,7.6955543E0,7.7125454E-1,-3.7752122E-1,9.064461E-2,1.2927526E0,2.1816518E0,9.463108E-2,-9.144751E-1,-7.204287E-2,-6.018649E-1,-3.722892E0,2.145717E0,-3.4640354E-1,4.072029E0,3.0048721E1,4.1670732E0,-9.542702E-1,-8.060098E0,3.533343E-1,6.803372E0,3.5025345E1,1.7650639E-1,-4.326047E0,1.0809087E1,1.16735496E-1,1.6897524E1,2.862392E1,-7.236603E-1,1.7874292E1,1.0822823E0,7.51508E0,3.595872E1,3.004645E-1,-5.1654404E-1,5.017894E-1,2.3941042E-1,-2.1571001E-1,-9.085418E-2,1.5442234E-1,4.763584E-1,-3.7053427E-1,1.9243707E-1,1.6704146E0,-6.0497164E-3,2.9888442E-1,-1.0986929E-1,-4.760673E-1,-2.817538E-2,2.7660292E-1,2.7601821E-2,-4.4667554E-1,-1.836598E-2,-1.3701599E0,1.7662345E-1,1.6430187E0,-7.012609E-1,-8.4014416E-2,2.4426105E0,1.2428612E-2,2.3718824E0,1.9372084E1,8.0122346E-1,3.7880414E0,1.918872E0,-3.6398804E-1,-1.8709074E0,-5.9449534E0,1.0172402E0,-3.425129E-1,4.090187E0,7.007636E-1,2.8310219E1,8.173798E0,-2.6799253E-1,1.049038E0,-1.7718246E0,1.7403555E-1,7.0109262E0,-6.180365E-1,1.7863011E-1,-7.772865E-1,5.4933124E0,2.727281E0,7.146666E0,1.4655908E1,2.9653556E0,-4.46158E-1,4.078415E0,9.159186E0,8.910436E-1,-9.834522E-2,1.7013219E-1,3.2000415E0,1.2425126E1,3.0802937E0,9.302892E-1,-5.2180034E-1],"categories":[],"categories_nodes":[],"categories_segments":[],"categories_sizes":[],"default_left":[0,0,0,0,0,0,0,0,0,0,0,0,0,0,0,0,0,0,0,0,0,0,0,0,0,0,0,0,0,0,0,0,0,0,0,0,0,0,0,0,0,0,0,0,0,0,0,0,0,0,0,0,0,0,0,0,0,0,0,0,0,0,0,0,0,0,0,0,0,0,0,0,0,0,0,0,0,0,0,0,0,0,0,0,0,0,0,0,0,0,0,0,0,0,0,0,0,0,0,0,0,0,0,0,0,0,0,0,0,0,0,0,0,0,0,0,0,0,0,0,0,0,0,0,0,0,0],"id":10,"left_children":[1,3,5,7,9,11,13,15,17,19,21,23,25,27,29,31,33,35,37,39,41,43,45,47,49,51,53,55,57,59,61,63,65,67,69,71,73,75,77,79,81,83,85,87,89,91,93,95,97,99,101,103,105,107,109,111,113,115,117,119,121,123,125,-1,-1,-1,-1,-1,-1,-1,-1,-1,-1,-1,-1,-1,-1,-1,-1,-1,-1,-1,-1,-1,-1,-1,-1,-1,-1,-1,-1,-1,-1,-1,-1,-1,-1,-1,-1,-1,-1,-1,-1,-1,-1,-1,-1,-1,-1,-1,-1,-1,-1,-1,-1,-1,-1,-1,-1,-1,-1,-1,-1,-1,-1,-1,-1],"loss_changes":[3.772209E5,3.0719244E5,2.920168E5,5.1144272E5,7.6443656E5,1.9181066E5,5.5090075E5,6.030917E5,2.698497E5,6.10683E5,1.3189538E6,4.2862216E5,9.626908E4,2.2607319E5,1.8536678E5,3.5761828E5,9.75306E5,7.170242E5,3.8225938E5,2.753208E5,1.4430361E6,2.4590485E6,1.3223098E6,1.14173734E5,2.6183875E5,6.205422E4,7.236018E4,6.684644E4,3.0469956E5,6.618808E4,1.177126E6,7.7598344E5,5.054558E5,2.451489E5,9.314169E5,8.9039125E5,4.7725772E5,2.0874494E5,2.4012953E5,2.8263318E4,2.272955E5,1.25996E6,7.040479E5,4.6872722E5,3.192662E6,9.201534E5,3.1322894E5,3.986321E4,5.4202434E4,3.0512406E5,1.5438744E5,1.6296569E4,7.135203E4,1.0447134E5,4.0541746E4,2.006025E4,6.3624625E4,1.59225E4,8.61385E4,7.56039E4,3.7111227E4,1.6336475E5,2.5511508E4,0E0,0E0,0E0,0E0,0E0,0E0,0E0,0E0,0E0,0E0,0E0,0E0,0E0,0E0,0E0,0E0,0E0,0E0,0E0,0E0,0E0,0E0,0E0,0E0,0E0,0E0,0E0,0E0,0E0,0E0,0E0,0E0,0E0,0E0,0E0,0E0,0E0,0E0,0E0,0E0,0E0,0E0,0E0,0E0,0E0,0E0,0E0,0E0,0E0,0E0,0E0,0E0,0E0,0E0,0E0,0E0,0E0,0E0,0E0,0E0,0E0,0E0,0E0,0E0],"parents":[2147483647,0,0,1,1,2,2,3,3,4,4,5,5,6,6,7,7,8,8,9,9,10,10,11,11,12,12,13,13,14,14,15,15,16,16,17,17,18,18,19,19,20,20,21,21,22,22,23,23,24,24,25,25,26,26,27,27,28,28,29,29,30,30,31,31,32,32,33,33,34,34,35,35,36,36,37,37,38,38,39,39,40,40,41,41,42,42,43,43,44,44,45,45,46,46,47,47,48,48,49,49,50,50,51,51,52,52,53,53,54,54,55,55,56,56,57,57,58,58,59,59,60,60,61,61,62,62],"right_children":[2,4,6,8,10,12,14,16,18,20,22,24,26,28,30,32,34,36,38,40,42,44,46,48,50,52,54,56,58,60,62,64,66,68,70,72,74,76,78,80,82,84,86,88,90,92,94,96,98,100,102,104,106,108,110,112,114,116,118,120,122,124,126,-1,-1,-1,-1,-1,-1,-1,-1,-1,-1,-1,-1,-1,-1,-1,-1,-1,-1,-1,-1,-1,-1,-1,-1,-1,-1,-1,-1,-1,-1,-1,-1,-1,-1,-1,-1,-1,-1,-1,-1,-1,-1,-1,-1,-1,-1,-1,-1,-1,-1,-1,-1,-1,-1,-1,-1,-1,-1,-1,-1,-1,-1,-1,-1],"split_conditions":[2.7277E3,1E0,3.928754E1,7.5E1,3.51E2,-1.064956E2,-1.061276E2,5E0,4E0,8E0,3.53E2,3.78663E1,1.04E2,1.42E2,-1.054739E2,8E0,4.045201E1,8.5E1,8.9E1,3.85866E1,4E0,-7.884332E1,3E0,2.5665E1,3.53E2,3.88528E1,1.09E2,3.938039E1,4E0,3.46E2,3.971215E1,4E0,2E0,3.002E2,1.2E1,2E0,3.36E2,9E0,3.6E2,3.538843E1,-1.106022E2,1.8E1,3.3E1,5.1E1,7E0,-8.01566E1,5.1E1,3.14E2,3.751154E1,1.33E2,1E0,3.88088E1,3.923842E1,7E0,3.31E2,1.1E1,1.04E2,1.51E2,3.938039E1,1.47E2,4E0,1.2E1,1.47E2,-5.1654404E-1,5.017894E-1,2.3941042E-1,-2.1571001E-1,-9.085418E-2,1.5442234E-1,4.763584E-1,-3.7053427E-1,1.9243707E-1,1.6704146E0,-6.0497164E-3,2.9888442E-1,-1.0986929E-1,-4.760673E-1,-2.817538E-2,2.7660292E-1,2.7601821E-2,-4.4667554E-1,-1.836598E-2,-1.3701599E0,1.7662345E-1,1.6430187E0,-7.012609E-1,-8.4014416E-2,2.4426105E0,1.2428612E-2,2.3718824E0,1.9372084E1,8.0122346E-1,3.7880414E0,1.918872E0,-3.6398804E-1,-1.8709074E0,-5.9449534E0,1.0172402E0,-3.425129E-1,4.090187E0,7.007636E-1,2.8310219E1,8.173798E0,-2.6799253E-1,1.049038E0,-1.7718246E0,1.7403555E-1,7.0109262E0,-6.180365E-1,1.7863011E-1,-7.772865E-1,5.4933124E0,2.727281E0,7.146666E0,1.4655908E1,2.9653556E0,-4.46158E-1,4.078415E0,9.159186E0,8.910436E-1,-9.834522E-2,1.7013219E-1,3.2000415E0,1.2425126E1,3.0802937E0,9.302892E-1,-5.2180034E-1],"split_indices":[8,5,6,4,4,7,7,3,0,4,4,6,4,4,7,4,6,4,4,6,3,7,0,6,4,6,4,6,1,4,6,0,0,8,0,0,4,0,4,6,7,4,4,3,0,7,3,4,6,4,0,6,6,0,4,0,4,4,6,4,0,0,4,0,0,0,0,0,0,0,0,0,0,0,0,0,0,0,0,0,0,0,0,0,0,0,0,0,0,0,0,0,0,0,0,0,0,0,0,0,0,0,0,0,0,0,0,0,0,0,0,0,0,0,0,0,0,0,0,0,0,0,0,0,0,0,0],"split_type":[0,0,0,0,0,0,0,0,0,0,0,0,0,0,0,0,0,0,0,0,0,0,0,0,0,0,0,0,0,0,0,0,0,0,0,0,0,0,0,0,0,0,0,0,0,0,0,0,0,0,0,0,0,0,0,0,0,0,0,0,0,0,0,0,0,0,0,0,0,0,0,0,0,0,0,0,0,0,0,0,0,0,0,0,0,0,0,0,0,0,0,0,0,0,0,0,0,0,0,0,0,0,0,0,0,0,0,0,0,0,0,0,0,0,0,0,0,0,0,0,0,0,0,0,0,0,0],"sum_hessian":[2.6785456E7,2.6673828E7,1.11628E5,2.0712748E7,5.96108E6,6.9846E4,4.1782E4,4.321907E6,1.6390842E7,5.69113E6,2.6995E5,2.4136E4,4.571E4,6.058E3,3.5724E4,1.604331E6,2.717576E6,4.781605E6,1.1609237E7,1.19438E5,5.571692E6,3.2748E4,2.37202E5,1.3798E4,1.0338E4,1.3789E4,3.1921E4,2.498E3,3.56E3,3.0093E4,5.631E3,3.4531E5,1.259021E6,1.469024E6,1.248552E6,1.70713E5,4.610892E6,5.66245E5,1.1042992E7,4.5918E4,7.352E4,2.4294E5,5.328752E6,2.8572E4,4.176E3,7.2692E4,1.6451E5,1.864E3,1.1934E4,9.999E3,3.39E2,4.586E3,9.203E3,6.45E2,3.1276E4,1.832E3,6.66E2,1.963E3,1.597E3,2.8399E4,1.694E3,1.167E3,4.464E3,9.1695E4,2.53615E5,2.83422E5,9.75599E5,7.62007E5,7.07017E5,1.118031E6,1.30521E5,1.17344E5,5.3369E4,4.090142E6,5.2075E5,3.11924E5,2.54321E5,1.0805214E7,2.37778E5,2.5765E4,2.0153E4,1.3776E4,5.9744E4,1.65557E5,7.7383E4,1.71855E5,5.156897E6,1.4216E4,1.4356E4,2.545E3,1.631E3,6.1768E4,1.0924E4,5.599E3,1.58911E5,1.615E3,2.49E2,3.936E3,7.998E3,3.953E3,6.046E3,3.8E1,3.01E2,3.469E3,1.117E3,6.961E3,2.242E3,3.26E2,3.19E2,2.6578E4,4.698E3,1.55E3,2.82E2,5.4E2,1.26E2,1.31E2,1.832E3,1.195E3,4.02E2,1.2142E4,1.6257E4,5.29E2,1.165E3,9.62E2,2.05E2,1.881E3,2.583E3],"tree_param":{"num_deleted":"0","num_feature":"9","num_nodes":"127","size_leaf_vector":"1"}},{"base_weights":[1.1261743E-5,-5.4925904E-2,2.1525913E-1,-3.6065868E-1,3.3998298E-3,3.8540092E0,1.7360741E-1,-4.7143027E-1,3.2382753E-1,-3.2635137E-2,8.223963E-1,2.040697E-1,8.236744E0,1.5103039E-1,4.047887E0,-1.0463303E0,-3.2511845E-1,5.117961E-2,1.2237822E0,-3.9823905E-2,1.8838242E0,5.5621487E-1,2.2952347E0,6.424414E-1,-5.9690027E0,7.1048913E0,3.3625984E1,9.257891E-2,1.6287287E0,3.226297E0,1.150672E1,-1.6348002E0,-4.039595E-1,-1.705794E-1,-1.1183078E0,5.631213E-1,-1.7145786E-1,2.824786E0,4.3630368E-1,-1.7195804E-2,-6.5741694E-1,-3.0030003E-1,6.037013E0,1.5078131E0,-8.8535726E-2,1.7786309E0,7.9123755E0,3.3811115E-2,4.1333766E0,-1.4066433E1,-3.0068636E0,1.5959537E1,3.1231E0,2.3673279E1,4.632559E1,-1.08354434E-1,3.840156E-1,1.0134276E0,6.25683E0,7.6364717E0,1.2619202E0,2.9316452E1,9.710893E0,-9.729924E-2,-6.1936736E-1,-7.1889483E-3,-7.8939754E-1,9.761225E-3,-1.0208564E-1,-2.3763447E-1,-9.436014E-1,-2.2408444E-2,8.110927E-1,-5.7689663E-2,6.148459E-1,6.8818055E-2,1.1287984E0,-8.623706E-2,9.295286E-1,1.339362E-2,-7.008756E-2,1.462044E-1,-3.535684E-1,6.552967E-1,-5.275778E-1,4.1891065E0,2.0297556E-1,-5.902033E-1,5.592922E-1,-9.467124E-2,3.3140633E-1,1.452385E-1,1.1212842E0,1.0506719E0,4.8244996E0,6.5370816E-1,-2.3346235E-1,9.4758147E-1,6.1080656E0,-5.348898E0,-3.6547768E0,-1.2668651E-1,-3.9889796E0,2.8234932E0,7.4417644E0,1.1830074E-1,4.4820094E0,5.252909E0,1.7265776E1,9.932427E0,2.2618675E1,-5.8446392E-2,4.222103E-1,-3.4229696E-1,1.4488599E-1,4.4737452E-1,-2.1981622E-1,3.574088E0,9.782986E-1,2.8862505E0,9.506932E-1,1.2534258E-1,1.4358954E0,1.0021882E1,-4.8634367E0,2.1938808E0,6.8302155E0],"categories":[],"categories_nodes":[],"categories_segments":[],"categories_sizes":[],"default_left":[0,0,0,0,0,0,0,0,0,0,0,0,0,0,0,0,0,0,0,0,0,0,0,0,0,0,0,0,0,0,0,0,0,0,0,0,0,0,0,0,0,0,0,0,0,0,0,0,0,0,0,0,0,0,0,0,0,0,0,0,0,0,0,0,0,0,0,0,0,0,0,0,0,0,0,0,0,0,0,0,0,0,0,0,0,0,0,0,0,0,0,0,0,0,0,0,0,0,0,0,0,0,0,0,0,0,0,0,0,0,0,0,0,0,0,0,0,0,0,0,0,0,0,0,0,0,0],"id":11,"left_children":[1,3,5,7,9,11,13,15,17,19,21,23,25,27,29,31,33,35,37,39,41,43,45,47,49,51,53,55,57,59,61,63,65,67,69,71,73,75,77,79,81,83,85,87,89,91,93,95,97,99,101,103,105,107,109,111,113,115,117,119,121,123,125,-1,-1,-1,-1,-1,-1,-1,-1,-1,-1,-1,-1,-1,-1,-1,-1,-1,-1,-1,-1,-1,-1,-1,-1,-1,-1,-1,-1,-1,-1,-1,-1,-1,-1,-1,-1,-1,-1,-1,-1,-1,-1,-1,-1,-1,-1,-1,-1,-1,-1,-1,-1,-1,-1,-1,-1,-1,-1,-1,-1,-1,-1,-1,-1],"loss_changes":[3.1674094E5,3.805212E5,8.254466E5,2.5921438E5,5.2887575E5,9.85988E5,4.7099694E5,2.4751044E5,1.1684477E5,2.364839E5,2.9608788E5,9.101268E4,8.0459525E5,4.624011E5,1.9114125E5,2.2565631E5,2.8751938E5,4.1655984E4,1.3959348E5,2.3898569E5,5.818845E5,3.9245203E5,3.3544112E5,6.671933E4,5.344585E4,9.453055E5,1.49946E5,3.0156872E5,5.800766E5,2.4345353E5,9.870328E4,1.7545712E5,2.4156492E5,6.766884E4,2.5289306E5,1.5122853E5,1.1789953E4,8.885794E4,1.4300167E5,2.207944E5,3.6059075E5,1.5232764E5,9.393676E5,3.20064E5,1.0329614E5,2.6846472E5,3.5070925E5,4.6583336E4,7.367671E4,4.0151172E3,4.344995E4,4.81528E5,5.9644125E5,1.393179E5,1.9884162E5,3.9949588E5,3.170912E5,1.5001731E5,4.0505812E5,7.674153E4,5.784361E4,5.3236453E4,8.790544E4,0E0,0E0,0E0,0E0,0E0,0E0,0E0,0E0,0E0,0E0,0E0,0E0,0E0,0E0,0E0,0E0,0E0,0E0,0E0,0E0,0E0,0E0,0E0,0E0,0E0,0E0,0E0,0E0,0E0,0E0,0E0,0E0,0E0,0E0,0E0,0E0,0E0,0E0,0E0,0E0,0E0,0E0,0E0,0E0,0E0,0E0,0E0,0E0,0E0,0E0,0E0,0E0,0E0,0E0,0E0,0E0,0E0,0E0,0E0,0E0,0E0,0E0,0E0,0E0],"parents":[2147483647,0,0,1,1,2,2,3,3,4,4,5,5,6,6,7,7,8,8,9,9,10,10,11,11,12,12,13,13,14,14,15,15,16,16,17,17,18,18,19,19,20,20,21,21,22,22,23,23,24,24,25,25,26,26,27,27,28,28,29,29,30,30,31,31,32,32,33,33,34,34,35,35,36,36,37,37,38,38,39,39,40,40,41,41,42,42,43,43,44,44,45,45,46,46,47,47,48,48,49,49,50,50,51,51,52,52,53,53,54,54,55,55,56,56,57,57,58,58,59,59,60,60,61,61,62,62],"right_children":[2,4,6,8,10,12,14,16,18,20,22,24,26,28,30,32,34,36,38,40,42,44,46,48,50,52,54,56,58,60,62,64,66,68,70,72,74,76,78,80,82,84,86,88,90,92,94,96,98,100,102,104,106,108,110,112,114,116,118,120,122,124,126,-1,-1,-1,-1,-1,-1,-1,-1,-1,-1,-1,-1,-1,-1,-1,-1,-1,-1,-1,-1,-1,-1,-1,-1,-1,-1,-1,-1,-1,-1,-1,-1,-1,-1,-1,-1,-1,-1,-1,-1,-1,-1,-1,-1,-1,-1,-1,-1,-1,-1,-1,-1,-1,-1,-1,-1,-1,-1,-1,-1,-1,-1,-1,-1],"split_conditions":[9.176E2,-1.02302E2,-1.216874E2,5.15833E1,4.616611E1,4.226123E1,-8.108233E1,1.2E1,4.1E1,5.3E1,3.13E2,1.4245E3,5.1E1,4.68736E1,4.8E1,7E0,3.16E2,8.6E1,4E0,3.53E2,4.125478E1,1.8E1,1.2E1,1.314E3,9.9E1,1.06E2,-1.219486E2,-1.054739E2,1.2802E3,1.02E2,1E0,2.1E1,-1.0934574E2,4.3435562E1,-1.1017991E2,1E0,-1.043835E2,1E0,1.1E1,1E0,4E0,-9.249799E1,6E0,1E0,2.83E2,-9.07445E1,3.47E2,4.13415E1,3.46E2,1E0,3.1E2,-1.219486E2,3.06E2,1.1E1,4.53167E1,3.47E2,4E0,4.96E1,1.8E1,9E0,2.88E2,3.63E2,-7.267E1,-9.729924E-2,-6.1936736E-1,-7.1889483E-3,-7.8939754E-1,9.761225E-3,-1.0208564E-1,-2.3763447E-1,-9.436014E-1,-2.2408444E-2,8.110927E-1,-5.7689663E-2,6.148459E-1,6.8818055E-2,1.1287984E0,-8.623706E-2,9.295286E-1,1.339362E-2,-7.008756E-2,1.462044E-1,-3.535684E-1,6.552967E-1,-5.275778E-1,4.1891065E0,2.0297556E-1,-5.902033E-1,5.592922E-1,-9.467124E-2,3.3140633E-1,1.452385E-1,1.1212842E0,1.0506719E0,4.8244996E0,6.5370816E-1,-2.3346235E-1,9.4758147E-1,6.1080656E0,-5.348898E0,-3.6547768E0,-1.2668651E-1,-3.9889796E0,2.8234932E0,7.4417644E0,1.1830074E-1,4.4820094E0,5.252909E0,1.7265776E1,9.932427E0,2.2618675E1,-5.8446392E-2,4.222103E-1,-3.4229696E-1,1.4488599E-1,4.4737452E-1,-2.1981622E-1,3.574088E0,9.782986E-1,2.8862505E0,9.506932E-1,1.2534258E-1,1.4358954E0,1.0021882E1,-4.8634367E0,2.1938808E0,6.8302155E0],"split_indices":[8,7,7,6,6,6,7,3,3,3,4,8,3,6,3,0,4,4,0,4,6,3,0,8,4,4,7,7,8,4,0,4,7,6,7,5,7,0,0,5,0,7,0,0,4,7,4,6,4,0,4,7,4,0,6,4,3,6,3,0,4,4,7,0,0,0,0,0,0,0,0,0,0,0,0,0,0,0,0,0,0,0,0,0,0,0,0,0,0,0,0,0,0,0,0,0,0,0,0,0,0,0,0,0,0,0,0,0,0,0,0,0,0,0,0,0,0,0,0,0,0,0,0,0,0,0,0],"split_type":[0,0,0,0,0,0,0,0,0,0,0,0,0,0,0,0,0,0,0,0,0,0,0,0,0,0,0,0,0,0,0,0,0,0,0,0,0,0,0,0,0,0,0,0,0,0,0,0,0,0,0,0,0,0,0,0,0,0,0,0,0,0,0,0,0,0,0,0,0,0,0,0,0,0,0,0,0,0,0,0,0,0,0,0,0,0,0,0,0,0,0,0,0,0,0,0,0,0,0,0,0,0,0,0,0,0,0,0,0,0,0,0,0,0,0,0,0,0,0,0,0,0,0,0,0,0,0],"sum_hessian":[2.6785456E7,2.1339128E7,5.44633E6,3.418736E6,1.7920392E7,6.1636E4,5.384694E6,2.94254E6,4.76196E5,1.7165144E7,7.55247E5,3.363E4,2.8006E4,5.353498E6,3.1196E4,5.9695E5,2.34559E6,3.65474E5,1.10722E5,1.7100998E7,6.4146E4,6.39647E5,1.156E5,3.1401E4,2.229E3,2.6812E4,1.194E3,5.149795E6,2.03703E5,2.8102E4,3.094E3,3.11545E5,2.85405E5,1.963113E6,3.82477E5,1.10768E5,2.54706E5,3.6504E4,7.4218E4,1.6496578E7,6.0442E5,4.2039E4,2.2107E4,2.58347E5,3.813E5,1.05865E5,9.735E3,2.674E4,4.661E3,5.96E2,1.633E3,8.316E3,1.8496E4,6.71E2,5.23E2,3.048194E6,2.101601E6,1.798E5,2.3903E4,8.659E3,1.9443E4,2.82E2,2.812E3,7.6938E4,2.34607E5,2.43811E5,4.1594E4,8.93594E5,1.069519E6,3.29461E5,5.3016E4,8.534E4,2.5428E4,2.52339E5,2.367E3,9.69E3,2.6814E4,5.8354E4,1.5864E4,1.2830477E7,3.666101E6,1.8908E5,4.1534E5,1.5548E4,2.6491E4,8.918E3,1.3189E4,2.4036E4,2.34311E5,3.20348E5,6.0952E4,6.3744E4,4.2121E4,6.323E3,3.412E3,7.342E3,1.9398E4,4.398E3,2.63E2,1.96E2,4E2,1.306E3,3.27E2,4.78E3,3.536E3,1.5027E4,3.469E3,5.69E2,1.02E2,3.61E2,1.62E2,2.88369E6,1.64504E5,1.28038E5,1.973563E6,1.4117E5,3.863E4,8.275E3,1.5628E4,5.995E3,2.664E3,1.5687E4,3.756E3,2.59E2,2.3E1,2.377E3,4.35E2],"tree_param":{"num_deleted":"0","num_feature":"9","num_nodes":"127","size_leaf_vector":"1"}},{"base_weights":[1.1663091E-5,-9.9458825E-3,8.2691973E-1,-2.2203907E-1,2.416523E-2,2.869467E0,2.1546952E-1,-5.8017606E-1,-1.4742541E-1,-2.459655E-2,3.1870502E-1,7.602174E-1,5.7450933E0,-6.437351E-1,9.74082E-1,1.2906266E0,-6.3231516E-1,-4.815159E-2,-5.1135236E-1,-8.146242E-2,2.7134323E-1,1.2814764E0,1.7290469E-1,5.2084374E-1,8.580549E0,4.783279E0,2.0837992E1,-1.3320294E-1,-2.1890006E0,3.4463131E0,2.768132E-1,-1.339237E0,7.9394403E0,-6.031475E-1,-5.2496967E0,2.489179E0,-5.540662E-2,-1.15760125E-1,-1.082291E0,-2.4890675E-1,-3.333111E-2,9.213816E-2,1.4323199E0,9.5052356E-1,8.396072E0,3.3746768E-2,9.0054536E-1,3.4124398E0,-1.5299578E-1,-1.5206686E1,1.020889E1,9.363588E0,2.1255243E0,1.541982E1,5.243379E1,1.1566879E0,-3.4591487E-1,-4.8536587E0,-5.933047E-1,4.4915786E0,-1.9416852E0,-3.3648963E0,6.1254346E-1,8.180704E-2,-7.6531106E-1,4.7762938E0,4.7334918E-1,-2.001471E-1,5.4382807E-1,4.3167308E-2,-2.129854E0,-2.849923E-1,3.30278E0,-7.650659E-2,3.1445078E-3,-1.3306452E-1,1.0372583E-2,-4.0514636E-1,2.1417704E-1,-3.1492114E-2,-1.596357E-1,-2.1883924E-2,1.8268816E-1,-1.4183324E-2,4.0901983E-1,9.154546E-1,2.041192E-1,-1.9080043E-1,5.647218E-1,-1.8266541E0,4.373073E0,-4.3625715E-1,2.6565373E-2,4.482552E-1,-3.1425717E-1,1.7255722E0,-9.715693E-1,4.5553714E-1,-2.1032567E-1,-5.0968223E0,-1.0620781E0,5.646101E0,1.2080644E0,3.620332E0,-2.0465517E0,3.072973E-2,2.5260644E0,7.316227E0,1.7478883E-1,5.3637557E0,2.9624893E1,1.4490758E0,-2.9893292E-2,2.4939532E0,-1.19300894E-1,-2.4760315E0,-6.008205E-1,6.7673005E-2,-1.5555179E0,1.1336025E0,5.042362E0,-2.101652E0,-1.7180026E-1,2.830512E-1,-1.817011E0,6.9499135E-1,-1.2237968E-1],"categories":[],"categories_nodes":[],"categories_segments":[],"categories_sizes":[],"default_left":[0,0,0,0,0,0,0,0,0,0,0,0,0,0,0,0,0,0,0,0,0,0,0,0,0,0,0,0,0,0,0,0,0,0,0,0,0,0,0,0,0,0,0,0,0,0,0,0,0,0,0,0,0,0,0,0,0,0,0,0,0,0,0,0,0,0,0,0,0,0,0,0,0,0,0,0,0,0,0,0,0,0,0,0,0,0,0,0,0,0,0,0,0,0,0,0,0,0,0,0,0,0,0,0,0,0,0,0,0,0,0,0,0,0,0,0,0,0,0,0,0,0,0,0,0,0,0],"id":12,"left_children":[1,3,5,7,9,11,13,15,17,19,21,23,25,27,29,31,33,35,37,39,41,43,45,47,49,51,53,55,57,59,61,63,65,67,69,71,73,75,77,79,81,83,85,87,89,91,93,95,97,99,101,103,105,107,109,111,113,115,117,119,121,123,125,-1,-1,-1,-1,-1,-1,-1,-1,-1,-1,-1,-1,-1,-1,-1,-1,-1,-1,-1,-1,-1,-1,-1,-1,-1,-1,-1,-1,-1,-1,-1,-1,-1,-1,-1,-1,-1,-1,-1,-1,-1,-1,-1,-1,-1,-1,-1,-1,-1,-1,-1,-1,-1,-1,-1,-1,-1,-1,-1,-1,-1,-1,-1,-1],"loss_changes":[2.2055081E5,1.914799E5,3.980413E5,9.798689E4,3.2745772E5,4.453608E5,1.5987756E5,6.167061E4,1.09638055E5,3.291963E5,4.5458697E5,7.9290805E4,4.5091544E5,9.073749E4,2.2455625E5,2.9976412E5,8.283697E4,4.389098E4,1.468976E5,1.322409E5,6.559788E5,1.0028662E6,2.8478678E5,8.008661E4,4.8882273E4,3.5555112E5,3.1777888E5,2.3721504E4,1.2144653E5,1.6140744E5,1.2423494E5,2.3997398E4,2.4669272E5,9.452355E4,3.852279E4,1.9920466E5,3.1269441E4,1.8932494E4,1.2824034E5,1.4933722E5,3.2429012E5,4.840868E5,5.133023E5,6.01719E5,1.6950504E6,1.9252842E5,5.2217072E5,1.2088722E5,3.0539465E4,1.6244883E3,6.2636258E4,4.6949825E5,2.3540073E5,2.1154166E5,4.335503E5,5.648613E4,3.3263617E4,1.03674E5,6.7179164E4,2.1068206E5,3.2280457E4,9.947644E4,1.617876E5,0E0,0E0,0E0,0E0,0E0,0E0,0E0,0E0,0E0,0E0,0E0,0E0,0E0,0E0,0E0,0E0,0E0,0E0,0E0,0E0,0E0,0E0,0E0,0E0,0E0,0E0,0E0,0E0,0E0,0E0,0E0,0E0,0E0,0E0,0E0,0E0,0E0,0E0,0E0,0E0,0E0,0E0,0E0,0E0,0E0,0E0,0E0,0E0,0E0,0E0,0E0,0E0,0E0,0E0,0E0,0E0,0E0,0E0,0E0,0E0,0E0,0E0,0E0,0E0],"parents":[2147483647,0,0,1,1,2,2,3,3,4,4,5,5,6,6,7,7,8,8,9,9,10,10,11,11,12,12,13,13,14,14,15,15,16,16,17,17,18,18,19,19,20,20,21,21,22,22,23,23,24,24,25,25,26,26,27,27,28,28,29,29,30,30,31,31,32,32,33,33,34,34,35,35,36,36,37,37,38,38,39,39,40,40,41,41,42,42,43,43,44,44,45,45,46,46,47,47,48,48,49,49,50,50,51,51,52,52,53,53,54,54,55,55,56,56,57,57,58,58,59,59,60,60,61,61,62,62],"right_children":[2,4,6,8,10,12,14,16,18,20,22,24,26,28,30,32,34,36,38,40,42,44,46,48,50,52,54,56,58,60,62,64,66,68,70,72,74,76,78,80,82,84,86,88,90,92,94,96,98,100,102,104,106,108,110,112,114,116,118,120,122,124,126,-1,-1,-1,-1,-1,-1,-1,-1,-1,-1,-1,-1,-1,-1,-1,-1,-1,-1,-1,-1,-1,-1,-1,-1,-1,-1,-1,-1,-1,-1,-1,-1,-1,-1,-1,-1,-1,-1,-1,-1,-1,-1,-1,-1,-1,-1,-1,-1,-1,-1,-1,-1,-1,-1,-1,-1,-1,-1,-1,-1,-1,-1,-1,-1],"split_conditions":[2.4631E3,8.02E1,-1.064956E2,1E1,-8.1952E1,3.89038E1,3.923842E1,-1.458894E2,4.4E1,4.48405E1,4.6E1,3.56E2,3.46E2,3.8950275E1,-1.061276E2,-1.5002771E2,6.05029E1,6.4E1,3.8990166E1,-1.05690346E2,-9.07445E1,4.4E1,4.6E1,6.4E1,-1.1844712E2,1.8E1,1.1E1,2E0,1.29E2,3.97533E1,5E0,5.68055E1,1.8E1,-6.49167E1,-1.144069E2,-7.644905E1,1.23E2,4E0,5.35E1,-1.106022E2,1.5581E3,1.1521E3,1.7E1,1.7E1,4E0,5.5E1,3.54E2,1E1,4E0,1.2E1,3.74332E1,4.066569E1,2.96E2,7E0,3.58E2,1.3E1,3E0,3.91254E1,3.32E2,3.96667E1,1.5E1,1.3E1,1.47E2,8.180704E-2,-7.6531106E-1,4.7762938E0,4.7334918E-1,-2.001471E-1,5.4382807E-1,4.3167308E-2,-2.129854E0,-2.849923E-1,3.30278E0,-7.650659E-2,3.1445078E-3,-1.3306452E-1,1.0372583E-2,-4.0514636E-1,2.1417704E-1,-3.1492114E-2,-1.596357E-1,-2.1883924E-2,1.8268816E-1,-1.4183324E-2,4.0901983E-1,9.154546E-1,2.041192E-1,-1.9080043E-1,5.647218E-1,-1.8266541E0,4.373073E0,-4.3625715E-1,2.6565373E-2,4.482552E-1,-3.1425717E-1,1.7255722E0,-9.715693E-1,4.5553714E-1,-2.1032567E-1,-5.0968223E0,-1.0620781E0,5.646101E0,1.2080644E0,3.620332E0,-2.0465517E0,3.072973E-2,2.5260644E0,7.316227E0,1.7478883E-1,5.3637557E0,2.9624893E1,1.4490758E0,-2.9893292E-2,2.4939532E0,-1.19300894E-1,-2.4760315E0,-6.008205E-1,6.7673005E-2,-1.5555179E0,1.1336025E0,5.042362E0,-2.101652E0,-1.7180026E-1,2.830512E-1,-1.817011E0,6.9499135E-1,-1.2237968E-1],"split_indices":[8,8,7,3,7,6,6,7,3,6,4,4,4,6,7,7,6,4,6,7,7,4,3,4,7,3,0,0,4,6,3,6,8,7,7,7,4,0,6,7,8,8,3,4,0,4,4,0,0,0,6,6,4,0,4,3,4,6,4,6,3,4,4,0,0,0,0,0,0,0,0,0,0,0,0,0,0,0,0,0,0,0,0,0,0,0,0,0,0,0,0,0,0,0,0,0,0,0,0,0,0,0,0,0,0,0,0,0,0,0,0,0,0,0,0,0,0,0,0,0,0,0,0,0,0,0,0],"split_type":[0,0,0,0,0,0,0,0,0,0,0,0,0,0,0,0,0,0,0,0,0,0,0,0,0,0,0,0,0,0,0,0,0,0,0,0,0,0,0,0,0,0,0,0,0,0,0,0,0,0,0,0,0,0,0,0,0,0,0,0,0,0,0,0,0,0,0,0,0,0,0,0,0,0,0,0,0,0,0,0,0,0,0,0,0,0,0,0,0,0,0,0,0,0,0,0,0,0,0,0,0,0,0,0,0,0,0,0,0,0,0,0,0,0,0,0,0,0,0,0,0,0,0,0,0,0,0],"sum_hessian":[2.6785456E7,2.6466748E7,3.18709E5,3.666914E6,2.2799834E7,7.3426E4,2.45283E5,6.32238E5,3.034676E6,1.9561398E7,3.238436E6,4.2358E4,3.1068E4,1.15016E5,1.30267E5,1.7142E4,6.15096E5,2.384281E6,6.50395E5,1.6408456E7,3.152942E6,4.25921E5,2.812515E6,4.1101E4,1.257E3,2.9208E4,1.86E3,8.6454E4,2.8562E4,2.8657E4,1.0161E5,1.2284E4,4.858E3,6.11236E5,3.86E3,6.797E3,2.377484E6,3.84195E5,2.662E5,3.663495E6,1.2744961E7,2.731341E6,4.21601E5,4.0699E5,1.8931E4,2.360988E6,4.51527E5,7.767E3,3.3334E4,8E1,1.177E3,1.0724E4,1.8484E4,1.589E3,2.71E2,1.2238E4,7.4216E4,1.0697E4,1.7865E4,2.4001E4,4.656E3,8.576E3,9.3034E4,5.272E3,7.012E3,2.154E3,2.704E3,5.9546E5,1.5776E4,9.86E2,2.874E3,4.843E3,1.954E3,5.90004E5,1.78748E6,1.20801E5,2.63394E5,2.31617E5,3.4583E4,2.429026E6,1.234469E6,1.2004545E7,7.40416E5,2.461406E6,2.69935E5,1.33696E5,2.87905E5,1.50598E5,2.56392E5,5.662E3,1.3269E4,8.3871E4,2.277117E6,3.46069E5,1.05458E5,5.746E3,2.021E3,8.231E3,2.5103E4,6.9E1,1.1E1,4.91E2,6.86E2,9.189E3,1.535E3,1.3989E4,4.495E3,9.9E2,5.99E2,1.56E2,1.15E2,3.118E3,9.12E3,4.4E2,7.3776E4,4.878E3,5.819E3,1.5162E4,2.703E3,2.2689E4,1.312E3,9.9E2,3.666E3,3.298E3,5.278E3,3.4845E4,5.8189E4],"tree_param":{"num_deleted":"0","num_feature":"9","num_nodes":"127","size_leaf_vector":"1"}},{"base_weights":[1.04069595E-5,-1.4960274E-2,4.0720892E-1,-2.3092501E-1,7.849984E-3,1.2931044E-1,1.3589013E0,2.1597202E0,-2.9255047E-1,1.7915875E-1,-3.4298804E-2,-3.7793297E-2,1.1194054E0,4.2187247E0,2.697583E-1,-9.587885E-1,4.232307E0,-3.221928E0,-1.3881797E-1,1.7848083E0,5.226913E-2,-1.3669829E0,-2.4029274E-2,2.9333866E0,-1.0718823E-1,6.4612395E-1,4.951511E0,3.7879155E0,7.50269E1,-4.4798836E-1,2.872244E0,1.844436E-1,-4.9565015E0,-2.3209728E-1,7.4505157E0,-6.2600374E-2,-4.0435057E0,1.9364114E0,-2.3395711E-1,3.8694494E0,-8.351773E-1,-4.7690904E-1,1.9749779E-1,-1.9235562E0,5.1625967E0,1.3377876E0,-3.597538E-2,8.554712E0,1.1414388E0,-3.0187312E-1,1.0174049E0,1.0475847E0,-5.826806E-1,1.7930595E1,1.4488361E0,9.969891E0,1.0937194E0,4.460913E1,7.903756E1,3.744759E0,-7.560905E-1,8.7821865E0,1.69534E0,-3.8878947E-1,1.0933281E0,-6.3539433E-1,-2.1798227E0,-1.2379911E-1,3.1925228E0,9.681218E-1,4.788318E0,-7.887513E-1,7.9008645E-1,-4.3992063E-1,-1.5130243E0,-2.4015082E-1,1.8094627E0,-4.6789715E-1,-2.172773E-2,-1.1691635E0,1.4286216E0,-1.5553285E0,3.8479912E-1,-5.4081553E-1,-6.2300924E-2,-2.124391E-2,1.8816245E-1,-1.3979359E-1,-7.6611215E-1,9.326516E-1,8.322564E0,2.4560146E-2,3.9104843E0,-2.9469794E-1,-7.507646E-3,5.2771354E0,1.6601174E0,-8.30383E-2,1.0390971E0,1.1387872E-1,-2.2442512E-1,-5.8016825E-1,3.9244753E-1,2.1268003E-1,1.123877E0,-2.3740454E-1,6.6027274E0,2.700629E0,6.9680476E0,8.425181E-1,2.753174E-3,5.7191467E0,2.3358905E0,2.052598E0,1.5113594E-1,2.2946558E1,8.631894E0,2.1955702E1,3.0806496E1,-3.2642135E-1,2.751962E0,-6.9772696E-1,-4.2579316E-2,6.2328978E0,1.4005619E0,1.0170122E-1,2.2230768E0],"categories":[],"categories_nodes":[],"categories_segments":[],"categories_sizes":[],"default_left":[0,0,0,0,0,0,0,0,0,0,0,0,0,0,0,0,0,0,0,0,0,0,0,0,0,0,0,0,0,0,0,0,0,0,0,0,0,0,0,0,0,0,0,0,0,0,0,0,0,0,0,0,0,0,0,0,0,0,0,0,0,0,0,0,0,0,0,0,0,0,0,0,0,0,0,0,0,0,0,0,0,0,0,0,0,0,0,0,0,0,0,0,0,0,0,0,0,0,0,0,0,0,0,0,0,0,0,0,0,0,0,0,0,0,0,0,0,0,0,0,0,0,0,0,0,0,0],"id":13,"left_children":[1,3,5,7,9,11,13,15,17,19,21,23,25,27,29,31,33,35,37,39,41,43,45,47,49,51,53,55,57,59,61,63,65,67,69,71,73,75,77,79,81,83,85,87,89,91,93,95,97,99,101,103,105,107,109,111,113,115,117,119,121,123,125,-1,-1,-1,-1,-1,-1,-1,-1,-1,-1,-1,-1,-1,-1,-1,-1,-1,-1,-1,-1,-1,-1,-1,-1,-1,-1,-1,-1,-1,-1,-1,-1,-1,-1,-1,-1,-1,-1,-1,-1,-1,-1,-1,-1,-1,-1,-1,-1,-1,-1,-1,-1,-1,-1,-1,-1,-1,-1,-1,-1,-1,-1,-1,-1],"loss_changes":[1.6328522E5,1.2727167E5,2.5120973E5,3.636103E5,1.6872423E5,1.216337E5,6.6865606E5,4.0088228E5,1.0835474E6,9.400764E5,2.5666022E5,1.2969345E5,1.9253905E5,1.8058445E6,2.9040206E5,1.1318014E5,5.353305E5,3.114055E5,4.5135606E5,1.8456964E6,3.28631E5,5.2117812E5,3.027557E5,1.4459997E5,1.3457455E5,4.6615582E4,5.305099E5,9.801793E5,4.01485E4,1.5742092E5,2.3374334E5,9.864782E4,3.608725E4,3.065188E4,7.7820375E5,1.7135412E5,2.45344E5,1.123183E6,4.6808888E5,1.3047038E6,1.3792652E6,3.2870306E5,3.8685503E5,1.2137228E5,5.222523E5,2.37741E6,1.911684E5,9.4622734E4,3.5856703E4,1.593238E5,7.783652E4,6.508957E4,1.0971632E5,1.1706369E5,1.7989508E4,3.5456438E5,1.389942E5,2.001246E4,3.6081125E4,2.1886036E5,1.0943486E5,2.752676E5,2.1725219E5,0E0,0E0,0E0,0E0,0E0,0E0,0E0,0E0,0E0,0E0,0E0,0E0,0E0,0E0,0E0,0E0,0E0,0E0,0E0,0E0,0E0,0E0,0E0,0E0,0E0,0E0,0E0,0E0,0E0,0E0,0E0,0E0,0E0,0E0,0E0,0E0,0E0,0E0,0E0,0E0,0E0,0E0,0E0,0E0,0E0,0E0,0E0,0E0,0E0,0E0,0E0,0E0,0E0,0E0,0E0,0E0,0E0,0E0,0E0,0E0,0E0,0E0,0E0,0E0],"parents":[2147483647,0,0,1,1,2,2,3,3,4,4,5,5,6,6,7,7,8,8,9,9,10,10,11,11,12,12,13,13,14,14,15,15,16,16,17,17,18,18,19,19,20,20,21,21,22,22,23,23,24,24,25,25,26,26,27,27,28,28,29,29,30,30,31,31,32,32,33,33,34,34,35,35,36,36,37,37,38,38,39,39,40,40,41,41,42,42,43,43,44,44,45,45,46,46,47,47,48,48,49,49,50,50,51,51,52,52,53,53,54,54,55,55,56,56,57,57,58,58,59,59,60,60,61,61,62,62],"right_children":[2,4,6,8,10,12,14,16,18,20,22,24,26,28,30,32,34,36,38,40,42,