{"learner":{"attributes":{"scikit_learn":"{\"_estimator_type\": \"regressor\"}"},"feature_names":[],"feature_types":[],"gradient_booster":{"model":{"gbtree_model_param":{"num_parallel_tree":"1","num_trees":"100"},"iteration_indptr":[0,1,2,3,4,5,6,7,8,9,10,11,12,13,14,15,16,17,18,19,20,21,22,23,24,25,26,27,28,29,30,31,32,33,34,35,36,37,38,39,40,41,42,43,44,45,46,47,48,49,50,51,52,53,54,55,56,57,58,59,60,61,62,63,64,65,66,67,68,69,70,71,72,73,74,75,76,77,78,79,80,81,82,83,84,85,86,87,88,89,90,91,92,93,94,95,96,97,98,99,100],"tree_info":[0,0,0,0,0,0,0,0,0,0,0,0,0,0,0,0,0,0,0,0,0,0,0,0,0,0,0,0,0,0,0,0,0,0,0,0,0,0,0,0,0,0,0,0,0,0,0,0,0,0,0,0,0,0,0,0,0,0,0,0,0,0,0,0,0,0,0,0,0,0,0,0,0,0,0,0,0,0,0,0,0,0,0,0,0,0,0,0,0,0,0,0,0,0,0,0,0,0,0,0],"trees":[{"base_weights":[4.957967E-6,6.793666E1,-4.726057E1,9.5173584E1,3.6791473E1,-1.5564728E2,-1.2731146E1,1.357652E0,1.0643291E2,-5.1883434E1,6.48354E1,-1.343325E2,-2.0937642E2,2.7639996E1,-1.33579E2,-1.22374756E2,2.6256727E1,1.211535E2,8.2445366E1,-6.90241E1,-1.5866563E1,9.64805E1,-3.5560715E1,-1.5269771E2,-8.560795E1,-1.9304686E2,-2.9809824E2,-4.489074E1,4.80059E1,-1.11573456E2,-1.8799706E2,-1.7704712E2,-2.357126E1,8.118378E1,6.0483994E0,7.671162E1,1.3412267E2,3.972115E0,1.0588111E2,-1.9249134E1,-8.007046E1,-5.390539E0,-8.175636E1,4.4399868E1,1.1542156E2,-6.7348824E0,-6.189281E1,-9.9917854E1,-1.6304802E2,-6.485727E1,-9.9835815E1,-1.7210411E2,-2.5144856E2,-3.4114618E2,-2.2423912E2,-3.3210716E1,-1.20374176E2,6.429695E1,-9.825613E0,-6.678206E1,-1.380284E2,-1.7192523E2,-2.7841168E2,-1.812352E1,-6.75971E1,4.3119345E0,-1.1329487E1,2.5779902E1,1.4988968E0,-4.4075327E0,1.6963621E1,3.917221E1,1.7311205E1,4.1473034E1,2.117598E1,-4.0948343E0,9.196007E0,3.966112E1,5.2670445E0,2.1039338E-1,-2.2139898E1,-2.1972553E1,-4.159094E1,3.8279364E0,-4.5146084E0,-1.9096937E1,-3.3177704E1,1.6953064E1,-9.219464E0,3.72676E1,1.1342004E1,1.1356398E0,-2.1987917E1,-1.496045E1,-3.652245E1,-1.9759249E1,-3.3057842E1,-4.289401E1,-5.623469E1,-1.643287E1,-3.283413E1,-2.6095835E1,-3.3544525E1,-5.606155E1,-3.881598E1,-9.630779E1,-6.1993023E1,-9.410265E1,-1.2531486E2,-5.93983E1,-9.303766E1,-1.6787462E1,-3.9364095E0,-3.0571352E1,-5.8228745E1,2.3442553E1,1.6944104E0,3.166385E0,-2.369785E1,-1.43337965E1,-2.6305725E1,-3.5453682E1,-4.7975975E1,-6.2806515E1,-4.257154E1,-5.9487118E1,-9.602753E1],"categories":[],"categories_nodes":[],"categories_segments":[],"categories_sizes":[],"default_left":[0,0,0,0,0,0,0,0,0,0,0,0,0,0,0,0,0,0,0,0,0,0,0,0,0,0,0,0,0,0,0,0,0,0,0,0,0,0,0,0,0,0,0,0,0,0,0,0,0,0,0,0,0,0,0,0,0,0,0,0,0,0,0,0,0,0,0,0,0,0,0,0,0,0,0,0,0,0,0,0,0,0,0,0,0,0,0,0,0,0,0,0,0,0,0,0,0,0,0,0,0,0,0,0,0,0,0,0,0,0,0,0,0,0,0,0,0,0,0,0,0,0,0,0,0,0,0],"id":0,"left_children":[1,3,5,7,9,11,13,15,17,19,21,23,25,27,29,31,33,35,37,39,41,43,45,47,49,51,53,55,57,59,61,63,65,67,69,71,73,75,77,79,81,83,85,87,89,91,93,95,97,99,101,103,105,107,109,111,113,115,117,119,121,123,125,-1,-1,-1,-1,-1,-1,-1,-1,-1,-1,-1,-1,-1,-1,-1,-1,-1,-1,-1,-1,-1,-1,-1,-1,-1,-1,-1,-1,-1,-1,-1,-1,-1,-1,-1,-1,-1,-1,-1,-1,-1,-1,-1,-1,-1,-1,-1,-1,-1,-1,-1,-1,-1,-1,-1,-1,-1,-1,-1,-1,-1,-1,-1,-1],"loss_changes":[1.5604564E11,1.6914309E10,1.0726942E11,1.123582E10,2.3132545E10,7.9306424E9,1.0605114E11,3.5115246E9,3.3535345E9,1.379797E9,2.2452613E10,4.436656E9,2.8495708E9,2.4068772E10,6.5182925E9,1.03143066E9,1.05321766E9,3.3921843E9,6.642272E9,8.326303E8,4.9746182E8,5.3006746E9,1.2856059E9,1.9670876E9,4.006994E8,2.0317143E9,9.7202176E8,3.1493924E9,1.1985711E10,4.5927916E9,2.277499E9,6.921354E8,3.6634132E7,9.234048E7,7.2647814E8,1.3611423E9,1.1927962E9,3.905116E8,6.4659804E9,2.9932266E8,4.9561754E8,1.0900459E8,5.159347E7,1.3038968E9,2.6924605E9,5.6617466E8,6.3699635E8,2.0656282E8,1.474134E9,2.481559E8,1.2392909E8,7.7131366E8,1.3667942E9,4.0616346E8,2.5371136E8,1.4136709E9,6.517509E8,8.059601E9,3.9414715E9,5.716854E8,1.0588242E9,1.4953103E9,7.8990336E8,0E0,0E0,0E0,0E0,0E0,0E0,0E0,0E0,0E0,0E0,0E0,0E0,0E0,0E0,0E0,0E0,0E0,0E0,0E0,0E0,0E0,0E0,0E0,0E0,0E0,0E0,0E0,0E0,0E0,0E0,0E0,0E0,0E0,0E0,0E0,0E0,0E0,0E0,0E0,0E0,0E0,0E0,0E0,0E0,0E0,0E0,0E0,0E0,0E0,0E0,0E0,0E0,0E0,0E0,0E0,0E0,0E0,0E0,0E0,0E0,0E0,0E0,0E0,0E0],"parents":[2147483647,0,0,1,1,2,2,3,3,4,4,5,5,6,6,7,7,8,8,9,9,10,10,11,11,12,12,13,13,14,14,15,15,16,16,17,17,18,18,19,19,20,20,21,21,22,22,23,23,24,24,25,25,26,26,27,27,28,28,29,29,30,30,31,31,32,32,33,33,34,34,35,35,36,36,37,37,38,38,39,39,40,40,41,41,42,42,43,43,44,44,45,45,46,46,47,47,48,48,49,49,50,50,51,51,52,52,53,53,54,54,55,55,56,56,57,57,58,58,59,59,60,60,61,61,62,62],"right_children":[2,4,6,8,10,12,14,16,18,20,22,24,26,28,30,32,34,36,38,40,42,44,46,48,50,52,54,56,58,60,62,64,66,68,70,72,74,76,78,80,82,84,86,88,90,92,94,96,98,100,102,104,106,108,110,112,114,116,118,120,122,124,126,-1,-1,-1,-1,-1,-1,-1,-1,-1,-1,-1,-1,-1,-1,-1,-1,-1,-1,-1,-1,-1,-1,-1,-1,-1,-1,-1,-1,-1,-1,-1,-1,-1,-1,-1,-1,-1,-1,-1,-1,-1,-1,-1,-1,-1,-1,-1,-1,-1,-1,-1,-1,-1,-1,-1,-1,-1,-1,-1,-1,-1,-1,-1,-1],"split_conditions":[3.880088E1,3.37187E1,8.9E1,-3.4588E1,8.8E1,4.9683E1,2.96E2,-4.28339E1,2.93167E1,6E1,2.99E2,6.5E1,5.7633E1,1.34E2,4.94667E1,1.41217E2,9.9E1,-2.74178E1,8.4E1,-1.1394E2,1.9791E3,1.44E2,3.31E2,-1.1762675E2,4.256306E1,6.30081E1,5.8E1,5.94444E1,5.30167E1,3.22E2,5.7633E1,-6.35167E1,9.9E1,9.955E2,2.88E2,9.6E1,1.2924E3,5.1E1,3.01E2,1.1649E3,2.2311E3,3.5414E1,2.6091E3,1.9385E3,2.1759E3,1.9791E3,1.7115E3,4.141E1,4.36667E1,1.9791E3,-1.0169623E2,6.7E1,-5.35833E1,6.073E1,6.20167E1,1.1E2,6.734E1,2.65E2,2.59E2,4.36058E1,4.36058E1,-5.8762E1,3.19E2,-1.812352E1,-6.75971E1,4.3119345E0,-1.1329487E1,2.5779902E1,1.4988968E0,-4.4075327E0,1.6963621E1,3.917221E1,1.7311205E1,4.1473034E1,2.117598E1,-4.0948343E0,9.196007E0,3.966112E1,5.2670445E0,2.1039338E-1,-2.2139898E1,-2.1972553E1,-4.159094E1,3.8279364E0,-4.5146084E0,-1.9096937E1,-3.3177704E1,1.6953064E1,-9.219464E0,3.72676E1,1.1342004E1,1.1356398E0,-2.1987917E1,-1.496045E1,-3.652245E1,-1.9759249E1,-3.3057842E1,-4.289401E1,-5.623469E1,-1.643287E1,-3.283413E1,-2.6095835E1,-3.3544525E1,-5.606155E1,-3.881598E1,-9.630779E1,-6.1993023E1,-9.410265E1,-1.2531486E2,-5.93983E1,-9.303766E1,-1.6787462E1,-3.9364095E0,-3.0571352E1,-5.8228745E1,2.3442553E1,1.6944104E0,3.166385E0,-2.369785E1,-1.43337965E1,-2.6305725E1,-3.5453682E1,-4.7975975E1,-6.2806515E1,-4.257154E1,-5.9487118E1,-9.602753E1],"split_indices":[6,6,4,6,4,6,4,6,6,4,4,4,7,4,6,7,4,6,4,7,8,4,4,7,6,6,4,6,6,4,7,7,4,8,4,4,8,4,4,8,8,6,8,8,8,8,8,6,6,8,7,4,7,6,6,4,6,4,4,6,6,7,4,0,0,0,0,0,0,0,0,0,0,0,0,0,0,0,0,0,0,0,0,0,0,0,0,0,0,0,0,0,0,0,0,0,0,0,0,0,0,0,0,0,0,0,0,0,0,0,0,0,0,0,0,0,0,0,0,0,0,0,0,0,0,0,0],"split_type":[0,0,0,0,0,0,0,0,0,0,0,0,0,0,0,0,0,0,0,0,0,0,0,0,0,0,0,0,0,0,0,0,0,0,0,0,0,0,0,0,0,0,0,0,0,0,0,0,0,0,0,0,0,0,0,0,0,0,0,0,0,0,0,0,0,0,0,0,0,0,0,0,0,0,0,0,0,0,0,0,0,0,0,0,0,0,0,0,0,0,0,0,0,0,0,0,0,0,0,0,0,0,0,0,0,0,0,0,0,0,0,0,0,0,0,0,0,0,0,0,0,0,0,0,0,0,0],"sum_hessian":[4.860136E7,1.9939092E7,2.8662268E7,1.0636935E7,9.302157E6,6.924981E6,2.1737288E7,1.139799E6,9.497136E6,2.235021E6,7.067136E6,4.958076E6,1.966905E6,1.6294014E7,5.443273E6,1.90941E5,9.48858E5,5.885399E6,3.611737E6,1.514337E6,7.20684E5,5.373421E6,1.693715E6,3.600846E6,1.35723E6,1.661165E6,3.0574E5,3.572167E6,1.2721847E7,3.87593E6,1.567343E6,1.22922E5,6.8019E4,2.55203E5,6.93655E5,1.329513E6,4.555886E6,8.30582E5,2.781155E6,2.75034E5,1.239303E6,6.2182E5,9.8864E4,1.43306E6,3.940361E6,8.08571E5,8.85144E5,5.90367E5,3.010479E6,5.52069E5,8.05161E5,1.222708E6,4.38457E5,1.93157E5,1.12583E5,3.093493E6,4.78674E5,9.925772E6,2.796075E6,1.439198E6,2.436732E6,1.330789E6,2.36554E5,3.5985E4,8.6937E4,1.8517E4,4.9502E4,2.40228E5,1.4975E4,4.91703E5,2.01952E5,3.46792E5,9.82721E5,4.278399E6,2.77487E5,5.00216E5,3.30366E5,2.142609E6,6.38546E5,2.01384E5,7.365E4,1.109895E6,1.29408E5,2.15964E5,4.05856E5,6.0741E4,3.8123E4,1.234132E6,1.98928E5,3.538942E6,4.01419E5,6.98211E5,1.1036E5,7.37058E5,1.48086E5,1.36843E5,4.53524E5,1.65191E6,1.358569E6,4.50272E5,1.01797E5,3.88471E5,4.1669E5,9.08597E5,3.14111E5,1.71747E5,2.6671E5,1.4216E5,5.0997E4,8.6235E4,2.6348E4,1.450766E6,1.642727E6,3.82778E5,9.5896E4,8.030145E6,1.895627E6,2.159713E6,6.36362E5,7.53879E5,6.85319E5,1.277974E6,1.158758E6,5.92295E5,7.38494E5,8.095E4,1.55604E5],"tree_param":{"num_deleted":"0","num_feature":"9","num_nodes":"127","size_leaf_vector":"1"}},{"base_weights":[-2.4716994E-5,5.388181E1,-2.9728857E1,2.2693016E1,6.44971E1,-1.0129157E2,-4.4404325E0,8.478022E1,-1.2438992E1,2.6801732E-1,7.154474E1,-8.087225E1,-1.3283237E2,2.6627548E1,-8.613346E1,-1.1947285E1,9.113159E1,-2.3609745E1,1.7495794E1,-9.852158E1,1.2603958E1,8.771942E1,3.0111677E1,-9.954126E1,-5.0397312E1,-1.2215761E2,-1.9652354E2,-1.7555094E1,4.30048E1,-4.4392662E1,-1.0587646E2,-4.8126788E2,-8.385139E0,1.00298325E2,5.3148495E1,-8.334103E0,-4.5293495E1,2.287871E1,-3.9227325E1,-5.84761E2,-9.144084E1,-6.3361835E0,5.068047E1,3.393435E1,9.198103E1,9.960094E1,1.3239824E0,-5.1148922E1,-1.0587737E2,-4.376293E1,-8.056407E1,-1.082491E2,-1.6346309E2,-2.4037453E2,-1.5145703E2,6.5055456E0,-3.5483757E1,6.2945694E1,1.4082217E1,-3.4718E1,-1.2373051E2,-9.699316E1,-1.8969638E2,-1.1291895E2,-1.6953488E2,-1.699344E0,-1.4908757E2,2.181025E1,3.3299126E1,1.793709E1,6.540666E-1,-1.5029485E0,-2.1811031E1,-3.9468951E0,-1.5250639E1,1.1446379E1,2.5609581E0,-6.1240916E0,-1.8863895E1,-1.8971501E2,-1.1520985E2,-2.599068E1,-1.8479823E2,-5.5289614E-1,-2.684041E1,6.9759417E0,2.0101988E1,2.0911257E1,8.15669E0,2.8900373E1,8.261697E0,3.3416355E1,1.9239792E1,9.463832E0,-4.785918E0,-9.058496E0,-2.3002224E1,-2.6507673E1,-3.5749477E1,-6.406631E0,-1.7372189E1,-2.059282E1,-2.6800434E1,-3.7102924E1,-2.398302E1,-6.1931595E1,-4.0624435E1,-6.244433E1,-7.940592E1,-4.100784E1,-6.4545105E1,6.3592114E0,-1.4359866E1,-8.91974E0,-3.1881166E1,2.2828648E1,8.397448E0,9.041541E0,-8.164584E0,-5.1393113E0,-1.5358603E1,-3.4498375E1,-6.35198E1,-2.7657957E1,-5.3698124E1,-5.3637287E1,-1.0111586E2],"categories":[],"categories_nodes":[],"categories_segments":[],"categories_sizes":[],"default_left":[0,0,0,0,0,0,0,0,0,0,0,0,0,0,0,0,0,0,0,0,0,0,0,0,0,0,0,0,0,0,0,0,0,0,0,0,0,0,0,0,0,0,0,0,0,0,0,0,0,0,0,0,0,0,0,0,0,0,0,0,0,0,0,0,0,0,0,0,0,0,0,0,0,0,0,0,0,0,0,0,0,0,0,0,0,0,0,0,0,0,0,0,0,0,0,0,0,0,0,0,0,0,0,0,0,0,0,0,0,0,0,0,0,0,0,0,0,0,0,0,0,0,0,0,0,0,0],"id":1,"left_children":[1,3,5,7,9,11,13,15,17,19,21,23,25,27,29,31,33,35,37,39,41,43,45,47,49,51,53,55,57,59,61,63,65,67,69,71,73,75,77,79,81,83,85,87,89,91,93,95,97,99,101,103,105,107,109,111,113,115,117,119,121,123,125,-1,-1,-1,-1,-1,-1,-1,-1,-1,-1,-1,-1,-1,-1,-1,-1,-1,-1,-1,-1,-1,-1,-1,-1,-1,-1,-1,-1,-1,-1,-1,-1,-1,-1,-1,-1,-1,-1,-1,-1,-1,-1,-1,-1,-1,-1,-1,-1,-1,-1,-1,-1,-1,-1,-1,-1,-1,-1,-1,-1,-1,-1,-1,-1],"loss_changes":[7.78518E10,5.721301E9,5.668103E10,9.571565E9,5.8360586E9,5.26694E9,5.873666E10,9.7419674E8,9.371017E8,1.5535476E9,7.785943E9,2.8243067E9,2.1849948E9,1.2131931E10,5.2545946E9,1.6334302E8,5.1809485E8,6.759858E8,2.3253574E8,4.871703E8,8.172951E8,1.915265E9,6.5254164E9,9.438843E8,3.774208E8,1.581269E9,9.1162214E8,1.9559077E9,7.054813E9,1.5715681E9,3.2231834E9,6.259168E6,1.2889781E8,3.5392614E8,9.79337E7,2.5620595E8,1.5022682E8,1.5239043E8,2.9371448E7,1.9171776E7,3.5153088E8,2.826942E8,1.6857126E8,1.4801638E8,2.1721539E9,3.994583E8,1.2043269E9,1.906176E8,6.3360614E8,4.89941E8,3.554048E7,8.991703E8,8.3573146E8,1.831342E8,2.1391514E8,1.5465078E9,1.05773875E9,3.3279324E9,3.3100332E9,5.2884096E8,1.7105766E8,1.540522E9,6.665257E8,0E0,0E0,0E0,0E0,0E0,0E0,0E0,0E0,0E0,0E0,0E0,0E0,0E0,0E0,0E0,0E0,0E0,0E0,0E0,0E0,0E0,0E0,0E0,0E0,0E0,0E0,0E0,0E0,0E0,0E0,0E0,0E0,0E0,0E0,0E0,0E0,0E0,0E0,0E0,0E0,0E0,0E0,0E0,0E0,0E0,0E0,0E0,0E0,0E0,0E0,0E0,0E0,0E0,0E0,0E0,0E0,0E0,0E0,0E0,0E0,0E0,0E0,0E0,0E0],"parents":[2147483647,0,0,1,1,2,2,3,3,4,4,5,5,6,6,7,7,8,8,9,9,10,10,11,11,12,12,13,13,14,14,15,15,16,16,17,17,18,18,19,19,20,20,21,21,22,22,23,23,24,24,25,25,26,26,27,27,28,28,29,29,30,30,31,31,32,32,33,33,34,34,35,35,36,36,37,37,38,38,39,39,40,40,41,41,42,42,43,43,44,44,45,45,46,46,47,47,48,48,49,49,50,50,51,51,52,52,53,53,54,54,55,55,56,56,57,57,58,58,59,59,60,60,61,61,62,62],"right_children":[2,4,6,8,10,12,14,16,18,20,22,24,26,28,30,32,34,36,38,40,42,44,46,48,50,52,54,56,58,60,62,64,66,68,70,72,74,76,78,80,82,84,86,88,90,92,94,96,98,100,102,104,106,108,110,112,114,116,118,120,122,124,126,-1,-1,-1,-1,-1,-1,-1,-1,-1,-1,-1,-1,-1,-1,-1,-1,-1,-1,-1,-1,-1,-1,-1,-1,-1,-1,-1,-1,-1,-1,-1,-1,-1,-1,-1,-1,-1,-1,-1,-1,-1,-1,-1,-1,-1,-1,-1,-1,-1,-1,-1,-1,-1,-1,-1,-1,-1,-1,-1,-1,-1,-1,-1,-1],"split_conditions":[3.747E1,9.3E1,9.6E1,2.65547E1,-3.25091E1,4.635E1,2.91E2,-3.8733E1,6.8E1,-4.28339E1,2.89E2,6E1,4.9483E1,2.2E1,3.15E2,1.5E0,1.81747E1,3.488237E1,1.8044E3,1.5E0,2.75E2,-2.2983E1,2.65547E1,-1.1996E2,1.8776E3,6.073E1,5.1E1,4.36667E1,4.61E1,6.01714E1,6.073E1,4.5E1,1.271E3,-3.25091E1,1.036E2,1.9385E3,-1.1394E2,3.41923E1,2.347E3,3.09E2,1.271E3,9.351E2,-3.64289E1,1.24E2,1.9385E3,1.81747E1,3.17E2,9.176E2,4.125767E1,4.112199E1,2.347E3,6.3E1,-5.35833E1,9.3017E1,6.20167E1,1.8044E3,6.501E1,2.52E2,2.51E2,4.36667E1,7.825E1,7.5283E1,9.3017E1,-1.1291895E2,-1.6953488E2,-1.699344E0,-1.4908757E2,2.181025E1,3.3299126E1,1.793709E1,6.540666E-1,-1.5029485E0,-2.1811031E1,-3.9468951E0,-1.5250639E1,1.1446379E1,2.5609581E0,-6.1240916E0,-1.8863895E1,-1.8971501E2,-1.1520985E2,-2.599068E1,-1.8479823E2,-5.5289614E-1,-2.684041E1,6.9759417E0,2.0101988E1,2.0911257E1,8.15669E0,2.8900373E1,8.261697E0,3.3416355E1,1.9239792E1,9.463832E0,-4.785918E0,-9.058496E0,-2.3002224E1,-2.6507673E1,-3.5749477E1,-6.406631E0,-1.7372189E1,-2.059282E1,-2.6800434E1,-3.7102924E1,-2.398302E1,-6.1931595E1,-4.0624435E1,-6.244433E1,-7.940592E1,-4.100784E1,-6.4545105E1,6.3592114E0,-1.4359866E1,-8.91974E0,-3.1881166E1,2.2828648E1,8.397448E0,9.041541E0,-8.164584E0,-5.1393113E0,-1.5358603E1,-3.4498375E1,-6.35198E1,-2.7657957E1,-5.3698124E1,-5.3637287E1,-1.0111586E2],"split_indices":[6,4,4,6,6,6,4,6,4,6,4,4,7,3,4,8,6,6,8,8,4,6,6,7,8,6,4,6,6,6,6,4,8,6,7,8,7,6,8,4,8,8,6,4,8,6,4,8,6,6,8,4,7,7,6,8,6,4,4,6,7,7,7,0,0,0,0,0,0,0,0,0,0,0,0,0,0,0,0,0,0,0,0,0,0,0,0,0,0,0,0,0,0,0,0,0,0,0,0,0,0,0,0,0,0,0,0,0,0,0,0,0,0,0,0,0,0,0,0,0,0,0,0,0,0,0,0],"split_type":[0,0,0,0,0,0,0,0,0,0,0,0,0,0,0,0,0,0,0,0,0,0,0,0,0,0,0,0,0,0,0,0,0,0,0,0,0,0,0,0,0,0,0,0,0,0,0,0,0,0,0,0,0,0,0,0,0,0,0,0,0,0,0,0,0,0,0,0,0,0,0,0,0,0,0,0,0,0,0,0,0,0,0,0,0,0,0,0,0,0,0,0,0,0,0,0,0,0,0,0,0,0,0,0,0,0,0,0,0,0,0,0,0,0,0,0,0,0,0,0,0,0,0,0,0,0,0],"sum_hessian":[4.860136E7,1.7280828E7,3.1320532E7,4.388112E6,1.2892717E7,8.177981E6,2.314255E7,1.585727E6,2.802385E6,1.274795E6,1.1617922E7,4.964194E6,3.213787E6,1.6766301E7,6.376249E6,9.7707E4,1.48802E6,2.040815E6,7.6157E5,1.41513E5,1.133282E6,8.355925E6,3.261997E6,3.078374E6,1.88582E6,2.752471E6,4.61316E5,4.534121E6,1.223218E7,2.047472E6,4.328777E6,7.35E2,9.6972E4,1.198722E6,2.89298E5,1.197329E6,8.43486E5,6.95563E5,6.6007E4,2.03E3,1.39483E5,7.56822E5,3.7646E5,6.13467E5,7.742458E6,9.55517E5,2.30648E6,3.56396E5,2.721978E6,1.545853E6,3.39967E5,2.059121E6,6.9335E5,2.33809E5,2.27507E5,1.935987E6,2.598134E6,7.240299E6,4.991881E6,1.824936E6,2.22536E5,3.913973E6,4.14804E5,3.29E2,4.06E2,9.6436E4,5.36E2,3.34887E5,8.63835E5,2.55945E5,3.3353E4,1.138532E6,5.8797E4,1.24063E5,7.19423E5,3.36817E5,3.58746E5,3.6765E4,2.9242E4,1.639E3,3.91E2,1.38218E5,1.265E3,7.18015E5,3.8807E4,1.40473E5,2.35987E5,9.733E4,5.16137E5,7.252497E6,4.89961E5,7.1718E5,2.38337E5,8.38944E5,1.467536E6,1.95725E5,1.60671E5,1.174073E6,1.547905E6,5.98195E5,9.47658E5,1.44105E5,1.95862E5,1.332741E6,7.2638E5,2.73811E5,4.19539E5,1.00543E5,1.33266E5,1.84697E5,4.281E4,1.524147E6,4.1184E5,2.402904E6,1.9523E5,5.261077E6,1.979222E6,3.594398E6,1.397483E6,8.82746E5,9.4219E5,2.02442E5,2.0094E4,3.697537E6,2.16436E5,3.86223E5,2.8581E4],"tree_param":{"num_deleted":"0","num_feature":"9","num_nodes":"127","size_leaf_vector":"1"}},{"base_weights":[-5.2738877E-5,3.0113083E1,-2.7799892E1,3.5410667E1,-3.750663E1,-8.269435E1,-1.1116503E1,9.642847E0,4.677981E1,-7.7719734E1,-2.7790518E1,-7.602716E1,-1.25596466E2,1.1087654E1,-6.639464E1,6.0148087E1,-1.1451656E1,6.154399E1,1.9269213E1,-6.7362885E1,-9.699282E1,-8.7942915E0,-6.961095E1,-8.3402626E1,-4.8952732E1,-1.1740371E2,-2.187831E2,-2.07188E1,2.7738642E1,-4.6014523E1,-9.4729E1,-4.2480076E1,6.3330353E1,-3.047905E1,1.9945596E0,-1.7930778E0,7.187607E1,5.3964237E1,-2.2266529E0,-4.010302E1,-7.322794E1,-3.0477338E2,-9.6226814E1,-3.8481987E1,1.1428839E1,-5.8253178E1,-9.403026E1,-7.9386284E1,-1.424205E2,-3.6025227E1,-5.7174023E1,-1.4568103E2,-1.0078757E2,-2.3940956E2,-1.503403E2,-3.776686E1,-3.010215E0,3.5694946E1,-1.674031E1,-3.941449E1,-1.0737108E2,-9.005348E1,-1.7484145E2,-2.2073233E1,4.0471125E0,2.0608974E1,1.1683917E1,-3.77279E0,-1.3715422E1,5.0296206E0,-1.9192559E0,-2.6597689E1,1.1569161E0,1.4306615E1,2.4044535E1,1.6149386E0,1.7663155E1,3.1527052E0,-8.983123E0,4.8048735E0,-1.3529016E1,-1.9061508E1,-2.3814415E1,-7.163709E1,-1.19347534E2,-1.1680853E1,-2.9472157E1,-6.479191E0,-1.7087648E1,1.0037518E1,-3.8197656E0,-1.23681345E1,-2.301461E1,-2.5202753E1,-3.3736137E1,-2.5812323E1,-1.413052E1,-4.8314842E1,-3.671816E1,-1.2822574E1,-4.1244802E0,-1.1740373E1,-1.8984035E1,-3.5288383E1,-6.479901E1,-3.4711376E1,-2.2697468E1,-5.86319E1,-7.562918E1,-5.2627605E1,-3.5020214E1,-8.614609E0,-2.0076115E1,7.8608406E-1,-1.2381659E1,1.3071674E1,3.2364745E0,-1.4627062E0,-1.9107319E1,-8.297408E0,-1.6207098E1,-4.43767E1,-2.6209663E1,-2.5438627E1,-4.3699535E1,-4.558861E1,-7.335148E1],"categories":[],"categories_nodes":[],"categories_segments":[],"categories_sizes":[],"default_left":[0,0,0,0,0,0,0,0,0,0,0,0,0,0,0,0,0,0,0,0,0,0,0,0,0,0,0,0,0,0,0,0,0,0,0,0,0,0,0,0,0,0,0,0,0,0,0,0,0,0,0,0,0,0,0,0,0,0,0,0,0,0,0,0,0,0,0,0,0,0,0,0,0,0,0,0,0,0,0,0,0,0,0,0,0,0,0,0,0,0,0,0,0,0,0,0,0,0,0,0,0,0,0,0,0,0,0,0,0,0,0,0,0,0,0,0,0,0,0,0,0,0,0,0,0,0,0],"id":2,"left_children":[1,3,5,7,9,11,13,15,17,19,21,23,25,27,29,31,33,35,37,39,41,43,45,47,49,51,53,55,57,59,61,63,65,67,69,71,73,75,77,79,81,83,85,87,89,91,93,95,97,99,101,103,105,107,109,111,113,115,117,119,121,123,125,-1,-1,-1,-1,-1,-1,-1,-1,-1,-1,-1,-1,-1,-1,-1,-1,-1,-1,-1,-1,-1,-1,-1,-1,-1,-1,-1,-1,-1,-1,-1,-1,-1,-1,-1,-1,-1,-1,-1,-1,-1,-1,-1,-1,-1,-1,-1,-1,-1,-1,-1,-1,-1,-1,-1,-1,-1,-1,-1,-1,-1,-1,-1,-1],"loss_changes":[4.0686158E10,8.3573023E9,2.3144155E10,6.3381586E9,6.622487E8,1.68482E9,2.378845E10,7.056427E9,6.0973076E9,6.583168E7,1.0845039E9,1.0179973E9,6.048246E8,7.3229276E9,3.2072253E9,6.3729664E8,1.1953183E9,6.392832E9,3.9100216E9,3.429933E7,1.8320128E7,5.635952E8,1.1825702E8,9.496883E8,1.1599744E8,3.4215117E8,9.034726E7,1.4343917E9,3.2118129E9,1.3081917E9,8.703222E8,1.0214941E8,2.4765338E8,5.2778624E8,3.3933446E8,6.723676E8,1.6804946E9,4.786903E8,1.1426886E9,1.064714E7,1.0522112E7,2.502152E6,1.3247872E7,1.1866208E8,2.9720262E8,9.148179E7,2.4982016E7,8.0594534E8,9.522022E7,6.348429E7,7.348582E7,5.31648E8,1.7193626E8,2.7395328E7,1.2480576E7,6.3880064E8,5.0206557E8,1.5104584E9,7.671297E8,5.0095206E8,2.5451443E8,6.4195994E8,2.0418406E8,0E0,0E0,0E0,0E0,0E0,0E0,0E0,0E0,0E0,0E0,0E0,0E0,0E0,0E0,0E0,0E0,0E0,0E0,0E0,0E0,0E0,0E0,0E0,0E0,0E0,0E0,0E0,0E0,0E0,0E0,0E0,0E0,0E0,0E0,0E0,0E0,0E0,0E0,0E0,0E0,0E0,0E0,0E0,0E0,0E0,0E0,0E0,0E0,0E0,0E0,0E0,0E0,0E0,0E0,0E0,0E0,0E0,0E0,0E0,0E0,0E0,0E0,0E0,0E0],"parents":[2147483647,0,0,1,1,2,2,3,3,4,4,5,5,6,6,7,7,8,8,9,9,10,10,11,11,12,12,13,13,14,14,15,15,16,16,17,17,18,18,19,19,20,20,21,21,22,22,23,23,24,24,25,25,26,26,27,27,28,28,29,29,30,30,31,31,32,32,33,33,34,34,35,35,36,36,37,37,38,38,39,39,40,40,41,41,42,42,43,43,44,44,45,45,46,46,47,47,48,48,49,49,50,50,51,51,52,52,53,53,54,54,55,55,56,56,57,57,58,58,59,59,60,60,61,61,62,62],"right_children":[2,4,6,8,10,12,14,16,18,20,22,24,26,28,30,32,34,36,38,40,42,44,46,48,50,52,54,56,58,60,62,64,66,68,70,72,74,76,78,80,82,84,86,88,90,92,94,96,98,100,102,104,106,108,110,112,114,116,118,120,122,124,126,-1,-1,-1,-1,-1,-1,-1,-1,-1,-1,-1,-1,-1,-1,-1,-1,-1,-1,-1,-1,-1,-1,-1,-1,-1,-1,-1,-1,-1,-1,-1,-1,-1,-1,-1,-1,-1,-1,-1,-1,-1,-1,-1,-1,-1,-1,-1,-1,-1,-1,-1,-1,-1,-1,-1,-1,-1,-1,-1,-1,-1,-1,-1,-1],"split_conditions":[4.035E1,2.2311E3,8.6E1,1.12E2,1.1E1,6.01714E1,2.85E2,2.74467E1,2.77E2,2.9017E3,4E1,6.8E1,8.8083E1,1.54E2,3.32E2,-4.28339E1,4.7E1,-2.0233E1,3.16003E1,3.5733E1,-4.28339E1,1.53E2,4.9E1,7.5283E1,4.417079E1,-5.35833E1,6.7E1,1.8E1,5.94444E1,6.20167E1,8.8083E1,1.41217E2,1.95362E1,3.5414E1,3.45958E1,-4.28339E1,1.54E2,-3.64289E1,3.38E2,2.130555E1,3.82E1,7E0,5.3544E0,2.7432E3,2.7432E3,2.7432E3,2.9017E3,-1.35756E1,3.6E1,1E0,-1.1394E2,-1.41006E2,5.5E1,1.10117E2,7.8E1,5.365E1,1.5606E3,3.7E1,6.734E1,3.11E2,-5.35833E1,6.24831E1,5.765E1,-2.2073233E1,4.0471125E0,2.0608974E1,1.1683917E1,-3.77279E0,-1.3715422E1,5.0296206E0,-1.9192559E0,-2.6597689E1,1.1569161E0,1.4306615E1,2.4044535E1,1.6149386E0,1.7663155E1,3.1527052E0,-8.983123E0,4.8048735E0,-1.3529016E1,-1.9061508E1,-2.3814415E1,-7.163709E1,-1.19347534E2,-1.1680853E1,-2.9472157E1,-6.479191E0,-1.7087648E1,1.0037518E1,-3.8197656E0,-1.23681345E1,-2.301461E1,-2.5202753E1,-3.3736137E1,-2.5812323E1,-1.413052E1,-4.8314842E1,-3.671816E1,-1.2822574E1,-4.1244802E0,-1.1740373E1,-1.8984035E1,-3.5288383E1,-6.479901E1,-3.4711376E1,-2.2697468E1,-5.86319E1,-7.562918E1,-5.2627605E1,-3.5020214E1,-8.614609E0,-2.0076115E1,7.8608406E-1,-1.2381659E1,1.3071674E1,3.2364745E0,-1.4627062E0,-1.9107319E1,-8.297408E0,-1.6207098E1,-4.43767E1,-2.6209663E1,-2.5438627E1,-4.3699535E1,-4.558861E1,-7.335148E1],"split_indices":[6,8,4,4,3,6,4,6,4,8,3,4,7,4,4,6,4,6,6,6,6,4,3,7,6,7,4,3,6,6,7,7,6,6,6,6,4,6,4,6,6,3,6,8,8,8,8,7,4,5,7,7,4,7,4,6,8,3,6,4,7,6,6,0,0,0,0,0,0,0,0,0,0,0,0,0,0,0,0,0,0,0,0,0,0,0,0,0,0,0,0,0,0,0,0,0,0,0,0,0,0,0,0,0,0,0,0,0,0,0,0,0,0,0,0,0,0,0,0,0,0,0,0,0,0,0,0],"split_type":[0,0,0,0,0,0,0,0,0,0,0,0,0,0,0,0,0,0,0,0,0,0,0,0,0,0,0,0,0,0,0,0,0,0,0,0,0,0,0,0,0,0,0,0,0,0,0,0,0,0,0,0,0,0,0,0,0,0,0,0,0,0,0,0,0,0,0,0,0,0,0,0,0,0,0,0,0,0,0,0,0,0,0,0,0,0,0,0,0,0,0,0,0,0,0,0,0,0,0,0,0,0,0,0,0,0,0,0,0,0,0,0,0,0,0,0,0,0,0,0,0,0,0,0,0,0,0],"sum_hessian":[4.860136E7,2.3330004E7,2.5271356E7,2.1635036E7,1.69497E6,5.890255E6,1.93811E7,6.62337E6,1.5011665E7,3.29836E5,1.365134E6,5.098004E6,7.92251E5,1.3827045E7,5.554055E6,1.951357E6,4.672013E6,9.768942E6,5.242723E6,2.14548E5,1.15288E5,9.38732E5,4.26402E5,4.006558E6,1.091446E6,7.28229E5,6.4022E4,4.751261E6,9.075784E6,3.23047E6,2.323585E6,5.8687E4,1.89267E6,1.934521E6,2.737492E6,1.370092E6,8.39885E6,2.005607E6,3.237116E6,3.7989E4,1.76559E5,4.22E2,1.14866E5,3.8036E5,5.58372E5,2.91039E5,1.35363E5,3.751275E6,2.55283E5,4.24286E5,6.6716E5,2.69532E5,4.58697E5,4.9194E4,1.4828E4,2.420777E6,2.330484E6,7.698663E6,1.377121E6,2.916724E6,3.13746E5,2.195456E6,1.28129E5,3.7726E4,2.0961E4,1.551276E6,3.41394E5,8.8951E5,1.045011E6,9.91811E5,1.745681E6,8.3664E4,1.286428E6,2.140451E6,6.258399E6,1.84197E5,1.82141E6,2.217981E6,1.019135E6,3.104E3,3.4885E4,6.858E4,1.07979E5,2.49E2,1.73E2,3.901E3,1.10965E5,1.98744E5,1.81616E5,2.92071E5,2.66301E5,1.5141E5,1.39629E5,8.7678E4,4.7685E4,3.110176E6,6.41099E5,1.32253E5,1.2303E5,3.25995E5,9.8291E4,1.68718E5,4.98442E5,1.92668E5,7.6864E4,2.87833E5,1.70864E5,1.102E4,3.8174E4,8.488E3,6.34E3,1.84725E6,5.73527E5,2.031532E6,2.98952E5,5.848837E6,1.849826E6,1.09932E6,2.77801E5,1.616155E6,1.300569E6,1.03647E5,2.10099E5,2.00581E6,1.89646E5,9.6454E4,3.1675E4],"tree_param":{"num_deleted":"0","num_feature":"9","num_nodes":"127","size_leaf_vector":"1"}},{"base_weights":[-6.3091065E-5,1.8185051E1,-2.4151655E1,2.4556492E1,-2.013757E1,-6.5457726E1,-1.3317548E1,2.001906E0,3.2901165E1,-7.7378097E0,-3.9059635E1,-6.0203583E1,-1.07350945E2,2.096597E0,-5.0923824E1,3.6488457E1,-1.5268284E1,4.0989407E1,7.123201E0,-3.283606E1,3.0115588E0,-3.167844E1,-6.3743687E1,-5.6587826E1,-1.03246864E2,-9.45688E1,-1.3787115E2,-1.8361465E1,1.8728039E1,-3.8707485E1,-7.595129E1,4.5897823E1,1.7042273E1,7.763191E0,-2.1326542E1,-6.080986E0,4.5905525E1,4.9600044E1,-5.813149E0,-4.0360077E1,-1.9008339E1,2.276392E1,-3.2555126E1,-5.6088203E1,-1.2578555E1,-5.7915596E1,-8.480457E1,-3.5910255E1,-6.45671E1,-1.3429556E2,-8.089403E1,-5.550531E1,-1.0179813E2,-1.1712911E2,-1.682146E2,-1.5810759E1,-8.50074E1,2.8778076E1,-3.920935E-1,-3.1667595E1,-7.05208E1,-7.04439E1,-1.24238945E2,7.548182E-1,1.5855494E1,6.508796E0,-1.2205944E1,6.5024657E0,-4.662546E0,-1.0803037E1,-2.3428102E0,-1.3010155E1,4.3730798E-1,8.305598E0,1.5427312E1,-2.1150825E0,1.6147654E1,1.3353091E0,-6.522779E0,-8.276924E-1,-1.2965575E1,-8.608847E0,-2.4635515E0,1.0483121E0,1.0204605E1,-6.4442315E0,-1.4473327E1,-2.008741E1,-1.3767668E1,-1.5866945E2,-3.628101E0,-1.5733243E1,-2.2977749E1,-4.21597E0,-2.5924906E1,-8.516718E0,-2.1842007E1,-2.3165737E1,-9.894347E0,-3.51134E1,-5.776642E1,-1.619672E1,-2.9263071E1,-9.073055E0,-2.2216206E1,-3.4715412E1,-2.5388073E1,-4.1269333E1,-2.903747E1,-5.3479618E1,-3.546723E1,-8.681056E0,-8.4245783E-1,-4.0998215E1,-1.7972773E1,7.7019745E-1,1.0372146E1,2.1053762E0,-1.2923364E1,-8.3164215E0,-1.9845486E1,-1.9008717E1,-4.151707E1,-2.406945E1,-1.1656464E1,-1.8962204E1,-4.0404003E1],"categories":[],"categories_nodes":[],"categories_segments":[],"categories_sizes":[],"default_left":[0,0,0,0,0,0,0,0,0,0,0,0,0,0,0,0,0,0,0,0,0,0,0,0,0,0,0,0,0,0,0,0,0,0,0,0,0,0,0,0,0,0,0,0,0,0,0,0,0,0,0,0,0,0,0,0,0,0,0,0,0,0,0,0,0,0,0,0,0,0,0,0,0,0,0,0,0,0,0,0,0,0,0,0,0,0,0,0,0,0,0,0,0,0,0,0,0,0,0,0,0,0,0,0,0,0,0,0,0,0,0,0,0,0,0,0,0,0,0,0,0,0,0,0,0,0,0],"id":3,"left_children":[1,3,5,7,9,11,13,15,17,19,21,23,25,27,29,31,33,35,37,39,41,43,45,47,49,51,53,55,57,59,61,63,65,67,69,71,73,75,77,79,81,83,85,87,89,91,93,95,97,99,101,103,105,107,109,111,113,115,117,119,121,123,125,-1,-1,-1,-1,-1,-1,-1,-1,-1,-1,-1,-1,-1,-1,-1,-1,-1,-1,-1,-1,-1,-1,-1,-1,-1,-1,-1,-1,-1,-1,-1,-1,-1,-1,-1,-1,-1,-1,-1,-1,-1,-1,-1,-1,-1,-1,-1,-1,-1,-1,-1,-1,-1,-1,-1,-1,-1,-1,-1,-1,-1,-1,-1,-1],"loss_changes":[2.1345694E10,6.769707E9,9.34231E9,4.474319E9,9.273563E8,9.54796E8,9.586687E9,3.8237624E9,3.6180255E9,6.4418874E8,2.8508288E8,5.998664E8,1.885696E8,3.9911718E9,1.4700165E9,3.919836E8,5.968931E8,3.0564823E9,2.2773033E9,7.449126E7,1.174445E9,5.6157466E8,4.420544E7,5.866588E8,2.072855E8,9.621325E7,8.978739E7,8.941665E8,1.2433062E9,7.23605E8,4.193956E8,4.3552154E8,1.8767216E8,2.888452E8,6.722433E8,3.5109696E8,1.2025672E9,2.3159731E8,5.194228E8,4.98384E7,2.6389688E7,2.3303334E8,1.037127E8,5.8598784E7,1.6917402E8,2.8825536E7,8.90112E6,2.747442E8,1.0252933E9,1.2562842E8,7.778893E7,2.493056E7,6.87104E7,3.5212544E7,2.9087616E7,8.6464576E8,2.5135386E8,6.442583E8,7.051003E8,3.6000154E8,2.844096E8,4.376791E8,1.0287616E8,0E0,0E0,0E0,0E0,0E0,0E0,0E0,0E0,0E0,0E0,0E0,0E0,0E0,0E0,0E0,0E0,0E0,0E0,0E0,0E0,0E0,0E0,0E0,0E0,0E0,0E0,0E0,0E0,0E0,0E0,0E0,0E0,0E0,0E0,0E0,0E0,0E0,0E0,0E0,0E0,0E0,0E0,0E0,0E0,0E0,0E0,0E0,0E0,0E0,0E0,0E0,0E0,0E0,0E0,0E0,0E0,0E0,0E0,0E0,0E0,0E0,0E0,0E0,0E0],"parents":[2147483647,0,0,1,1,2,2,3,3,4,4,5,5,6,6,7,7,8,8,9,9,10,10,11,11,12,12,13,13,14,14,15,15,16,16,17,17,18,18,19,19,20,20,21,21,22,22,23,23,24,24,25,25,26,26,27,27,28,28,29,29,30,30,31,31,32,32,33,33,34,34,35,35,36,36,37,37,38,38,39,39,40,40,41,41,42,42,43,43,44,44,45,45,46,46,47,47,48,48,49,49,50,50,51,51,52,52,53,53,54,54,55,55,56,56,57,57,58,58,59,59,60,60,61,61,62,62],"right_children":[2,4,6,8,10,12,14,16,18,20,22,24,26,28,30,32,34,36,38,40,42,44,46,48,50,52,54,56,58,60,62,64,66,68,70,72,74,76,78,80,82,84,86,88,90,92,94,96,98,100,102,104,106,108,110,112,114,116,118,120,122,124,126,-1,-1,-1,-1,-1,-1,-1,-1,-1,-1,-1,-1,-1,-1,-1,-1,-1,-1,-1,-1,-1,-1,-1,-1,-1,-1,-1,-1,-1,-1,-1,-1,-1,-1,-1,-1,-1,-1,-1,-1,-1,-1,-1,-1,-1,-1,-1,-1,-1,-1,-1,-1,-1,-1,-1,-1,-1,-1,-1,-1,-1,-1,-1,-1],"split_conditions":[4.229806E1,1.6767E3,7.7E1,9.9E1,2.4933E3,4.2621E1,2.81E2,3.1337E1,3.02E2,1.09E2,2.82E2,6.409E1,5.765E1,1.68E2,3.38E2,2.130555E1,-1.100667E2,-2.88353E1,2.2767E1,7.1E1,4E0,1.23E2,3.48E2,-1.1394E2,-5.8762E1,4.4375E1,1.10117E2,6.734E1,2.42E2,5.94444E1,4.56E1,-3.64289E1,1.036E2,1.0604E3,4.8E1,-3.8733E1,1.46E2,-3.8733E1,3.41E2,3.18611E1,-1.103167E2,1.7E2,3.28E2,6E1,-4.28339E1,4.0267E1,1.95362E1,5.5617E1,-5.35833E1,-1.222178E2,5.5E1,8.19E1,4.4E1,4.1E1,1.5593E2,1.22E2,1.22414E1,5.5E1,6.073E1,1.6767E3,7.1383E1,-5.35833E1,4.50429E1,7.548182E-1,1.5855494E1,6.508796E0,-1.2205944E1,6.5024657E0,-4.662546E0,-1.0803037E1,-2.3428102E0,-1.3010155E1,4.3730798E-1,8.305598E0,1.5427312E1,-2.1150825E0,1.6147654E1,1.3353091E0,-6.522779E0,-8.276924E-1,-1.2965575E1,-8.608847E0,-2.4635515E0,1.0483121E0,1.0204605E1,-6.4442315E0,-1.4473327E1,-2.008741E1,-1.3767668E1,-1.5866945E2,-3.628101E0,-1.5733243E1,-2.2977749E1,-4.21597E0,-2.5924906E1,-8.516718E0,-2.1842007E1,-2.3165737E1,-9.894347E0,-3.51134E1,-5.776642E1,-1.619672E1,-2.9263071E1,-9.073055E0,-2.2216206E1,-3.4715412E1,-2.5388073E1,-4.1269333E1,-2.903747E1,-5.3479618E1,-3.546723E1,-8.681056E0,-8.4245783E-1,-4.0998215E1,-1.7972773E1,7.7019745E-1,1.0372146E1,2.1053762E0,-1.2923364E1,-8.3164215E0,-1.9845486E1,-1.9008717E1,-4.151707E1,-2.406945E1,-1.1656464E1,-1.8962204E1,-4.0404003E1],"split_indices":[6,8,4,4,8,7,4,6,4,4,4,6,6,4,4,6,7,6,6,4,1,4,4,7,7,6,7,6,4,6,7,6,7,8,4,6,4,6,4,6,7,4,4,4,6,6,6,6,7,7,8,7,4,4,7,4,7,8,6,8,7,7,6,0,0,0,0,0,0,0,0,0,0,0,0,0,0,0,0,0,0,0,0,0,0,0,0,0,0,0,0,0,0,0,0,0,0,0,0,0,0,0,0,0,0,0,0,0,0,0,0,0,0,0,0,0,0,0,0,0,0,0,0,0,0,0,0],"split_type":[0,0,0,0,0,0,0,0,0,0,0,0,0,0,0,0,0,0,0,0,0,0,0,0,0,0,0,0,0,0,0,0,0,0,0,0,0,0,0,0,0,0,0,0,0,0,0,0,0,0,0,0,0,0,0,0,0,0,0,0,0,0,0,0,0,0,0,0,0,0,0,0,0,0,0,0,0,0,0,0,0,0,0,0,0,0,0,0,0,0,0,0,0,0,0,0,0,0,0,0,0,0,0,0,0,0,0,0,0,0,0,0,0,0,0,0,0,0,0,0,0,0,0,0,0,0,0],"sum_hessian":[4.860136E7,2.7725356E7,2.0876004E7,2.377292E7,3.952436E6,4.337784E6,1.6538221E7,6.420131E6,1.7352788E7,2.387737E6,1.564699E6,3.85438E6,4.83404E5,1.1730215E7,4.808006E6,2.142269E6,4.277862E6,1.3208435E7,4.144353E6,7.15993E5,1.671744E6,1.204518E6,3.60181E5,3.555694E6,2.98686E5,3.40714E5,1.4269E5,5.259989E6,6.470226E6,3.230934E6,1.577072E6,1.443706E6,6.98563E5,8.90912E5,3.38695E6,1.24906E6,1.1959375E7,9.67509E5,3.176844E6,4.63687E5,2.52306E5,1.074827E6,5.96917E5,5.28759E5,6.75759E5,2.82116E5,7.8065E4,9.90057E5,2.565637E6,1.25022E5,1.73664E5,5.3209E4,2.87505E5,8.4757E4,5.7933E4,5.066098E6,1.93891E5,4.24103E6,2.229196E6,2.645516E6,5.85418E5,1.415618E6,1.61454E5,1.99447E5,1.244259E6,6.46451E5,5.2112E4,5.57887E5,3.33025E5,1.623431E6,1.763519E6,2.10067E5,1.038993E6,2.780312E6,9.179063E6,6.7156E4,9.00353E5,1.931973E6,1.244871E6,3.276E4,4.30927E5,1.3298E5,1.19326E5,3.96231E5,6.78596E5,3.49924E5,2.46993E5,2.5592E5,2.72839E5,6.33E2,6.75126E5,2.18198E5,6.3918E4,1.739E3,7.6326E4,8.22413E5,1.67644E5,1.831866E6,7.33771E5,9.6462E4,2.856E4,6.6388E4,1.07276E5,2.2529E4,3.068E4,1.58782E5,1.28723E5,4.2274E4,4.2483E4,4.8233E4,9.7E3,2.521073E6,2.545025E6,6.3402E4,1.30489E5,7.67967E5,3.473063E6,1.899461E6,3.29735E5,2.373864E6,2.71652E5,5.29565E5,5.5853E4,1.080754E6,3.34864E5,2.3587E4,1.37867E5],"tree_param":{"num_deleted":"0","num_feature":"9","num_nodes":"127","size_leaf_vector":"1"}},{"base_weights":[-6.439353E-5,2.3439852E1,-9.719112E0,-2.5154226E0,2.6539362E1,-3.9794857E1,-2.57818E0,2.1210911E0,-6.0378895E1,3.4071846E1,1.5397645E1,-3.1554125E1,-5.8881985E1,6.0584083E0,-3.4130257E1,-3.6421765E2,2.8427243E0,-5.6367077E1,-3.0731927E2,3.582076E1,1.2194127E1,-2.0267098E0,2.4280628E1,-1.5562335E1,-3.6739033E1,-4.087284E1,-7.0407E1,-1.5293552E1,1.2424641E1,-2.357512E1,-5.326024E1,-2.5618655E2,-3.8355762E2,-2.4784618E1,6.626364E0,-1.8438559E2,-5.117054E1,-1.6676747E2,-3.3965515E2,2.9214561E1,4.235687E1,1.6848577E1,-3.037395E1,5.264172E-1,-3.5970146E1,3.9698593E1,4.931621E0,3.8137875E0,-2.4401514E1,-4.1124813E1,-8.560247E0,-1.3819328E1,-5.8969837E1,-8.131472E1,-5.4396637E1,-1.0604727E1,-3.587576E1,1.6773756E1,-1.3205967E1,3.1729996E0,-2.932258E1,-3.113855E1,-6.687805E1,-6.3578667E1,-8.772093E1,-1.2331967E2,-8.4385864E1,-1.5925666E1,8.586787E0,8.901841E0,7.3208636E-1,-3.666608E1,-5.8261833E1,-8.320953E0,-2.1170374E1,-3.695531E1,-6.207215E1,-1.1730783E2,-5.2694096E1,4.4649096E0,1.07754E1,1.6283007E1,1.0431134E1,3.608607E0,8.313785E0,-1.1690645E1,-3.6119192E0,1.0469826E0,-4.585167E0,-9.9065485E0,-2.2595509E1,6.334477E0,1.4254939E1,8.6878195E0,-4.750736E-1,-2.5362496E0,2.820545E0,-4.819891E0,-9.272453E0,-1.401865E1,-6.7053866E0,8.367613E0,-1.2893352E1,-7.779382E-1,-1.7657784E1,-1.41253605E1,-2.6793318E1,-1.9855768E1,-2.7401758E1,-1.1508994E1,-1.8594728E1,-1.6276814E0,-8.84535E0,-9.981606E0,-3.5553207E1,6.374178E0,-3.1890013E0,-3.0144193E0,-2.6525543E1,8.993059E0,-9.525505E-1,-7.2376294E0,-1.4599032E1,-5.879052E0,-2.2677708E1,-1.89843E1,-3.934444E1],"categories":[],"categories_nodes":[],"categories_segments":[],"categories_sizes":[],"default_left":[0,0,0,0,0,0,0,0,0,0,0,0,0,0,0,0,0,0,0,0,0,0,0,0,0,0,0,0,0,0,0,0,0,0,0,0,0,0,0,0,0,0,0,0,0,0,0,0,0,0,0,0,0,0,0,0,0,0,0,0,0,0,0,0,0,0,0,0,0,0,0,0,0,0,0,0,0,0,0,0,0,0,0,0,0,0,0,0,0,0,0,0,0,0,0,0,0,0,0,0,0,0,0,0,0,0,0,0,0,0,0,0,0,0,0,0,0,0,0,0,0,0,0,0,0,0,0],"id":4,"left_children":[1,3,5,7,9,11,13,15,17,19,21,23,25,27,29,31,33,35,37,39,41,43,45,47,49,51,53,55,57,59,61,63,65,67,69,71,73,75,77,79,81,83,85,87,89,91,93,95,97,99,101,103,105,107,109,111,113,115,117,119,121,123,125,-1,-1,-1,-1,-1,-1,-1,-1,-1,-1,-1,-1,-1,-1,-1,-1,-1,-1,-1,-1,-1,-1,-1,-1,-1,-1,-1,-1,-1,-1,-1,-1,-1,-1,-1,-1,-1,-1,-1,-1,-1,-1,-1,-1,-1,-1,-1,-1,-1,-1,-1,-1,-1,-1,-1,-1,-1,-1,-1,-1,-1,-1,-1,-1],"loss_changes":[1.1072053E10,1.1460152E9,7.3786143E9,4.0770227E8,1.06799514E9,1.03687475E9,7.5657595E9,3.719397E8,1.1166701E8,2.9050778E8,7.944947E8,3.817636E8,4.1258342E8,2.962968E9,1.2047555E9,5.680768E6,1.4678E8,7.378973E7,8.1332E6,3.0357094E8,1.1135529E8,1.5020555E8,1.01424064E9,1.9307171E8,4.2969754E8,3.797765E8,2.116777E8,4.8314778E8,1.8717138E9,5.9110694E8,6.3910246E8,6.16042E5,6.478688E6,2.5565238E8,1.1914781E8,2.617888E6,4.845763E7,5.67563E5,1.2265888E7,3.3591296E8,3.1957504E8,2.6528608E7,8.72884E6,7.552853E7,1.4063744E7,2.7489408E8,2.360246E8,2.421029E7,4.1984704E7,3.165307E8,5.874939E8,1.5720802E8,1.6760691E8,1.0933197E8,5.973773E7,3.986999E8,1.9985638E8,1.7598226E9,5.785504E8,1.1571651E8,3.181307E8,4.1474707E8,3.0356992E8,0E0,0E0,0E0,0E0,0E0,0E0,0E0,0E0,0E0,0E0,0E0,0E0,0E0,0E0,0E0,0E0,0E0,0E0,0E0,0E0,0E0,0E0,0E0,0E0,0E0,0E0,0E0,0E0,0E0,0E0,0E0,0E0,0E0,0E0,0E0,0E0,0E0,0E0,0E0,0E0,0E0,0E0,0E0,0E0,0E0,0E0,0E0,0E0,0E0,0E0,0E0,0E0,0E0,0E0,0E0,0E0,0E0,0E0,0E0,0E0,0E0,0E0,0E0,0E0],"parents":[2147483647,0,0,1,1,2,2,3,3,4,4,5,5,6,6,7,7,8,8,9,9,10,10,11,11,12,12,13,13,14,14,15,15,16,16,17,17,18,18,19,19,20,20,21,21,22,22,23,23,24,24,25,25,26,26,27,27,28,28,29,29,30,30,31,31,32,32,33,33,34,34,35,35,36,36,37,37,38,38,39,39,40,40,41,41,42,42,43,43,44,44,45,45,46,46,47,47,48,48,49,49,50,50,51,51,52,52,53,53,54,54,55,55,56,56,57,57,58,58,59,59,60,60,61,61,62,62],"right_children":[2,4,6,8,10,12,14,16,18,20,22,24,26,28,30,32,34,36,38,40,42,44,46,48,50,52,54,56,58,60,62,64,66,68,70,72,74,76,78,80,82,84,86,88,90,92,94,96,98,100,102,104,106,108,110,112,114,116,118,120,122,124,126,-1,-1,-1,-1,-1,-1,-1,-1,-1,-1,-1,-1,-1,-1,-1,-1,-1,-1,-1,-1,-1,-1,-1,-1,-1,-1,-1,-1,-1,-1,-1,-1,-1,-1,-1,-1,-1,-1,-1,-1,-1,-1,-1,-1,-1,-1,-1,-1,-1,-1,-1,-1,-1,-1,-1,-1,-1,-1,-1,-1,-1,-1,-1,-1],"split_conditions":[3.5733E1,-3.3283E1,1.1E1,8.01E2,3.25E1,4.771E1,4.4E1,1.5E0,1.9791E3,1.485818E2,1.23E2,-1.1206616E2,1.143E2,1.24E2,4.635E1,5.7E1,-4.28339E1,8.214E2,9E0,-1.35756E1,6.659E2,7.5283E1,2.58E2,7.87E2,-5.35833E1,5.765E1,7E0,5.30167E1,5.628E1,1.59E2,1.311E2,2.7E1,2.95E2,1.41217E2,9E0,8E0,1.0851E3,5E0,4.5E1,1.16E2,8.8083E1,2.54E2,2.49E2,1.271E3,3.1333E3,1.63E2,-1.117892E2,2.4E1,1.5331E3,1E0,4.2621E1,1.9E1,6.55847E1,-1.092266E2,-1.125076E2,1.5118E3,7.07667E1,1.835E3,7.07667E1,-1.167644E2,1.8776E3,6.409E1,1.10117E2,-6.3578667E1,-8.772093E1,-1.2331967E2,-8.4385864E1,-1.5925666E1,8.586787E0,8.901841E0,7.3208636E-1,-3.666608E1,-5.8261833E1,-8.320953E0,-2.1170374E1,-3.695531E1,-6.207215E1,-1.1730783E2,-5.2694096E1,4.4649096E0,1.07754E1,1.6283007E1,1.0431134E1,3.608607E0,8.313785E0,-1.1690645E1,-3.6119192E0,1.0469826E0,-4.585167E0,-9.9065485E0,-2.2595509E1,6.334477E0,1.4254939E1,8.6878195E0,-4.750736E-1,-2.5362496E0,2.820545E0,-4.819891E0,-9.272453E0,-1.401865E1,-6.7053866E0,8.367613E0,-1.2893352E1,-7.779382E-1,-1.7657784E1,-1.41253605E1,-2.6793318E1,-1.9855768E1,-2.7401758E1,-1.1508994E1,-1.8594728E1,-1.6276814E0,-8.84535E0,-9.981606E0,-3.5553207E1,6.374178E0,-3.1890013E0,-3.0144193E0,-2.6525543E1,8.993059E0,-9.525505E-1,-7.2376294E0,-1.4599032E1,-5.879052E0,-2.2677708E1,-1.89843E1,-3.934444E1],"split_indices":[6,6,3,8,6,6,3,8,8,7,4,7,8,4,6,4,6,8,3,7,8,7,4,8,7,6,3,6,6,8,8,4,4,7,3,3,8,3,3,4,7,4,4,8,8,4,7,4,8,5,7,7,6,7,7,8,6,8,6,7,8,6,7,0,0,0,0,0,0,0,0,0,0,0,0,0,0,0,0,0,0,0,0,0,0,0,0,0,0,0,0,0,0,0,0,0,0,0,0,0,0,0,0,0,0,0,0,0,0,0,0,0,0,0,0,0,0,0,0,0,0,0,0,0,0,0,0],"split_type":[0,0,0,0,0,0,0,0,0,0,0,0,0,0,0,0,0,0,0,0,0,0,0,0,0,0,0,0,0,0,0,0,0,0,0,0,0,0,0,0,0,0,0,0,0,0,0,0,0,0,0,0,0,0,0,0,0,0,0,0,0,0,0,0,0,0,0,0,0,0,0,0,0,0,0,0,0,0,0,0,0,0,0,0,0,0,0,0,0,0,0,0,0,0,0,0,0,0,0,0,0,0,0,0,0,0,0,0,0,0,0,0,0,0,0,0,0,0,0,0,0,0,0,0,0,0,0],"sum_hessian":[4.860136E7,1.4245286E7,3.435607E7,1.519661E6,1.2725625E7,6.592054E6,2.776402E7,1.406927E6,1.12734E5,7.592576E6,5.133049E6,4.604218E6,1.987836E6,2.1797502E7,5.966518E6,2.765E3,1.404162E6,1.10933E5,1.801E3,7.030551E6,5.62025E5,1.733235E6,3.399814E6,1.127299E6,3.476919E6,7.75708E5,1.212128E6,5.006385E6,1.6791116E7,3.845005E6,2.121513E6,4.22E2,2.343E3,1.69139E5,1.235023E6,4.326E3,1.06607E5,3.38E2,1.463E3,3.496532E6,3.534019E6,5.0663E5,5.5395E4,1.611987E6,1.21248E5,1.892112E6,1.507702E6,3.53156E5,7.74143E5,3.008649E6,4.6827E5,3.10916E5,4.64792E5,7.20948E5,4.9118E5,4.077494E6,9.28891E5,1.4355254E7,2.435863E6,6.80062E5,3.164943E6,8.08361E5,1.313152E6,1.93E2,2.29E2,1.844E3,4.99E2,1.10555E5,5.8584E4,1.89842E5,1.045181E6,5.92E2,3.734E3,4.8281E4,5.8326E4,1.64E2,1.74E2,1.113E3,3.5E2,1.114278E6,2.382254E6,1.374459E6,2.15956E6,3.50937E5,1.55693E5,3.7714E4,1.7681E4,1.357529E6,2.54458E5,1.12798E5,8.45E3,5.60282E5,1.33183E6,3.21611E5,1.186091E6,1.1052E5,2.42636E5,3.39385E5,4.34758E5,2.317006E6,6.91643E5,2.27413E5,2.40857E5,2.48883E5,6.2033E4,3.33971E5,1.30821E5,2.87326E5,4.33622E5,1.57755E5,3.33425E5,3.199739E6,8.77755E5,9.00518E5,2.8373E4,1.2340706E7,2.014548E6,2.337712E6,9.8151E4,1.30222E5,5.4984E5,2.49461E6,6.70333E5,6.41744E5,1.66617E5,1.243555E6,6.9597E4],"tree_param":{"num_deleted":"0","num_feature":"9","num_nodes":"127","size_leaf_vector":"1"}},{"base_weights":[-6.695E-5,8.532746E0,-1.626922E1,1.2546796E1,-9.6319E0,-3.306331E1,-9.365423E0,-2.9986496E0,1.6458282E1,-3.9816456E0,-2.4535425E1,-4.377576E1,-2.5915104E1,2.2250633E0,-3.084561E1,2.7568525E1,-1.0509654E1,2.2218113E1,4.25979E0,1.4543716E0,-2.0234505E1,-1.8388744E1,-4.0069427E1,-3.050613E1,-5.2357727E1,-2.3751944E1,-5.5574024E1,-8.604056E0,9.696739E0,-2.6392582E1,-6.23905E1,1.5478802E0,3.0772352E1,4.9930263E0,-1.484425E1,-3.6362743E0,2.5755827E1,1.8301111E1,-5.805144E0,-1.1160369E1,2.1865713E1,-1.6248312E1,-3.7385143E1,-1.157464E1,-3.4096638E1,-3.406907E1,-5.1563522E1,-1.6194519E1,-5.9321022E1,-7.247405E1,-4.0754272E1,-2.2382093E1,-5.7046333E1,-8.811535E1,-4.0237347E1,-4.7664585E0,-4.1828934E1,1.8212025E1,-2.8236945E0,-3.3430878E1,-8.057194E0,-5.268083E1,-7.849034E1,1.924189E1,-9.120091E-1,1.0166776E1,3.1652505E0,5.283153E0,-6.1948717E-1,-7.693082E-1,-6.58316E0,3.6455739E0,-3.805905E0,4.4248548E0,1.0604775E1,8.156046E0,3.1047628E0,4.652432E0,-2.8529658E0,-1.7068378E0,-6.2906137E0,8.274818E0,5.911394E-1,-6.006437E0,-1.2215894E0,1.6356127E0,-1.1799473E1,-2.081577E0,-7.790423E0,-6.458184E1,-9.942613E0,-7.8313594E0,-1.2988293E1,-1.4951291E1,-3.268647E1,2.3830025E0,-6.139569E0,-8.015079E0,-2.0282602E1,-1.9236176E1,-3.617998E1,-4.1194263E0,-1.8238962E1,-8.263669E0,-3.5369189E0,-2.3664509E1,-1.3881904E1,-1.7876368E1,-3.3798214E1,-8.131021E0,-2.829256E1,-8.338827E0,1.0797911E-1,-1.0861493E1,-2.0934698E1,-1.1156391E0,6.6334286E0,2.2682312E-1,-1.0113639E1,-8.458418E0,-2.5031384E1,6.3476396E0,-5.31873E0,-1.3054394E1,-1.8940447E1,-1.8754732E1,-3.1155497E1],"categories":[],"categories_nodes":[],"categories_segments":[],"categories_sizes":[],"default_left":[0,0,0,0,0,0,0,0,0,0,0,0,0,0,0,0,0,0,0,0,0,0,0,0,0,0,0,0,0,0,0,0,0,0,0,0,0,0,0,0,0,0,0,0,0,0,0,0,0,0,0,0,0,0,0,0,0,0,0,0,0,0,0,0,0,0,0,0,0,0,0,0,0,0,0,0,0,0,0,0,0,0,0,0,0,0,0,0,0,0,0,0,0,0,0,0,0,0,0,0,0,0,0,0,0,0,0,0,0,0,0,0,0,0,0,0,0,0,0,0,0,0,0,0,0,0,0],"id":5,"left_children":[1,3,5,7,9,11,13,15,17,19,21,23,25,27,29,31,33,35,37,39,41,43,45,47,49,51,53,55,57,59,61,63,65,67,69,71,73,75,77,79,81,83,85,87,89,91,93,95,97,99,101,103,105,107,109,111,113,115,117,119,121,123,125,-1,-1,-1,-1,-1,-1,-1,-1,-1,-1,-1,-1,-1,-1,-1,-1,-1,-1,-1,-1,-1,-1,-1,-1,-1,-1,-1,-1,-1,-1,-1,-1,-1,-1,-1,-1,-1,-1,-1,-1,-1,-1,-1,-1,-1,-1,-1,-1,-1,-1,-1,-1,-1,-1,-1,-1,-1,-1,-1,-1,-1,-1,-1,-1],"loss_changes":[6.746921E9,2.3245391E9,1.938648E9,1.5876815E9,4.8588218E8,3.7300736E8,2.95013E9,1.2051447E9,1.4657597E9,3.6964262E8,1.5145094E8,2.2201114E8,1.8744154E8,6.227414E8,5.833687E8,8.631667E7,2.8315245E8,1.2961178E9,9.456056E8,8.0726163E8,7.168854E7,1.2164291E8,3.1013056E7,3.1574848E8,2.7633664E8,1.2419136E8,9.911386E7,4.006519E8,4.8555485E8,4.696448E8,8.03049E7,3.2596338E7,5.810496E7,8.199462E7,2.8709062E8,2.4370502E8,1.3161528E9,1.9739443E8,3.077352E8,1.0397614E8,1.3620845E8,3.909093E7,1.6489152E7,5.2891304E7,5.94608E7,2.1707584E7,1.5271904E7,5.273649E7,6.86551E7,1.7409638E8,4.0663475E8,1.4304589E8,2.530976E7,4.4538944E7,9.586019E7,3.3256176E8,5.114752E7,2.3181146E8,2.0385107E8,6.885901E8,2.8525264E8,3.0705408E7,7.829286E7,0E0,0E0,0E0,0E0,0E0,0E0,0E0,0E0,0E0,0E0,0E0,0E0,0E0,0E0,0E0,0E0,0E0,0E0,0E0,0E0,0E0,0E0,0E0,0E0,0E0,0E0,0E0,0E0,0E0,0E0,0E0,0E0,0E0,0E0,0E0,0E0,0E0,0E0,0E0,0E0,0E0,0E0,0E0,0E0,0E0,0E0,0E0,0E0,0E0,0E0,0E0,0E0,0E0,0E0,0E0,0E0,0E0,0E0,0E0,0E0,0E0,0E0,0E0,0E0],"parents":[2147483647,0,0,1,1,2,2,3,3,4,4,5,5,6,6,7,7,8,8,9,9,10,10,11,11,12,12,13,13,14,14,15,15,16,16,17,17,18,18,19,19,20,20,21,21,22,22,23,23,24,24,25,25,26,26,27,27,28,28,29,29,30,30,31,31,32,32,33,33,34,34,35,35,36,36,37,37,38,38,39,39,40,40,41,41,42,42,43,43,44,44,45,45,46,46,47,47,48,48,49,49,50,50,51,51,52,52,53,53,54,54,55,55,56,56,57,57,58,58,59,59,60,60,61,61,62,62],"right_children":[2,4,6,8,10,12,14,16,18,20,22,24,26,28,30,32,34,36,38,40,42,44,46,48,50,52,54,56,58,60,62,64,66,68,70,72,74,76,78,80,82,84,86,88,90,92,94,96,98,100,102,104,106,108,110,112,114,116,118,120,122,124,126,-1,-1,-1,-1,-1,-1,-1,-1,-1,-1,-1,-1,-1,-1,-1,-1,-1,-1,-1,-1,-1,-1,-1,-1,-1,-1,-1,-1,-1,-1,-1,-1,-1,-1,-1,-1,-1,-1,-1,-1,-1,-1,-1,-1,-1,-1,-1,-1,-1,-1,-1,-1,-1,-1,-1,-1,-1,-1,-1,-1,-1,-1,-1,-1],"split_conditions":[4.417079E1,1.496E3,1.07E2,7.4E1,2.539E3,4.4E1,4E0,1.95362E1,2.72E2,4E1,4.035E1,-1.0574721E2,6.55847E1,1.75E2,4.2621E1,-3.73417E1,-1.0127683E2,-1.755E1,3.42625E1,2.5E1,3.48E2,3.1333E3,2.9017E3,5.08667E1,-6.54667E1,1.135936E2,-1.35756E1,1.3359E3,2.34E2,-1.35756E1,5.628E1,-6.7367E1,1.500504E2,5.21E2,1.44E2,1.46E2,1.66E2,1.95362E1,-1.133872E2,4.06331E1,2.51E2,1E0,2.47E1,2.77E2,-4.28339E1,4.150339E1,-1.054799E2,1.807E2,4.5E1,4.92167E1,2.0767E1,-1.35756E1,4E0,6.813E1,6.7833E1,3.5E1,2.347E3,-1.21285E2,6.409E1,6.111E1,8.7928E0,3.22E2,1.10117E2,1.924189E1,-9.120091E-1,1.0166776E1,3.1652505E0,5.283153E0,-6.1948717E-1,-7.693082E-1,-6.58316E0,3.6455739E0,-3.805905E0,4.4248548E0,1.0604775E1,8.156046E0,3.1047628E0,4.652432E0,-2.8529658E0,-1.7068378E0,-6.2906137E0,8.274818E0,5.911394E-1,-6.006437E0,-1.2215894E0,1.6356127E0,-1.1799473E1,-2.081577E0,-7.790423E0,-6.458184E1,-9.942613E0,-7.8313594E0,-1.2988293E1,-1.4951291E1,-3.268647E1,2.3830025E0,-6.139569E0,-8.015079E0,-2.0282602E1,-1.9236176E1,-3.617998E1,-4.1194263E0,-1.8238962E1,-8.263669E0,-3.5369189E0,-2.3664509E1,-1.3881904E1,-1.7876368E1,-3.3798214E1,-8.131021E0,-2.829256E1,-8.338827E0,1.0797911E-1,-1.0861493E1,-2.0934698E1,-1.1156391E0,6.6334286E0,2.2682312E-1,-1.0113639E1,-8.458418E0,-2.5031384E1,6.3476396E0,-5.31873E0,-1.3054394E1,-1.8940447E1,-1.8754732E1,-3.1155497E1],"split_indices":[6,8,4,4,8,4,1,6,4,3,6,7,6,4,7,6,7,6,6,3,4,8,8,6,7,7,7,8,4,7,6,7,7,8,8,4,4,6,7,6,4,5,6,4,6,6,7,8,8,6,7,7,0,6,7,8,8,7,6,6,7,4,7,0,0,0,0,0,0,0,0,0,0,0,0,0,0,0,0,0,0,0,0,0,0,0,0,0,0,0,0,0,0,0,0,0,0,0,0,0,0,0,0,0,0,0,0,0,0,0,0,0,0,0,0,0,0,0,0,0,0,0,0,0,0,0,0],"split_type":[0,0,0,0,0,0,0,0,0,0,0,0,0,0,0,0,0,0,0,0,0,0,0,0,0,0,0,0,0,0,0,0,0,0,0,0,0,0,0,0,0,0,0,0,0,0,0,0,0,0,0,0,0,0,0,0,0,0,0,0,0,0,0,0,0,0,0,0,0,0,0,0,0,0,0,0,0,0,0,0,0,0,0,0,0,0,0,0,0,0,0,0,0,0,0,0,0,0,0,0,0,0,0,0,0,0,0,0,0,0,0,0,0,0,0,0,0,0,0,0,0,0,0,0,0,0,0],"sum_hessian":[4.860136E7,3.1880656E7,1.6720703E7,2.6110682E7,5.769975E6,4.871166E6,1.1849537E7,5.24911E6,2.0861572E7,4.183804E6,1.586171E6,1.949539E6,2.921627E6,7.696556E6,4.152981E6,1.035398E6,4.213712E6,1.4170572E7,6.691E6,3.135192E6,1.048612E6,1.136478E6,4.49693E5,7.65661E5,1.183878E6,2.723026E6,1.98601E5,3.142277E6,4.554279E6,3.639249E6,5.13732E5,1.13509E5,9.21889E5,9.20728E5,3.292984E6,1.705609E6,1.2464963E7,2.793651E6,3.897349E6,1.937665E6,1.197527E6,8.50856E5,1.97756E5,7.92634E5,3.43844E5,2.95457E5,1.54236E5,5.11576E5,2.54085E5,4.33074E5,7.50804E5,2.61542E6,1.07606E5,6.3616E4,1.34985E5,2.816914E6,3.25363E5,2.710701E6,1.843578E6,2.629773E6,1.009476E6,3.20466E5,1.93266E5,7.751E3,1.05758E5,7.98768E5,1.23121E5,3.30283E5,5.90445E5,1.206374E6,2.08661E6,6.21456E5,1.084153E6,5.805012E6,6.659951E6,1.319357E6,1.474294E6,5.77131E5,3.320218E6,1.243863E6,6.93802E5,9.30222E5,2.67305E5,6.4957E5,2.01286E5,8.595E3,1.89161E5,5.9953E5,1.93104E5,1.801E3,3.42043E5,1.58565E5,1.36892E5,1.49735E5,4.501E3,7.6906E4,4.3467E5,5.1497E4,2.02588E5,3.69023E5,6.4051E4,3.19724E5,4.3108E5,1.758299E6,8.57121E5,3.5549E4,7.2057E4,2.9423E4,3.4193E4,1.08606E5,2.6379E4,5.12877E5,2.304037E6,2.70869E5,5.4494E4,4.09215E5,2.301486E6,1.65211E6,1.91468E5,2.380515E6,2.49258E5,2.51069E5,7.58407E5,1.70753E5,1.49713E5,1.18579E5,7.4687E4],"tree_param":{"num_deleted":"0","num_feature":"9","num_nodes":"127","size_leaf_vector":"1"}},{"base_weights":[-5.6547793E-5,7.7151647E0,-9.154348E0,9.295568E0,-1.2947397E1,-2.1214643E1,-4.1920323E0,-1.5839876E0,1.1760443E1,-8.054001E0,-2.4580072E1,-2.9103977E1,-1.6124168E1,3.7771018E0,-1.8900734E1,2.0213804E1,-7.0365725E0,1.5837601E1,3.2590094E0,-1.707346E-1,-1.663079E1,-1.5072679E2,-2.4169016E1,-2.0355846E1,-3.5171745E1,-1.2286834E1,-2.4966053E1,-4.712039E0,1.0074291E1,-1.3227228E1,-3.413159E1,8.554527E0,2.5443012E1,-1.6626388E0,-1.4261411E1,-6.450149E0,1.854874E1,1.7541851E1,-1.7944412E0,-1.3239296E1,6.29161E0,-3.0864258E1,-1.4032195E1,-5.8238037E1,-1.7540154E2,-2.0034576E1,-3.642857E1,-1.6266E1,-6.483367E1,-2.2542187E1,-4.441064E1,-1.5763454E1,6.7612257E0,-2.2708895E1,-5.532952E1,-4.8196107E-1,-2.1772503E1,1.5990733E1,-4.4205987E-1,-1.0580074E1,-3.614726E1,-1.1702418E1,-3.9169434E1,-2.863892E0,3.8941534E0,5.144128E0,9.975229E0,1.4965276E-1,-9.692036E0,-5.0913286E0,1.8621364E0,-6.176961E0,-2.5264218E-1,2.9798799E0,7.2487097E0,-4.9067783E-1,6.511701E0,7.620015E-1,-4.0817027E0,5.023726E0,-4.280161E0,5.657155E0,-2.5281684E0,-8.445616E0,-1.4815749E1,-2.670527E0,-7.8410163E0,-8.107728E0,-2.8217648E1,-6.3286232E1,-1.4157153E1,-8.565109E0,-2.0472658E0,5.3043165E0,-1.1554858E1,1.9643052E-1,-6.2042775E0,-1.5470365E1,-2.432686E1,-3.9578595E0,-1.2016912E1,-1.2704897E1,-2.4035479E1,-1.8829099E0,-8.136754E0,1.0150548E1,-4.0942416E0,-1.0542501E1,-4.8682494E0,-1.4357959E1,-2.2178448E1,-4.938903E0,1.2734964E0,-1.4084933E1,-5.0183654E0,6.245214E0,-2.361997E0,2.5855944E0,-2.9506328E0,-4.5407897E-1,-4.7381597E0,-2.1900203E0,-1.2738918E1,1.6431665E0,-9.967065E0,-9.507823E0,-1.7572893E1],"categories":[],"categories_nodes":[],"categories_segments":[],"categories_sizes":[],"default_left":[0,0,0,0,0,0,0,0,0,0,0,0,0,0,0,0,0,0,0,0,0,0,0,0,0,0,0,0,0,0,0,0,0,0,0,0,0,0,0,0,0,0,0,0,0,0,0,0,0,0,0,0,0,0,0,0,0,0,0,0,0,0,0,0,0,0,0,0,0,0,0,0,0,0,0,0,0,0,0,0,0,0,0,0,0,0,0,0,0,0,0,0,0,0,0,0,0,0,0,0,0,0,0,0,0,0,0,0,0,0,0,0,0,0,0,0,0,0,0,0,0,0,0,0,0,0,0],"id":6,"left_children":[1,3,5,7,9,11,13,15,17,19,21,23,25,27,29,31,33,35,37,39,41,43,45,47,49,51,53,55,57,59,61,63,65,67,69,71,73,75,77,79,81,83,85,87,89,91,93,95,97,99,101,103,105,107,109,111,113,115,117,119,121,123,125,-1,-1,-1,-1,-1,-1,-1,-1,-1,-1,-1,-1,-1,-1,-1,-1,-1,-1,-1,-1,-1,-1,-1,-1,-1,-1,-1,-1,-1,-1,-1,-1,-1,-1,-1,-1,-1,-1,-1,-1,-1,-1,-1,-1,-1,-1,-1,-1,-1,-1,-1,-1,-1,-1,-1,-1,-1,-1,-1,-1,-1,-1,-1,-1],"loss_changes":[3.4325868E9,8.612379E8,1.3302602E9,6.570044E8,1.0666829E8,2.602258E8,1.8459145E9,5.3786336E8,6.923456E8,8.918415E7,2.8768064E7,1.3489152E8,1.3362816E8,5.46021E8,4.7820173E8,5.520685E7,1.4054566E8,8.157394E8,4.673062E8,5.8045596E7,2.3365376E7,4.102192E6,2.8032032E7,1.8931834E8,1.750793E8,1.8188029E8,8.168986E7,3.1392397E8,3.6486144E8,2.4463405E8,1.697097E8,2.2461846E7,4.049037E7,1.3749797E8,8.563805E7,1.1609517E8,5.821276E8,1.3511277E8,2.4483264E8,7.009584E6,8.505766E7,4.897864E6,3.3174592E7,4.234345E5,6.471852E6,4.652691E7,1.5756096E7,7.120074E7,1.8895104E7,1.038007E8,6.3769344E7,2.5029056E8,2.3423094E8,8.940371E7,1.145448E7,2.6331514E8,1.0976928E8,4.3226048E8,1.7969496E8,1.7086294E8,7.605875E7,1.01851E8,1.7795571E8,0E0,0E0,0E0,0E0,0E0,0E0,0E0,0E0,0E0,0E0,0E0,0E0,0E0,0E0,0E0,0E0,0E0,0E0,0E0,0E0,0E0,0E0,0E0,0E0,0E0,0E0,0E0,0E0,0E0,0E0,0E0,0E0,0E0,0E0,0E0,0E0,0E0,0E0,0E0,0E0,0E0,0E0,0E0,0E0,0E0,0E0,0E0,0E0,0E0,0E0,0E0,0E0,0E0,0E0,0E0,0E0,0E0,0E0,0E0,0E0,0E0,0E0,0E0,0E0],"parents":[2147483647,0,0,1,1,2,2,3,3,4,4,5,5,6,6,7,7,8,8,9,9,10,10,11,11,12,12,13,13,14,14,15,15,16,16,17,17,18,18,19,19,20,20,21,21,22,22,23,23,24,24,25,25,26,26,27,27,28,28,29,29,30,30,31,31,32,32,33,33,34,34,35,35,36,36,37,37,38,38,39,39,40,40,41,41,42,42,43,43,44,44,45,45,46,46,47,47,48,48,49,49,50,50,51,51,52,52,53,53,54,54,55,55,56,56,57,57,58,58,59,59,60,60,61,61,62,62],"right_children":[2,4,6,8,10,12,14,16,18,20,22,24,26,28,30,32,34,36,38,40,42,44,46,48,50,52,54,56,58,60,62,64,66,68,70,72,74,76,78,80,82,84,86,88,90,92,94,96,98,100,102,104,106,108,110,112,114,116,118,120,122,124,126,-1,-1,-1,-1,-1,-1,-1,-1,-1,-1,-1,-1,-1,-1,-1,-1,-1,-1,-1,-1,-1,-1,-1,-1,-1,-1,-1,-1,-1,-1,-1,-1,-1,-1,-1,-1,-1,-1,-1,-1,-1,-1,-1,-1,-1,-1,-1,-1,-1,-1,-1,-1,-1,-1,-1,-1,-1,-1,-1,-1,-1,-1,-1,-1],"split_conditions":[4.166533E1,2.347E3,1.07E2,6.8E1,3.0023E3,4.3E1,4E0,1.6433E1,2.69E2,3.90733E1,-4.28339E1,-1.0272288E2,5.22667E1,1.78E2,3.41E2,-3.3283E1,3.70683E1,-2.56167E1,2.74467E1,1.8E1,9E0,1E1,4E0,6.15E1,1.66E2,-1.35756E1,1.066E2,1.0363E3,4.995E1,4.56E1,6.2E1,1.8E1,7.01E1,1.036E2,-7.20275E1,-3.64289E1,1.47E2,-3.4588E1,3.4E2,2.74467E1,3.7E1,5.1E1,4E1,6E0,4.6E1,1.66E2,5.3544E0,-1.222178E2,-1.4565E2,2.42642E1,1.135936E2,-1.0169623E2,2.5317E1,-5.35833E1,8.9E1,6E1,-1.20245E2,1.5606E3,2.27E2,2.103E2,4.565225E1,5.765E1,5.02333E1,-2.863892E0,3.8941534E0,5.144128E0,9.975229E0,1.4965276E-1,-9.692036E0,-5.0913286E0,1.8621364E0,-6.176961E0,-2.5264218E-1,2.9798799E0,7.2487097E0,-4.9067783E-1,6.511701E0,7.620015E-1,-4.0817027E0,5.023726E0,-4.280161E0,5.657155E0,-2.5281684E0,-8.445616E0,-1.4815749E1,-2.670527E0,-7.8410163E0,-8.107728E0,-2.8217648E1,-6.3286232E1,-1.4157153E1,-8.565109E0,-2.0472658E0,5.3043165E0,-1.1554858E1,1.9643052E-1,-6.2042775E0,-1.5470365E1,-2.432686E1,-3.9578595E0,-1.2016912E1,-1.2704897E1,-2.4035479E1,-1.8829099E0,-8.136754E0,1.0150548E1,-4.0942416E0,-1.0542501E1,-4.8682494E0,-1.4357959E1,-2.2178448E1,-4.938903E0,1.2734964E0,-1.4084933E1,-5.0183654E0,6.245214E0,-2.361997E0,2.5855944E0,-2.9506328E0,-4.5407897E-1,-4.7381597E0,-2.1900203E0,-1.2738918E1,1.6431665E0,-9.967065E0,-9.507823E0,-1.7572893E1],"split_indices":[6,8,4,4,8,4,1,6,4,6,6,7,6,4,4,6,6,6,6,3,3,3,1,6,8,7,7,8,6,7,8,8,8,7,7,6,4,6,4,6,3,4,3,3,3,4,6,7,7,7,7,7,7,7,4,8,7,8,4,8,6,6,6,0,0,0,0,0,0,0,0,0,0,0,0,0,0,0,0,0,0,0,0,0,0,0,0,0,0,0,0,0,0,0,0,0,0,0,0,0,0,0,0,0,0,0,0,0,0,0,0,0,0,0,0,0,0,0,0,0,0,0,0,0,0,0,0],"split_type":[0,0,0,0,0,0,0,0,0,0,0,0,0,0,0,0,0,0,0,0,0,0,0,0,0,0,0,0,0,0,0,0,0,0,0,0,0,0,0,0,0,0,0,0,0,0,0,0,0,0,0,0,0,0,0,0,0,0,0,0,0,0,0,0,0,0,0,0,0,0,0,0,0,0,0,0,0,0,0,0,0,0,0,0,0,0,0,0,0,0,0,0,0,0,0,0,0,0,0,0,0,0,0,0,0,0,0,0,0,0,0,0,0,0,0,0,0,0,0,0,0,0,0,0,0,0,0],"sum_hessian":[4.860136E7,2.6373674E7,2.2227686E7,2.4499776E7,1.873898E6,6.479663E6,1.5748023E7,4.525399E6,1.9974376E7,1.319035E6,5.54863E5,2.541219E6,3.938444E6,1.0214069E7,5.533954E6,9.05496E5,3.619903E6,1.3499988E7,6.474389E6,6.87306E5,6.31729E5,1.801E3,5.53062E5,1.040744E6,1.500475E6,2.746485E6,1.191959E6,4.349959E6,5.86411E6,4.032024E6,1.50193E6,2.80371E5,6.25125E5,2.075855E6,1.544048E6,1.464079E6,1.2035909E7,1.692051E6,4.782338E6,2.27414E5,4.59892E5,9.7527E4,5.34202E5,3.8E2,1.421E3,4.13586E5,1.39476E5,9.53105E5,8.7639E4,6.33916E5,8.66559E5,2.322573E6,4.23912E5,1.109484E6,8.2475E4,3.485695E6,8.64264E5,3.752803E6,2.111307E6,3.614561E6,4.17463E5,2.75476E5,1.226454E6,5.5086E4,2.25285E5,3.03089E5,3.22036E5,1.939083E6,1.36772E5,1.363539E6,1.80509E5,4.15772E5,1.048307E6,4.748263E6,7.287646E6,3.01843E5,1.390208E6,3.498479E6,1.283859E6,7.537E3,2.19877E5,2.48093E5,2.11799E5,8.5072E4,1.2455E4,3.75184E5,1.59018E5,2.04E2,1.76E2,1.112E3,3.09E2,2.51476E5,1.6211E5,5.181E3,1.34295E5,1.97223E5,7.55882E5,4.826E4,3.9379E4,4.13295E5,2.20621E5,8.19274E5,4.7285E4,1.26557E6,1.057003E6,1.82203E5,2.41709E5,3.8019E5,7.29294E5,5.8845E4,2.363E4,7.95668E5,2.690027E6,1.44261E5,7.20003E5,3.121468E6,6.31335E5,1.074684E6,1.036623E6,1.319693E6,2.294868E6,7.4983E4,3.4248E5,1.5319E5,1.22286E5,8.85362E5,3.41092E5],"tree_param":{"num_deleted":"0","num_feature":"9","num_nodes":"127","size_leaf_vector":"1"}},{"base_weights":[-4.8143855E-5,4.3577213E0,-8.754557E0,1.1084414E1,7.159454E-1,-6.877568E0,-2.959261E1,-1.6543492E0,1.3943126E1,-7.227133E0,4.656638E0,-1.8617533E1,-4.1075573E0,-4.9484653E1,-1.9449232E1,1.7173231E0,-2.7279902E1,-8.6521015E0,1.5505446E1,-2.2054794E1,-5.884983E0,1.2587899E1,-4.3028893E0,-9.748748E0,-2.4575241E1,-1.0522916E0,-2.1477242E1,-3.2367405E1,-7.1113945E1,-1.3419123E1,-4.185052E1,-2.5210468E2,2.098211E0,2.7404596E1,-3.1207378E1,-1.717244E1,1.11323805E1,5.456827E1,1.4159894E1,-2.8273066E1,-1.599048E0,-4.0727334E0,-1.4703223E1,3.061415E0,1.9758514E1,-2.183907E0,-1.7336987E1,9.96017E0,-1.4256573E1,-3.8630013E1,-1.4923679E1,1.4179534E0,-2.2578339E1,-3.258514E0,-2.7404757E1,-2.5722729E1,-7.892223E1,-6.491954E1,-1.18742546E2,-7.658477E0,-2.5792574E1,-5.7110813E1,-3.075062E1,-5.1748844E1,-7.9564865E1,1.210652E-1,9.860733E0,2.0189857E1,6.156929E0,-4.330935E1,-8.151747E0,-3.9800658E0,-1.1799802E1,1.1722282E0,1.3038556E1,1.8659058E1,1.9254521E0,5.48541E0,2.1633632E0,-1.0786136E1,-3.0485976E0,5.471568E0,-3.5030203E0,7.7262634E-1,-2.3668506E0,-4.1651983E0,-1.19701185E1,-3.9623733E0,1.6287566E0,7.9437003E0,3.823118E0,-1.0289488E-2,-4.1360545E0,2.121075E0,-6.3118467E0,5.852848E-1,6.601677E0,-2.1317775E0,-9.967943E0,-1.0286166E1,-3.0558216E1,7.739905E0,-7.4453154E0,5.8644706E-1,-1.110561E1,-5.28636E0,-1.52983055E1,5.6756268E0,-3.179388E0,-6.1873436E0,-1.2771029E1,-1.4901553E1,-5.6598377E0,-2.5608734E1,1.343015E1,-1.4763671E1,-2.3925932E1,-3.7356407E1,-1.3770718E1,3.2137877E-1,-3.525328E0,-6.8270135E0,-1.5581655E1,-1.2463939E1,-1.8065695E1,-3.8841712E0,-1.2296382E1],"categories":[],"categories_nodes":[],"categories_segments":[],"categories_sizes":[],"default_left":[0,0,0,0,0,0,0,0,0,0,0,0,0,0,0,0,0,0,0,0,0,0,0,0,0,0,0,0,0,0,0,0,0,0,0,0,0,0,0,0,0,0,0,0,0,0,0,0,0,0,0,0,0,0,0,0,0,0,0,0,0,0,0,0,0,0,0,0,0,0,0,0,0,0,0,0,0,0,0,0,0,0,0,0,0,0,0,0,0,0,0,0,0,0,0,0,0,0,0,0,0,0,0,0,0,0,0,0,0,0,0,0,0,0,0,0,0,0,0,0,0,0,0,0,0,0,0],"id":7,"left_children":[1,3,5,7,9,11,13,15,17,19,21,23,25,27,29,31,33,35,37,39,41,43,45,47,49,51,53,55,57,59,61,63,65,67,69,71,73,75,77,79,81,83,85,87,89,91,93,95,97,99,101,103,105,107,109,111,113,115,117,119,121,123,125,-1,-1,-1,-1,-1,-1,-1,-1,-1,-1,-1,-1,-1,-1,-1,-1,-1,-1,-1,-1,-1,-1,-1,-1,-1,-1,-1,-1,-1,-1,-1,-1,-1,-1,-1,-1,-1,-1,-1,-1,-1,-1,-1,-1,-1,-1,-1,-1,-1,-1,-1,-1,-1,-1,-1,-1,-1,-1,-1,-1,-1,-1,-1,-1],"loss_changes":[1.8541484E9,7.9490784E8,6.3176166E8,4.1504806E8,6.589471E8,4.81866E8,2.693042E8,1.8048277E8,3.285948E8,1.3892512E8,9.998872E8,1.4946374E8,6.362373E8,1.6687872E8,1.1940576E8,1.7846862E8,5.216643E7,1.0147845E8,4.576156E8,7.370346E7,1.0229982E8,5.098565E8,1.8248378E8,1.0098685E8,2.2952966E8,5.421428E8,1.9366752E8,7.783422E7,5.8740864E7,4.9643816E7,3.175504E7,2.841376E6,9.611826E7,4.466981E6,1.0346232E8,3.6417216E7,4.232737E7,1.0648922E8,2.4123226E8,6.181213E7,2.7004826E7,1.3474138E8,2.2526112E7,1.2347652E8,2.007543E8,1.4175019E8,8.349434E7,2.0412594E7,1.2548488E8,1.891648E8,4.042E8,1.8873152E8,1.4784176E8,7.165772E7,1.391335E8,3.6156864E7,2.5038112E7,4.105261E7,9.640288E6,1.697867E7,1.756072E7,3.81656E6,1.9781304E7,0E0,0E0,0E0,0E0,0E0,0E0,0E0,0E0,0E0,0E0,0E0,0E0,0E0,0E0,0E0,0E0,0E0,0E0,0E0,0E0,0E0,0E0,0E0,0E0,0E0,0E0,0E0,0E0,0E0,0E0,0E0,0E0,0E0,0E0,0E0,0E0,0E0,0E0,0E0,0E0,0E0,0E0,0E0,0E0,0E0,0E0,0E0,0E0,0E0,0E0,0E0,0E0,0E0,0E0,0E0,0E0,0E0,0E0,0E0,0E0,0E0,0E0,0E0,0E0],"parents":[2147483647,0,0,1,1,2,2,3,3,4,4,5,5,6,6,7,7,8,8,9,9,10,10,11,11,12,12,13,13,14,14,15,15,16,16,17,17,18,18,19,19,20,20,21,21,22,22,23,23,24,24,25,25,26,26,27,27,28,28,29,29,30,30,31,31,32,32,33,33,34,34,35,35,36,36,37,37,38,38,39,39,40,40,41,41,42,42,43,43,44,44,45,45,46,46,47,47,48,48,49,49,50,50,51,51,52,52,53,53,54,54,55,55,56,56,57,57,58,58,59,59,60,60,61,61,62,62],"right_children":[2,4,6,8,10,12,14,16,18,20,22,24,26,28,30,32,34,36,38,40,42,44,46,48,50,52,54,56,58,60,62,64,66,68,70,72,74,76,78,80,82,84,86,88,90,92,94,96,98,100,102,104,106,108,110,112,114,116,118,120,122,124,126,-1,-1,-1,-1,-1,-1,-1,-1,-1,-1,-1,-1,-1,-1,-1,-1,-1,-1,-1,-1,-1,-1,-1,-1,-1,-1,-1,-1,-1,-1,-1,-1,-1,-1,-1,-1,-1,-1,-1,-1,-1,-1,-1,-1,-1,-1,-1,-1,-1,-1,-1,-1,-1,-1,-1,-1,-1,-1,-1,-1,-1,-1,-1,-1],"split_conditions":[4.444E1,3.41923E1,6.501E1,-3.03442E1,5E0,7.1E1,-1.35756E1,6.659E2,-1.164194E2,1.1E1,2.51E2,-1.0574721E2,3.21E2,6.813E1,5.7633E1,1.5E0,-6.54667E1,3.37187E1,-1.109659E2,1E0,1.8776E3,1.77E2,3.5E2,1.62E2,-5.35833E1,1.3594E3,9E1,3.19E2,3.24E2,2.554E2,1.54E2,5.4E1,3.47E2,-4.28339E1,4.206E0,1.2192E3,2.99E2,9E2,3.04E1,9E0,3E0,-9.66419E1,-1.0387177E2,-1.18348E2,-9.35357E1,1.9385E3,1.01E2,4.3E1,5.08667E1,5.12244E1,8.7928E0,1.3705E2,2.3988E3,-1.195333E2,5.15667E1,2.5E1,-6.35167E1,-1.222178E2,-5.8762E1,2.21192E1,5.82E2,7.1383E1,2.28E2,-5.1748844E1,-7.9564865E1,1.210652E-1,9.860733E0,2.0189857E1,6.156929E0,-4.330935E1,-8.151747E0,-3.9800658E0,-1.1799802E1,1.1722282E0,1.3038556E1,1.8659058E1,1.9254521E0,5.48541E0,2.1633632E0,-1.0786136E1,-3.0485976E0,5.471568E0,-3.5030203E0,7.7262634E-1,-2.3668506E0,-4.1651983E0,-1.19701185E1,-3.9623733E0,1.6287566E0,7.9437003E0,3.823118E0,-1.0289488E-2,-4.1360545E0,2.121075E0,-6.3118467E0,5.852848E-1,6.601677E0,-2.1317775E0,-9.967943E0,-1.0286166E1,-3.0558216E1,7.739905E0,-7.4453154E0,5.8644706E-1,-1.110561E1,-5.28636E0,-1.52983055E1,5.6756268E0,-3.179388E0,-6.1873436E0,-1.2771029E1,-1.4901553E1,-5.6598377E0,-2.5608734E1,1.343015E1,-1.4763671E1,-2.3925932E1,-3.7356407E1,-1.3770718E1,3.2137877E-1,-3.525328E0,-6.8270135E0,-1.5581655E1,-1.2463939E1,-1.8065695E1,-3.8841712E0,-1.2296382E1],"split_indices":[6,6,6,6,2,4,7,8,7,4,4,7,4,6,7,8,7,6,7,5,8,4,4,8,7,8,8,4,4,8,4,4,4,6,7,8,4,8,6,0,0,7,7,7,7,8,8,4,6,6,7,7,8,7,6,8,7,7,7,7,8,7,4,0,0,0,0,0,0,0,0,0,0,0,0,0,0,0,0,0,0,0,0,0,0,0,0,0,0,0,0,0,0,0,0,0,0,0,0,0,0,0,0,0,0,0,0,0,0,0,0,0,0,0,0,0,0,0,0,0,0,0,0,0,0,0,0],"split_type":[0,0,0,0,0,0,0,0,0,0,0,0,0,0,0,0,0,0,0,0,0,0,0,0,0,0,0,0,0,0,0,0,0,0,0,0,0,0,0,0,0,0,0,0,0,0,0,0,0,0,0,0,0,0,0,0,0,0,0,0,0,0,0,0,0,0,0,0,0,0,0,0,0,0,0,0,0,0,0,0,0,0,0,0,0,0,0,0,0,0,0,0,0,0,0,0,0,0,0,0,0,0,0,0,0,0,0,0,0,0,0,0,0,0,0,0,0,0,0,0,0,0,0,0,0,0,0],"sum_hessian":[4.860136E7,3.2449056E7,1.6152305E7,1.1397265E7,2.105179E7,1.4817609E7,1.334696E6,2.088896E6,9.308369E6,6.980834E6,1.4070956E7,2.828738E6,1.1988871E7,4.50744E5,8.83952E5,1.846009E6,2.42887E5,6.01992E5,8.706377E6,5.79432E5,6.401402E6,7.463779E6,6.607177E6,1.136669E6,1.692069E6,1.0195517E7,1.793354E6,2.51618E5,1.99126E5,6.96473E5,1.87479E5,2.765E3,1.843244E6,1.6275E4,2.26612E5,4.2078E5,1.81212E5,2.89911E5,8.416466E6,4.44354E5,1.35078E5,5.310114E6,1.091288E6,3.205341E6,4.258438E6,5.683241E6,9.23936E5,2.11585E5,9.25084E5,6.88891E5,1.003178E6,9.145963E6,1.049554E6,4.4024E5,1.353114E6,2.20192E5,3.1426E4,1.76211E5,2.2915E4,4.75226E5,2.21247E5,7.8943E4,1.08536E5,3.93E2,2.372E3,1.74703E6,9.6214E4,2.393E3,1.3882E4,7.801E3,2.18811E5,3.57734E5,6.3046E4,1.48113E5,3.3099E4,2.50261E5,3.965E4,5.281384E6,3.135082E6,3.12026E5,1.32328E5,4.5504E4,8.9574E4,1.936706E6,3.373408E6,1.056926E6,3.4362E4,4.07226E5,2.798115E6,2.17484E6,2.083598E6,4.794916E6,8.88325E5,1.21697E5,8.02239E5,1.27085E5,8.45E4,6.71838E5,2.53246E5,6.44619E5,4.4272E4,1.96088E5,8.0709E5,9.019976E6,1.25987E5,8.93658E5,1.55896E5,1.09467E5,3.30773E5,9.3506E5,4.18054E5,4.9008E4,1.71184E5,2.9871E4,1.555E3,8.5587E4,9.0624E4,2.123E4,1.685E3,1.51682E5,3.23544E5,1.98232E5,2.3015E4,1.3143E4,6.58E4,3.9626E4,6.891E4],"tree_param":{"num_deleted":"0","num_feature":"9","num_nodes":"127","size_leaf_vector":"1"}},{"base_weights":[-4.2131735E-5,2.4282057E0,-8.861912E0,4.4847636E0,-8.2449665E0,-1.5495661E1,-3.0928254E0,1.0675203E1,2.0467315E0,-3.304704E0,-1.3655216E1,-1.0348277E1,-3.834715E1,1.0715125E-1,-1.9682137E1,3.8168862E0,1.5640377E1,-2.694435E0,1.0731547E1,-1.5211837E0,-1.9685617E1,-7.389218E0,-2.4395498E1,-1.3281777E0,-1.6924017E1,-3.0807606E1,-5.6557438E1,1.0568627E1,-3.6817055E0,-1.3442738E1,-3.6953156E1,-8.699118E0,6.1063128E0,2.4866642E1,6.81279E0,-7.228626E-1,-1.8467613E1,2.4921347E1,-3.1095055E-1,-1.240496E1,6.526191E-1,-5.288365E1,-1.6861973E1,-6.3981137E0,-2.8586506E1,-2.2707094E1,-9.019773E1,3.5493386E0,-2.4850931E1,-1.3430342E1,-4.082811E1,-4.5335724E1,-2.3121056E1,-6.5556694E1,-1.766546E1,1.1437429E1,-2.0654394E1,-1.2578775E1,-2.4900031E-1,-2.8425474E1,3.348184E0,-4.1189808E1,1.0859773E1,-8.629454E0,-2.0965562E0,4.385054E0,1.0196915E0,-1.0075713E0,9.871479E0,3.75918E0,-9.755202E-1,-4.3818617E0,3.272132E-1,-4.1451497E0,-9.2651415E0,-7.571072E-1,9.116146E0,1.758149E0,-5.430224E0,-6.2447157E0,-2.6170216E0,-5.1744556E0,7.066515E-1,-4.245253E0,-1.8710917E1,-1.6310238E1,-4.156402E0,-4.352646E0,-1.0823303E0,-1.8366528E1,-5.839006E0,-4.966192E0,-7.915399E0,-2.9684513E1,-1.5916304E1,2.083645E0,-3.1166642E0,-9.665317E0,-4.512365E0,-3.6326556E0,-1.3620389E1,-9.596583E0,-1.8959782E1,-8.149875E0,-1.5245236E1,-5.022459E0,-1.4178722E1,-2.4955826E1,-1.5782955E1,-8.0727215E0,5.7225475E0,6.4300456E0,2.653015E0,-1.2188136E1,-4.664516E0,-8.720642E0,-1.5404246E0,4.0126532E-1,-7.287476E0,-5.6072598E0,-1.2366339E1,-7.9373837E0,3.177826E0,-9.673739E0,-1.6345404E1,-3.7762523E0,1.0351822E1],"categories":[],"categories_nodes":[],"categories_segments":[],"categories_sizes":[],"default_left":[0,0,0,0,0,0,0,0,0,0,0,0,0,0,0,0,0,0,0,0,0,0,0,0,0,0,0,0,0,0,0,0,0,0,0,0,0,0,0,0,0,0,0,0,0,0,0,0,0,0,0,0,0,0,0,0,0,0,0,0,0,0,0,0,0,0,0,0,0,0,0,0,0,0,0,0,0,0,0,0,0,0,0,0,0,0,0,0,0,0,0,0,0,0,0,0,0,0,0,0,0,0,0,0,0,0,0,0,0,0,0,0,0,0,0,0,0,0,0,0,0,0,0,0,0,0,0],"id":8,"left_children":[1,3,5,7,9,11,13,15,17,19,21,23,25,27,29,31,33,35,37,39,41,43,45,47,49,51,53,55,57,59,61,63,65,67,69,71,73,75,77,79,81,83,85,87,89,91,93,95,97,99,101,103,105,107,109,111,113,115,117,119,121,123,125,-1,-1,-1,-1,-1,-1,-1,-1,-1,-1,-1,-1,-1,-1,-1,-1,-1,-1,-1,-1,-1,-1,-1,-1,-1,-1,-1,-1,-1,-1,-1,-1,-1,-1,-1,-1,-1,-1,-1,-1,-1,-1,-1,-1,-1,-1,-1,-1,-1,-1,-1,-1,-1,-1,-1,-1,-1,-1,-1,-1,-1,-1,-1,-1],"loss_changes":[1.0458439E9,8.373553E8,4.000452E8,4.827371E8,1.6472678E8,5.719127E8,2.967948E8,3.077564E8,9.448941E8,9.4117144E7,1.9796614E8,2.353743E8,1.2272422E8,1.8577216E8,9.742182E7,1.0875187E8,4.269673E8,4.616192E8,1.2697554E9,6.8733576E7,2.9649552E7,3.9029176E7,1.2041363E8,1.9196691E8,1.916722E8,7.059162E7,9.160198E7,3.380349E7,1.0508262E8,1.6707917E8,4.8601664E7,2.0144132E7,7.392448E7,5.8156736E8,1.5417227E8,3.3222352E8,9.523046E7,5.3199155E8,5.003271E8,1.4975728E7,7.381499E7,9.108976E6,3.2879176E7,4.016641E7,2.4705576E7,2.3911872E7,8.807568E6,6.5599308E7,2.0765392E7,8.460192E7,5.7872704E7,2.178416E7,6.3670016E7,4.850752E7,1.67035E7,3.1437456E7,3.439795E6,1.1758653E8,9.470544E7,4.371565E7,6.76241E7,2.6205632E7,1.0828675E7,0E0,0E0,0E0,0E0,0E0,0E0,0E0,0E0,0E0,0E0,0E0,0E0,0E0,0E0,0E0,0E0,0E0,0E0,0E0,0E0,0E0,0E0,0E0,0E0,0E0,0E0,0E0,0E0,0E0,0E0,0E0,0E0,0E0,0E0,0E0,0E0,0E0,0E0,0E0,0E0,0E0,0E0,0E0,0E0,0E0,0E0,0E0,0E0,0E0,0E0,0E0,0E0,0E0,0E0,0E0,0E0,0E0,0E0,0E0,0E0,0E0,0E0,0E0,0E0],"parents":[2147483647,0,0,1,1,2,2,3,3,4,4,5,5,6,6,7,7,8,8,9,9,10,10,11,11,12,12,13,13,14,14,15,15,16,16,17,17,18,18,19,19,20,20,21,21,22,22,23,23,24,24,25,25,26,26,27,27,28,28,29,29,30,30,31,31,32,32,33,33,34,34,35,35,36,36,37,37,38,38,39,39,40,40,41,41,42,42,43,43,44,44,45,45,46,46,47,47,48,48,49,49,50,50,51,51,52,52,53,53,54,54,55,55,56,56,57,57,58,58,59,59,60,60,61,61,62,62],"right_children":[2,4,6,8,10,12,14,16,18,20,22,24,26,28,30,32,34,36,38,40,42,44,46,48,50,52,54,56,58,60,62,64,66,68,70,72,74,76,78,80,82,84,86,88,90,92,94,96,98,100,102,104,106,108,110,112,114,116,118,120,122,124,126,-1,-1,-1,-1,-1,-1,-1,-1,-1,-1,-1,-1,-1,-1,-1,-1,-1,-1,-1,-1,-1,-1,-1,-1,-1,-1,-1,-1,-1,-1,-1,-1,-1,-1,-1,-1,-1,-1,-1,-1,-1,-1,-1,-1,-1,-1,-1,-1,-1,-1,-1,-1,-1,-1,-1,-1,-1,-1,-1,-1,-1,-1,-1,-1],"split_conditions":[4.771E1,1.6093E3,-1.35756E1,-9.75514E1,4.0267E1,-9.87588E1,9.3017E1,1.53E2,-1.35756E1,-9.808333E1,2.2799E3,5.08667E1,5.08667E1,5.41E1,3.9E1,2E0,2.57E2,4.023E2,1.036E2,6.1E1,-3.53766E1,-1.032108E2,-1.052255E2,1.1948E3,3.19E2,1.9E1,-5.35833E1,8.214E2,1.02E2,2.1E1,1.5593E2,1.3E1,3.734E2,-1.21285E2,1.0363E3,7E0,6.2E2,8.483E0,1.95362E1,4E0,-1.195333E2,1.1E1,-8.18033E1,-1.167644E2,1.9E1,4.13322E1,4.3E1,-1.0632E2,-1.1518481E2,6.92E1,6.24831E1,3E0,4.6E1,2.3E1,2.91E2,4.92167E1,1.2E1,4E0,4.267E2,5.628E1,5E1,5.628E1,4.6E1,-8.629454E0,-2.0965562E0,4.385054E0,1.0196915E0,-1.0075713E0,9.871479E0,3.75918E0,-9.755202E-1,-4.3818617E0,3.272132E-1,-4.1451497E0,-9.2651415E0,-7.571072E-1,9.116146E0,1.758149E0,-5.430224E0,-6.2447157E0,-2.6170216E0,-5.1744556E0,7.066515E-1,-4.245253E0,-1.8710917E1,-1.6310238E1,-4.156402E0,-4.352646E0,-1.0823303E0,-1.8366528E1,-5.839006E0,-4.966192E0,-7.915399E0,-2.9684513E1,-1.5916304E1,2.083645E0,-3.1166642E0,-9.665317E0,-4.512365E0,-3.6326556E0,-1.3620389E1,-9.596583E0,-1.8959782E1,-8.149875E0,-1.5245236E1,-5.022459E0,-1.4178722E1,-2.4955826E1,-1.5782955E1,-8.0727215E0,5.7225475E0,6.4300456E0,2.653015E0,-1.2188136E1,-4.664516E0,-8.720642E0,-1.5404246E0,4.0126532E-1,-7.287476E0,-5.6072598E0,-1.2366339E1,-7.9373837E0,3.177826E0,-9.673739E0,-1.6345404E1,-3.7762523E0,1.0351822E1],"split_indices":[6,8,7,7,6,7,7,4,7,7,8,6,6,6,3,0,4,8,7,4,6,7,7,8,4,3,7,8,4,3,7,4,8,7,8,3,8,6,6,0,7,3,7,7,7,6,3,7,7,6,6,0,3,3,4,6,3,0,8,6,8,6,3,0,0,0,0,0,0,0,0,0,0,0,0,0,0,0,0,0,0,0,0,0,0,0,0,0,0,0,0,0,0,0,0,0,0,0,0,0,0,0,0,0,0,0,0,0,0,0,0,0,0,0,0,0,0,0,0,0,0,0,0,0,0,0,0],"split_type":[0,0,0,0,0,0,0,0,0,0,0,0,0,0,0,0,0,0,0,0,0,0,0,0,0,0,0,0,0,0,0,0,0,0,0,0,0,0,0,0,0,0,0,0,0,0,0,0,0,0,0,0,0,0,0,0,0,0,0,0,0,0,0,0,0,0,0,0,0,0,0,0,0,0,0,0,0,0,0,0,0,0,0,0,0,0,0,0,0,0,0,0,0,0,0,0,0,0,0,0,0,0,0,0,0,0,0,0,0,0,0,0,0,0,0,0,0,0,0,0,0,0,0,0,0,0,0],"sum_hessian":[4.860136E7,3.814831E7,1.0453048E7,3.1985244E7,6.163069E6,4.862157E6,5.590891E6,9.037642E6,2.29476E7,3.221459E6,2.94161E6,3.968287E6,8.9387E5,4.686831E6,9.0406E5,3.795281E6,5.242361E6,1.4844031E7,8.10357E6,2.905153E6,3.16306E5,1.857769E6,1.083841E6,1.673166E6,2.295121E6,6.32147E5,2.61723E5,1.246127E6,3.440704E6,6.64134E5,2.39926E5,5.8688E5,3.208401E6,2.563297E6,2.679064E6,1.3194751E7,1.64928E6,3.546393E6,4.557177E6,4.83644E5,2.421509E6,2.4793E4,2.91513E5,1.774788E6,8.2981E4,1.056728E6,2.7113E4,1.385814E6,2.87352E5,2.002456E6,2.92665E5,2.18729E5,4.13418E5,2.12542E5,4.9181E4,1.212392E6,3.3735E4,9.57918E5,2.482786E6,3.50964E5,3.1317E5,2.20397E5,1.9529E4,4.61E4,5.4078E5,7.7432E5,2.434081E6,5.68189E5,1.995108E6,1.708461E6,9.70603E5,1.52448E6,1.1670271E7,1.199873E6,4.49407E5,5.88982E5,2.957411E6,3.383433E6,1.173744E6,1.47246E5,3.36398E5,2.10345E5,2.211164E6,4.878E3,1.9915E4,2.1638E4,2.69875E5,4.54292E5,1.320496E6,1.8128E4,6.4853E4,3.95314E5,6.61414E5,2.1942E4,5.171E3,1.114306E6,2.71508E5,1.64109E5,1.23243E5,1.922973E6,7.9483E4,2.09778E5,8.2887E4,5.0697E4,1.68032E5,3.27006E5,8.6412E4,8.9994E4,1.22548E5,3.9295E4,9.886E3,2.49798E5,9.62594E5,6.867E3,2.6868E4,2.97933E5,6.59985E5,2.329092E6,1.53694E5,1.99325E5,1.51639E5,6.1234E4,2.51936E5,1.3176E5,8.8637E4,9.806E3,9.723E3],"tree_param":{"num_deleted":"0","num_feature":"9","num_nodes":"127","size_leaf_vector":"1"}},{"base_weights":[-3.6439524E-5,2.0798686E0,-5.6291757E0,3.7249835E0,-4.6758194E0,-1.1420652E1,-3.2824693E0,9.152728E0,2.1296694E0,-3.0862164E0,-1.4284262E1,-5.9421124E0,-1.5289595E1,1.276128E0,-1.136201E1,-1.0194646E1,1.0275631E1,-1.114707E0,7.38088E0,-6.9752226E0,1.7124698E0,-1.2146193E1,-3.0175474E1,-3.9887914E-1,-1.7536806E1,-8.122373E0,-2.0041224E1,-2.5200458E0,9.180929E0,1.637147E0,-1.409352E1,-6.3359003E0,-3.0603968E1,5.0883374E0,1.4862584E1,6.3726926E-1,-1.2433068E1,1.5582124E1,8.595731E-2,-1.9186203E1,-4.7639117E0,9.869544E0,-4.1436343E0,-1.0230348E1,-3.4380466E1,-4.7940288E0,-3.455346E1,-1.0488814E1,8.953678E0,-3.1527416E1,-1.115919E1,-1.6468292E0,-1.5655136E1,-2.4167318E1,-6.283276E0,-1.3103181E1,1.6147987E0,1.4735961E1,-3.6032922E0,-9.161833E0,5.5527043E0,-1.1550289E1,-2.5712881E1,6.6641295E-1,-3.407211E0,-1.2954602E1,-5.5639076E0,-3.2449442E-1,3.0615032E0,7.4303555E0,2.385929E0,-2.0030944E0,1.5476731E0,-1.0326282E1,-3.184181E0,-1.410536E1,5.1627226E0,1.2297482E0,-4.0677304E0,-7.477115E0,-3.4543622E0,-5.0794154E-1,-3.0630162E0,-1.4402589E1,3.304305E0,-6.3752276E-1,-4.335056E0,-4.62837E0,-7.8481334E-1,-1.8800024E1,-7.978626E0,-1.028739E1,-7.0555735E-1,-1.9581974E1,-9.19493E0,8.0815846E-1,-1.001244E1,6.00917E0,-1.8784733E-1,-1.0624529E1,-5.7649035E0,-4.390302E0,2.8467506E-1,-2.6690774E0,4.944977E0,-9.322068E0,-4.1008415E0,-9.486121E0,-4.9108644E0,-7.271054E0,-6.2021446E-1,-5.4714055E0,8.700483E-1,1.6398362E0,-4.4766283E0,6.3794956E0,1.9097362E-1,-2.8380644E-1,-1.0594236E1,-5.6727233E0,-1.0075996E0,5.354745E0,4.9293604E-1,-4.7116284E0,-4.2978865E-1,-6.3241806E0,-1.038343E1],"categories":[],"categories_nodes":[],"categories_segments":[],"categories_sizes":[],"default_left":[0,0,0,0,0,0,0,0,0,0,0,0,0,0,0,0,0,0,0,0,0,0,0,0,0,0,0,0,0,0,0,0,0,0,0,0,0,0,0,0,0,0,0,0,0,0,0,0,0,0,0,0,0,0,0,0,0,0,0,0,0,0,0,0,0,0,0,0,0,0,0,0,0,0,0,0,0,0,0,0,0,0,0,0,0,0,0,0,0,0,0,0,0,0,0,0,0,0,0,0,0,0,0,0,0,0,0,0,0,0,0,0,0,0,0,0,0,0,0,0,0,0,0,0,0,0,0],"id":9,"left_children":[1,3,5,7,9,11,13,15,17,19,21,23,25,27,29,31,33,35,37,39,41,43,45,47,49,51,53,55,57,59,61,63,65,67,69,71,73,75,77,79,81,83,85,87,89,91,93,95,97,99,101,103,105,107,109,111,113,115,117,119,121,123,125,-1,-1,-1,-1,-1,-1,-1,-1,-1,-1,-1,-1,-1,-1,-1,-1,-1,-1,-1,-1,-1,-1,-1,-1,-1,-1,-1,-1,-1,-1,-1,-1,-1,-1,-1,-1,-1,-1,-1,-1,-1,-1,-1,-1,-1,-1,-1,-1,-1,-1,-1,-1,-1,-1,-1,-1,-1,-1,-1,-1,-1,-1,-1,-1],"loss_changes":[5.6902835E8,3.9441702E8,1.78213E8,2.4711792E8,1.0614675E8,8.01455E7,3.4369344E8,1.408391E8,3.7577034E8,1.1128517E8,3.3518592E7,1.0058731E8,7.547184E7,1.790169E8,1.1951424E8,2.8005884E7,1.4578797E8,2.7033962E8,5.0392995E8,8.893938E7,1.2751284E8,3.7039944E7,1.2999816E7,9.991744E7,4.5166576E7,4.30955E7,7.564861E7,1.7635978E8,1.3744917E8,2.4713538E7,8.219328E7,1.2851095E7,8.574728E6,9.077577E7,2.2254925E8,3.904457E8,7.309443E7,4.0384544E8,2.4411354E8,2.2228832E7,4.663878E7,7.391495E7,3.2326806E7,3.1682824E7,1.518864E7,1.2398266E6,1.1963672E7,1.5366478E8,5.8308908E7,7.585376E6,1.463056E7,6.244762E7,1.2503256E7,5.9579776E7,2.3271482E7,9.304102E7,1.8456787E8,1.2420013E8,4.9400308E7,8.797304E6,2.0620728E7,9.59345E7,2.0587808E7,0E0,0E0,0E0,0E0,0E0,0E0,0E0,0E0,0E0,0E0,0E0,0E0,0E0,0E0,0E0,0E0,0E0,0E0,0E0,0E0,0E0,0E0,0E0,0E0,0E0,0E0,0E0,0E0,0E0,0E0,0E0,0E0,0E0,0E0,0E0,0E0,0E0,0E0,0E0,0E0,0E0,0E0,0E0,0E0,0E0,0E0,0E0,0E0,0E0,0E0,0E0,0E0,0E0,0E0,0E0,0E0,0E0,0E0,0E0,0E0,0E0,0E0,0E0,0E0],"parents":[2147483647,0,0,1,1,2,2,3,3,4,4,5,5,6,6,7,7,8,8,9,9,10,10,11,11,12,12,13,13,14,14,15,15,16,16,17,17,18,18,19,19,20,20,21,21,22,22,23,23,24,24,25,25,26,26,27,27,28,28,29,29,30,30,31,31,32,32,33,33,34,34,35,35,36,36,37,37,38,38,39,39,40,40,41,41,42,42,43,43,44,44,45,45,46,46,47,47,48,48,49,49,50,50,51,51,52,52,53,53,54,54,55,55,56,56,57,57,58,58,59,59,60,60,61,61,62,62],"right_children":[2,4,6,8,10,12,14,16,18,20,22,24,26,28,30,32,34,36,38,40,42,44,46,48,50,52,54,56,58,60,62,64,66,68,70,72,74,76,78,80,82,84,86,88,90,92,94,96,98,100,102,104,106,108,110,112,114,116,118,120,122,124,126,-1,-1,-1,-1,-1,-1,-1,-1,-1,-1,-1,-1,-1,-1,-1,-1,-1,-1,-1,-1,-1,-1,-1,-1,-1,-1,-1,-1,-1,-1,-1,-1,-1,-1,-1,-1,-1,-1,-1,-1,-1,-1,-1,-1,-1,-1,-1,-1,-1,-1,-1,-1,-1,-1,-1,-1,-1,-1,-1,-1,-1,-1,-1,-1],"split_conditions":[4.58667E1,1.4444E3,1.06E2,-9.808333E1,3.14E2,1.59E2,2.71E2,-1.236011E2,-6.95456E1,1.73E2,3.6E2,2.42642E1,-1.1137181E2,1.526E1,2.74E1,6.895E2,1.71E2,3.17E2,1.036E2,2E0,2.32E2,1.2E1,-1.1732141E2,-1.35756E1,4E0,7E0,1E0,1.04E2,6.24831E1,2.96E2,3.2567E1,1.34E2,4.0267E1,-1.164194E2,2.51E2,5E0,1E0,-4.28339E1,2.47E1,-1.094667E2,9E0,8.483E0,2.7432E3,7E0,3.24E2,1E0,2E0,-1.189208E2,1.06864E1,8.2E1,1E0,5E0,1.3E1,-5.8762E1,4E0,4.206E0,1.0363E3,8.8083E1,7.07667E1,-1.35756E1,-1.217175E2,-5.8762E1,5.685E1,6.6641295E-1,-3.407211E0,-1.2954602E1,-5.5639076E0,-3.2449442E-1,3.0615032E0,7.4303555E0,2.385929E0,-2.0030944E0,1.5476731E0,-1.0326282E1,-3.184181E0,-1.410536E1,5.1627226E0,1.2297482E0,-4.0677304E0,-7.477115E0,-3.4543622E0,-5.0794154E-1,-3.0630162E0,-1.4402589E1,3.304305E0,-6.3752276E-1,-4.335056E0,-4.62837E0,-7.8481334E-1,-1.8800024E1,-7.978626E0,-1.028739E1,-7.0555735E-1,-1.9581974E1,-9.19493E0,8.0815846E-1,-1.001244E1,6.00917E0,-1.8784733E-1,-1.0624529E1,-5.7649035E0,-4.390302E0,2.8467506E-1,-2.6690774E0,4.944977E0,-9.322068E0,-4.1008415E0,-9.486121E0,-4.9108644E0,-7.271054E0,-6.2021446E-1,-5.4714055E0,8.700483E-1,1.6398362E0,-4.4766283E0,6.3794956E0,1.9097362E-1,-2.8380644E-1,-1.0594236E1,-5.6727233E0,-1.0075996E0,5.354745E0,4.9293604E-1,-4.7116284E0,-4.2978865E-1,-6.3241806E0,-1.038343E1],"split_indices":[6,8,4,7,4,8,4,7,7,4,4,7,7,7,8,8,4,4,7,0,4,0,7,7,0,0,5,8,6,4,7,4,6,7,4,2,0,6,6,7,0,6,8,0,4,0,3,7,7,4,5,0,4,7,3,7,8,7,6,7,7,7,6,0,0,0,0,0,0,0,0,0,0,0,0,0,0,0,0,0,0,0,0,0,0,0,0,0,0,0,0,0,0,0,0,0,0,0,0,0,0,0,0,0,0,0,0,0,0,0,0,0,0,0,0,0,0,0,0,0,0,0,0,0,0,0,0],"split_type":[0,0,0,0,0,0,0,0,0,0,0,0,0,0,0,0,0,0,0,0,0,0,0,0,0,0,0,0,0,0,0,0,0,0,0,0,0,0,0,0,0,0,0,0,0,0,0,0,0,0,0,0,0,0,0,0,0,0,0,0,0,0,0,0,0,0,0,0,0,0,0,0,0,0,0,0,0,0,0,0,0,0,0,0,0,0,0,0,0,0,0,0,0,0,0,0,0,0,0,0,0,0,0,0,0,0,0,0,0,0,0,0,0,0,0,0,0,0,0,0,0,0,0,0,0,0,0],"sum_hessian":[4.860136E7,3.5488684E7,1.3112677E7,2.8538996E7,6.949688E6,3.781138E6,9.331539E6,6.482738E6,2.2056256E7,5.963156E6,9.86532E5,1.565022E6,2.216116E6,5.965638E6,3.365901E6,3.55612E5,6.127126E6,1.3633202E7,8.423055E6,3.293776E6,2.66938E6,8.69542E5,1.1699E5,1.058819E6,5.06203E5,8.83489E5,1.332627E6,4.030193E6,1.935445E6,5.84463E5,2.781438E6,2.99069E5,5.6543E4,2.875398E6,3.251728E6,1.1805779E7,1.827423E6,3.965208E6,4.457847E6,5.0502E5,2.788756E6,1.115533E6,1.553847E6,8.00562E5,6.898E4,1.7211E4,9.9779E4,5.09331E5,5.49488E5,1.58499E5,3.47704E5,4.75084E5,4.08405E5,1.025171E6,3.07456E5,1.132235E6,2.897958E6,1.349191E6,5.86254E5,1.55526E5,4.28937E5,2.281966E6,4.99472E5,1.10597E5,1.88472E5,2.7673E4,2.887E4,1.303528E6,1.57187E6,1.336193E6,1.915535E6,4.510137E6,7.295642E6,1.39635E5,1.687788E6,1.00443E5,3.864765E6,3.44471E6,1.013137E6,2.88931E5,2.16089E5,1.783271E6,1.005485E6,2.1636E4,1.093897E6,1.299365E6,2.54482E5,4.75787E5,3.24775E5,1.4886E4,5.4094E4,1.315E3,1.5896E4,1.1248E4,8.8531E4,3.23177E5,1.86154E5,2.54832E5,2.94656E5,1.20458E5,3.8041E4,2.70164E5,7.754E4,3.39372E5,1.35712E5,4.6594E4,3.61811E5,5.24169E5,5.01002E5,5.8467E4,2.48989E5,8.57195E5,2.7504E5,2.350536E6,5.47422E5,9.22163E5,4.27028E5,5.40927E5,4.5327E4,5.8039E4,9.7487E4,1.03477E5,3.2546E5,1.617633E6,6.64333E5,3.2848E5,1.70992E5],"tree_param":{"num_deleted":"0","num_feature":"9","num_nodes":"127","size_leaf_vector":"1"}},{"base_weights":[-2.8871307E-5,4.50448E0,-1.6298914E0,6.315868E0,-3.5329762E0,-7.22017E-1,-1.0021226E1,-9.327819E0,7.087862E0,9.557244E-1,-2.3576542E1,-4.056174E0,2.7800143E0,5.3202424E0,-1.282985E1,-1.5286509E1,1.2775798E1,3.428504E1,6.1637287E0,-1.0890632E1,3.2765126E0,-1.5218789E1,-2.9306055E1,-5.630798E0,1.1586943E0,9.890428E0,-1.7568966E0,1.1188303E1,-3.5522434E1,-3.462884E1,-1.1023031E1,7.3848176E0,-2.5893929E1,-9.432896E0,2.4122622E1,9.199248E0,4.081823E1,-1.5059249E0,7.75096E0,-2.3905349E0,-2.1784063E1,4.859281E0,-1.0150145E1,1.0417203E1,-1.7146801E1,-3.6431515E1,-2.4320473E1,-9.497289E0,-3.0218396E0,-1.1526786E1,2.9267662E0,2.320087E0,1.2397557E1,-4.9003482E-1,-8.692558E0,1.8131891E1,2.9773219E0,-2.6831272E1,-7.536785E1,-4.4152584E1,-8.144607E0,-1.7577759E1,-4.189311E0,4.31983E0,1.5794948E-2,-1.8405693E0,-1.0787502E1,-1.1066893E1,-2.1564887E0,2.4365356E0,8.094151E0,-2.0136366E0,1.1170069E1,6.722075E0,1.4603086E1,-4.8499096E1,-3.7184238E-1,-3.9181283E-1,2.681909E0,-9.727922E0,6.3244784E-1,-1.5135603E0,-7.3426733E0,-2.0126958E0,2.2413132E0,8.72284E0,-4.5357785E0,-4.957898E0,1.0315802E1,-4.5631065E0,-9.336559E0,-1.4404948E1,-3.2618728E0,-1.0672302E1,-4.9479866E0,-4.6097174E0,-2.2613132E0,-5.0078444E0,-7.344136E-1,2.914592E-1,-7.4451146E0,2.1799722E0,-2.9938143E-1,1.5768784E-1,5.6560435E0,5.2807647E-1,4.2341995E0,8.6438483E-1,-1.2141197E0,-1.5451738E0,-5.620256E0,6.587419E0,-1.3560452E0,1.2340887E0,-9.752973E0,-1.664163E1,-4.058417E0,-1.7623999E1,-2.7776295E1,-1.1710846E1,-2.060671E1,-9.368751E-1,-2.8254402E1,-4.9315195E0,-2.9343828E1,3.9270845E-1,-5.5761447E0],"categories":[],"categories_nodes":[],"categories_segments":[],"categories_sizes":[],"default_left":[0,0,0,0,0,0,0,0,0,0,0,0,0,0,0,0,0,0,0,0,0,0,0,0,0,0,0,0,0,0,0,0,0,0,0,0,0,0,0,0,0,0,0,0,0,0,0,0,0,0,0,0,0,0,0,0,0,0,0,0,0,0,0,0,0,0,0,0,0,0,0,0,0,0,0,0,0,0,0,0,0,0,0,0,0,0,0,0,0,0,0,0,0,0,0,0,0,0,0,0,0,0,0,0,0,0,0,0,0,0,0,0,0,0,0,0,0,0,0,0,0,0,0,0,0,0,0],"id":10,"left_children":[1,3,5,7,9,11,13,15,17,19,21,23,25,27,29,31,33,35,37,39,41,43,45,47,49,51,53,55,57,59,61,63,65,67,69,71,73,75,77,79,81,83,85,87,89,91,93,95,97,99,101,103,105,107,109,111,113,115,117,119,121,123,125,-1,-1,-1,-1,-1,-1,-1,-1,-1,-1,-1,-1,-1,-1,-1,-1,-1,-1,-1,-1,-1,-1,-1,-1,-1,-1,-1,-1,-1,-1,-1,-1,-1,-1,-1,-1,-1,-1,-1,-1,-1,-1,-1,-1,-1,-1,-1,-1,-1,-1,-1,-1,-1,-1,-1,-1,-1,-1,-1,-1,-1,-1,-1,-1],"loss_changes":[3.5681805E8,1.8800074E8,2.718834E8,1.2726701E8,2.1367387E8,3.7602515E8,1.5012954E8,6.5272996E7,2.5240678E8,5.334747E7,2.0808288E7,1.3546813E8,5.0668496E8,1.2922038E8,1.1599613E8,9.387421E7,2.6518494E7,5.4086816E7,1.1823533E8,2.9433004E7,3.4481156E7,8.735812E6,9.157696E6,1.2782237E8,8.581506E7,1.1612051E8,8.424978E7,2.6878008E7,2.3454128E7,5.685661E7,1.2182122E8,6.399417E6,5.288272E7,2.192818E6,3.184676E6,3.0417822E7,3.788307E7,7.1067304E7,8.663882E7,2.4126002E7,6.27664E6,4.385332E7,3.335124E7,7.9846445E6,4.447916E6,3.1423248E7,1.3360672E7,5.870896E7,5.9350656E7,7.774406E7,5.7196104E7,4.5158384E7,8.391526E7,9.722532E7,5.267235E7,2.2138296E7,8.710361E6,2.1185972E7,3.465752E6,2.081136E7,2.5759382E7,1.2689878E8,1.0540597E8,0E0,0E0,0E0,0E0,0E0,0E0,0E0,0E0,0E0,0E0,0E0,0E0,0E0,0E0,0E0,0E0,0E0,0E0,0E0,0E0,0E0,0E0,0E0,0E0,0E0,0E0,0E0,0E0,0E0,0E0,0E0,0E0,0E0,0E0,0E0,0E0,0E0,0E0,0E0,0E0,0E0,0E0,0E0,0E0,0E0,0E0,0E0,0E0,0E0,0E0,0E0,0E0,0E0,0E0,0E0,0E0,0E0,0E0,0E0,0E0,0E0,0E0,0E0,0E0],"parents":[2147483647,0,0,1,1,2,2,3,3,4,4,5,5,6,6,7,7,8,8,9,9,10,10,11,11,12,12,13,13,14,14,15,15,16,16,17,17,18,18,19,19,20,20,21,21,22,22,23,23,24,24,25,25,26,26,27,27,28,28,29,29,30,30,31,31,32,32,33,33,34,34,35,35,36,36,37,37,38,38,39,39,40,40,41,41,42,42,43,43,44,44,45,45,46,46,47,47,48,48,49,49,50,50,51,51,52,52,53,53,54,54,55,55,56,56,57,57,58,58,59,59,60,60,61,61,62,62],"right_children":[2,4,6,8,10,12,14,16,18,20,22,24,26,28,30,32,34,36,38,40,42,44,46,48,50,52,54,56,58,60,62,64,66,68,70,72,74,76,78,80,82,84,86,88,90,92,94,96,98,100,102,104,106,108,110,112,114,116,118,120,122,124,126,-1,-1,-1,-1,-1,-1,-1,-1,-1,-1,-1,-1,-1,-1,-1,-1,-1,-1,-1,-1,-1,-1,-1,-1,-1,-1,-1,-1,-1,-1,-1,-1,-1,-1,-1,-1,-1,-1,-1,-1,-1,-1,-1,-1,-1,-1,-1,-1,-1,-1,-1,-1,-1,-1,-1,-1,-1,-1,-1,-1,-1,-1,-1,-1],"split_conditions":[3.498953E1,6.34E2,4.8E1,-1.170814E2,7.1383E1,2.5E1,-1.185506E2,4.2E1,-1.0127683E2,-1.1607E2,2.2E1,1E0,2.32E2,6.15E1,1E0,9.2E1,2.2767E1,-1.164194E2,-3.15389E1,1.1649E3,3.27E2,7.825E1,3.5E1,5E0,4E0,1.85E2,5.45667E1,6.44E2,-1.41006E2,9.754E2,-8.67072E1,4.8E1,2.88147E1,-2.2983E1,2.99E2,3.32547E1,1.09E2,1.5E0,7E0,-1.1996E2,5E1,6.1E1,-2.0233E1,1.1E1,3.3162E3,1.81747E1,1.208436E2,7E0,2E0,1.3E1,1.4E1,3.51E1,5E1,-9.50167E1,2.43E2,5.81E1,5.41E1,4E0,3.48E2,5.5617E1,3.64E2,5.5617E1,2.63714E1,4.31983E0,1.5794948E-2,-1.8405693E0,-1.0787502E1,-1.1066893E1,-2.1564887E0,2.4365356E0,8.094151E0,-2.0136366E0,1.1170069E1,6.722075E0,1.4603086E1,-4.8499096E1,-3.7184238E-1,-3.9181283E-1,2.681909E0,-9.727922E0,6.3244784E-1,-1.5135603E0,-7.3426733E0,-2.0126958E0,2.2413132E0,8.72284E0,-4.5357785E0,-4.957898E0,1.0315802E1,-4.5631065E0,-9.336559E0,-1.4404948E1,-3.2618728E0,-1.0672302E1,-4.9479866E0,-4.6097174E0,-2.2613132E0,-5.0078444E0,-7.344136E-1,2.914592E-1,-7.4451146E0,2.1799722E0,-2.9938143E-1,1.5768784E-1,5.6560435E0,5.2807647E-1,4.2341995E0,8.6438483E-1,-1.2141197E0,-1.5451738E0,-5.620256E0,6.587419E0,-1.3560452E0,1.2340887E0,-9.752973E0,-1.664163E1,-4.058417E0,-1.7623999E1,-2.7776295E1,-1.1710846E1,-2.060671E1,-9.368751E-1,-2.8254402E1,-4.9315195E0,-2.9343828E1,3.9270845E-1,-5.5761447E0],"split_indices":[6,8,3,7,7,3,7,3,7,7,3,5,4,6,0,4,6,7,6,8,4,7,3,0,3,4,6,8,7,8,7,4,6,6,4,6,4,8,3,7,4,4,6,3,8,6,7,3,3,4,3,7,8,7,8,6,6,0,4,6,4,6,7,0,0,0,0,0,0,0,0,0,0,0,0,0,0,0,0,0,0,0,0,0,0,0,0,0,0,0,0,0,0,0,0,0,0,0,0,0,0,0,0,0,0,0,0,0,0,0,0,0,0,0,0,0,0,0,0,0,0,0,0,0,0,0,0],"split_type":[0,0,0,0,0,0,0,0,0,0,0,0,0,0,0,0,0,0,0,0,0,0,0,0,0,0,0,0,0,0,0,0,0,0,0,0,0,0,0,0,0,0,0,0,0,0,0,0,0,0,0,0,0,0,0,0,0,0,0,0,0,0,0,0,0,0,0,0,0,0,0,0,0,0,0,0,0,0,0,0,0,0,0,0,0,0,0,0,0,0,0,0,0,0,0,0,0,0,0,0,0,0,0,0,0,0,0,0,0,0,0,0,0,0,0,0,0,0,0,0,0,0,0,0,0,0,0],"sum_hessian":[4.860136E7,1.2913065E7,3.5688296E7,1.0538109E7,2.374956E6,3.2204076E7,3.484219E6,4.95584E5,1.0042525E7,1.940408E6,4.34548E5,1.6497451E7,1.5706625E7,5.39163E5,2.945056E6,3.90353E5,1.05231E5,3.3002E5,9.712505E6,3.17867E5,1.622541E6,1.76739E5,2.57809E5,1.267135E7,3.826101E6,6.118105E6,9.58852E6,4.71431E5,6.7732E4,2.25417E5,2.719639E6,1.24423E5,2.6593E5,3.5584E4,6.9647E4,6.819E4,2.6183E5,1.665354E6,8.047151E6,1.78548E5,1.39319E5,1.451442E6,1.71099E5,1.2362E4,1.64377E5,1.06126E5,1.51683E5,5.105285E6,7.566065E6,4.68038E5,3.358063E6,1.522097E6,4.596008E6,8.107595E6,1.480925E6,2.55428E5,2.16003E5,5.5605E4,1.2127E4,1.65796E5,5.9621E4,1.388155E6,1.331484E6,6.3588E4,6.0835E4,8.9744E4,1.76186E5,2.688E3,3.2896E4,1.0555E4,5.9092E4,4.3501E4,2.4689E4,7.8328E4,1.83502E5,2.765E3,1.662589E6,9.33651E5,7.1135E6,2.3258E4,1.5529E5,1.9299E4,1.2002E5,2.67335E5,1.184107E6,1.9237E4,1.51862E5,5.82E3,6.542E3,1.44374E5,2.0003E4,7.3025E4,3.3101E4,6.222E4,8.9463E4,1.277999E6,3.827286E6,3.04768E5,7.261297E6,2.41206E5,2.26832E5,1.594698E6,1.763365E6,1.373071E6,1.49026E5,6.38574E5,3.957434E6,4.162459E6,3.945136E6,1.094769E6,3.86156E5,2.18518E5,3.691E4,2.09302E5,6.701E3,1.7635E4,3.797E4,6.173E3,5.954E3,1.37191E5,2.8605E4,5.6334E4,3.287E3,1.36872E6,1.9435E4,9.63527E5,3.67957E5],"tree_param":{"num_deleted":"0","num_feature":"9","num_nodes":"127","size_leaf_vector":"1"}},{"base_weights":[-2.537816E-5,1.0783033E0,-4.4378686E0,1.8657322E0,-6.663729E0,-8.851011E0,-1.1285715E0,4.6001368E0,2.4803764E-1,-1.0776793E0,-1.3230235E1,-4.4095182E0,-2.4399792E1,-2.2456777E-1,-2.1635199E1,7.3355784E0,5.408361E-1,-2.5860524E0,4.9020214E0,5.280875E-1,-1.6110601E1,-1.21788025E1,-4.594768E1,2.1774125E0,-7.388555E0,-1.9184992E1,-3.7672997E1,5.205941E0,-2.9822607E0,-1.4018029E1,-3.6437576E1,-1.2242675E0,9.006215E0,-9.757313E0,4.1420054E0,-5.7958835E-1,-1.2511293E1,1.2589801E1,-3.9247766E-1,-1.4836381E1,1.4458007E0,-2.2979543E0,-1.9116428E1,-1.0626098E1,-1.944619E1,-6.005309E1,-2.6475237E1,6.4490185E0,-1.28891945E1,-6.4538918E0,-2.941599E1,-1.7044102E1,-4.957492E1,-4.62614E1,-4.7309847E0,2.7114558E0,1.5850747E1,-1.1418577E1,2.7116603E-1,-7.989762E0,-2.1673714E1,-3.222414E1,-4.7033703E1,1.3918028E0,-2.8603415E0,3.2956686E0,-2.2144745E-1,-1.8897492E0,-7.912973E0,2.0627925E0,-1.207888E0,1.1666467E0,-9.502404E-1,-3.2100642E0,-1.0434374E1,-2.389883E0,4.927813E0,5.238054E-1,-4.192852E0,-6.1917386E0,9.9652046E-1,-2.9214401E0,7.955771E-1,-2.0060177E1,4.0686563E-1,-4.5797577E0,-8.253521E0,-1.8744267E0,-4.0561123E0,-4.847207E0,-8.774312E0,-2.056791E1,-7.885432E0,-1.0147989E1,-6.54852E0,7.800374E-1,3.1464942E0,-8.421953E0,-2.5014029E0,-1.4533302E0,-4.5750346E0,-8.154405E0,-1.8837809E1,-8.244962E0,-2.9803252E0,-1.688396E1,-7.1678367E0,-1.7767672E1,-1.1041489E1,6.385548E0,-4.121564E0,3.2835042E0,-8.2782847E-1,-6.331681E0,5.6845713E0,-6.942118E0,-1.8211392E0,1.7861576E0,-2.9033842E0,-1.937683E0,-1.2004327E1,-8.125614E0,-3.2778673E0,-1.1024159E1,-3.9761658E0,-2.2864815E1,-1.1694799E1],"categories":[],"categories_nodes":[],"categories_segments":[],"categories_sizes":[],"default_left":[0,0,0,0,0,0,0,0,0,0,0,0,0,0,0,0,0,0,0,0,0,0,0,0,0,0,0,0,0,0,0,0,0,0,0,0,0,0,0,0,0,0,0,0,0,0,0,0,0,0,0,0,0,0,0,0,0,0,0,0,0,0,0,0,0,0,0,0,0,0,0,0,0,0,0,0,0,0,0,0,0,0,0,0,0,0,0,0,0,0,0,0,0,0,0,0,0,0,0,0,0,0,0,0,0,0,0,0,0,0,0,0,0,0,0,0,0,0,0,0,0,0,0,0,0,0,0],"id":11,"left_children":[1,3,5,7,9,11,13,15,17,19,21,23,25,27,29,31,33,35,37,39,41,43,45,47,49,51,53,55,57,59,61,63,65,67,69,71,73,75,77,79,81,83,85,87,89,91,93,95,97,99,101,103,105,107,109,111,113,115,117,119,121,123,125,-1,-1,-1,-1,-1,-1,-1,-1,-1,-1,-1,-1,-1,-1,-1,-1,-1,-1,-1,-1,-1,-1,-1,-1,-1,-1,-1,-1,-1,-1,-1,-1,-1,-1,-1,-1,-1,-1,-1,-1,-1,-1,-1,-1,-1,-1,-1,-1,-1,-1,-1,-1,-1,-1,-1,-1,-1,-1,-1,-1,-1,-1,-1,-1],"loss_changes":[2.3257958E8,2.3836851E8,1.3875402E8,1.569912E8,1.324071E8,2.8116944E8,1.0065139E8,1.4648474E8,2.941159E8,4.708312E7,5.7077664E7,6.2141228E7,6.261261E7,7.787655E7,2.5847144E7,1.1270419E8,1.9695686E8,2.7599882E8,3.4351792E8,2.4847842E7,7.81522E6,1.8139888E7,1.418824E7,6.3470996E7,4.4894416E7,4.225285E7,7.21872E7,4.6504612E7,9.465993E7,6.985076E6,3.475784E6,6.2712668E7,1.2718541E8,7.908116E7,8.78738E7,1.333124E8,9.399802E7,2.714213E8,1.4517773E8,1.046564E7,2.2431364E7,7.9380695E6,4.997096E6,1.6783904E7,9.122184E6,8.604032E6,7.40686E5,1.1945606E7,1.5053836E7,2.961436E7,6.618456E6,4.5028464E7,7.358368E6,2.4809376E7,1.2365582E7,6.3912976E7,3.806595E7,6.017316E7,1.4072104E8,4.1511385E6,3.877816E6,4.781352E6,5.202776E6,0E0,0E0,0E0,0E0,0E0,0E0,0E0,0E0,0E0,0E0,0E0,0E0,0E0,0E0,0E0,0E0,0E0,0E0,0E0,0E0,0E0,0E0,0E0,0E0,0E0,0E0,0E0,0E0,0E0,0E0,0E0,0E0,0E0,0E0,0E0,0E0,0E0,0E0,0E0,0E0,0E0,0E0,0E0,0E0,0E0,0E0,0E0,0E0,0E0,0E0,0E0,0E0,0E0,0E0,0E0,0E0,0E0,0E0,0E0,0E0,0E0,0E0,0E0,0E0],"parents":[2147483647,0,0,1,1,2,2,3,3,4,4,5,5,6,6,7,7,8,8,9,9,10,10,11,11,12,12,13,13,14,14,15,15,16,16,17,17,18,18,19,19,20,20,21,21,22,22,23,23,24,24,25,25,26,26,27,27,28,28,29,29,30,30,31,31,32,32,33,33,34,34,35,35,36,36,37,37,38,38,39,39,40,40,41,41,42,42,43,43,44,44,45,45,46,46,47,47,48,48,49,49,50,50,51,51,52,52,53,53,54,54,55,55,56,56,57,57,58,58,59,59,60,60,61,61,62,62],"right_children":[2,4,6,8,10,12,14,16,18,20,22,24,26,28,30,32,34,36,38,40,42,44,46,48,50,52,54,56,58,60,62,64,66,68,70,72,74,76,78,80,82,84,86,88,90,92,94,96,98,100,102,104,106,108,110,112,114,116,118,120,122,124,126,-1,-1,-1,-1,-1,-1,-1,-1,-1,-1,-1,-1,-1,-1,-1,-1,-1,-1,-1,-1,-1,-1,-1,-1,-1,-1,-1,-1,-1,-1,-1,-1,-1,-1,-1,-1,-1,-1,-1,-1,-1,-1,-1,-1,-1,-1,-1,-1,-1,-1,-1,-1,-1,-1,-1,-1,-1,-1,-1,-1,-1,-1,-1,-1],"split_conditions":[4.85133E1,2.0528E3,-1.35756E1,-9.562602E1,3.99919E1,-1.052255E2,7.343E2,1.136E3,-1.35756E1,3.3162E3,-1.0387177E2,5.08667E1,5.41E1,1.787E1,5.52E1,6E1,-1.1793545E2,3.475E2,8.8083E1,-1.197669E2,2.987643E1,2.8142E3,2.63714E1,1.0604E3,6.92E1,3.42E2,-5.8762E1,2.96E2,1.02E2,1.0851E3,2.42642E1,-1.0226085E2,3.14E2,4.512794E1,4E1,3.61562E1,8.55E2,8.483E0,4.98E2,2.78E2,3.37187E1,-4.28339E1,-1.054799E2,4.18978E1,4.33208E1,4.2E1,4.375477E1,1.88E2,-1.205028E2,4.5E1,3.44E2,1.39E2,-6.7367E1,2.3E1,9.6E1,1.8E1,1E0,4E0,2.67E2,1.23783E2,1.00983E2,2.96E2,7.9E1,1.3918028E0,-2.8603415E0,3.2956686E0,-2.2144745E-1,-1.8897492E0,-7.912973E0,2.0627925E0,-1.207888E0,1.1666467E0,-9.502404E-1,-3.2100642E0,-1.0434374E1,-2.389883E0,4.927813E0,5.238054E-1,-4.192852E0,-6.1917386E0,9.9652046E-1,-2.9214401E0,7.955771E-1,-2.0060177E1,4.0686563E-1,-4.5797577E0,-8.253521E0,-1.8744267E0,-4.0561123E0,-4.847207E0,-8.774312E0,-2.056791E1,-7.885432E0,-1.0147989E1,-6.54852E0,7.800374E-1,3.1464942E0,-8.421953E0,-2.5014029E0,-1.4533302E0,-4.5750346E0,-8.154405E0,-1.8837809E1,-8.244962E0,-2.9803252E0,-1.688396E1,-7.1678367E0,-1.7767672E1,-1.1041489E1,6.385548E0,-4.121564E0,3.2835042E0,-8.2782847E-1,-6.331681E0,5.6845713E0,-6.942118E0,-1.8211392E0,1.7861576E0,-2.9033842E0,-1.937683E0,-1.2004327E1,-8.125614E0,-3.2778673E0,-1.1024159E1,-3.9761658E0,-2.2864815E1,-1.1694799E1],"split_indices":[6,8,7,7,6,7,8,8,7,8,7,6,6,7,6,4,7,8,7,7,6,8,7,8,6,4,7,4,4,8,7,7,4,6,3,6,8,6,8,4,6,6,7,6,6,3,6,4,7,3,4,4,7,3,4,3,0,0,4,7,7,4,4,0,0,0,0,0,0,0,0,0,0,0,0,0,0,0,0,0,0,0,0,0,0,0,0,0,0,0,0,0,0,0,0,0,0,0,0,0,0,0,0,0,0,0,0,0,0,0,0,0,0,0,0,0,0,0,0,0,0,0,0,0,0,0,0],"split_type":[0,0,0,0,0,0,0,0,0,0,0,0,0,0,0,0,0,0,0,0,0,0,0,0,0,0,0,0,0,0,0,0,0,0,0,0,0,0,0,0,0,0,0,0,0,0,0,0,0,0,0,0,0,0,0,0,0,0,0,0,0,0,0,0,0,0,0,0,0,0,0,0,0,0,0,0,0,0,0,0,0,0,0,0,0,0,0,0,0,0,0,0,0,0,0,0,0,0,0,0,0,0,0,0,0,0,0,0,0,0,0,0,0,0,0,0,0,0,0,0,0,0,0,0,0,0,0],"sum_hessian":[4.860136E7,3.9100524E7,9.500835E6,3.5490816E7,3.609709E6,4.071392E6,5.429443E6,1.3192093E7,2.2298724E7,1.950469E6,1.65924E6,3.1668E6,9.04592E5,5.200201E6,2.29242E5,7.881192E6,5.310901E6,1.3859091E7,8.439632E6,1.762234E6,1.88235E5,1.607579E6,5.1661E4,9.86206E5,2.180594E6,6.49441E5,2.55151E5,1.751368E6,3.448833E6,1.51357E5,7.7885E4,1.286998E6,6.594194E6,1.375999E6,3.934902E6,1.1528514E7,2.330577E6,3.441893E6,4.997739E6,9.9324E4,1.66291E6,3.3642E4,1.54593E5,1.32458E6,2.82999E5,2.9958E4,2.1703E4,7.68364E5,2.17842E5,2.091835E6,8.8759E4,6.06702E5,4.2739E4,2.02386E5,5.2765E4,1.418873E6,3.32495E5,9.5986E5,2.488973E6,8.468E4,6.6677E4,5.5729E4,2.2156E4,7.54576E5,5.32422E5,5.480879E6,1.113315E6,1.138997E6,2.37002E5,2.948144E6,9.86758E5,4.228058E6,7.300456E6,2.155301E6,1.75276E5,5.41315E5,2.900578E6,4.317959E6,6.7978E5,7.527E4,2.4054E4,1.61877E5,1.501033E6,1.801E3,3.1841E4,1.05985E5,4.8608E4,5.27167E5,7.97413E5,2.119E5,7.1099E4,2.3929E4,6.029E3,8.403E3,1.33E4,3.93456E5,3.74908E5,5.0236E4,1.67606E5,1.76829E6,3.23545E5,8.3191E4,5.568E3,2.45797E5,3.60905E5,3.389E4,8.849E3,8.5359E4,1.17027E5,1.357E4,3.9195E4,5.66421E5,8.52452E5,2.5715E4,3.0678E5,3.00729E5,6.59131E5,1.584147E6,9.04826E5,8.0818E4,3.862E3,4.4346E4,2.2331E4,4.4999E4,1.073E4,4.789E3,1.7367E4],"tree_param":{"num_deleted":"0","num_feature":"9","num_nodes":"127","size_leaf_vector":"1"}},{"base_weights":[-2.4724679E-5,3.5798836E-1,-7.845703E0,-5.899643E-1,3.473884E0,2.3406746E1,-1.0377183E1,-3.2885842E0,7.1699643E-1,5.019714E0,-3.0099783E0,6.440578E0,3.254758E1,4.1601877E0,-1.30444145E1,8.82468E0,-4.952816E0,2.778208E0,-1.9649333E0,5.921398E0,-1.6756032E0,-7.86325E0,-4.791261E-1,1.2448882E1,-6.4263897E0,3.6164272E1,4.6173253E0,8.2050905E0,-2.73551E1,-1.8682167E1,-8.185859E0,6.539839E0,2.26833E1,-1.4199258E0,-7.0652194E0,-1.2411303E1,3.932992E0,6.6259794E0,-2.6959794E0,-4.603712E0,6.666119E0,-1.4958932E-1,-1.51133795E1,-6.2910385E0,-3.601187E1,-1.6637018E1,4.71406E-1,6.09202E-1,1.7139412E1,-1.9602215E1,-4.0400996E0,2.2107134E1,4.1154194E1,-2.6745745E1,1.01535425E1,1.053397E1,-7.5773816E0,-9.718942E0,-5.237247E1,-1.64691E1,-4.5216286E1,-2.0785851E0,-2.4157707E1,3.631979E-1,3.3930566E0,5.3030343E0,1.0499109E1,1.7910271E0,-1.058699E0,-3.2043316E0,-1.0040259E0,1.9076952E0,-5.739083E0,-1.8313857E0,1.5583547E0,-2.873071E-1,4.2742963E0,2.382926E-1,-1.3265876E0,5.9602745E-2,-4.6755786E0,-9.18225E-1,2.2099915E0,6.8775576E-1,-2.2856278E0,-6.866219E0,-3.1696794E0,-7.5959287E0,-1.2619493E0,-4.0039754E0,-1.629005E1,-1.1169407E1,-1.1732819E0,3.7253053E0,-2.805956E-1,-2.9658384E0,4.149534E0,2.9098978E0,7.8278637E0,-1.7389486E0,-7.161881E0,-1.6682924E0,3.6878512E0,8.632712E0,-3.0652692E0,9.990337E0,1.640752E1,-8.889032E0,-1.8911027E0,5.254819E0,-2.873322E0,-5.8760357E0,3.505915E0,-3.1494055E-2,-8.963587E0,-1.0721676E1,7.531814E-1,-1.4205084E1,-3.32166E1,-2.6873107E0,-8.559978E0,-2.2130959E1,7.4892056E-1,-2.4434896E0,2.7446113E0,-1.1189652E1,-5.8580284E0],"categories":[],"categories_nodes":[],"categories_segments":[],"categories_sizes":[],"default_left":[0,0,0,0,0,0,0,0,0,0,0,0,0,0,0,0,0,0,0,0,0,0,0,0,0,0,0,0,0,0,0,0,0,0,0,0,0,0,0,0,0,0,0,0,0,0,0,0,0,0,0,0,0,0,0,0,0,0,0,0,0,0,0,0,0,0,0,0,0,0,0,0,0,0,0,0,0,0,0,0,0,0,0,0,0,0,0,0,0,0,0,0,0,0,0,0,0,0,0,0,0,0,0,0,0,0,0,0,0,0,0,0,0,0,0,0,0,0,0,0,0,0,0,0,0,0,0],"id":12,"left_children":[1,3,5,7,9,11,13,15,17,19,21,23,25,27,29,31,33,35,37,39,41,43,45,47,49,51,53,55,57,59,61,63,65,67,69,71,73,75,77,79,81,83,85,87,89,91,93,95,97,99,101,103,105,107,109,111,113,115,117,119,121,123,125,-1,-1,-1,-1,-1,-1,-1,-1,-1,-1,-1,-1,-1,-1,-1,-1,-1,-1,-1,-1,-1,-1,-1,-1,-1,-1,-1,-1,-1,-1,-1,-1,-1,-1,-1,-1,-1,-1,-1,-1,-1,-1,-1,-1,-1,-1,-1,-1,-1,-1,-1,-1,-1,-1,-1,-1,-1,-1,-1,-1,-1,-1,-1,-1],"loss_changes":[1.365142E8,1.3729008E8,1.67802E8,1.25695384E8,1.0867117E8,2.4647288E7,7.607798E7,2.3441597E8,1.32727624E8,5.2854176E7,2.5637938E7,4.302075E6,1.0432968E7,3.8775828E7,4.5411456E7,4.447648E7,7.629744E7,2.3813174E8,6.552877E7,6.0478816E7,2.1308454E7,3.1660256E7,2.1070234E7,2.1066305E6,5.5687275E5,6.4132E6,2.0564308E6,9.908622E6,1.5265364E7,4.506251E7,8.686123E7,3.06542E7,1.2255128E7,5.9625252E7,8.602506E7,1.2097109E8,1.5976296E8,4.729502E7,5.7926424E7,2.6889356E7,4.9100416E7,1.7021196E7,3.74628E6,2.6876008E7,1.5685972E7,1.9976246E7,2.1773822E7,1.4940531E6,1.809584E6,1.59998E5,3.726489E5,5.164671E6,7.172592E6,1.0458925E5,1.4624752E6,8.154522E6,5.776705E6,6.458213E6,4.187024E6,6.418741E7,8.048479E7,4.3873576E7,1.4988944E7,0E0,0E0,0E0,0E0,0E0,0E0,0E0,0E0,0E0,0E0,0E0,0E0,0E0,0E0,0E0,0E0,0E0,0E0,0E0,0E0,0E0,0E0,0E0,0E0,0E0,0E0,0E0,0E0,0E0,0E0,0E0,0E0,0E0,0E0,0E0,0E0,0E0,0E0,0E0,0E0,0E0,0E0,0E0,0E0,0E0,0E0,0E0,0E0,0E0,0E0,0E0,0E0,0E0,0E0,0E0,0E0,0E0,0E0,0E0,0E0,0E0,0E0,0E0,0E0],"parents":[2147483647,0,0,1,1,2,2,3,3,4,4,5,5,6,6,7,7,8,8,9,9,10,10,11,11,12,12,13,13,14,14,15,15,16,16,17,17,18,18,19,19,20,20,21,21,22,22,23,23,24,24,25,25,26,26,27,27,28,28,29,29,30,30,31,31,32,32,33,33,34,34,35,35,36,36,37,37,38,38,39,39,40,40,41,41,42,42,43,43,44,44,45,45,46,46,47,47,48,48,49,49,50,50,51,51,52,52,53,53,54,54,55,55,56,56,57,57,58,58,59,59,60,60,61,61,62,62],"right_children":[2,4,6,8,10,12,14,16,18,20,22,24,26,28,30,32,34,36,38,40,42,44,46,48,50,52,54,56,58,60,62,64,66,68,70,72,74,76,78,80,82,84,86,88,90,92,94,96,98,100,102,104,106,108,110,112,114,116,118,120,122,124,126,-1,-1,-1,-1,-1,-1,-1,-1,-1,-1,-1,-1,-1,-1,-1,-1,-1,-1,-1,-1,-1,-1,-1,-1,-1,-1,-1,-1,-1,-1,-1,-1,-1,-1,-1,-1,-1,-1,-1,-1,-1,-1,-1,-1,-1,-1,-1,-1,-1,-1,-1,-1,-1,-1,-1,-1,-1,-1,-1,-1,-1,-1,-1,-1],"split_conditions":[3.5E2,1E0,-1.05E1,1.14E2,4.86297E1,5E1,-1.167644E2,2.47E1,2.47E2,1.036E2,3E0,1.475111E2,1.500504E2,6.111E1,-8.82533E1,9.8E1,-1.032108E2,-1.42964E1,-4.717E0,2.4E1,6.2E2,3.31E2,4E0,1.135936E2,2E0,1.135936E2,2E0,1.1E1,-1.4565E2,1.2E1,3.2567E1,7.01E1,5.3544E0,4.785E2,6E0,1.49E2,-1.197669E2,-3.15389E1,1.66E2,1.7E1,-1.21285E2,1.95362E1,3E0,-1.41006E2,5.5617E1,-9.62869E1,9E0,1.7E1,-2.88353E1,-3.64289E1,3.7E1,2.755E1,-3.15389E1,3.64E2,1E1,-1.543333E2,4.804861E1,4E0,1.2E1,3.6E2,5.2E1,-5.35833E1,3E0,3.631979E-1,3.3930566E0,5.3030343E0,1.0499109E1,1.7910271E0,-1.058699E0,-3.2043316E0,-1.0040259E0,1.9076952E0,-5.739083E0,-1.8313857E0,1.5583547E0,-2.873071E-1,4.2742963E0,2.382926E-1,-1.3265876E0,5.9602745E-2,-4.6755786E0,-9.18225E-1,2.2099915E0,6.8775576E-1,-2.2856278E0,-6.866219E0,-3.1696794E0,-7.5959287E0,-1.2619493E0,-4.0039754E0,-1.629005E1,-1.1169407E1,-1.1732819E0,3.7253053E0,-2.805956E-1,-2.9658384E0,4.149534E0,2.9098978E0,7.8278637E0,-1.7389486E0,-7.161881E0,-1.6682924E0,3.6878512E0,8.632712E0,-3.0652692E0,9.990337E0,1.640752E1,-8.889032E0,-1.8911027E0,5.254819E0,-2.873322E0,-5.8760357E0,3.505915E0,-3.1494055E-2,-8.963587E0,-1.0721676E1,7.531814E-1,-1.4205084E1,-3.32166E1,-2.6873107E0,-8.559978E0,-2.2130959E1,7.4892056E-1,-2.4434896E0,2.7446113E0,-1.1189652E1,-5.8580284E0],"split_indices":[4,5,6,4,6,8,7,6,4,7,0,7,7,6,7,4,7,6,6,4,8,4,3,7,0,7,0,0,7,0,7,8,6,8,0,4,7,6,8,4,7,6,0,7,6,7,3,8,6,6,8,7,6,4,0,7,6,0,0,4,3,7,0,0,0,0,0,0,0,0,0,0,0,0,0,0,0,0,0,0,0,0,0,0,0,0,0,0,0,0,0,0,0,0,0,0,0,0,0,0,0,0,0,0,0,0,0,0,0,0,0,0,0,0,0,0,0,0,0,0,0,0,0,0,0,0,0],"split_type":[0,0,0,0,0,0,0,0,0,0,0,0,0,0,0,0,0,0,0,0,0,0,0,0,0,0,0,0,0,0,0,0,0,0,0,0,0,0,0,0,0,0,0,0,0,0,0,0,0,0,0,0,0,0,0,0,0,0,0,0,0,0,0,0,0,0,0,0,0,0,0,0,0,0,0,0,0,0,0,0,0,0,0,0,0,0,0,0,0,0,0,0,0,0,0,0,0,0,0,0,0,0,0,0,0,0,0,0,0,0,0,0,0,0,0,0,0,0,0,0,0,0,0,0,0,0,0],"sum_hessian":[4.860136E7,4.6480376E7,2.120986E6,3.563814E7,1.0842233E7,1.58928E5,1.962058E6,1.1628189E7,2.4009952E7,8.754949E6,2.087284E6,5.5646E4,1.03282E5,3.04178E5,1.65788E6,1.404609E6,1.022358E7,1.3576025E7,1.0433927E7,7.715829E6,1.03912E6,7.154E5,1.371884E6,3.7933E4,1.7713E4,9.1441E4,1.1841E4,2.69579E5,3.4599E4,7.67402E5,8.90478E5,1.205811E6,1.98798E5,3.825546E6,6.398034E6,9.59195E5,1.261683E7,8.18248E5,9.615679E6,5.09869E5,7.20596E6,9.33151E5,1.05969E5,6.77557E5,3.7843E4,7.622E4,1.295664E6,1.0764E4,2.7169E4,2.715E3,1.4998E4,2.3957E4,6.7484E4,1.776E3,1.0065E4,2.34915E5,3.4664E4,2.0294E4,1.4305E4,7.08326E5,5.9076E4,6.44165E5,2.46313E5,5.69546E5,6.36265E5,1.41336E5,5.7462E4,8.49381E5,2.976165E6,3.243759E6,3.154275E6,2.52844E5,7.06351E5,1.408641E6,1.1208189E7,4.10147E5,4.08101E5,3.181674E6,6.434005E6,3.54738E5,1.55131E5,4.84101E5,6.721859E6,7.03226E5,2.29925E5,3.911E4,6.6859E4,6.6895E4,6.10662E5,1.69E4,2.0943E4,2.911E4,4.711E4,1.36496E5,1.159168E6,6.001E3,4.763E3,1.484E4,1.2329E4,6.42E2,2.073E3,1.3721E4,1.277E3,1.986E4,4.097E3,4.2711E4,2.4773E4,1.556E3,2.2E2,7.33E3,2.735E3,8.656E3,2.26259E5,2.5965E4,8.699E3,6.488E3,1.3806E4,1.3173E4,1.132E3,4.36533E5,2.71793E5,3.6958E4,2.2118E4,4.18201E5,2.25964E5,6.4181E4,1.82132E5],"tree_param":{"num_deleted":"0","num_feature":"9","num_nodes":"127","size_leaf_vector":"1"}},{"base_weights":[-1.8474784E-5,2.3830804E-1,-9.863851E0,1.1822394E0,-2.6258037E0,-7.750128E0,-2.0012547E1,5.1958694E0,4.8579508E-1,-1.2790711E0,-1.2748207E1,-1.321316E1,-5.5651374E0,-2.836773E1,-1.0699942E1,-1.3796924E1,6.2386637E0,-1.4262381E0,3.3939703E0,-1.2856827E1,-2.9265013E-1,-3.5559666E1,-1.0867931E1,-3.0014006E1,-1.0633203E1,8.118484E0,-7.1949463E0,-3.222704E1,2.4197185E0,1.1026624E1,-2.2478209E1,-9.006716E0,-2.0717625E1,8.446893E0,5.769904E-1,1.5729415E-1,-8.528163E0,6.376454E0,-9.2405534E-1,-1.5684044E1,4.831427E0,1.968041E0,-4.4350176E0,-2.8306232E1,-5.3787872E1,-1.9245552E1,-8.469973E0,-2.0718279E1,-6.06912E1,-5.8326874E0,-2.6536385E1,1.9598827E1,-9.056239E0,-5.1263285E0,-1.3292982E1,-2.8586044E1,-5.158466E1,-2.8898556E1,1.9526367E1,-3.501638E1,1.8804895E1,-3.0229448E1,-4.2531724E0,-3.3277583E-1,-5.537799E0,-7.553531E0,-4.0121052E-1,1.8074635E0,6.820518E0,1.0741366E0,-2.0100589E0,1.4345047E0,-3.7824613E-1,-2.08001E0,-8.807692E0,3.3407042E0,3.388135E-1,7.1626836E-1,-2.2369134E0,-2.907777E0,-7.943428E0,-6.1289954E-1,3.517503E0,-8.376005E-1,1.2666512E0,4.0407947E-1,-2.4022334E0,-5.13191E0,-9.936234E0,-1.4044231E1,-2.0667423E1,-1.3596783E0,-7.250486E0,-5.8066587E0,-1.8453109E0,-7.5524125E0,5.516681E0,-2.268671E1,1.1645193E0,4.6179712E-1,-6.543038E0,-1.1342071E1,-6.1160045E0,1.0995199E1,3.4206407E0,4.582494E-1,-4.248359E0,1.0232749E0,-2.6471086E0,-6.1056657E0,-2.3739023E0,-6.6459064E0,-1.2476152E1,-8.546182E-1,-1.7948288E1,-1.243047E1,-6.0297513E0,1.892269E1,7.423085E-1,5.5755696E0,-1.2708318E1,-4.8008523E0,7.76393E0,4.4477537E-1,-1.164708E1,-2.710267E0,3.2350066E0],"categories":[],"categories_nodes":[],"categories_segments":[],"categories_sizes":[],"default_left":[0,0,0,0,0,0,0,0,0,0,0,0,0,0,0,0,0,0,0,0,0,0,0,0,0,0,0,0,0,0,0,0,0,0,0,0,0,0,0,0,0,0,0,0,0,0,0,0,0,0,0,0,0,0,0,0,0,0,0,0,0,0,0,0,0,0,0,0,0,0,0,0,0,0,0,0,0,0,0,0,0,0,0,0,0,0,0,0,0,0,0,0,0,0,0,0,0,0,0,0,0,0,0,0,0,0,0,0,0,0,0,0,0,0,0,0,0,0,0,0,0,0,0,0,0,0,0],"id":13,"left_children":[1,3,5,7,9,11,13,15,17,19,21,23,25,27,29,31,33,35,37,39,41,43,45,47,49,51,53,55,57,59,61,63,65,67,69,71,73,75,77,79,81,83,85,87,89,91,93,95,97,99,101,103,105,107,109,111,113,115,117,119,121,123,125,-1,-1,-1,-1,-1,-1,-1,-1,-1,-1,-1,-1,-1,-1,-1,-1,-1,-1,-1,-1,-1,-1,-1,-1,-1,-1,-1,-1,-1,-1,-1,-1,-1,-1,-1,-1,-1,-1,-1,-1,-1,-1,-1,-1,-1,-1,-1,-1,-1,-1,-1,-1,-1,-1,-1,-1,-1,-1,-1,-1,-1,-1,-1,-1],"loss_changes":[1.14252696E8,1.2829517E8,2.4595864E7,9.976811E7,1.6035536E8,1.1327184E7,1.5377856E7,1.0452368E8,1.6911947E8,1.1856544E8,5.9243536E7,1.1750936E7,1.5117032E7,1.2377968E7,2.3918572E7,9.10582E6,6.2546384E7,2.0636469E8,1.553712E8,4.0760976E7,8.95884E7,1.3905208E7,2.5634848E7,1.0290128E7,1.7942012E7,1.4224736E7,7.640512E6,6.523008E6,6.217952E6,1.1768257E7,8.562042E6,1.2117887E7,9.713076E6,1.2454941E8,3.0681384E7,